%YAML:1.0
opencv_ml_svm:
   svmType: EPS_SVR
   kernel:
      type: LINEAR
   C: 1.0000000000000000e-02
   p: 1.0000000000000001e-01
   term_criteria: { epsilon:1.0000000000000000e-03, iterations:1000 }
   var_count: 7524
   sv_total: 1
   support_vectors:
      - [ 8.19014311e-02, -6.21252693e-02, -7.34246522e-02,
          -4.91636507e-02, 1.79823171e-02, -7.81092867e-02,
          -1.29345432e-01, -8.60385597e-02, 1.03983082e-01,
          4.36466299e-02, -7.36797899e-02, -1.03691228e-01,
          -5.48928641e-02, -2.19396614e-02, -7.12185875e-02,
          -1.28615201e-01, -9.49118286e-02, 5.31338267e-02,
          1.31870896e-01, -7.30728060e-02, -8.93430337e-02,
          -4.42439616e-02, 1.69679821e-02, -6.42721653e-02,
          -1.14323415e-01, -1.02954276e-01, 1.51042834e-01,
          1.08792968e-01, -5.63408956e-02, -8.31527188e-02,
          -3.25167701e-02, -2.55810395e-02, -5.65259047e-02,
          -1.24182977e-01, -9.76443514e-02, 1.00174613e-01,
          4.33319472e-02, -6.10020682e-02, -9.49743763e-02,
          -4.15124893e-02, 2.56268624e-02, -3.25965881e-02,
          -9.06138644e-02, -8.76422748e-02, 4.82744798e-02,
          3.10412925e-02, -5.48515655e-02, -8.67442265e-02,
          -3.55886780e-02, 3.01200077e-02, -2.61675548e-02,
          -6.36974573e-02, -5.93884550e-02, 5.76002933e-02,
          7.17521384e-02, -4.41627167e-02, -7.05019385e-02,
          -2.80292165e-02, 1.55661451e-02, -3.51020657e-02,
          -9.19551775e-02, -8.48624557e-02, 7.45597631e-02,
          7.65139014e-02, -3.95634174e-02, -6.26142472e-02,
          -2.39673574e-02, 7.33858394e-03, -4.17145975e-02,
          -8.56736824e-02, -6.89644888e-02, 6.26923740e-02,
          2.91315746e-02, -4.13199291e-02, -5.55559956e-02,
          -3.85739431e-02, 1.39924325e-02, -3.81055661e-02,
          -6.45711422e-02, -7.49220476e-02, 4.09739204e-02,
          3.67598310e-02, -3.31137143e-02, -1.88269466e-02,
          -3.72566655e-03, 4.04035151e-02, -2.38064770e-02,
          -8.51658806e-02, -8.60951394e-02, 3.24857160e-02,
          5.63375577e-02, -3.72359343e-02, -5.92552125e-02,
          -3.71770263e-02, 1.59030184e-02, -3.40157524e-02,
          -5.60060181e-02, -5.12168668e-02, 3.28411423e-02,
          5.09374440e-02, -3.40776257e-02, -2.79643368e-02,
          8.60650837e-03, 4.23262976e-02, -1.06304986e-02,
          -3.15251797e-02, -2.84950808e-02, 6.15247674e-02,
          1.91785686e-03, -1.59365144e-02, -1.83518287e-02,
          -6.70550740e-04, 8.69040936e-03, -1.19096972e-02,
          -6.99705556e-02, -6.58846572e-02, 7.04931677e-04,
          1.67823788e-02, 2.43184976e-02, 1.14479037e-02, 2.10914779e-02,
          4.09465320e-02, 1.46201506e-04, -1.87097117e-02,
          -2.54108962e-02, 6.90704770e-03, 1.59263555e-02,
          -2.72776522e-02, -3.79794016e-02, -4.55889897e-03,
          -1.82638562e-03, -3.70279816e-03, -3.40224616e-02,
          -5.20615354e-02, 1.22469589e-02, 1.66493878e-02,
          3.36827897e-02, 1.93376914e-02, 4.82144766e-02, 2.54626367e-02,
          2.20206678e-02, -6.44210028e-04, -3.50386016e-02,
          -2.50798352e-02, -1.53603647e-02, 1.18258679e-02,
          1.26579532e-03, 1.20891081e-02, 3.69189903e-02, 5.72799658e-03,
          -1.75225604e-02, -1.80199835e-02, -2.91395877e-02,
          -3.95966209e-02, -8.76183901e-03, -1.36496499e-02,
          4.04004566e-03, 3.76948863e-02, -2.30829348e-03,
          -2.64386218e-02, -9.09006782e-03, -2.22259033e-02,
          -2.39966400e-02, 2.52004340e-02, 2.96821464e-02,
          4.34743501e-02, 1.96918324e-02, 2.87818480e-02, 5.14344312e-03,
          -3.16264331e-02, -4.36851233e-02, -5.40377721e-02,
          -5.10235876e-03, 4.53114416e-03, 1.45789124e-02,
          -4.24640300e-03, 3.60625349e-02, -2.17408407e-03,
          1.96424662e-03, -3.58838364e-02, -3.10448813e-03,
          1.15480293e-02, 2.67298706e-03, -7.08403625e-03,
          3.58592905e-02, 1.12710567e-03, -2.10516043e-02,
          1.71128884e-02, 1.56145357e-02, -2.34565120e-02,
          8.77158623e-03, -1.26754744e-02, -6.37257770e-02,
          -2.55006156e-03, -2.36359593e-02, -5.48768602e-02,
          -2.80598737e-02, -1.58055034e-02, -3.98908043e-03,
          1.86866447e-02, 1.11435503e-02, -7.42446957e-03,
          1.20093217e-02, 2.67489739e-02, 1.09313941e-03, 3.39966230e-02,
          5.83308470e-03, -2.31704917e-02, 1.79013927e-02,
          -3.16371061e-02, -6.79006651e-02, -1.36844935e-02,
          -6.13212585e-03, -5.24257571e-02, 6.66362233e-04,
          -3.27328928e-02, 9.48536501e-04, 4.56736647e-02,
          1.04337195e-02, -1.59356128e-02, 5.83760180e-02,
          -3.58257414e-04, -5.01722358e-02, -3.49518564e-03,
          6.59411540e-03, 8.65187217e-03, 3.58415246e-02,
          -1.27373794e-02, -8.29715505e-02, -5.87679632e-02,
          -7.12234452e-02, -6.47843629e-02, 5.61934939e-05,
          2.05765180e-02, 7.68691488e-03, 5.16538732e-02, 1.82264147e-03,
          -4.09975722e-02, 3.00252587e-02, 1.84457302e-02,
          -4.91140559e-02, 8.34160391e-03, -2.98125844e-04,
          1.26869846e-02, 1.46460738e-02, -4.68585901e-02,
          -1.16368361e-01, -9.82769132e-02, -7.98033625e-02,
          -5.22955135e-02, 1.26311963e-03, 1.72725972e-02,
          4.19114642e-02, 3.64359617e-02, -2.38043852e-02,
          -9.03477371e-02, -1.71859525e-02, -7.62711093e-02,
          -4.01479527e-02, 2.50537768e-02, 7.27402270e-02,
          6.38436154e-02, 2.32194718e-02, -5.07361740e-02,
          -1.00847296e-01, -4.31421176e-02, -8.89534578e-02,
          -8.49387795e-02, 6.84675900e-03, 7.15012774e-02,
          2.91789230e-02, 1.88421756e-02, -4.52834517e-02,
          -1.00990459e-01, -6.42598420e-02, -8.28863457e-02,
          -5.44153228e-02, 2.85520274e-02, 6.61487356e-02,
          2.01343670e-02, -1.68633517e-02, -6.55452609e-02,
          -1.01563655e-01, -8.15808848e-02, -9.96490642e-02,
          -9.43001211e-02, 6.67618494e-03, 3.66027877e-02,
          5.09340987e-02, 1.57949571e-02, -4.44561988e-02,
          -7.36794323e-02, 3.17232758e-02, -5.64409047e-02,
          -8.98710042e-02, -2.98648933e-03, 5.37543632e-02,
          -2.31614988e-02, -1.98580027e-02, -9.53797400e-02,
          -8.72283876e-02, 3.49409431e-02, -8.59343484e-02,
          -9.75947753e-02, 1.66730722e-03, -3.45872086e-03,
          2.65899096e-02, -2.64073964e-02, -7.73946792e-02,
          -9.22065005e-02, 6.98222872e-03, -5.16581163e-02,
          -6.10064045e-02, 3.26262414e-02, 5.67904003e-02,
          -1.41586196e-02, -5.81723973e-02, -1.21754833e-01,
          -1.11003041e-01, -2.26676483e-02, -1.11249849e-01,
          -9.50147584e-02, 1.28803812e-02, 1.51448622e-02,
          -2.39328388e-02, -1.30295251e-02, -7.70885870e-02,
          -7.18064308e-02, 8.75690877e-02, -4.66398410e-02,
          -8.59669447e-02, -2.53371764e-02, 6.41983142e-03,
          -1.95013639e-02, -3.45737487e-02, -1.19527861e-01,
          -1.06185153e-01, 4.99161780e-02, -5.18407859e-02,
          -1.14453390e-01, -5.95671758e-02, -8.13167822e-03,
          -2.77032722e-02, -5.18671013e-02, -8.49197805e-02,
          -7.84009546e-02, 2.09437087e-02, -8.16954896e-02,
          -7.40052685e-02, 5.50111337e-03, 1.58368349e-02,
          -4.20744866e-02, -3.76932286e-02, -8.86572897e-02,
          -1.10165969e-01, -1.04055358e-02, -8.99408460e-02,
          -1.09499030e-01, -5.76411635e-02, 1.71635170e-02,
          -5.52506244e-04, -4.64599431e-02, -1.03606723e-01,
          -8.75870362e-02, 7.47058839e-02, -2.54015401e-02,
          -8.36927146e-02, -3.43873687e-02, 7.46522611e-03,
          -2.81805079e-02, -9.72364321e-02, -1.33600175e-01,
          -1.25176325e-01, 9.50885937e-03, -1.16669476e-01,
          -1.35603681e-01, -4.60882410e-02, -3.55590545e-02,
          -3.55832744e-03, -2.13684961e-02, -8.27696845e-02,
          -1.02358423e-01, 1.77424885e-02, -4.90549579e-02,
          -9.74140540e-02, -4.01887335e-02, 1.71400011e-02,
          -1.20041799e-02, -5.03530651e-02, -1.35101676e-01,
          -1.19927548e-01, -3.17256935e-02, -1.08616799e-01,
          -1.62614003e-01, -5.15517294e-02, 4.26194537e-03,
          -2.17928691e-03, -7.53815100e-02, -1.08764626e-01,
          -7.69507065e-02, 4.60189916e-02, -8.79332125e-02,
          -1.23199239e-01, -5.78820072e-02, -1.02138135e-03,
          6.04694150e-03, -6.99037910e-02, -1.32956207e-01,
          -8.61901641e-02, 1.99699476e-02, -1.23832323e-01,
          -1.49494663e-01, -9.50093716e-02, -1.34119531e-02,
          2.00540461e-02, -3.31266932e-02, -1.17008559e-01,
          -8.72471184e-02, 1.07610105e-02, -7.44010061e-02,
          -1.19754061e-01, -3.32322605e-02, 4.91431579e-02,
          1.70477629e-02, -4.61235903e-02, -1.26591861e-01,
          -1.21819749e-01, 3.79887153e-03, -1.00160308e-01,
          -1.24162778e-01, -4.12601642e-02, 1.76430475e-02,
          -1.13579305e-02, -5.04812337e-02, -1.08925886e-01,
          -8.24118257e-02, 4.22406383e-02, -1.09240457e-01,
          -1.31658047e-01, -8.68109688e-02, -2.41112914e-02,
          -5.68842739e-02, -6.13211356e-02, -1.00694671e-01,
          -4.43698652e-02, 9.06141624e-02, -8.45093876e-02,
          -1.48160428e-01, -1.06915459e-01, -6.40203431e-02,
          3.01072020e-02, -3.16675976e-02, -1.08262479e-01,
          -9.36976373e-02, -2.63474241e-04, -1.04566261e-01,
          -1.07805178e-01, -3.59164737e-02, 1.96418222e-02,
          -1.12690055e-03, -4.42219451e-02, -1.08688898e-01,
          -5.86757585e-02, 4.61826622e-02, -1.00271381e-01,
          -1.13725252e-01, -5.23593687e-02, 1.91880041e-03,
          -8.29503015e-02, -6.10377192e-02, -9.29572359e-02,
          -3.78890149e-02, 1.03027999e-01, -7.29807094e-02,
          -1.50639653e-01, -1.19872376e-01, -7.36924559e-02,
          -9.12368521e-02, -7.49272034e-02, -8.29994082e-02,
          -4.94421460e-02, 1.09694771e-01, -6.15842119e-02,
          -1.48644388e-01, -1.28108397e-01, -7.31417164e-02,
          -3.31290476e-02, -5.87972626e-02, -1.10958159e-01,
          -5.59749678e-02, 7.33441859e-02, -9.27780047e-02,
          -1.43068701e-01, -8.98056775e-02, -3.44060808e-02,
          -2.73481999e-02, -6.65960088e-02, -9.64540243e-02,
          -5.65339550e-02, 1.05120495e-01, -3.91618386e-02,
          -1.47831887e-01, -9.84090343e-02, -4.10102904e-02,
          -9.57964659e-02, -6.00329898e-02, -6.52137473e-02,
          -3.29116620e-02, 1.77521199e-01, -5.87693043e-02,
          -1.37825251e-01, -9.48878229e-02, -7.90162608e-02,
          -1.79372892e-01, -9.81047601e-02, -9.84030813e-02,
          -3.58098187e-02, 1.88815758e-01, -4.26362902e-02,
          -1.53233483e-01, -1.02620728e-01, -1.49429053e-01,
          -5.65755181e-02, -6.04509301e-02, -7.54643381e-02,
          -4.22916003e-02, 1.67908609e-01, -1.24917608e-02,
          -1.21944919e-01, -6.22879341e-02, -6.04521595e-02,
          -1.59917682e-01, -1.14091791e-01, -1.26069874e-01,
          -1.07631674e-02, 2.26622626e-01, 6.57733390e-03,
          -1.20271198e-01, -6.85739070e-02, -1.35536239e-01,
          -1.70461386e-01, -1.05472431e-01, -7.76469857e-02,
          4.52561043e-02, 3.00717711e-01, 2.25363541e-02,
          -1.42942861e-01, -1.06961489e-01, -1.35984525e-01,
          -1.67083159e-01, -1.85721904e-01, -1.45025492e-01,
          -4.99145128e-02, 1.51836008e-01, -9.35542658e-02,
          -2.07884118e-01, -1.90145597e-01, -1.54603839e-01,
          -1.60853401e-01, -1.02427006e-01, -1.00559033e-01,
          9.72025692e-02, 3.30156386e-01, 7.26792887e-02,
          -1.02096811e-01, -7.86760822e-02, -1.23639561e-01,
          -1.90473080e-01, -1.96380854e-01, -1.74746752e-01,
          -1.96885336e-02, 1.69707164e-01, -7.75157809e-02,
          -2.07342952e-01, -1.83437437e-01, -1.61940128e-01,
          -8.77195001e-02, -1.49424806e-01, -1.12170137e-01,
          -5.92281809e-03, 1.92006707e-01, -2.21231915e-02,
          -1.50568321e-01, -1.43032417e-01, -6.93485215e-02,
          -9.21083987e-02, -1.82565331e-01, -1.56013876e-01,
          -9.53259021e-02, 7.57200941e-02, -1.05524704e-01,
          -1.65371224e-01, -1.34402275e-01, -5.63967414e-02,
          -7.85187557e-02, -1.67686924e-01, -1.42305031e-01,
          1.02365976e-02, 2.01037377e-01, -1.97663400e-02,
          -1.66011453e-01, -1.65697008e-01, -6.85353279e-02,
          -8.41222033e-02, -1.90485835e-01, -1.74669728e-01,
          -8.21077004e-02, 9.47575420e-02, -1.17228083e-01,
          -1.91566423e-01, -1.93394467e-01, -6.36831075e-02,
          -5.10794371e-02, -1.77095056e-01, -1.53326318e-01,
          -8.72742906e-02, 6.97058290e-02, -7.16991201e-02,
          -1.19838946e-01, -1.11607939e-01, -8.85995198e-03,
          -2.56436337e-02, -1.95800662e-01, -1.92267284e-01,
          -1.44485623e-01, 1.24675892e-02, -9.21294168e-02,
          -1.36795029e-01, -1.54710859e-01, 1.40533019e-02,
          -6.38751872e-03, -1.60185844e-01, -1.36104032e-01,
          -7.45059848e-02, 8.62505361e-02, -7.22219795e-02,
          -1.57215431e-01, -1.53871432e-01, 5.93505283e-05,
          2.30022836e-02, -1.90798938e-01, -1.78882167e-01,
          -1.36386991e-01, 4.19791713e-02, -9.78815332e-02,
          -1.83106571e-01, -1.70395896e-01, 2.85657495e-02,
          1.60311703e-02, -1.66449353e-01, -1.78470835e-01,
          -1.42089784e-01, 1.27088828e-02, -1.04227573e-01,
          -1.56462520e-01, -1.40465572e-01, 4.80886884e-02,
          8.08798224e-02, -1.87463552e-01, -2.08798870e-01,
          -1.89596429e-01, -6.17653430e-02, -1.66332021e-01,
          -1.75128892e-01, -1.59582853e-01, 9.01449919e-02,
          7.94473663e-02, -1.58899456e-01, -1.86039120e-01,
          -1.41291648e-01, 2.90907267e-02, -1.22134060e-01,
          -1.63016811e-01, -1.46835238e-01, 8.43907595e-02,
          1.19883791e-01, -1.83892131e-01, -2.30811045e-01,
          -2.16611192e-01, -5.96315674e-02, -1.88945174e-01,
          -1.84945256e-01, -1.71122104e-01, 1.21527061e-01,
          1.15576014e-01, -8.22143704e-02, -8.25949460e-02,
          -2.79166698e-02, 8.06232356e-03, -4.37161401e-02,
          -1.03229702e-01, -8.93914402e-02, 1.43384099e-01,
          9.85212401e-02, -3.79333496e-02, -5.14605753e-02,
          -2.92725936e-02, -2.16802768e-02, -7.03050718e-02,
          -1.18015021e-01, -6.25687763e-02, 1.15789846e-01,
          1.03113607e-01, -1.01569071e-01, -9.18459073e-02,
          -1.87988728e-02, 7.48065347e-03, -4.07902934e-02,
          -1.10149607e-01, -7.61942789e-02, 1.27269477e-01,
          1.02062739e-01, -5.28084487e-02, -6.84834197e-02,
          -4.36084829e-02, -2.53480989e-02, -7.33648166e-02,
          -1.17520064e-01, -4.95350808e-02, 1.39320597e-01,
          8.27568695e-02, -2.16396563e-02, -3.37157920e-02,
          -2.42840294e-02, -9.75836720e-03, -4.32335660e-02,
          -8.02480951e-02, -4.93298545e-02, 9.05561298e-02,
          9.32256505e-02, -2.94259656e-02, -5.65780029e-02,
          -2.21006237e-02, -4.63898182e-02, -5.04421592e-02,
          -6.90393895e-02, -5.14342748e-02, 7.56692588e-02,
          1.15354188e-01, -1.41509864e-02, -4.43028249e-02,
          -4.26464491e-02, -4.85316664e-03, -5.82689792e-02,
          -7.47304410e-02, -3.95968519e-02, 1.30195007e-01,
          1.13766760e-01, -1.95965972e-02, -5.45314550e-02,
          -5.49143255e-02, -9.14034992e-02, -7.75469914e-02,
          -6.85574189e-02, -2.80371811e-02, 1.19126044e-01,
          5.05331308e-02, -4.59905379e-02, -5.78053668e-02,
          -3.82729582e-02, -2.25546155e-02, -4.08213846e-02,
          -4.17962521e-02, -2.85290293e-02, 4.15330939e-02,
          6.00355230e-02, -1.60662197e-02, -3.00701391e-02,
          6.45914348e-03, 7.13956775e-03, -1.18786618e-02,
          -1.36966296e-02, -6.50740648e-03, 6.63130060e-02,
          8.44074637e-02, -1.68089047e-02, -4.54317406e-02,
          -4.62042093e-02, -6.59180358e-02, -7.73663968e-02,
          -6.16916865e-02, -3.58576290e-02, 8.48099142e-02,
          9.17683989e-02, 4.73193638e-03, -3.04094534e-02,
          -1.19332355e-02, -9.43710934e-03, -1.61345198e-03,
          -4.02366668e-02, -1.48195645e-03, 8.40631276e-02,
          3.19631249e-02, -1.78710446e-02, -4.39996682e-02,
          -2.30934210e-02, -1.91534087e-02, -1.30204735e-02,
          -3.25093307e-02, -3.61023508e-02, 3.98407057e-02,
          3.40647362e-02, 2.91783251e-02, -8.82928353e-03,
          1.42773511e-02, -5.64813986e-03, 5.53211255e-04,
          -3.44791566e-03, -3.55638713e-02, 8.74484889e-03,
          5.36061898e-02, -1.32203903e-02, -3.33418399e-02,
          -2.96384152e-02, -5.29206544e-02, -8.90521405e-05,
          -3.28648426e-02, -1.23057503e-03, 5.61801009e-02,
          6.49594665e-02, 1.27980169e-02, -1.02491686e-02,
          -6.47189235e-03, -6.55374601e-02, -2.69549550e-04,
          8.85715149e-03, -5.82125084e-03, 5.51445112e-02,
          8.68684519e-03, 2.83371527e-02, 6.40647765e-03, 1.68495197e-02,
          -6.99804164e-04, 2.04688180e-02, -1.28012020e-02,
          -3.95530090e-02, -4.87531442e-03, 1.52831674e-02,
          2.72374824e-02, 9.79220960e-03, -5.23852883e-04,
          -4.29769941e-02, 1.70146748e-02, -8.04010546e-04,
          -7.78409932e-03, 9.41322185e-03, 3.81924994e-02,
          3.40154804e-02, -8.10792483e-03, 9.57469747e-04,
          -3.61924507e-02, 9.35553946e-03, 4.68201376e-03,
          -6.65275101e-03, 2.08111145e-02, 3.52633484e-02,
          6.85217008e-02, 9.35656484e-03, -8.34389869e-03,
          -6.64488524e-02, 1.96071081e-02, 3.68409865e-02,
          7.17529794e-03, 2.74070222e-02, 7.85141159e-03, 3.15587111e-02,
          1.21702841e-02, -7.73347495e-03, -4.16385829e-02,
          1.12299370e-02, 1.69897899e-02, 1.89895090e-02,
          -2.12374586e-03, -6.55111112e-03, 2.33468805e-02,
          -2.41273250e-02, -4.81862128e-02, -7.92655200e-02,
          -3.14677544e-02, -2.71048639e-02, 1.07621336e-02,
          -3.84152196e-02, 5.41330166e-02, 1.07262172e-01,
          4.16055322e-02, 1.10189570e-02, -4.20509055e-02,
          2.21802108e-02, 3.40622850e-02, 2.62271315e-02, 2.24882755e-02,
          2.14112960e-02, 8.11178610e-02, -3.45059973e-03,
          -3.97932306e-02, -1.08371995e-01, -3.13389190e-02,
          -3.89300729e-03, 4.89210971e-02, 5.20749716e-03,
          2.55402625e-02, 4.32865433e-02, 9.15574841e-03,
          -7.87071139e-03, -1.43463612e-02, -4.59672697e-03,
          -2.99280696e-02, 2.11725961e-02, 1.94403566e-02,
          1.97020452e-02, 5.17089479e-03, -6.43566176e-02,
          -9.85162333e-02, -1.16559952e-01, -8.45061019e-02,
          -4.31540646e-02, 4.11291188e-03, 2.97976453e-02,
          6.84901625e-02, 7.98515379e-02, 1.24003310e-02, 2.98041990e-03,
          -4.91432473e-02, -6.85302075e-03, 2.34099552e-02,
          9.60327610e-02, 8.67683664e-02, 3.85150500e-02, 2.14547683e-02,
          -5.82018197e-02, -8.32674131e-02, -1.58863425e-01,
          -1.15831204e-01, -4.98334244e-02, 5.74835278e-02,
          7.04151765e-02, 3.92968953e-02, 2.29139114e-03,
          -6.05045110e-02, -7.73984641e-02, -7.43857995e-02,
          -5.60721643e-02, -4.34187502e-02, 3.72332186e-02,
          8.23188722e-02, 3.46008465e-02, -2.51478646e-02,
          -8.87126476e-02, -8.79808962e-02, -8.57993588e-02,
          -7.05264136e-02, -7.16980547e-02, 1.99922044e-02,
          6.63140044e-02, 1.06241830e-01, 3.36337239e-02,
          -3.68278138e-02, -6.25724941e-02, -7.55812302e-02,
          -7.54565969e-02, -3.59629318e-02, 5.10656610e-02,
          1.11067556e-01, 8.53100345e-02, 1.57363787e-02,
          -6.27432019e-02, -8.04226696e-02, -7.57539049e-02,
          -6.61666393e-02, -7.04541504e-02, 2.73151696e-02,
          8.35016593e-02, 3.70985158e-02, -2.21519936e-02,
          -8.77412483e-02, -8.25670809e-02, -2.05464717e-02,
          -3.79048511e-02, -5.97698912e-02, 1.70903467e-02,
          6.48477897e-02, 2.46131569e-02, -3.75410207e-02,
          -9.75823179e-02, -1.00563683e-01, -4.53375280e-02,
          -1.09870717e-01, -1.17290549e-01, -1.33287045e-03,
          4.31600623e-02, 7.89210796e-02, 6.74525835e-03,
          -6.90153614e-02, -6.12177104e-02, -3.34070474e-02,
          -2.88101379e-02, -5.61272688e-02, 3.69676277e-02,
          9.54417810e-02, 3.89809906e-02, -1.69649124e-02,
          -8.09060261e-02, -8.83604214e-02, -6.52833432e-02,
          -1.03737704e-01, -9.92059484e-02, 1.02352496e-04,
          5.57827652e-02, 1.12691354e-02, -2.34957691e-02,
          -5.14643565e-02, -6.20950051e-02, 3.34266480e-03,
          -8.02957416e-02, -7.75422677e-02, 2.32529379e-02,
          4.65768762e-02, -2.03474965e-02, -2.99459863e-02,
          -5.79009205e-02, -8.59268382e-02, -3.35718244e-02,
          -9.63714123e-02, -9.77248996e-02, -3.80038768e-02,
          1.43914819e-02, 4.49369997e-02, 1.55460965e-02,
          -3.19344141e-02, -4.45824787e-02, -8.74970295e-03,
          -9.25037786e-02, -8.65269154e-02, 1.12690041e-02,
          6.67306557e-02, 1.62012856e-02, -1.09805707e-02,
          -4.54583205e-02, -7.82843158e-02, -5.03750145e-02,
          -1.34176075e-01, -1.28159672e-01, -2.88283192e-02,
          1.98703092e-02, 1.17921773e-02, -5.16021671e-03,
          -4.85313199e-02, -4.52018194e-02, 2.01656409e-02,
          -5.93439005e-02, -8.00082013e-02, -3.99444513e-02,
          1.90777984e-02, -1.67530067e-02, -3.30995210e-02,
          -1.01019092e-01, -8.94819871e-02, -3.52767669e-02,
          -9.40696448e-02, -1.18894815e-01, -4.13510427e-02,
          6.26865309e-03, 3.94616611e-02, -2.64658430e-03,
          -4.50916663e-02, -4.68287356e-02, -3.54844937e-03,
          -1.03733495e-01, -1.10367879e-01, -2.27455162e-02,
          2.75755767e-02, 3.42136342e-03, -4.91599515e-02,
          -9.40900370e-02, -7.46130049e-02, -4.54645604e-02,
          -1.32512331e-01, -1.37331814e-01, -5.84465079e-02,
          6.24761591e-03, 3.40096350e-03, -1.75475366e-02,
          -9.36789215e-02, -8.18705037e-02, -2.72195749e-02,
          -7.03921616e-02, -1.05186164e-01, -2.35485770e-02,
          4.16259691e-02, 1.61272865e-02, -2.97084246e-02,
          -1.18986435e-01, -1.08419001e-01, -2.34847441e-02,
          -9.80259627e-02, -1.11301340e-01, -2.78228205e-02,
          3.71905491e-02, 2.46412009e-02, -2.84358505e-02,
          -1.03869766e-01, -7.87993520e-02, -4.16845940e-02,
          -9.28725377e-02, -1.23563960e-01, -4.06402387e-02,
          2.06102468e-02, 4.71226163e-02, -2.82280259e-02,
          -1.35142744e-01, -1.11671798e-01, -4.18490581e-02,
          -1.34917274e-01, -1.51989892e-01, -2.59412285e-02,
          6.54127970e-02, 1.87150408e-02, -3.68577205e-02,
          -1.03790313e-01, -9.11827460e-02, -3.85220014e-02,
          -9.16995779e-02, -1.01403825e-01, -1.94418244e-02,
          4.66697812e-02, 2.53748964e-03, -3.77147011e-02,
          -8.99844691e-02, -7.73522034e-02, -1.90212168e-02,
          -9.32424888e-02, -9.55022573e-02, -3.09687816e-02,
          1.07998112e-02, 4.75920066e-02, -3.65123488e-02,
          -1.26685455e-01, -1.05956711e-01, -4.55489792e-02,
          -1.25877291e-01, -1.33326277e-01, -2.46464629e-02,
          5.93297444e-02, 3.00002526e-02, -2.68946383e-02,
          -1.00229628e-01, -8.59742835e-02, -3.67719680e-02,
          -8.63585919e-02, -1.20489687e-01, -4.17115018e-02,
          3.19593064e-02, -3.57340164e-02, -5.53468764e-02,
          -9.59279612e-02, -7.44315386e-02, 6.89475052e-03,
          -9.26093385e-02, -1.13643356e-01, -6.24991395e-02,
          -2.03600135e-02, -4.50262539e-02, -6.60702214e-02,
          -1.17223345e-01, -4.48120385e-02, 8.53575617e-02,
          -2.93941852e-02, -1.18912473e-01, -8.03242028e-02,
          -4.71846685e-02, -1.12826303e-02, -5.25183342e-02,
          -9.43858698e-02, -7.37754256e-02, -2.92790006e-03,
          -9.08134654e-02, -1.35237634e-01, -4.81267907e-02,
          -5.97507088e-03, -4.75788862e-02, -6.29206449e-02,
          -1.08914152e-01, -2.29115505e-02, 8.12792704e-02,
          -1.84188969e-02, -1.03116162e-01, -5.84075116e-02,
          -3.18933986e-02, -6.81516454e-02, -6.25453070e-02,
          -1.10033020e-01, -3.61727327e-02, 1.60407200e-01,
          -9.03364178e-03, -9.97990221e-02, -5.91547415e-02,
          -5.22787310e-02, -1.45253912e-01, -1.14667490e-01,
          -1.34249881e-01, -1.69115458e-02, 2.01274112e-01,
          -2.02235151e-02, -1.08540289e-01, -7.29017705e-02,
          -1.36787921e-01, -8.39704275e-02, -7.62283579e-02,
          -1.27457321e-01, -2.43071765e-02, 1.53896585e-01,
          8.38969368e-03, -8.22633281e-02, -5.71920015e-02,
          -7.63904154e-02, -1.58316791e-01, -1.47228733e-01,
          -1.47839800e-01, -3.03468690e-03, 1.93772420e-01,
          1.07544437e-02, -1.10093340e-01, -7.89617226e-02,
          -1.63442463e-01, -1.34934574e-01, -8.65212977e-02,
          -9.07900408e-02, 7.04739690e-02, 2.96946615e-01,
          2.37918869e-02, -1.05334036e-01, -8.56728926e-02,
          -1.25107631e-01, -1.82163909e-01, -1.78154424e-01,
          -1.66764393e-01, -2.02227551e-02, 1.40435293e-01,
          -9.59765241e-02, -1.92774028e-01, -1.73541665e-01,
          -1.60000682e-01, -1.17016926e-01, -1.03598066e-01,
          -9.03317928e-02, 9.02710259e-02, 2.87360162e-01,
          7.43886381e-02, -1.04228616e-01, -9.48529094e-02,
          -1.18218802e-01, -1.32047489e-01, -1.80063978e-01,
          -1.43575773e-01, -1.72730219e-02, 1.68734506e-01,
          -6.59693629e-02, -2.08126202e-01, -1.96504414e-01,
          -1.36099607e-01, -6.64286837e-02, -1.33740038e-01,
          -1.07423723e-01, 1.94315705e-02, 1.82516709e-01,
          -3.76220122e-02, -1.56445831e-01, -1.42085999e-01,
          -5.90807237e-02, -6.19426034e-02, -1.71984881e-01,
          -1.54400572e-01, -9.10169333e-02, 6.94411173e-02,
          -1.11055329e-01, -1.91343755e-01, -1.80680424e-01,
          -6.95826039e-02, -3.97324041e-02, -1.40056491e-01,
          -1.15550637e-01, 7.67495204e-03, 1.90270126e-01,
          -2.43847650e-02, -1.64587513e-01, -1.50200933e-01,
          -4.85596694e-02, -4.86172661e-02, -1.95750833e-01,
          -1.83794856e-01, -1.19364418e-01, 5.50075062e-02,
          -9.63501632e-02, -2.01389283e-01, -1.95135668e-01,
          -5.26239537e-02, 1.35422731e-03, -1.44044071e-01,
          -1.30872190e-01, -6.18566573e-02, 7.37335384e-02,
          -8.07458684e-02, -1.51524827e-01, -1.51970983e-01,
          -4.78372071e-03, 2.02568304e-02, -1.76708922e-01,
          -1.58985898e-01, -9.55705047e-02, 4.56576459e-02,
          -9.68550593e-02, -1.73642576e-01, -1.69572115e-01,
          6.74281176e-03, 8.21146835e-03, -1.59034163e-01,
          -1.58791110e-01, -9.50324833e-02, 6.51779100e-02,
          -7.76301771e-02, -1.60609841e-01, -1.86001509e-01,
          1.70496665e-02, 1.26870545e-02, -2.02416062e-01,
          -1.89642757e-01, -1.14099786e-01, 4.94612195e-02,
          -1.05223306e-01, -1.98752433e-01, -2.12212190e-01,
          2.47332826e-02, 4.81937528e-02, -1.60307124e-01,
          -1.70612499e-01, -1.20344624e-01, 4.04253826e-02,
          -1.00091510e-01, -1.43733248e-01, -1.32291019e-01,
          6.19150661e-02, 7.95397907e-02, -1.82882950e-01,
          -2.02705696e-01, -1.93897277e-01, -6.77189231e-02,
          -1.56219736e-01, -1.76488832e-01, -1.71754733e-01,
          9.21525955e-02, 5.47265448e-02, -1.95161149e-01,
          -1.99573442e-01, -1.11160994e-01, 6.81254491e-02,
          -1.08451284e-01, -1.74432144e-01, -1.90600708e-01,
          8.54601115e-02, 7.39740655e-02, -2.30757475e-01,
          -2.29630411e-01, -1.78214490e-01, -4.91261594e-02,
          -1.97637141e-01, -2.14346558e-01, -2.08509371e-01,
          1.18996128e-01, 1.39499933e-01, -6.25830293e-02,
          -9.34094787e-02, -1.61674637e-02, -5.98090142e-03,
          -3.14537846e-02, -1.02432929e-01, -5.65294512e-02,
          1.28967509e-01, 1.22061007e-01, -4.22461629e-02,
          -7.78960586e-02, -3.20565216e-02, -4.83902125e-03,
          -4.41559516e-02, -1.01478480e-01, -6.41221330e-02,
          1.30181924e-01, 1.25407472e-01, -5.89283332e-02,
          -1.12459265e-01, -4.74881344e-02, -4.72958796e-02,
          -5.06756641e-02, -1.22364759e-01, -6.62829801e-02,
          1.19226336e-01, 1.17096014e-01, -5.64379320e-02,
          -1.01008721e-01, -4.41725589e-02, -3.02936211e-02,
          -3.84536237e-02, -1.05659783e-01, -7.15341344e-02,
          1.07275262e-01, 1.13688610e-01, -2.20729467e-02,
          -5.88876680e-02, -3.46762277e-02, 2.48388737e-04,
          -5.04494272e-02, -7.62065426e-02, -4.85929437e-02,
          1.24415137e-01, 1.16873577e-01, 4.58495997e-05,
          -3.63981873e-02, -3.19840759e-02, -7.48618320e-02,
          -9.49255824e-02, -1.00058764e-01, -4.96429875e-02,
          1.23310745e-01, 9.00370479e-02, -3.93196344e-02,
          -7.07953125e-02, -2.88004018e-02, -2.19034916e-03,
          -3.10396310e-02, -7.19743073e-02, -5.68564273e-02,
          9.56232697e-02, 8.17368329e-02, -1.48345064e-02,
          -5.67165799e-02, 1.55185361e-03, -4.55788411e-02,
          -6.70633242e-02, -9.82892811e-02, -6.99434876e-02,
          7.99955055e-02, 8.32151249e-02, 1.15759820e-02,
          -1.48911057e-02, -1.88183226e-02, -2.79504843e-02,
          -7.39845559e-02, -9.34581831e-02, -7.38775432e-02,
          7.04810992e-02, 7.65848458e-02, 3.02807894e-02,
          -9.83761530e-03, 9.36662871e-03, 2.89452616e-02,
          2.46027131e-02, -3.26062515e-02, -2.26618052e-02,
          6.39357120e-02, 6.51020929e-02, -1.92683376e-02,
          -3.26013863e-02, -6.31398708e-03, -2.21369248e-02,
          -6.58880174e-02, -1.18280455e-01, -9.31693390e-02,
          5.48201650e-02, 6.73596263e-02, -3.88985756e-03,
          -1.47574628e-02, 1.30128236e-02, 3.81289376e-03,
          -1.40165994e-02, -5.98607361e-02, -4.75081429e-02,
          5.13983145e-02, 4.10483852e-02, -7.72335625e-04,
          -2.48972606e-02, -3.23624769e-03, -2.40704678e-02,
          7.04273256e-03, -1.39946220e-02, -8.98726343e-04,
          4.62083295e-02, 6.26762658e-02, 1.07397139e-02,
          -4.48062364e-03, 7.88907055e-03, -5.17929643e-02,
          -1.11662988e-02, 2.30369810e-02, 6.63927989e-03,
          4.07784432e-02, 4.46176231e-02, -2.85475925e-02,
          -5.77385351e-02, -2.52234358e-02, -3.73480991e-02,
          -2.10349150e-02, -2.65303943e-02, -1.09593989e-02,
          4.11868133e-02, 3.76477987e-02, -6.24516141e-03,
          -4.52672020e-02, 2.80774641e-03, -1.61198974e-02,
          1.20902769e-02, 2.40670405e-02, 2.48540752e-02, 4.34208550e-02,
          3.08368728e-02, 1.76206939e-02, -1.61775798e-02,
          -3.11195618e-03, -4.50428724e-02, -1.11275399e-03,
          -5.35066938e-05, 5.35074575e-03, 1.01041030e-02,
          1.26868999e-02, 5.62683269e-02, -1.57497404e-03,
          8.87640100e-03, -2.78103929e-02, 2.01653093e-02,
          4.06429544e-02, 2.59660538e-02, 1.22287627e-02, 5.49823279e-03,
          -8.74604098e-03, -3.09576243e-02, 3.58295930e-03,
          -3.73182707e-02, -2.16034637e-03, 2.39100754e-02,
          2.86731645e-02, 5.54945366e-03, 1.07034305e-02, 2.86842138e-02,
          1.56263653e-02, 4.54756245e-03, -4.17983159e-02,
          1.17295561e-02, 3.08305174e-02, 5.66753522e-02,
          -5.53952006e-04, 1.20132836e-02, 7.37955198e-02,
          1.45950019e-02, 8.83956812e-03, -3.31682377e-02,
          1.60172582e-02, 2.91971527e-02, 4.23022620e-02, 5.91054268e-04,
          -2.18531378e-02, 5.87515160e-02, 4.73767752e-03,
          -2.72672884e-02, -1.11380152e-01, -3.42963301e-02,
          -8.92732758e-03, 4.81056944e-02, -1.90265477e-02,
          1.42747797e-02, 7.14540407e-02, 2.83078682e-02, 4.41947859e-03,
          -5.06635346e-02, 1.30084911e-02, 3.09739150e-02,
          5.52097559e-02, 3.75987450e-03, -1.74894854e-02,
          6.32572994e-02, 1.12265088e-02, -3.38809974e-02,
          -1.22297727e-01, -4.99423482e-02, -2.03332119e-02,
          5.10216579e-02, -1.70939451e-03, 2.09396146e-03,
          3.81067991e-02, -6.06866879e-03, -2.73541491e-02,
          -6.61569908e-02, -2.15802137e-02, 8.39162804e-03,
          8.80407989e-02, 5.16497083e-02, 2.24120989e-02, 4.99643618e-03,
          -6.08433858e-02, -1.01353861e-01, -1.50382549e-01,
          -7.87077546e-02, -2.12948732e-02, 4.96012978e-02,
          7.02377036e-02, 6.24678656e-02, 7.11236745e-02, 2.60109920e-02,
          -2.93361470e-02, -7.59357736e-02, -3.62812243e-02,
          3.59813194e-03, 1.11302279e-01, 9.49974880e-02, 1.02538072e-01,
          6.06120490e-02, -2.39283442e-02, -1.05322748e-01,
          -1.67024150e-01, -8.18902850e-02, -2.17587613e-02,
          8.67786184e-02, 1.14879914e-01, 6.83722794e-02, 1.18706403e-02,
          -5.36119454e-02, -8.70969743e-02, -1.10797629e-01,
          -7.36315697e-02, -5.84235750e-02, 2.33314503e-02,
          9.44385827e-02, 6.77078217e-02, -5.21103526e-03,
          -6.44164681e-02, -9.96211544e-02, -1.05489850e-01,
          -8.78790617e-02, -8.05599242e-02, 1.67698674e-02,
          8.57988521e-02, 1.39074102e-01, 6.60366639e-02,
          -1.78675149e-02, -9.14562494e-02, -1.15388855e-01,
          -5.60682081e-02, -4.31777090e-02, 7.43445680e-02,
          1.34619281e-01, 1.24199994e-01, 7.32035413e-02,
          -3.22284028e-02, -8.91263634e-02, -1.12863660e-01,
          -7.99439102e-02, -5.90277426e-02, 5.20993732e-02,
          1.32687479e-01, 5.75553291e-02, -2.05600262e-02,
          -5.14186546e-02, -6.32045642e-02, -6.27695620e-02,
          -5.32906726e-02, -7.80905187e-02, 1.04207406e-02,
          8.72597694e-02, 3.14465053e-02, -4.30954359e-02,
          -8.29831585e-02, -8.05453286e-02, -9.84139889e-02,
          -1.28734306e-01, -1.07500851e-01, -1.24738729e-02,
          4.49805036e-02, 1.23523064e-01, 4.70918901e-02,
          -1.57189220e-02, -5.00806086e-02, -7.98828825e-02,
          -7.23992959e-02, -6.60282373e-02, 3.18317898e-02,
          1.35165110e-01, 9.16015133e-02, 2.14661043e-02,
          -5.68936430e-02, -7.60357231e-02, -9.69502255e-02,
          -1.16836779e-01, -1.17279880e-01, -1.19573053e-03,
          8.97897407e-02, 5.22288121e-02, 2.77874200e-03,
          -5.02946340e-02, -3.87333743e-02, -6.33165538e-02,
          -1.17488593e-01, -9.98593867e-02, -1.10923713e-02,
          7.49058723e-02, 4.26309779e-02, -3.40327248e-02,
          -6.41386360e-02, -1.07613429e-01, -9.56129506e-02,
          -1.45577386e-01, -1.65140137e-01, -4.04018573e-02,
          3.64488252e-02, 1.30764529e-01, 4.55601402e-02,
          -5.19367494e-02, -4.78172004e-02, -4.97029610e-02,
          -8.86640176e-02, -8.94006640e-02, 1.97753925e-02,
          1.25755683e-01, 1.12324998e-01, 1.10398354e-02,
          -8.24144781e-02, -1.03170760e-01, -1.00324869e-01,
          -1.33267507e-01, -1.45970330e-01, -2.92524863e-02,
          8.88720453e-02, 4.45564874e-02, -1.82415806e-02,
          -3.91302854e-02, -5.79806380e-02, -4.44254763e-02,
          -1.00796722e-01, -1.33341134e-01, -2.67662369e-02,
          4.54541743e-02, 2.60694195e-02, -6.07033782e-02,
          -1.05364129e-01, -9.33344737e-02, -1.02082774e-01,
          -1.43188164e-01, -1.51335910e-01, -5.13008460e-02,
          1.81137603e-02, 1.40857384e-01, 4.90126666e-03,
          -4.54058051e-02, -7.77058378e-02, -5.71696982e-02,
          -7.68978149e-02, -9.81456563e-02, 5.62974392e-03,
          1.23863481e-01, 8.06124955e-02, -2.79960912e-02,
          -1.00599363e-01, -1.04448020e-01, -1.20933346e-01,
          -1.30049512e-01, -1.35109708e-01, -2.10261326e-02,
          5.65134734e-02, 5.55153191e-02, -3.39406282e-02,
          -1.02439523e-01, -8.54778886e-02, -5.96511886e-02,
          -1.08384959e-01, -1.33298978e-01, -3.80070135e-02,
          5.70362806e-02, 7.04650283e-02, -4.64786999e-02,
          -1.48893028e-01, -1.49653763e-01, -7.24115744e-02,
          -1.56159416e-01, -1.63400203e-01, -3.55862863e-02,
          9.80504528e-02, 8.73754323e-02, -3.34850214e-02,
          -9.41411927e-02, -6.80753887e-02, -5.16671091e-02,
          -9.12000239e-02, -1.10284597e-01, 1.85012491e-03,
          7.30939284e-02, 5.36854826e-02, -7.09087849e-02,
          -1.44552618e-01, -1.26838923e-01, -7.01390132e-02,
          -1.31685033e-01, -1.34214535e-01, -1.02869812e-02,
          8.24378356e-02, 6.74521104e-02, -3.10985856e-02,
          -1.21742442e-01, -1.15763955e-01, -6.41178489e-02,
          -1.33448094e-01, -1.42831877e-01, -3.62374559e-02,
          9.06983241e-02, 2.36380119e-02, -4.83629592e-02,
          -1.11691304e-01, -6.77692071e-02, -3.21354978e-02,
          -9.30916145e-02, -1.47272587e-01, -5.68013713e-02,
          1.75413135e-02, 7.61369467e-02, -3.90475355e-02,
          -1.17441580e-01, -1.10575378e-01, -4.76854928e-02,
          -1.17911868e-01, -1.08712837e-01, 1.80665404e-03,
          8.63228142e-02, 1.04678990e-02, -5.63697107e-02,
          -1.31528407e-01, -6.49545565e-02, -3.38306502e-02,
          -9.26469341e-02, -1.42421901e-01, -3.13487872e-02,
          2.98471302e-02, -6.31500082e-03, -5.50035983e-02,
          -1.03427820e-01, -4.72628884e-02, 2.68382262e-02,
          -5.30628413e-02, -1.25328422e-01, -4.69731688e-02,
          2.34475802e-03, -3.27392891e-02, -6.76958784e-02,
          -1.09682836e-01, -1.57750137e-02, 1.14587106e-01,
          5.04733389e-03, -9.61667225e-02, -5.28345704e-02,
          -3.35815065e-02, -3.73609327e-02, -1.02615185e-01,
          -1.54946804e-01, -6.15827888e-02, 2.24791449e-02,
          -6.28037155e-02, -1.35039821e-01, -6.07899129e-02,
          -1.73850749e-02, -6.95704743e-02, -1.10677883e-01,
          -1.44587681e-01, -2.81369351e-02, 9.99355391e-02,
          1.05436137e-02, -9.93143618e-02, -7.08735883e-02,
          -5.98914810e-02, -9.63291451e-02, -6.39367700e-02,
          -1.01123251e-01, -1.19591523e-02, 1.43298090e-01,
          4.65901056e-03, -9.20145512e-02, -5.99947497e-02,
          -8.75604525e-02, -1.64149746e-01, -1.23456053e-01,
          -1.19064555e-01, 1.92019548e-02, 2.15625793e-01,
          4.29875255e-02, -1.09877750e-01, -7.98701495e-02,
          -1.49703130e-01, -1.26250923e-01, -1.00023381e-01,
          -1.04388095e-01, 1.34927938e-02, 1.59633726e-01,
          4.84680049e-02, -6.56289384e-02, -6.37035891e-02,
          -1.22555271e-01, -1.91617876e-01, -1.39973357e-01,
          -1.21342227e-01, 5.34147099e-02, 2.35623986e-01,
          9.65994224e-02, -1.11443035e-01, -1.07130751e-01,
          -1.85869038e-01, -1.51079282e-01, -1.06898196e-01,
          -7.02458844e-02, 1.23466685e-01, 3.13442349e-01,
          7.92853609e-02, -1.02320820e-01, -8.62544402e-02,
          -1.32980213e-01, -1.70166567e-01, -1.71035588e-01,
          -1.21339343e-01, 1.98747125e-02, 1.94803163e-01,
          -4.41460125e-02, -1.66612357e-01, -1.76462680e-01,
          -1.57568678e-01, -1.85483292e-01, -1.41040087e-01,
          -1.06063887e-01, 1.28655389e-01, 3.58310819e-01,
          1.53003231e-01, -1.08457044e-01, -1.19515516e-01,
          -1.81312650e-01, -2.43468434e-01, -2.07866669e-01,
          -1.68362767e-01, 9.00748093e-03, 1.93486422e-01,
          -2.14007664e-02, -1.89089224e-01, -2.03192532e-01,
          -2.23615542e-01, -6.92718253e-02, -1.35060385e-01,
          -1.19068973e-01, 1.88217368e-02, 2.36374721e-01,
          1.91459395e-02, -1.21841289e-01, -1.38683408e-01,
          -6.46177977e-02, -4.88582551e-02, -1.76655680e-01,
          -1.60130307e-01, -8.84118155e-02, 7.50556961e-02,
          -7.46556744e-02, -1.75002068e-01, -1.78929567e-01,
          -4.84060086e-02, -1.25070021e-01, -1.69393763e-01,
          -1.38409555e-01, 3.26326117e-02, 2.44196340e-01,
          3.28914747e-02, -1.27779871e-01, -1.52735025e-01,
          -1.11019753e-01, -7.79890418e-02, -1.93277314e-01,
          -1.60728991e-01, -6.79316372e-02, 9.27929059e-02,
          -5.73085248e-02, -1.77080229e-01, -2.02113956e-01,
          -7.65133426e-02, 1.11167952e-02, -1.36793360e-01,
          -1.27697259e-01, -8.16287771e-02, 9.45085809e-02,
          -7.07569271e-02, -1.52741656e-01, -1.71869233e-01,
          1.50359171e-02, 9.73291975e-03, -1.94238946e-01,
          -1.94405869e-01, -1.26663163e-01, 5.94844557e-02,
          -8.90559629e-02, -1.81232765e-01, -1.89772174e-01,
          2.37687398e-02, -8.32267944e-03, -1.82569817e-01,
          -1.50191754e-01, -7.00505897e-02, 1.27623245e-01,
          -5.84687069e-02, -1.58543468e-01, -1.83002651e-01,
          -5.40431216e-03, 8.55212938e-03, -2.32455358e-01,
          -2.18816146e-01, -1.15024477e-01, 6.45787790e-02,
          -7.95210302e-02, -1.97417274e-01, -2.27778032e-01,
          1.16573488e-02, 5.73758706e-02, -1.88707635e-01,
          -1.95632860e-01, -1.02503709e-01, 7.97533989e-02,
          -8.56973007e-02, -1.65402383e-01, -1.81154072e-01,
          7.48889968e-02, 7.42941648e-02, -2.28707388e-01,
          -2.23172992e-01, -1.64671138e-01, -2.09002420e-02,
          -1.84053674e-01, -2.06749320e-01, -1.99056059e-01,
          9.71766561e-02, 6.88529313e-02, -1.94030568e-01,
          -2.16223314e-01, -1.05504997e-01, 7.03655630e-02,
          -1.03564456e-01, -1.91805884e-01, -1.98407456e-01,
          6.35654777e-02, 8.81265998e-02, -2.33867705e-01,
          -2.27652863e-01, -1.77494302e-01, -2.73139905e-02,
          -1.93627268e-01, -2.39699468e-01, -2.37768129e-01,
          7.18659312e-02, 1.46285653e-01, -6.58899248e-02,
          -9.66412649e-02, -4.91302535e-02, -2.20119506e-02,
          -4.90722768e-02, -1.12197623e-01, -6.87368736e-02,
          1.35345370e-01, 1.33544311e-01, -7.61422366e-02,
          -8.63402039e-02, -4.18578461e-02, -1.31677072e-02,
          -4.83547039e-02, -9.26326364e-02, -6.45197853e-02,
          1.22604124e-01, 1.55494571e-01, -5.95830753e-02,
          -8.38999301e-02, -6.15753084e-02, -5.05244397e-02,
          -6.07257672e-02, -1.45509705e-01, -9.54006836e-02,
          1.34640753e-01, 1.26708046e-01, -5.78850657e-02,
          -7.04230666e-02, -4.40764911e-02, -1.66581441e-02,
          -2.63501201e-02, -1.15789935e-01, -7.63707012e-02,
          1.07896388e-01, 7.71220103e-02, -5.82096167e-02,
          -5.76050058e-02, -2.06716061e-02, -5.53054921e-03,
          -3.40857022e-02, -6.46409765e-02, -4.52284664e-02,
          1.04298614e-01, 4.53580059e-02, -2.92073116e-02,
          -3.39066572e-02, 9.79492627e-03, -4.08984534e-03,
          -3.23465951e-02, -8.01056102e-02, -5.78554384e-02,
          6.89686164e-02, 8.79768133e-02, -3.88270654e-02,
          -3.19478847e-02, -1.52822835e-02, 8.39050673e-03,
          -3.81563120e-02, -9.41985399e-02, -5.83354905e-02,
          9.92668048e-02, 8.03486630e-02, -1.04410294e-02,
          -2.10421272e-02, 1.25877429e-02, 4.30735154e-03,
          -5.46554774e-02, -9.40400288e-02, -6.20881133e-02,
          7.94675499e-02, 4.48694713e-02, -1.69978738e-02,
          -2.83667780e-02, -1.27982311e-02, 6.03584992e-03,
          -1.40466550e-02, -5.66758364e-02, -4.97524552e-02,
          4.92513143e-02, 7.47855604e-02, -1.23267174e-02,
          -2.11023185e-02, -3.99997551e-03, 2.87697949e-02,
          5.14878193e-04, -2.91591622e-02, -1.71958320e-02,
          8.58777240e-02, 7.16562644e-02, -1.29634803e-02,
          -2.67663766e-02, -1.58846341e-02, -3.27105005e-03,
          -3.58676799e-02, -5.17169647e-02, -3.34786773e-02,
          8.44834894e-02, 7.99504444e-02, -4.23817448e-02,
          -4.93085906e-02, -5.16063757e-02, -2.91702175e-03,
          -1.16556706e-02, -4.16533351e-02, -2.09132899e-02,
          8.96493420e-02, 4.48270701e-02, -3.91565785e-02,
          -6.81474656e-02, -4.89178076e-02, -3.76775898e-02,
          -7.15731643e-03, -5.19427992e-02, -2.56070271e-02,
          4.84991260e-02, 3.63318548e-02, 2.56978627e-03,
          -5.01410291e-02, 1.03440089e-03, -4.12506936e-03,
          5.68608455e-02, 2.40751207e-02, 1.89238302e-02, 4.85280268e-02,
          6.00190386e-02, -3.62844095e-02, -5.57355843e-02,
          -4.89278436e-02, -2.97211241e-02, -2.67000636e-03,
          -7.61346817e-02, -4.26954590e-02, 5.85992560e-02,
          8.62571374e-02, 5.82218133e-02, 8.89919233e-03, 1.37511306e-02,
          -2.41449401e-02, 5.44756986e-02, -3.07810951e-05,
          1.40570209e-03, 6.48219809e-02, -2.12298669e-02,
          -1.13000665e-02, -4.41967100e-02, -1.38194505e-02,
          -5.19677214e-02, 1.04039060e-02, 8.33331514e-03,
          5.13781002e-03, -1.41410045e-02, -7.06988247e-03,
          1.13701187e-02, 2.21954426e-03, -6.50473032e-03,
          -7.68918321e-02, 7.03556556e-03, 3.64493541e-02,
          7.08709359e-02, 1.70810800e-03, 2.37039980e-02, 2.21814271e-02,
          -7.01713515e-03, -3.87949054e-03, -6.44734800e-02,
          2.16635671e-02, -1.07245101e-02, -4.53178585e-03,
          1.97247770e-02, 4.54842113e-02, 9.49626490e-02, 1.21108875e-01,
          8.02976787e-02, -9.12208483e-02, -4.14986769e-03,
          1.22667784e-02, 3.92419025e-02, 3.80425379e-02,
          -2.65533160e-02, 4.00569215e-02, -4.40706452e-03,
          -4.38722298e-02, -1.19016632e-01, -3.31015103e-02,
          -7.85158854e-03, 3.60833295e-02, -1.61539521e-02,
          2.09852420e-02, 1.30042449e-01, 1.00670168e-02,
          -6.82111531e-02, -1.82513997e-01, -1.05014756e-01,
          -7.67387226e-02, -1.91321305e-03, -1.41064515e-02,
          5.57634979e-02, 2.47071207e-01, 2.13046074e-01, 5.36588244e-02,
          -1.30932510e-01, -7.10082799e-02, -3.90674025e-02,
          1.56235183e-02, -1.25941793e-02, 1.89538732e-01,
          3.49486977e-01, 2.09493607e-01, -1.50577938e-02,
          -2.40145326e-01, -1.50807753e-01, -1.20028861e-01,
          3.56687419e-03, 2.79032141e-02, 1.03847608e-01, 1.31089270e-01,
          5.75914653e-03, -8.12996924e-02, -1.78220287e-01,
          -1.16324291e-01, -9.13401023e-02, 2.13022828e-02,
          4.31960449e-02, 1.45799026e-01, 1.22516416e-01,
          -3.60186473e-02, -1.38663396e-01, -2.59015858e-01,
          -1.60322577e-01, -1.11385182e-01, 1.66554400e-05,
          9.06390995e-02, 2.83050478e-01, 3.48838925e-01, 1.08468130e-01,
          -9.42045599e-02, -2.55292028e-01, -1.42685756e-01,
          -9.76805091e-02, 2.64071431e-02, 1.19288981e-01,
          2.72067070e-01, 2.56876290e-01, 1.91877724e-03,
          -1.56943277e-01, -3.09306949e-01, -1.73019052e-01,
          -6.70395717e-02, 4.60311770e-02, 1.71171308e-01,
          1.46752313e-01, 9.69931707e-02, -4.28088978e-02,
          -1.35362536e-01, -2.29027659e-01, -1.17407203e-01,
          -7.97347650e-02, 3.76408286e-02, 1.14560194e-01,
          1.26835540e-01, 7.73000643e-02, -6.49720952e-02,
          -1.39897630e-01, -2.36519769e-01, -1.31436795e-01,
          -1.07668594e-01, 2.16351002e-02, 1.10097475e-01,
          2.61258066e-01, 2.00093299e-01, -1.01147639e-02,
          -1.31130904e-01, -2.43624464e-01, -1.10767201e-01,
          -2.12055836e-02, 1.01928897e-01, 1.94940105e-01,
          2.68352777e-01, 2.01187760e-01, -3.24320234e-02,
          -1.44473210e-01, -2.67692059e-01, -1.17867455e-01,
          -5.27821630e-02, 1.10029928e-01, 2.22561479e-01,
          1.44524530e-01, 4.86613177e-02, -6.06527999e-02,
          -1.09762363e-01, -1.64721087e-01, -1.13087296e-01,
          -9.98385623e-02, 1.56598594e-02, 1.46124333e-01,
          1.14513189e-01, 2.11814679e-02, -1.10422611e-01,
          -1.27600357e-01, -1.60285652e-01, -1.32228225e-01,
          -1.42370626e-01, -1.04824658e-02, 9.06392857e-02,
          3.28902155e-01, 1.84197605e-01, -7.31268153e-02,
          -1.68262988e-01, -2.39092469e-01, -1.09301075e-01,
          -5.07320017e-02, 1.23492777e-01, 2.69369900e-01,
          2.85383612e-01, 1.55928716e-01, -8.82867128e-02,
          -1.63464800e-01, -2.32656971e-01, -1.22996055e-01,
          -7.12610409e-02, 1.24780469e-01, 2.47352853e-01,
          1.12823926e-01, 3.14027444e-02, -8.51919353e-02,
          -9.25786868e-02, -1.18552454e-01, -1.07696362e-01,
          -1.27913281e-01, 9.24269669e-04, 9.48492065e-02,
          6.93752170e-02, -1.03296582e-02, -1.32793635e-01,
          -1.49103090e-01, -1.57038838e-01, -1.46344319e-01,
          -1.53771341e-01, -3.94286811e-02, 5.85766509e-02,
          3.11420649e-01, 1.51721925e-01, -5.77587672e-02,
          -1.11171775e-01, -1.51849091e-01, -7.07970858e-02,
          -6.49042130e-02, 1.17594667e-01, 2.64303505e-01,
          2.62745917e-01, 1.08376279e-01, -1.09200001e-01,
          -1.88546911e-01, -1.84098244e-01, -1.22562416e-01,
          -8.82345363e-02, 9.46276262e-02, 2.64136374e-01,
          1.00988351e-01, 1.35464768e-03, -8.92882571e-02,
          -9.76710916e-02, -1.11261994e-01, -1.08593531e-01,
          -1.08664572e-01, -2.72537675e-02, 8.16988647e-02,
          4.75379340e-02, -5.24861999e-02, -1.33111194e-01,
          -1.27109885e-01, -1.60998568e-01, -1.60622939e-01,
          -1.66832805e-01, -5.70472516e-02, 2.98522469e-02,
          3.03633690e-01, 9.42088142e-02, -9.22782049e-02,
          -1.41878784e-01, -1.32104725e-01, -1.00761011e-01,
          -5.95760420e-02, 1.13385856e-01, 3.11270595e-01,
          2.34208643e-01, 9.21290834e-03, -1.41045794e-01,
          -1.72690332e-01, -1.92888141e-01, -1.60843655e-01,
          -1.51914805e-01, 3.44279781e-02, 2.52560169e-01,
          6.79120123e-02, -4.83204424e-02, -1.26970977e-01,
          -9.66803208e-02, -9.94597301e-02, -1.17568702e-01,
          -1.45877331e-01, -1.67838614e-02, 5.81317991e-02,
          2.90245283e-02, -6.33513406e-02, -1.49740219e-01,
          -1.60687596e-01, -1.38033271e-01, -1.35571510e-01,
          -1.43655494e-01, -3.26787457e-02, 3.96292433e-02,
          2.68436283e-01, 2.82828361e-02, -1.25910327e-01,
          -1.49925172e-01, -1.41891629e-01, -1.29588380e-01,
          -1.42517373e-01, 4.11668755e-02, 2.76789367e-01,
          2.08626106e-01, 4.32505831e-02, -1.15000688e-01,
          -1.65843874e-01, -1.56339616e-01, -1.40256286e-01,
          -1.61339521e-01, 6.23508776e-03, 2.05495372e-01,
          3.34371664e-02, -3.86304073e-02, -1.27126306e-01,
          -1.33582339e-01, -7.65771270e-02, -9.87251550e-02,
          -1.17476195e-01, -2.19898801e-02, 4.16493304e-02,
          -2.91156862e-03, -7.86181465e-02, -1.61758840e-01,
          -1.02840289e-01, -5.50060123e-02, -1.14528358e-01,
          -1.46168694e-01, -4.53902483e-02, -7.40028359e-03,
          2.14526594e-01, 5.62845841e-02, -9.56489369e-02,
          -1.22132517e-01, -7.85520896e-02, -1.09712377e-01,
          -1.28466576e-01, 5.78516163e-03, 2.04471052e-01,
          1.90916002e-01, 4.25528735e-02, -1.15706898e-01,
          -1.01138107e-01, -6.25402853e-02, -1.21904649e-01,
          -1.64109543e-01, -3.40562090e-02, 1.59131840e-01,
          -3.65628637e-02, -9.45831761e-02, -1.42622262e-01,
          -7.45867863e-02, -2.19763108e-02, -9.76184607e-02,
          -1.51537389e-01, -7.96216577e-02, -4.02179249e-02,
          -7.76941255e-02, -1.18421666e-01, -1.33145794e-01,
          -3.80405560e-02, 3.73353958e-02, -2.54669618e-02,
          -1.04671746e-01, -8.44660923e-02, -6.43038601e-02,
          1.46986738e-01, 2.66453885e-02, -9.68249887e-02,
          -5.99660613e-02, -3.26931849e-02, -1.18964545e-01,
          -1.73438847e-01, -4.87211980e-02, 1.17112711e-01,
          9.45847481e-02, 2.92951614e-02, -7.57536516e-02,
          -1.80392545e-02, 3.79059426e-02, -3.99867482e-02,
          -7.94917792e-02, 1.53580506e-03, 8.50408897e-02,
          -1.46223366e-01, -1.27153397e-01, -1.17114194e-01,
          -1.44072874e-02, 1.09493725e-01, 1.08840475e-02,
          -7.17944056e-02, -7.17921183e-02, -1.28738314e-01,
          -2.24378720e-01, -1.63198814e-01, -1.36863485e-01,
          1.49726616e-02, 1.75595328e-01, 4.44390774e-02,
          -1.21756174e-01, -1.11633502e-01, -1.89356387e-01,
          -2.32723244e-02, -4.13937075e-03, -4.71850075e-02,
          8.61187931e-03, 1.36243537e-01, 4.24490497e-02,
          -2.44441405e-02, 1.37876906e-02, -5.04750246e-03,
          -1.29998341e-01, -6.25619814e-02, -7.15828389e-02,
          5.78263514e-02, 2.12062463e-01, 1.35730788e-01,
          -6.74789585e-03, -2.12044176e-02, -9.54502523e-02,
          -1.89406052e-01, -1.34149283e-01, -1.12827435e-01,
          9.07502472e-02, 3.50950241e-01, 1.60608307e-01,
          -8.30554217e-02, -1.08653396e-01, -1.66629776e-01,
          -2.15022147e-01, -1.83868185e-01, -1.60172626e-01,
          -1.46048721e-02, 1.71580210e-01, -2.02017967e-02,
          -1.76548272e-01, -1.85571358e-01, -2.04495341e-01,
          -1.74086764e-01, -9.26381946e-02, -8.76114145e-02,
          1.58908769e-01, 3.78250986e-01, 2.69991279e-01, 2.59538759e-02,
          -5.08792996e-02, -1.37806237e-01, -2.75070786e-01,
          -2.36413166e-01, -2.07733124e-01, -3.65829282e-02,
          1.70202211e-01, 4.60531330e-03, -1.63052410e-01,
          -2.21091121e-01, -2.52047837e-01, -9.41311568e-02,
          -1.29428089e-01, -8.91949534e-02, 4.79594879e-02,
          2.52792925e-01, 4.05416042e-02, -1.21246763e-01,
          -1.30275235e-01, -9.17287096e-02, -7.43814632e-02,
          -1.84262738e-01, -1.53305843e-01, -4.91326526e-02,
          1.05081148e-01, -4.78951558e-02, -1.61208659e-01,
          -1.66437954e-01, -6.24119602e-02, -1.33588672e-01,
          -1.82222456e-01, -1.28865093e-01, 3.65106277e-02,
          2.48822629e-01, 3.89539786e-02, -1.38248011e-01,
          -1.73887745e-01, -1.36722848e-01, -1.17547140e-01,
          -2.35228971e-01, -1.88666776e-01, -5.47507778e-02,
          1.18240856e-01, -4.48080972e-02, -1.93132609e-01,
          -2.15626329e-01, -1.16724461e-01, -8.94428324e-03,
          -1.77346870e-01, -1.44171134e-01, -4.05060947e-02,
          1.27731293e-01, -5.41100055e-02, -1.42602697e-01,
          -1.54960692e-01, -2.58335436e-04, 2.27528978e-02,
          -1.88208088e-01, -1.68183908e-01, -6.82183430e-02,
          9.68398303e-02, -8.35098624e-02, -1.81786343e-01,
          -2.06424356e-01, 2.30301768e-02, -1.47310263e-02,
          -1.93944499e-01, -1.68566987e-01, -3.93610746e-02,
          1.42765209e-01, -9.21815038e-02, -1.90381631e-01,
          -2.07206205e-01, -4.76479158e-02, -6.35517761e-03,
          -2.21497655e-01, -1.88682333e-01, -6.60471693e-02,
          9.30261686e-02, -9.77109745e-02, -1.97793409e-01,
          -2.40506962e-01, -3.20808254e-02, 8.38592872e-02,
          -1.56279579e-01, -1.59547970e-01, -8.04882348e-02,
          7.67849982e-02, -1.05742626e-01, -1.74382046e-01,
          -1.84309229e-01, 9.39241871e-02, 1.09786659e-01,
          -1.76947325e-01, -1.78259209e-01, -1.53519809e-01,
          -3.93006094e-02, -1.89057916e-01, -2.25466162e-01,
          -2.20807105e-01, 9.74528566e-02, 4.44097891e-02,
          -2.17963874e-01, -1.95104674e-01, -9.21492055e-02,
          8.46814141e-02, -1.11051083e-01, -1.83448017e-01,
          -1.94353953e-01, 4.25737910e-02, 7.32700527e-02,
          -2.24555120e-01, -2.07229078e-01, -1.54359221e-01,
          -2.09459960e-02, -1.99029908e-01, -2.36555934e-01,
          -2.30843559e-01, 7.78636038e-02, 1.23647831e-01,
          -7.45799318e-02, -7.83922598e-02, -2.97947638e-02,
          -4.61615138e-02, -5.18945940e-02, -1.35989428e-01,
          -8.84174034e-02, 1.25158489e-01, 1.04760885e-01,
          -6.77815750e-02, -5.78838326e-02, -2.61717252e-02,
          -5.42930979e-03, -2.24371962e-02, -1.29264608e-01,
          -8.60099420e-02, 1.01198986e-01, 1.45204812e-01,
          -7.06280395e-02, -8.35676193e-02, -1.77876316e-02,
          -4.40469831e-02, -3.68588418e-02, -1.13441251e-01,
          -8.34771022e-02, 1.30219981e-01, 1.26095772e-01,
          -4.77907695e-02, -6.06222153e-02, -1.53988572e-02,
          -2.05996819e-02, -1.73369385e-02, -1.35787472e-01,
          -9.41573754e-02, 1.01856597e-01, 7.66620561e-02,
          -1.60094015e-02, -2.14003418e-02, -2.11917781e-04,
          1.86756887e-02, -1.69080272e-02, -9.94400531e-02,
          -5.89416362e-02, 7.78443590e-02, 8.36997181e-02,
          -8.12144298e-03, -4.06568460e-02, 1.23653254e-02,
          -7.66205695e-03, -6.85838014e-02, -1.10520408e-01,
          -6.08617812e-02, 6.41189739e-02, 1.03678159e-01,
          -2.25202776e-02, -2.38455590e-02, -2.41525881e-02,
          -2.02624276e-02, -6.32239738e-03, -9.28757563e-02,
          -5.08521944e-02, 9.78222042e-02, 9.60959122e-02,
          -2.10794304e-02, -5.54857813e-02, -3.75429653e-02,
          -6.51988015e-02, -5.60850315e-02, -1.02785014e-01,
          -3.86667326e-02, 7.84033090e-02, 6.86280206e-02,
          -1.57618634e-02, -4.69173379e-02, -1.58825386e-02,
          -1.78247672e-02, -5.53837083e-02, -7.97682256e-02,
          -5.47760278e-02, 6.46641925e-02, 7.34801963e-02,
          -3.67896073e-02, -3.18799987e-02, -5.86532336e-03,
          -2.95399781e-02, -2.22589262e-02, -6.62298128e-02,
          -3.75657007e-02, 9.09154937e-02, 8.69827345e-02,
          -2.58234590e-02, -7.84142464e-02, -4.74663302e-02,
          -4.39965166e-02, -4.88700978e-02, -7.94837400e-02,
          -4.69826832e-02, 5.76890931e-02, 6.03343062e-02,
          1.71432346e-02, 2.87597626e-02, 7.93673769e-02, 2.81475168e-02,
          3.30555864e-04, -5.88572323e-02, -5.49456999e-02,
          5.34555577e-02, -2.35011764e-02, -5.52056767e-02,
          -5.64519241e-02, -6.00324236e-02, -1.41035452e-01,
          -7.32881725e-02, -1.25738010e-01, -1.01718321e-01,
          -2.26977095e-02, 4.17453386e-02, 9.27228481e-02,
          5.40108606e-02, 1.24093052e-02, -1.25820443e-01,
          -3.71984281e-02, -8.65473598e-02, -8.19878876e-02,
          -1.85660329e-02, 7.78004294e-03, 9.32893977e-02,
          1.58211008e-01, 1.21756211e-01, -7.71859363e-02,
          -3.31243798e-02, -9.94336158e-02, -1.13637589e-01,
          -6.47129565e-02, 1.95690140e-01, 3.22057277e-01,
          3.02020073e-01, 2.20275253e-01, -3.00820395e-02,
          5.54808676e-02, 1.62712038e-02, 4.18964550e-02, 9.10925716e-02,
          -9.14599188e-03, 3.64657901e-02, -2.17707059e-03,
          -3.54379490e-02, -1.54977664e-01, -5.70848882e-02,
          -6.00949861e-02, -2.73497012e-02, -1.59961171e-02,
          -2.23767497e-02, 1.16506070e-01, 1.48608103e-01,
          8.16585794e-02, -1.87210605e-01, -1.01453766e-01,
          -7.29428753e-02, 6.22379174e-03, -3.04982923e-02,
          1.24836035e-01, 2.08995774e-01, 1.23272173e-01, 5.39085492e-02,
          -1.37805879e-01, -8.43418110e-03, 2.93276440e-02,
          1.13478720e-01, 8.77223387e-02, 7.05583170e-02, 2.21836656e-01,
          2.14594170e-01, 1.47948310e-01, -1.37490317e-01,
          -2.82961428e-02, 2.85759494e-02, 1.35498479e-01,
          6.19382076e-02, 3.17780860e-02, 2.98203737e-01, 3.25895131e-01,
          1.63400158e-01, -1.28219366e-01, -1.11913428e-01,
          -9.35171843e-02, -9.15016327e-03, -6.83422089e-02,
          1.19291909e-01, 3.43320787e-01, 2.43519560e-01, 3.90371960e-03,
          -2.79186308e-01, -1.96057335e-01, -1.51526377e-01,
          -4.58481312e-02, -6.49633110e-02, 5.94027573e-03,
          2.70953923e-01, 3.31523299e-01, 2.04780847e-01,
          -1.07925624e-01, -4.74936739e-02, -1.27534140e-02,
          3.93236466e-02, -5.12080789e-02, -7.44133294e-02,
          1.73840210e-01, 1.57240078e-01, -1.13218492e-02,
          -2.79814512e-01, -1.61360890e-01, -1.17981471e-01,
          -7.04500005e-02, -1.60128579e-01, 2.89734602e-01,
          3.67403954e-01, 1.47971481e-01, -7.57168680e-02,
          -2.56569058e-01, -1.35364801e-01, -4.76492457e-02,
          7.17035532e-02, 1.32750183e-01, 2.99960136e-01, 2.58777350e-01,
          -7.41699012e-03, -1.64126292e-01, -3.10537934e-01,
          -1.41021907e-01, -2.01986134e-02, 1.16768010e-01,
          2.14085847e-01, 6.11440837e-02, 1.66065112e-01, 4.33676876e-02,
          -1.17123678e-01, -2.71159708e-01, -1.15174651e-01,
          -3.61617133e-02, 3.03913523e-02, -1.02344491e-02,
          9.51545313e-02, 6.97511360e-02, -1.12452812e-01,
          -2.15696290e-01, -3.53921652e-01, -1.78530142e-01,
          -7.12077096e-02, 6.18801303e-02, 6.38760254e-02,
          3.14829737e-01, 2.15400070e-01, -2.80261356e-02,
          -1.43037111e-01, -2.57047474e-01, -1.02705635e-01,
          -1.52620599e-02, 1.31620884e-01, 2.38722414e-01,
          3.27604443e-01, 2.40257472e-01, -9.29397438e-03,
          -1.40650839e-01, -2.53153324e-01, -7.71156177e-02,
          -1.78781524e-02, 1.51339784e-01, 2.48530999e-01,
          1.21787906e-01, 6.85133412e-02, -1.12990908e-01,
          -2.00186059e-01, -3.17337930e-01, -1.56056762e-01,
          -7.96920806e-02, 4.80267256e-02, 8.66098925e-02,
          1.22861952e-01, 9.50762555e-02, -6.69561774e-02,
          -1.81772813e-01, -2.56517470e-01, -1.03012599e-01,
          -6.61772564e-02, 2.27240492e-02, 5.78302816e-02,
          3.42503548e-01, 2.36635089e-01, -2.15041898e-02,
          -1.39171198e-01, -2.37247095e-01, -7.07764477e-02,
          -2.26002373e-02, 1.24795474e-01, 2.80204594e-01,
          3.26831877e-01, 2.01459467e-01, -5.23980148e-02,
          -1.49635002e-01, -2.56245971e-01, -1.15457632e-01,
          -5.70921935e-02, 1.00516491e-01, 2.78446138e-01,
          8.18254948e-02, 8.03749859e-02, -5.77959605e-02,
          -1.09493181e-01, -1.58443168e-01, -4.44448777e-02,
          -4.10860069e-02, -2.30445508e-02, 1.23754935e-02,
          4.08240296e-02, 1.50894385e-03, -9.89798978e-02,
          -1.24615334e-01, -1.70947909e-01, -7.81902447e-02,
          -8.08502957e-02, -6.47038147e-02, 1.53728889e-03,
          3.41590941e-01, 1.71553463e-01, -3.71773653e-02,
          -1.07855752e-01, -1.99696049e-01, -8.35436732e-02,
          -4.79258597e-02, 1.36664256e-01, 3.12313408e-01,
          3.19296807e-01, 8.12442079e-02, -1.02701262e-01,
          -1.94399118e-01, -2.56384254e-01, -1.19485401e-01,
          -5.10853007e-02, 1.62207365e-01, 3.25338721e-01,
          5.59241138e-02, -5.46535989e-03, -7.89953098e-02,
          -1.04890160e-01, -1.74474910e-01, -6.48474246e-02,
          -6.27725497e-02, -9.75931901e-03, 4.72460650e-02,
          8.10682848e-02, -5.23790792e-02, -1.46564066e-01,
          -2.16484144e-01, -2.58175939e-01, -1.26361117e-01,
          -8.80257934e-02, 3.77577618e-02, 1.27598822e-01,
          3.42408091e-01, 5.13418652e-02, -1.33677810e-01,
          -2.22794473e-01, -2.64810950e-01, -1.38119549e-01,
          -6.22722134e-02, 1.68920234e-01, 3.99677247e-01,
          3.06209743e-01, 2.26541143e-02, -1.86324298e-01,
          -2.57913828e-01, -3.32469225e-01, -2.17235059e-01,
          -1.57049045e-01, 1.25363022e-01, 3.59428167e-01,
          1.86624512e-01, -8.11510906e-03, -1.78386733e-01,
          -2.69985765e-01, -3.25208843e-01, -1.87092036e-01,
          -9.27292183e-02, 9.39801112e-02, 2.60962009e-01,
          2.69975603e-01, 1.42541379e-02, -2.19118819e-01,
          -3.19119930e-01, -4.42485511e-01, -2.94150323e-01,
          -1.88461602e-01, 1.11560009e-01, 3.30586970e-01,
          2.70431250e-01, 1.65082235e-02, -1.76051289e-01,
          -2.49456391e-01, -2.96125680e-01, -2.15172783e-01,
          -1.56383350e-01, 6.90503716e-02, 3.22479695e-01,
          2.72866905e-01, 5.66879399e-02, -1.62785098e-01,
          -2.57708132e-01, -3.07574958e-01, -2.28441507e-01,
          -1.79886058e-01, 2.21960042e-02, 2.82081395e-01,
          3.35601002e-01, 5.64391911e-02, -1.89281911e-01,
          -2.95553267e-01, -4.03096527e-01, -2.78608829e-01,
          -1.70654967e-01, 8.47476944e-02, 3.37406367e-01,
          3.76457930e-01, 1.31285518e-01, -1.59371242e-01,
          -3.24502885e-01, -4.18272197e-01, -2.92235911e-01,
          -1.93941757e-01, 7.22241923e-02, 3.47282320e-01,
          2.55753934e-01, 6.84923530e-02, -1.42187789e-01,
          -2.13025883e-01, -2.54092723e-01, -2.20652148e-01,
          -1.89812332e-01, -2.17762496e-02, 2.52326071e-01,
          2.67424703e-01, 4.28423360e-02, -1.64398342e-01,
          -1.98793963e-01, -2.52937078e-01, -2.62774318e-01,
          -2.31700033e-01, -4.90411781e-02, 2.31680244e-01,
          3.93834680e-01, 1.57410160e-01, -1.43453985e-01,
          -2.84351379e-01, -3.74093622e-01, -2.86434799e-01,
          -1.96182281e-01, 4.06312607e-02, 3.42843652e-01,
          3.79484028e-01, 1.02053262e-01, -1.74170747e-01,
          -2.72928864e-01, -4.05365407e-01, -3.53748471e-01,
          -2.53513455e-01, 1.20302280e-02, 3.22717071e-01,
          2.14721709e-01, 4.64659370e-02, -1.35916546e-01,
          -1.75432667e-01, -2.32067719e-01, -2.49962762e-01,
          -2.21971691e-01, -4.23671901e-02, 1.94299847e-01,
          1.67031422e-01, 7.07260892e-02, -1.19221672e-01,
          -1.61019117e-01, -1.77297056e-01, -1.79340944e-01,
          -1.32031679e-01, -1.28491537e-03, 1.55760303e-01,
          3.44221443e-01, 9.22525376e-02, -1.45656124e-01,
          -2.55011857e-01, -3.74570012e-01, -3.40812534e-01,
          -2.41716608e-01, 5.01033701e-02, 3.15642953e-01,
          3.08636338e-01, 1.44340724e-01, -9.93693694e-02,
          -2.17480436e-01, -2.94494957e-01, -2.36702293e-01,
          -1.24414206e-01, 1.27298400e-01, 3.07513118e-01,
          3.73118147e-02, 2.01511253e-02, -8.17968696e-02,
          -1.10871635e-01, -6.77545816e-02, -7.74564594e-02,
          -7.07886294e-02, 9.12641175e-03, 3.53342108e-02,
          -1.32687837e-01, -5.61570302e-02, -8.97779539e-02,
          -1.90551747e-02, 7.87550509e-02, 3.98086533e-02,
          -3.36560346e-02, -4.90245149e-02, -1.02672018e-01,
          1.80257753e-01, 1.24716669e-01, -4.53844294e-02,
          -1.14075460e-01, -1.31543592e-01, -1.05664991e-01,
          -2.23224293e-02, 1.29211962e-01, 1.79541916e-01,
          1.58572458e-02, 5.09349070e-02, -3.10312433e-04,
          7.56812170e-02, 1.11639731e-01, 8.18065256e-02, 1.69696473e-02,
          3.41934189e-02, -9.05727735e-04, -1.58027440e-01,
          -6.92098513e-02, -7.32360631e-02, 1.51168615e-01,
          3.66793096e-01, 2.35597476e-01, 3.68928723e-02,
          -4.76519540e-02, -1.19783074e-01, -2.83053815e-01,
          -2.45785847e-01, -2.47530624e-01, -1.00097261e-01,
          1.14465609e-01, -6.49551153e-02, -1.65179729e-01,
          -2.21934989e-01, -2.76630640e-01, -6.91617280e-02,
          -2.15159752e-03, 7.40063889e-03, 2.55464762e-01,
          4.18248981e-01, 3.21754187e-01, 7.68952146e-02,
          -2.78424961e-03, -7.37576485e-02, -2.99896806e-01,
          -2.59146005e-01, -2.50936568e-01, -8.04326013e-02,
          1.58818156e-01, -2.49972334e-03, -1.91879362e-01,
          -2.49243245e-01, -2.96643972e-01, -1.14098363e-01,
          -1.60994738e-01, -1.23897135e-01, 3.91401686e-02,
          2.84869015e-01, 5.31451553e-02, -9.03861150e-02,
          -1.33197621e-01, -1.31976902e-01, -1.17245160e-01,
          -2.03452975e-01, -1.71514019e-01, -4.76552807e-02,
          1.49916396e-01, -2.99323034e-02, -1.49924651e-01,
          -1.69922680e-01, -1.11868754e-01, -1.48469508e-01,
          -2.01172486e-01, -1.63383141e-01, 5.33182882e-02,
          2.86939979e-01, 7.43920580e-02, -8.63923654e-02,
          -1.56737894e-01, -1.44485980e-01, -1.58519596e-01,
          -2.69906491e-01, -2.15267807e-01, -5.36754020e-02,
          1.46588817e-01, -6.09489456e-02, -1.71873406e-01,
          -1.91856951e-01, -1.30148008e-01, -9.71373077e-03,
          -1.56159222e-01, -1.45229876e-01, -3.01726479e-02,
          1.56985253e-01, -8.13115835e-02, -1.72644541e-01,
          -1.59676597e-01, -2.24292669e-02, 1.42298173e-02,
          -1.98841617e-01, -2.03662172e-01, -6.28661364e-02,
          1.10742025e-01, -9.47928652e-02, -1.89066499e-01,
          -2.01611772e-01, -5.15524112e-03, -5.83313704e-02,
          -2.19290033e-01, -1.96129471e-01, -7.79229254e-02,
          1.43341705e-01, -6.54398426e-02, -1.85656145e-01,
          -1.72625706e-01, -3.40666324e-02, -1.29795661e-02,
          -2.49427423e-01, -2.17138037e-01, -7.92684555e-02,
          1.26813650e-01, -7.99476057e-02, -2.20461637e-01,
          -2.43483394e-01, -2.34056134e-02, 5.71364202e-02,
          -1.91250429e-01, -1.79013655e-01, -7.69243315e-02,
          1.06156975e-01, -9.21870098e-02, -1.57465428e-01,
          -1.65076673e-01, 5.03465496e-02, 7.48691782e-02,
          -2.14326292e-01, -2.02583924e-01, -1.33822605e-01,
          1.99550819e-02, -1.51654229e-01, -1.90892354e-01,
          -1.91944554e-01, 7.94752017e-02, 4.89379093e-02,
          -2.33686522e-01, -1.94233477e-01, -9.54621509e-02,
          1.04474708e-01, -8.58346969e-02, -1.86235249e-01,
          -2.26351768e-01, 2.51431372e-02, 3.93623747e-02,
          -2.53260404e-01, -2.40913600e-01, -1.55176878e-01,
          9.13767051e-03, -1.62370041e-01, -2.20519483e-01,
          -2.54365802e-01, 3.23160328e-02, 1.64637834e-01,
          -5.74038662e-02, -6.81463033e-02, -3.65478024e-02,
          -4.70560156e-02, -4.59913835e-02, -9.34156552e-02,
          -6.74034134e-02, 1.45583123e-01, 1.37869656e-01,
          -4.57574427e-02, -6.55742809e-02, -3.49998027e-02,
          -3.01872976e-02, -3.44169438e-02, -1.08690649e-01,
          -6.69071525e-02, 1.25688553e-01, 1.33336902e-01,
          -7.58480057e-02, -1.00719392e-01, -8.16169158e-02,
          -6.89079911e-02, -5.28128855e-02, -8.95241350e-02,
          -6.03417717e-02, 1.50929749e-01, 1.14304744e-01,
          -8.44134763e-02, -1.09181687e-01, -6.88163340e-02,
          -5.72417006e-02, -2.78200991e-02, -9.69580412e-02,
          -4.27619442e-02, 1.25852495e-01, 1.28409952e-01,
          -2.57662144e-02, -4.07563634e-02, -4.19210158e-02,
          -1.42171569e-02, -2.54700650e-02, -7.67868087e-02,
          -3.78764123e-02, 1.32635802e-01, 1.22367032e-01,
          -3.19347866e-02, -6.02084212e-02, -5.32041900e-02,
          -2.24308372e-02, -4.31895331e-02, -9.17980522e-02,
          -4.82536331e-02, 1.11615367e-01, 1.21064544e-01,
          -5.79327121e-02, -9.51037407e-02, -6.38244227e-02,
          -4.15331163e-02, -4.70649404e-03, -6.64409772e-02,
          -3.81941609e-02, 1.28743961e-01, 9.24276188e-02,
          -4.79698293e-02, -1.10961609e-01, -6.50522485e-02,
          -3.90086845e-02, -3.97263765e-02, -8.01479369e-02,
          -4.89267521e-02, 9.67397839e-02, 7.82711729e-02,
          -6.03374168e-02, -9.82005820e-02, -7.46818483e-02,
          -5.62411845e-02, -7.22712129e-02, -9.75167006e-02,
          -6.12737350e-02, 7.32719153e-02, 5.59305698e-02,
          -1.17870094e-02, -9.19488631e-03, 8.81185830e-02,
          1.14217795e-01, 3.55326794e-02, -4.23069037e-02,
          -5.66892326e-02, 5.82961515e-02, 5.49582727e-02,
          -7.05698207e-02, -1.21718153e-01, -8.72801393e-02,
          -7.42656514e-02, -7.55544603e-02, -1.10645339e-01,
          -6.53995275e-02, 7.16483891e-02, 6.84460923e-02,
          -3.85505594e-02, -3.72555330e-02, 3.57181951e-02,
          8.18040296e-02, 7.39923045e-02, 1.13678444e-03,
          -9.25379060e-03, 6.42090216e-02, -9.66551378e-02,
          4.36249143e-03, 7.51068294e-02, 1.25287145e-01, 5.96155599e-03,
          2.96954513e-02, -4.44458537e-02, -1.08337142e-01,
          -1.42693520e-01, -4.22256440e-03, 1.76728338e-01,
          2.07769185e-01, 2.08076209e-01, 9.41308867e-03, 1.18042916e-01,
          6.91645443e-02, 3.09395529e-02, -7.27576166e-02,
          -1.40139803e-01, -8.43253955e-02, -4.74408120e-02,
          4.30177450e-02, -1.67293306e-02, 1.06487438e-01,
          7.87818879e-02, -5.38383378e-03, -1.26128271e-01,
          -7.91055262e-02, 3.42546739e-02, 7.30736926e-02,
          1.22995391e-01, -2.46184189e-02, 1.78638771e-01,
          1.97620854e-01, 1.67695642e-01, -1.26283318e-02,
          4.06440161e-02, 1.29108652e-01, 9.61691290e-02, 6.08467311e-02,
          -1.18398786e-01, 4.12582867e-02, 6.55100569e-02,
          9.93183553e-02, 4.85325698e-03, -2.81191361e-03,
          1.37545213e-01, 1.20161191e-01, 7.29684308e-02,
          -1.33362085e-01, 1.85432490e-02, 8.28296319e-02,
          1.18120879e-01, -2.66059581e-02, 2.16397885e-02,
          1.15654118e-01, 7.10729659e-02, 2.86187381e-02,
          -1.44909307e-01, 6.89147785e-02, 1.08353518e-01,
          1.28699005e-01, 2.58674696e-02, -5.59480302e-03,
          1.28769457e-01, 9.67572704e-02, -5.98276639e-03,
          -1.41198754e-01, 1.03297956e-01, 1.56334996e-01,
          1.21335559e-01, -3.13082971e-02, -1.85808968e-02,
          1.72331274e-01, 2.26965576e-01, 1.86722070e-01,
          -1.23989014e-02, 1.05696030e-01, 1.39069542e-01,
          1.05831280e-01, -4.64317799e-02, -1.43949732e-01,
          4.99722399e-02, 6.37990758e-02, -1.87111441e-02,
          -1.94425657e-01, -4.88087833e-02, -2.56851129e-02,
          -1.84905995e-02, -1.62681475e-01, -4.46143597e-02,
          1.13516256e-01, 1.49472371e-01, 9.30075720e-02,
          -1.02649303e-02, 2.16710731e-01, 2.60376632e-01,
          1.76609054e-01, -4.38311808e-02, -1.82728350e-01,
          -4.16375510e-02, -4.73553427e-02, -8.01268518e-02,
          -1.98804706e-01, -8.27717967e-03, 5.19834980e-02,
          3.69975977e-02, -1.64066032e-01, 1.66228097e-02,
          1.40686780e-01, 6.62717670e-02, -9.72281676e-03,
          -1.26005828e-01, 1.44856039e-03, 3.64817269e-02,
          9.30401757e-02, -1.73243426e-03, 6.22596443e-02,
          8.87654126e-02, -4.28341515e-02, -1.29967868e-01,
          -2.35627115e-01, -7.96483681e-02, 3.81230679e-03,
          1.04422413e-01, 5.17229587e-02, -1.86705776e-02,
          8.68077949e-02, 1.58957224e-02, -1.56081943e-02,
          -1.25546619e-01, 4.90291277e-03, 6.72495365e-02,
          1.26540095e-01, 1.63406711e-02, 4.77200076e-02, 7.99936280e-02,
          -3.15104127e-02, -1.30002186e-01, -2.52569467e-01,
          -1.02130972e-01, -1.39000006e-02, 1.00596316e-01,
          7.78305903e-02, 6.42476529e-02, 7.57457912e-02,
          -2.21169125e-02, -1.07532747e-01, -1.85587958e-01,
          -6.03454597e-02, -2.66907737e-03, 8.72641653e-02,
          5.86816110e-02, 2.01850869e-02, 7.67685845e-02,
          -5.13860350e-03, -4.38807793e-02, -9.65504050e-02,
          1.24348765e-02, -9.50785726e-03, 2.98089199e-02,
          -1.46259936e-02, 5.30433021e-02, 5.89585043e-02,
          -3.65336500e-02, -1.26353219e-01, -2.18830630e-01,
          -9.04958546e-02, -1.73350461e-02, 1.03441507e-01,
          9.17792320e-02, -1.57784224e-02, 2.87169386e-02,
          -4.45556566e-02, -4.37948145e-02, -1.22287691e-01,
          -2.06056498e-02, 9.62237478e-04, 9.51600149e-02,
          3.43451388e-02, -3.09332050e-02, 2.40832735e-02,
          -2.10177954e-02, 2.90917661e-02, 2.83146854e-02,
          7.95688033e-02, -3.81407863e-03, -2.06451602e-02,
          -7.36114159e-02, -9.89361033e-02, -3.85296978e-02,
          -4.10002321e-02, 3.31974477e-02, 3.85246687e-02,
          7.12015554e-02, -2.08657775e-02, -6.55667484e-02,
          -1.15140602e-01, -5.27911335e-02, -2.61307182e-03,
          -1.79687012e-02, 5.27501442e-02, 4.85953875e-03,
          4.07667011e-02, -1.18279001e-02, 2.93016005e-02,
          -2.55878568e-02, -8.99950638e-02, -2.48842742e-02,
          3.03127500e-03, 6.87529221e-02, 2.51914170e-02, 2.41879653e-02,
          -5.67013361e-02, -3.66199911e-02, -9.24487859e-02,
          -1.02026224e-01, -2.14399174e-02, -1.24230338e-02,
          4.07074094e-02, 3.15171629e-02, 7.74566084e-02, 5.11947321e-03,
          -3.04370560e-02, -8.77361745e-02, 2.14022701e-03,
          -3.72373243e-03, -4.42623943e-02, -6.34095445e-02,
          -8.81581828e-02, -8.96995421e-03, -1.32476920e-02,
          3.38218473e-02, 3.26294303e-02, -7.70445168e-02,
          1.07206013e-02, 2.48355754e-02, 8.24637786e-02, 2.82090344e-02,
          3.42993289e-02, -2.82449219e-02, -3.54400724e-02,
          -8.90823454e-02, 2.69200318e-02, 5.26090339e-02,
          -2.34760009e-02, -4.58007939e-02, -9.26234722e-02,
          -3.70276719e-02, -5.13422750e-02, -1.13294506e-02,
          -1.13053787e-02, 1.40736863e-01, 4.39253636e-02,
          -9.91829187e-02, -1.99036926e-01, -2.51972288e-01,
          -1.45360693e-01, -5.85334413e-02, 7.61716366e-02,
          1.79843560e-01, 3.12393665e-01, 1.17944054e-01,
          -1.31500378e-01, -2.72702485e-01, -3.88979793e-01,
          -2.62235343e-01, -1.45388052e-01, 1.11511521e-01,
          3.01432669e-01, 1.97683856e-01, 9.36607644e-02,
          -6.61449656e-02, -1.78109407e-01, -2.40827411e-01,
          -1.80672944e-01, -1.09785937e-01, 3.52439173e-02,
          1.38806969e-01, 3.08145493e-01, 1.26815930e-01,
          -1.24516673e-01, -2.76647717e-01, -3.89757395e-01,
          -2.76662320e-01, -1.82981908e-01, 1.07962303e-01,
          3.03088009e-01, 3.12250763e-01, 9.26102623e-02,
          -1.42620742e-01, -2.69055635e-01, -3.74062032e-01,
          -2.69376308e-01, -1.69646770e-01, 5.73252328e-02,
          2.73429036e-01, 3.79181385e-01, 1.67361841e-01,
          -1.20637983e-01, -2.94318289e-01, -4.03662056e-01,
          -2.84853518e-01, -1.62591934e-01, 6.56650513e-02,
          3.49568963e-01, 3.02691877e-01, 7.01921955e-02,
          -1.73026264e-01, -2.95916289e-01, -3.93454671e-01,
          -2.86913037e-01, -1.95007727e-01, 8.06902796e-02,
          3.22310627e-01, 3.56553108e-01, 8.27956647e-02,
          -1.58955008e-01, -3.00245553e-01, -4.13252354e-01,
          -3.15102279e-01, -1.46638840e-01, 1.45924553e-01,
          3.71516228e-01, 3.68565381e-01, 1.31540641e-01,
          -1.28641754e-01, -2.64901727e-01, -3.68888766e-01,
          -2.72324592e-01, -1.66100755e-01, 4.76543866e-02,
          3.38129282e-01, 3.63599539e-01, 8.76801908e-02,
          -1.69081032e-01, -2.73176193e-01, -3.95889521e-01,
          -3.18548173e-01, -2.07993433e-01, 2.83764713e-02,
          3.06312889e-01, 3.38286012e-01, 4.45631444e-02,
          -1.61570311e-01, -2.82587677e-01, -3.92250180e-01,
          -3.01896185e-01, -1.68525159e-01, 1.24192588e-01,
          3.64779145e-01, 3.14107418e-01, 3.80689651e-02,
          -2.07327873e-01, -3.14320505e-01, -4.03992146e-01,
          -3.25906962e-01, -2.09843844e-01, 5.42438515e-02,
          3.21670800e-01, 3.19049329e-01, 6.14896007e-02,
          -1.41665578e-01, -2.60691494e-01, -3.77801776e-01,
          -3.12914640e-01, -2.07399338e-01, 1.89562384e-02,
          2.93733388e-01, 2.91754723e-01, 9.98187810e-02,
          -1.02437258e-01, -2.05800489e-01, -3.07266563e-01,
          -2.14335948e-01, -1.10992692e-01, 1.14517622e-01,
          2.93818802e-01, 3.03522766e-01, 3.40242647e-02,
          -1.94149241e-01, -3.05222780e-01, -3.91110361e-01,
          -3.00228626e-01, -1.75206274e-01, 3.88973355e-02,
          2.99725384e-01, 2.98284918e-01, 1.20768949e-01,
          -1.00856364e-01, -2.06227124e-01, -3.17525178e-01,
          -2.35443339e-01, -1.16533972e-01, 1.19097732e-01,
          2.94814676e-01, 1.22662298e-01, 7.40627423e-02,
          -6.12789467e-02, -1.18913203e-01, -1.62109897e-01,
          -1.05083764e-01, -4.67250571e-02, 8.18815678e-02,
          1.41875640e-01, -1.23325307e-02, 1.47903515e-02,
          -2.08891220e-02, 6.42447770e-02, 1.17120482e-01,
          6.24917820e-02, -1.11722788e-02, 4.21402603e-03,
          -2.70277131e-02, 1.29502878e-01, 7.53727108e-02,
          -6.92650452e-02, -1.10753037e-01, -1.64341897e-01,
          -1.29589334e-01, -5.57827093e-02, 9.31196213e-02,
          1.33410126e-01, -3.89947221e-02, -3.31307538e-02,
          -4.90012802e-02, 6.13922551e-02, 1.12634860e-01,
          6.41897917e-02, -7.21296854e-03, 2.24432480e-02,
          -2.40011495e-02, -9.74088088e-02, -2.36678626e-02,
          9.18079726e-03, 2.61801541e-01, 4.48768437e-01, 2.97003448e-01,
          3.57649438e-02, -2.66905054e-02, -1.06862307e-01,
          -2.86276162e-01, -2.49708563e-01, -2.47701213e-01,
          -6.02378361e-02, 1.62088037e-01, -3.66509557e-02,
          -2.09189117e-01, -2.51111746e-01, -2.97688365e-01,
          -1.14877507e-01, -7.35539347e-02, 1.71603053e-03,
          2.92301595e-01, 4.26378667e-01, 2.61167794e-01, 1.60016939e-02,
          -2.57455911e-02, -1.15809023e-01, -3.22767019e-01,
          -3.04831594e-01, -2.66257584e-01, -5.03450222e-02,
          1.59458950e-01, -6.88747987e-02, -2.72480279e-01,
          -2.97783494e-01, -3.35541964e-01, -1.44370422e-01,
          -1.74874842e-01, -1.38703376e-01, 6.14524856e-02,
          3.06481987e-01, 5.93539961e-02, -8.92080739e-02,
          -1.48445517e-01, -1.46881685e-01, -1.41307935e-01,
          -2.45708823e-01, -1.97144508e-01, -2.52602007e-02,
          1.66641787e-01, -3.74927297e-02, -1.58417746e-01,
          -1.80740461e-01, -1.27874762e-01, -1.66681319e-01,
          -1.97981358e-01, -1.20589226e-01, 8.39308351e-02,
          3.11961502e-01, 8.21923316e-02, -1.53119102e-01,
          -2.03505903e-01, -1.77961335e-01, -1.52621359e-01,
          -2.27545753e-01, -1.93815738e-01, -3.08207683e-02,
          1.71059236e-01, -1.79851931e-02, -2.02216879e-01,
          -2.48823047e-01, -1.79358989e-01, -7.77900964e-02,
          -2.22320363e-01, -1.77274227e-01, -6.69334382e-02,
          1.47560269e-01, -3.18868160e-02, -1.47848904e-01,
          -1.53801695e-01, -5.63213937e-02, -2.19147243e-02,
          -2.29255170e-01, -1.74885288e-01, -7.49825388e-02,
          1.40476912e-01, -5.22647910e-02, -1.79625794e-01,
          -2.11417004e-01, -2.51879040e-02, -9.96885672e-02,
          -1.96905807e-01, -1.81163266e-01, -6.54790252e-02,
          1.66060299e-01, -2.53717415e-02, -1.72095418e-01,
          -2.20991224e-01, -1.01892531e-01, -5.32938279e-02,
          -2.36371860e-01, -1.87847644e-01, -7.11572245e-02,
          1.31946012e-01, -5.09402007e-02, -2.08647206e-01,
          -2.43597567e-01, -5.46401106e-02, 2.45465171e-02,
          -2.08912253e-01, -1.63404301e-01, -7.30531886e-02,
          1.08686335e-01, -6.78235218e-02, -1.75279930e-01,
          -1.89739496e-01, 2.92595755e-02, 3.66743393e-02,
          -2.26911277e-01, -1.99686259e-01, -1.45295337e-01,
          1.87995154e-02, -1.51186392e-01, -2.01597407e-01,
          -2.26746053e-01, 4.38572727e-02, 7.10192090e-03,
          -2.15489104e-01, -1.84393495e-01, -7.25471154e-02,
          1.12201795e-01, -5.85492663e-02, -1.79392189e-01,
          -2.02557996e-01, 1.38924373e-02, 4.08945456e-02,
          -2.40630567e-01, -2.09093511e-01, -1.38056844e-01,
          2.93107834e-02, -1.39276236e-01, -2.14439407e-01,
          -2.28229940e-01, 3.49184349e-02, 1.46556616e-01,
          -6.77538216e-02, -9.39995497e-02, -5.73493540e-02,
          -8.22795276e-03, -2.77202856e-02, -6.89256564e-02,
          -3.87289561e-02, 1.77808315e-01, 1.07234403e-01,
          -8.82165581e-02, -9.74850655e-02, -4.05691601e-02,
          -1.74961949e-03, 4.89515159e-03, -6.28846064e-02,
          -3.78838740e-03, 1.51505202e-01, 1.30295321e-01,
          -1.12087190e-01, -1.55383632e-01, -1.01935185e-01,
          -8.34638551e-02, -5.55268377e-02, -7.98342898e-02,
          -5.41714728e-02, 1.46367803e-01, 8.11481923e-02,
          -1.22209378e-01, -1.48570001e-01, -9.61636454e-02,
          -3.45946662e-02, -3.74821238e-02, -7.60891959e-02,
          -4.57017832e-02, 1.07899204e-01, 9.15626734e-02,
          -6.40629381e-02, -8.73328671e-02, -2.90334746e-02,
          -8.67415871e-03, 1.18030785e-02, -2.10495051e-02,
          -6.84639264e-04, 1.13260388e-01, 8.54332447e-02,
          -3.05632669e-02, -9.79399011e-02, -4.40203175e-02,
          -1.77665371e-02, 5.15235960e-03, -2.92042196e-02,
          1.75349578e-05, 9.23234969e-02, 6.99468479e-02,
          -9.30956602e-02, -1.16465509e-01, -5.76071963e-02,
          -3.20933834e-02, -1.72741003e-02, -3.60911675e-02,
          -1.64605454e-02, 8.08714703e-02, 5.12717403e-02,
          -6.70776144e-02, -1.07759401e-01, -6.42101243e-02,
          -2.11438928e-02, 8.64713360e-03, -2.23268606e-02,
          -8.54563247e-03, 7.95751065e-02, 6.79878071e-02,
          -2.70820446e-02, -7.55138993e-02, -4.13422659e-02,
          -2.64265463e-02, -2.10922211e-02, -5.52894659e-02,
          -1.34602645e-02, 9.13981497e-02, 8.60933363e-02,
          -1.21385623e-02, -4.43222485e-02, -6.77380385e-03,
          4.36664969e-02, 8.97077098e-02, 5.71574271e-02, 4.14417200e-02,
          8.41604024e-02, 5.63137382e-02, -6.89422712e-02,
          -1.25347123e-01, -6.68940842e-02, -5.53818829e-02,
          -1.14549845e-02, -4.26802561e-02, -3.01450472e-02,
          5.24303876e-02, 8.75941366e-02, -3.28192636e-02,
          -9.77135152e-02, -3.23601961e-02, -3.65376361e-02,
          1.57196671e-02, -3.44677945e-03, -1.35072162e-02,
          6.80891946e-02, -2.11357921e-02, -7.00961277e-02,
          -7.86820725e-02, -2.27712169e-02, -4.23429906e-02,
          1.14362083e-01, 1.63850293e-01, 1.03791989e-01,
          -1.01486326e-03, 9.96909738e-02, 3.43445577e-02,
          8.51419102e-03, 5.76248504e-02, -3.40615809e-02,
          1.96578994e-01, 2.79284894e-01, 3.02944332e-01, 2.00123772e-01,
          -3.48574482e-02, -1.02994949e-01, -1.28003389e-01,
          -8.33532512e-02, -1.57545686e-01, -5.29693365e-02,
          -4.32500616e-02, -3.82453091e-02, -2.72076540e-02,
          1.51563194e-02, -6.89366087e-02, -8.93072113e-02,
          -5.26838750e-02, -1.74787939e-01, -5.82875777e-03,
          4.33934592e-02, 9.91148204e-02, 8.94149095e-02, 1.13210969e-01,
          1.02216221e-01, 2.44557317e-02, -1.46662965e-02,
          -1.45956978e-01, 4.15742062e-02, 1.10727221e-01,
          1.76135629e-01, 1.35985777e-01, 7.10407570e-02, 1.34749874e-01,
          7.34474063e-02, -3.23026367e-02, -9.61347818e-02,
          1.71111330e-01, 2.40894988e-01, 1.92695484e-01, 6.84523433e-02,
          2.08560210e-02, -1.14787510e-02, -8.80000666e-02,
          -8.98538530e-02, -2.19596222e-01, -7.37871602e-02,
          -7.40003167e-03, 3.03837769e-02, 4.37597409e-02,
          -3.64053785e-03, -1.27220631e-03, -8.13721940e-02,
          -1.33743137e-01, -1.86603516e-01, 6.83019310e-02,
          1.51779324e-01, 1.16143867e-01, 2.23133303e-02,
          -4.24023196e-02, 3.22452225e-02, 8.89089715e-04,
          -6.43897280e-02, -8.72531012e-02, 2.16711834e-01,
          3.45214248e-01, 2.59286970e-01, 1.38061512e-02,
          -1.35121316e-01, -8.54104087e-02, -1.36874750e-01,
          -1.91358313e-01, -2.74806976e-01, -7.22839357e-03,
          1.63633510e-01, 1.90371826e-01, -3.57127115e-02,
          -2.40509473e-02, -2.31353231e-02, -1.06050119e-01,
          -1.58402175e-01, -1.65613592e-01, 1.47880003e-01,
          3.30589920e-01, 3.06853533e-01, 9.36155319e-02,
          -3.20965759e-02, -7.76127428e-02, -1.99316218e-01,
          -2.65989959e-01, -3.38457167e-01, -1.19721387e-02,
          2.51425982e-01, 3.51720333e-01, 1.58483416e-01, 2.48759706e-03,
          2.18772292e-02, -7.54007846e-02, -1.52021110e-01,
          -2.41705731e-01, -8.87089223e-02, 2.78891269e-02,
          1.54363051e-01, 7.97592774e-02, 9.96307805e-02, 5.10163866e-02,
          -9.98091921e-02, -2.07384452e-01, -3.20957124e-01,
          -1.65957227e-01, -9.44274515e-02, 7.10235834e-02,
          1.17598318e-01, 1.69273838e-01, 6.85508028e-02,
          -8.25967789e-02, -1.98485985e-01, -2.92942584e-01,
          -7.34788850e-02, 1.39194399e-01, 3.71377081e-01,
          3.09298217e-01, 2.32764348e-01, 9.92746726e-02,
          -5.59682399e-02, -2.11505055e-01, -3.41251552e-01,
          -1.57886490e-01, -9.35064070e-03, 2.61803299e-01,
          3.02357763e-01, 8.81457105e-02, 2.21267249e-02,
          -9.57126319e-02, -1.86504826e-01, -2.74007916e-01,
          -1.61982730e-01, -1.08999543e-01, 8.39037970e-02,
          1.31203339e-01, 6.91586733e-02, 2.63473112e-02,
          -7.40558282e-02, -1.46722838e-01, -2.41559058e-01,
          -1.54529274e-01, -7.61016384e-02, 1.21562809e-01,
          1.29090637e-01, 2.34537378e-01, 1.17589995e-01,
          -4.33739983e-02, -1.68030083e-01, -2.98800737e-01,
          -1.51318684e-01, -3.36982720e-02, 2.23957121e-01,
          3.04978877e-01, 2.68165290e-01, 1.67549074e-01,
          -1.75570939e-02, -1.40172035e-01, -2.63055265e-01,
          -1.55469194e-01, -8.09796993e-03, 2.59494245e-01,
          3.18586051e-01, 4.07920480e-02, 1.12741226e-02,
          -5.01903184e-02, -5.86178042e-02, -1.52622744e-01,
          -1.01205572e-01, -5.96832149e-02, 1.08584918e-01,
          8.48253295e-02, 9.14738141e-03, -4.63642646e-03,
          -8.26087147e-02, -8.21584314e-02, -1.83427006e-01,
          -1.45781651e-01, -1.20916955e-01, 2.29235943e-02,
          4.39863540e-02, 2.89361715e-01, 1.69534177e-01,
          -2.31157579e-02, -1.10313222e-01, -2.45594054e-01,
          -1.51289389e-01, -1.34224119e-02, 2.55913705e-01,
          3.33615482e-01, 2.31291890e-01, 1.33015379e-01,
          -3.25796194e-02, -1.32095620e-01, -2.62158096e-01,
          -1.84551865e-01, -8.89624730e-02, 1.73754022e-01,
          2.82532930e-01, 3.00680641e-02, 2.72098612e-02,
          -5.56161925e-02, -5.47622144e-02, -1.62086144e-01,
          -1.21034384e-01, -1.08885996e-01, -8.80519859e-03,
          4.75875437e-02, 1.15351185e-01, 4.84875999e-02,
          -9.25363377e-02, -1.34870678e-01, -2.24815771e-01,
          -1.88818112e-01, -1.49940997e-01, -4.75043096e-02,
          5.83008751e-02, 2.75774747e-01, 1.51350334e-01,
          -2.07089037e-02, -8.63502771e-02, -2.02056527e-01,
          -1.46248534e-01, -7.34307170e-02, 1.39653176e-01,
          3.07657510e-01, 3.10999215e-01, 1.79191053e-01,
          -3.82075086e-02, -1.30557448e-01, -2.50680327e-01,
          -2.16372311e-01, -1.36353076e-01, 8.31254646e-02,
          2.83850521e-01, 2.30259657e-01, 9.21478719e-02,
          -7.62750432e-02, -1.74437106e-01, -2.77563393e-01,
          -2.25512743e-01, -1.66527450e-01, -1.94897521e-02,
          1.31683663e-01, 3.00205499e-01, 9.91717279e-02,
          -1.41971156e-01, -2.59999782e-01, -3.61525387e-01,
          -2.73895502e-01, -2.29926467e-01, -1.58927981e-02,
          2.38035083e-01, 3.77483845e-01, 1.91765472e-01,
          -3.28903683e-02, -1.44709945e-01, -2.56407827e-01,
          -2.33381599e-01, -1.55376896e-01, 3.57258618e-02,
          2.98599571e-01, 3.31255287e-01, 1.31678522e-01,
          -1.28805429e-01, -2.41559461e-01, -2.95031637e-01,
          -2.66795158e-01, -2.04992384e-01, -5.82100451e-03,
          2.64160275e-01, 3.45827043e-01, 9.75766852e-02,
          -1.38256058e-01, -2.37276167e-01, -3.33474338e-01,
          -2.46638119e-01, -1.85871765e-01, 4.32825387e-02,
          3.21981579e-01, 3.60047847e-01, 7.98527598e-02,
          -1.53010741e-01, -2.48765469e-01, -3.64215404e-01,
          -2.79511094e-01, -1.59048826e-01, 1.05954766e-01,
          3.74370158e-01, 3.31079602e-01, 7.92911202e-02,
          -1.64714202e-01, -2.45216668e-01, -2.84765214e-01,
          -2.48652428e-01, -1.82684764e-01, 4.21286561e-03,
          2.57223725e-01, 2.61759549e-01, 1.63782872e-02,
          -1.97349548e-01, -2.43191227e-01, -3.08976293e-01,
          -2.66523272e-01, -1.84055775e-01, 4.17148359e-02,
          2.61766553e-01, 3.37297142e-01, 4.75409515e-02,
          -1.48947224e-01, -2.36963898e-01, -3.18457335e-01,
          -2.52076030e-01, -1.47176102e-01, 1.40554592e-01,
          3.91187072e-01, 3.29051852e-01, 4.23953682e-02,
          -1.84621349e-01, -2.88187057e-01, -3.45367312e-01,
          -2.69334882e-01, -1.71747059e-01, 7.85016865e-02,
          3.46513987e-01, 2.43488207e-01, -1.86525788e-02,
          -1.93330288e-01, -2.18248755e-01, -2.55222261e-01,
          -2.25345194e-01, -1.70367762e-01, 6.15846738e-02,
          2.58168787e-01, 2.13979140e-01, -2.24489123e-02,
          -2.26578653e-01, -2.52620876e-01, -2.59616762e-01,
          -2.12616801e-01, -1.94206744e-01, 3.52374837e-02,
          2.14225605e-01, 3.28072429e-01, 8.48545954e-02,
          -1.71352163e-01, -2.70228326e-01, -3.23441386e-01,
          -2.22244397e-01, -1.37664273e-01, 6.24690801e-02,
          3.05845380e-01, 3.19885463e-01, 1.42538026e-01,
          -8.92975926e-02, -1.85874403e-01, -2.57811904e-01,
          -1.83166370e-01, -9.77900475e-02, 1.40917286e-01,
          2.98940033e-01, 1.67187363e-01, -2.30359137e-02,
          -2.02242360e-01, -2.30204552e-01, -2.31875554e-01,
          -1.95349127e-01, -1.72717556e-01, -3.20009468e-03,
          1.60779119e-01, 1.18292250e-01, 3.31391743e-03,
          -1.24711528e-01, -1.82177201e-01, -1.86915219e-01,
          -1.64644122e-01, -1.62337407e-01, 1.64368600e-02,
          1.11556262e-01, 1.68117642e-01, 1.06349505e-01,
          -2.77148001e-02, -7.84312189e-02, -8.66208747e-02,
          -7.83987045e-02, -3.19888480e-02, 1.23171866e-01,
          1.80371344e-01, -1.34197995e-02, 7.46945152e-03,
          -3.29448096e-03, 8.71390477e-02, 1.68068141e-01,
          9.38803479e-02, 2.21752021e-02, 5.31414449e-02, 4.31821402e-03,
          1.00317197e-02, -1.53881572e-02, -8.50024745e-02,
          -1.04446188e-01, -7.76361153e-02, -9.98403728e-02,
          -1.16229631e-01, -5.84301958e-03, 9.28190444e-03,
          -1.17335580e-01, -8.65122452e-02, -5.22216037e-02,
          4.17293720e-02, 8.21481869e-02, -1.96848884e-02,
          -1.02414183e-01, -9.45654660e-02, -1.48992702e-01,
          -7.61535987e-02, -2.04307940e-02, 6.42471611e-02,
          3.13076198e-01, 4.69105005e-01, 2.61903733e-01, 3.14171128e-02,
          -7.12514110e-03, -8.11836123e-02, -2.71924347e-01,
          -2.43348554e-01, -1.91356689e-01, -2.30600163e-02,
          1.74804866e-01, -6.05595447e-02, -2.36716494e-01,
          -2.58032471e-01, -2.87228882e-01, -1.38469815e-01,
          -7.67048597e-02, 3.06748711e-02, 2.80928820e-01,
          3.71365547e-01, 1.69690296e-01, -6.94063380e-02,
          -1.06161386e-01, -1.72593132e-01, -3.10711920e-01,
          -2.60631174e-01, -2.08630487e-01, -4.51678932e-02,
          1.29200146e-01, -1.04884453e-01, -2.89171249e-01,
          -3.10147911e-01, -3.30452323e-01, -1.40451446e-01,
          -1.63420796e-01, -9.51290950e-02, 8.16523358e-02,
          2.97983706e-01, 5.10317795e-02, -1.56996027e-01,
          -1.94710270e-01, -1.49309963e-01, -1.33736193e-01,
          -1.79873973e-01, -1.57715797e-01, -3.14412341e-02,
          1.61076292e-01, -4.95300815e-02, -1.86075896e-01,
          -2.29881018e-01, -1.51037842e-01, -1.58502519e-01,
          -1.68474972e-01, -1.09393992e-01, 8.11252743e-02,
          2.97323108e-01, 3.60917896e-02, -1.80053860e-01,
          -2.17858166e-01, -1.70797601e-01, -1.53656825e-01,
          -2.24585459e-01, -1.55418202e-01, -1.35000935e-02,
          1.60288170e-01, -6.38877079e-02, -2.01073200e-01,
          -2.53651559e-01, -1.79672211e-01, -7.20192045e-02,
          -1.61000192e-01, -1.57047793e-01, -7.10346848e-02,
          1.48519143e-01, -4.76568677e-02, -1.55561447e-01,
          -2.01902300e-01, -8.74501988e-02, -3.63811478e-02,
          -2.03175470e-01, -1.82249188e-01, -7.45037496e-02,
          1.25783816e-01, -6.64101318e-02, -1.87153310e-01,
          -2.18797803e-01, -3.17319557e-02, -6.38327003e-02,
          -2.00752646e-01, -1.66416302e-01, -6.54785261e-02,
          1.59016669e-01, -2.90625058e-02, -1.62261367e-01,
          -2.03845888e-01, -7.56610334e-02, -2.35598609e-02,
          -2.08351657e-01, -1.93062529e-01, -8.12925398e-02,
          1.17702328e-01, -4.51805443e-02, -1.86154589e-01,
          -2.12077439e-01, -2.21486930e-02, 1.79863721e-02,
          -1.84222698e-01, -1.63070723e-01, -7.74376467e-02,
          1.09905548e-01, -8.66601989e-02, -1.69151381e-01,
          -1.80678114e-01, 3.20515297e-02, 5.28983772e-02,
          -2.22875103e-01, -2.10698068e-01, -1.47688225e-01,
          2.75202096e-02, -1.38161555e-01, -1.97398156e-01,
          -2.04440355e-01, 5.07278666e-02, 4.51392755e-02,
          -1.84583992e-01, -1.79028869e-01, -1.04941063e-01,
          1.00238152e-01, -6.49565905e-02, -1.94110259e-01,
          -2.06315294e-01, 1.85818765e-02, 7.44937733e-02,
          -2.21125513e-01, -2.18485162e-01, -1.68507785e-01,
          8.22939910e-03, -1.47691935e-01, -2.27920562e-01,
          -2.33410746e-01, 4.66820486e-02, 1.48945943e-01,
          -9.74481702e-02, -1.35999814e-01, -8.96750912e-02,
          -8.51696208e-02, -4.49942835e-02, -6.38621971e-02,
          -5.01182191e-02, 1.72263622e-01, 1.12127542e-01,
          -9.52721387e-02, -1.41169831e-01, -8.28961208e-02,
          -2.43542176e-02, -3.50191779e-02, -5.48347682e-02,
          -6.42136112e-02, 1.23922534e-01, 1.61445051e-01,
          -1.10561304e-01, -1.55142277e-01, -8.89599025e-02,
          -7.83483908e-02, -4.14501280e-02, -6.61560148e-02,
          -5.96276857e-02, 1.69190109e-01, 1.46175161e-01,
          -9.42184255e-02, -1.33699179e-01, -8.05187523e-02,
          -2.50292290e-02, -3.46453562e-02, -6.88299015e-02,
          -5.72110936e-02, 1.55148253e-01, 9.83695164e-02,
          -6.41819015e-02, -9.86419022e-02, -6.86247498e-02,
          -2.06804890e-02, -3.06428224e-02, -5.06011173e-02,
          -4.06803563e-02, 8.85505006e-02, 9.24952179e-02,
          -6.22271635e-02, -9.07353088e-02, -5.65147623e-02,
          1.09953235e-03, 1.55628044e-02, -1.98757574e-02,
          -1.06905382e-02, 1.06693663e-01, 1.02105774e-01,
          -6.05176091e-02, -1.00987546e-01, -6.17473796e-02,
          -2.05890127e-02, -3.12221218e-02, -6.79688528e-02,
          -4.43993621e-02, 1.03477031e-01, 8.40764567e-02,
          -5.60389198e-02, -8.09922069e-02, -5.00300266e-02,
          -1.84716824e-02, 1.41762989e-02, -4.56518605e-02,
          -3.29988897e-02, 8.35934281e-02, 8.58992636e-02,
          -6.33160099e-02, -9.44461599e-02, -3.91143709e-02,
          -1.43487081e-02, -1.13968998e-02, -2.63429973e-02,
          -3.16661261e-02, 7.97224045e-02, 9.98418480e-02,
          -3.58766131e-02, -6.83840066e-02, -6.03850372e-03,
          8.02592933e-03, -2.01972835e-02, -3.14877592e-02,
          -4.06880006e-02, 9.04370248e-02, 6.72487542e-02,
          -6.46501556e-02, -7.83469751e-02, -3.53669003e-02,
          -8.58690310e-03, -1.03401737e-02, -4.58116233e-02,
          -4.35150042e-02, 6.44924417e-02, 1.04619317e-01,
          -1.19095743e-02, -4.47341204e-02, -5.26056951e-03,
          2.41288710e-02, -1.24597950e-02, -3.24785896e-02,
          -3.42934281e-02, 6.62437528e-02, 3.70855145e-02,
          -5.37123196e-02, -7.81440362e-02, 9.88141401e-04,
          -9.20485519e-03, -2.87608448e-02, -4.50389832e-02,
          -3.09269503e-02, 4.45899181e-02, 6.00947998e-02,
          -2.24774852e-02, -2.32699439e-02, 4.22173999e-02,
          3.78890545e-04, 2.17566583e-02, 2.95298900e-02, 5.57592176e-02,
          9.54928622e-02, 3.93276215e-02, -4.00664806e-02,
          -7.92365745e-02, -3.25657316e-02, -4.17367034e-02,
          -5.59941232e-02, -5.89265041e-02, -4.07601930e-02,
          2.78001223e-02, 4.36786823e-02, -1.47234658e-02,
          -7.31603336e-03, 3.20416838e-02, -2.07475163e-02,
          1.38853686e-02, -1.18730813e-02, -9.78686498e-04,
          4.89714704e-02, 3.71651612e-02, -4.76024533e-03,
          -3.71296965e-02, 3.17746401e-03, -3.36755924e-02,
          -1.03986226e-02, 1.79775134e-02, 3.72005031e-02,
          5.63218370e-02, 4.84168157e-02, 5.04461713e-02,
          -1.00850258e-02, -2.93761045e-02, -6.61106259e-02,
          5.80778643e-02, 1.06044583e-01, 8.44808742e-02, 6.21373542e-02,
          -1.04911448e-02, -2.44863518e-02, -2.06868723e-02,
          1.05241416e-02, -5.39150052e-02, -2.13640276e-03,
          -2.95600798e-02, -2.67747920e-02, -1.19916294e-02,
          -2.35480233e-03, 4.28394303e-02, -1.11819233e-03,
          -1.04179224e-02, -6.87286705e-02, -1.71460975e-02,
          2.40050349e-03, -4.03561397e-03, -1.18413130e-02,
          2.87093073e-02, 3.17296498e-02, -4.64541763e-02,
          -9.36770439e-02, -1.38143495e-01, 4.14763577e-02,
          1.94559962e-01, 2.30792820e-01, 9.61979106e-02, 8.85884166e-02,
          1.05890138e-02, -1.01449728e-01, -1.60347432e-01,
          -2.40537763e-01, -1.79198366e-02, 1.93360031e-01,
          3.70508492e-01, 2.40145564e-01, -2.56708190e-02,
          2.76468489e-02, -2.39797197e-02, -5.14255054e-02,
          -1.26688063e-01, -4.42035273e-02, -5.95921883e-03,
          2.25295667e-02, -3.74465734e-02, 1.59764700e-02,
          1.71019305e-02, -7.49546587e-02, -1.16839789e-01,
