%YAML:1.0
opencv_ml_svm:
   svmType: EPS_SVR
   kernel:
      type: LINEAR
   C: 1.0000000000000000e-02
   p: 1.0000000000000001e-01
   term_criteria: { epsilon:1.0000000000000000e-03, iterations:1000 }
   var_count: 7524
   sv_total: 1
   support_vectors:
      - [ -3.96330561e-03, 9.54545382e-03, 1.81352179e-02,
          3.29651125e-02, 1.16758756e-02, -6.06347900e-03,
          -2.38522664e-02, -9.02897120e-03, 4.67307726e-03,
          -1.93161257e-02, -1.15075931e-02, 5.93086844e-03,
          4.46451642e-03, -5.09075960e-03, 4.48018452e-03,
          -2.25461181e-02, 1.80467051e-02, -1.25407623e-02,
          3.54918465e-03, -1.90198533e-02, -2.24356470e-03,
          7.50304898e-03, -1.62502807e-02, -1.06948204e-02,
          -1.32091893e-02, -4.09500254e-03, 2.48792637e-02,
          6.49315305e-03, -4.73172450e-03, 3.66193685e-03,
          -1.39385764e-03, -2.47794222e-02, 1.48803042e-02,
          5.81926480e-03, 2.31286362e-02, 2.51717828e-02, 4.56606178e-03,
          -5.09367650e-03, -7.30082532e-03, -1.94333103e-02,
          9.77550726e-03, 1.20795355e-03, -2.78416071e-02,
          2.72068940e-03, 5.31091681e-03, 1.79993901e-02, 1.04135023e-02,
          7.20892567e-03, -4.71607596e-03, 2.80988608e-02,
          -8.87164939e-03, -6.94064284e-03, -1.75108146e-02,
          -2.37058029e-02, -3.30415671e-03, -1.17413672e-02,
          -6.82617258e-03, -3.77335027e-03, 6.28928794e-03,
          1.47571759e-02, 6.00734784e-04, 1.45392222e-02, 1.17137413e-02,
          1.63345374e-02, 2.97033321e-03, -1.06247831e-02,
          1.00554116e-02, 2.12619603e-02, 1.92793086e-02, 2.44229119e-02,
          5.10930782e-03, 6.22925023e-03, 1.00168800e-02, 1.23981908e-02,
          2.42026709e-03, 4.30331985e-03, 5.10167005e-03,
          -1.93628029e-03, 3.72601836e-03, -5.30345086e-03,
          -2.81043574e-02, 1.31869223e-02, 2.11403016e-02,
          -2.13135686e-02, 2.24736594e-02, 1.41947120e-02,
          7.73930643e-03, -4.25849203e-03, 4.90893377e-03,
          -5.24587755e-04, 1.32952584e-02, 1.71853863e-02,
          -1.26033649e-02, 1.14600295e-02, 9.06302780e-03,
          2.17003599e-02, 3.32402484e-03, -8.39809142e-03,
          -1.39800040e-02, -5.88886091e-04, 3.37490700e-02,
          -1.75282732e-02, 2.10909713e-02, -2.20195893e-02,
          -9.91007034e-03, -1.60914510e-02, -2.80949497e-03,
          -1.42826615e-02, -3.34302778e-04, 1.52550675e-02,
          -2.70588323e-02, 2.01289961e-03, 1.48946662e-02,
          2.43562665e-02, -6.20143954e-03, -7.87487428e-04,
          1.00787934e-02, 1.15049928e-02, 1.61707532e-02,
          -1.93498097e-02, -2.10858486e-03, -2.25383081e-02,
          3.24961431e-02, -1.48301206e-05, -4.36341716e-03,
          -5.28792990e-03, 7.87986035e-04, 1.63425673e-02,
          -2.45387834e-02, 4.20570094e-03, -1.81191713e-02,
          6.00304129e-03, -8.32513347e-03, -4.75321990e-03,
          -1.43841431e-02, 9.97238513e-03, 1.04497755e-02,
          -2.51907781e-02, -2.14585233e-02, -5.22422567e-02,
          1.84378847e-02, 9.49635054e-04, 7.83506501e-03, 6.38230005e-03,
          3.42798396e-03, -1.04487315e-02, -5.06811449e-03,
          7.30878301e-03, -3.61510902e-03, 2.63133552e-02,
          2.32087187e-02, 2.11614161e-03, -2.76003536e-02,
          4.48167278e-03, -1.23890107e-02, 7.16377166e-04,
          2.02049874e-02, -1.06677450e-02, -5.41852228e-03,
          7.37701869e-03, 7.24417111e-03, -2.13821568e-02,
          1.43817328e-02, 2.31353496e-03, -1.23948837e-02,
          -6.48131885e-04, -1.50884744e-02, 3.04457545e-02,
          2.04495229e-02, 6.82377815e-03, -5.07822726e-03,
          1.05420426e-02, 2.51018605e-03, -7.52868247e-04,
          1.53323002e-02, -1.74920466e-02, 2.12508501e-04,
          4.63750632e-03, 6.35203626e-03, -1.19226407e-02,
          6.71665359e-04, -1.75520498e-02, -5.25984447e-03,
          7.40550598e-03, -4.26201476e-03, -1.73162054e-02,
          -3.10957059e-02, -7.12698372e-03, 6.20950991e-03,
          -3.09829437e-03, 1.35565863e-03, -1.92493722e-02,
          4.71639680e-03, 2.12229602e-02, 1.29898377e-02,
          -8.52110237e-03, 1.69773754e-02, 1.49191106e-02,
          5.67325344e-03, -1.28770694e-02, -2.31740028e-02,
          -1.68123972e-02, -1.58696305e-02, -6.59796130e-03,
          -1.30794868e-02, 2.55228789e-03, -2.19105696e-03,
          -2.75521493e-03, -5.70502412e-03, -1.91532206e-02,
          -1.34190889e-02, 8.67785513e-03, 9.38895158e-03,
          -1.92647669e-02, 1.41412122e-02, -1.49862682e-02,
          -3.96182854e-03, 1.83501076e-02, -2.75056995e-03,
          8.43300205e-03, 3.28308307e-02, 2.09342800e-02,
          -7.06259534e-03, -5.46046905e-03, 4.92472341e-03,
          -3.50610050e-03, 1.77099463e-02, -2.67119445e-02,
          1.39586721e-02, -1.56265916e-03, -1.64656769e-04,
          -9.97510739e-03, -1.51771912e-02, -6.40858989e-03,
          -8.63154605e-03, 1.82084870e-02, -4.12097992e-03,
          6.02787361e-03, 6.95161195e-03, 5.01545100e-03,
          -2.49338150e-03, 2.47393036e-03, -1.72769278e-02,
          -1.27776004e-02, -6.01886213e-03, -4.07848880e-02,
          -1.00009516e-03, -5.53995408e-02, -1.85593013e-02,
          -1.19637065e-02, -1.16035054e-02, -1.81855913e-02,
          1.89332087e-02, 3.67910340e-02, 5.40338829e-03, 2.50591971e-02,
          3.49172652e-02, 8.72170459e-03, -5.95030095e-03,
          1.16079170e-02, 7.33427471e-03, -1.06310844e-02,
          2.25735977e-02, -1.09788077e-02, -7.71161495e-03,
          -2.49933060e-02, -4.73939739e-02, -2.17139609e-02,
          -4.89408430e-03, -1.20002590e-02, 4.39940952e-03,
          1.42098330e-02, 1.67088583e-03, 1.81203347e-03,
          -5.01154922e-03, 4.79476433e-03, -1.14207268e-02,
          2.56069154e-02, 9.12726950e-03, -1.80191379e-02,
          3.92086152e-03, -1.84504502e-02, -2.36708522e-02,
          -3.04345544e-02, -3.58193032e-02, -2.22049113e-02,
          1.87581591e-02, -1.33638466e-02, -9.46677383e-03,
          1.83861109e-03, -1.92084983e-02, 1.97166055e-02,
          1.59012750e-02, 3.32607841e-03, 5.30820806e-03, 1.66279785e-02,
          -9.51406639e-03, -1.63181368e-02, -5.99222397e-03,
          -2.78027505e-02, -2.03703698e-02, -4.65285219e-03,
          -8.30296520e-03, -1.76824140e-03, 2.05287021e-02,
          6.15612138e-03, -6.65980391e-03, 1.37066683e-02,
          1.29380787e-03, 1.21348156e-02, -8.91187601e-03,
          1.17671443e-02, 1.08282380e-02, 1.80924777e-02, 1.44870346e-03,
          -7.45895132e-03, -3.48547893e-03, -1.40409544e-02,
          -3.31137963e-02, -2.70267092e-02, 1.37139612e-03,
          -1.39680912e-03, 2.48732120e-02, 1.23487879e-02,
          -2.97086872e-02, 2.31586653e-03, -6.08262839e-03,
          2.47507193e-03, -1.59511250e-03, -1.10210534e-02,
          -1.65264457e-02, -4.52730060e-03, -8.19993857e-03,
          -2.53076516e-02, 3.33820528e-04, 8.10192316e-04,
          -1.66599844e-02, -2.29608212e-02, -7.72947120e-03,
          -3.88809517e-02, -1.49528747e-02, -3.52239348e-02,
          -1.15902051e-02, -1.46378381e-02, 1.90897880e-03,
          -1.08024981e-02, -7.19619635e-03, 9.61467717e-03,
          6.43695798e-03, 1.84573773e-02, 3.84507980e-03,
          -2.62499391e-03, -1.71352513e-02, 7.34244892e-03,
          1.82173890e-03, -1.48364855e-02, 6.05539884e-03,
          -1.28427465e-02, -2.40921509e-03, -1.06474860e-02,
          5.28531522e-03, 6.46509835e-03, -1.04357805e-02,
          -1.55634778e-02, -1.33223999e-02, 8.71864054e-03,
          -2.33581420e-02, -2.35717371e-02, -2.29272861e-02,
          -1.23150358e-02, -1.68280751e-02, -1.27925933e-03,
          -1.54287135e-03, -2.12283880e-02, -1.08033037e-02,
          -2.46907957e-03, -2.86128488e-03, -2.75697727e-02,
          1.32176727e-02, -1.81423463e-02, 6.34291256e-03,
          5.56293642e-03, 4.18627076e-03, 2.13664584e-03,
          -5.19167539e-03, -1.27153262e-03, -4.84715728e-03,
          -1.99884381e-02, -6.74998946e-03, 9.01220739e-03,
          1.16364248e-02, -1.93333216e-02, -1.25197796e-02,
          -5.56643447e-03, 6.85061002e-03, -1.10029969e-02,
          -1.18625248e-02, -1.73158885e-03, 1.54096493e-02,
          1.75761282e-02, -2.50997264e-02, -1.32438075e-02,
          -7.42019620e-03, -1.63536647e-03, -1.31433830e-02,
          -9.95389279e-03, 7.31598306e-03, 1.44987134e-02,
          1.58079043e-02, -5.57244406e-04, -2.17621073e-06,
          -3.84268374e-03, -3.66834039e-03, 1.06766513e-02,
          -3.12388204e-02, 1.79769669e-03, 1.91221219e-02,
          3.10777407e-02, -1.41836982e-02, -1.09937144e-02,
          -1.22387800e-02, -1.23878969e-02, -1.60172340e-02,
          -4.32733893e-02, -3.74499820e-02, 2.81173713e-03,
          -1.30109712e-02, -3.92529070e-02, -6.54737093e-03,
          -1.55305089e-02, -8.51946976e-03, -1.04361391e-02,
          7.09111942e-03, -4.74046869e-03, -1.06609790e-02,
          -2.62442250e-02, -9.41024255e-03, 8.49494431e-03,
          -1.27054378e-02, 4.61840071e-03, 8.88633076e-03,
          -1.81807019e-02, -6.38136547e-03, -2.07160544e-02,
          -2.69541163e-02, -1.88550930e-02, 1.01686851e-03,
          -2.70211827e-02, 5.43624861e-03, -4.66016540e-03,
          -1.56531837e-02, -1.02034705e-02, -1.94489385e-03,
          -1.37641802e-02, -1.96231008e-02, -1.09807737e-02,
          -8.34837928e-03, 5.12297545e-03, 1.32831009e-02,
          -1.83559954e-02, 1.59709565e-02, 2.10582977e-03,
          -5.65293618e-03, -3.98523360e-03, -1.86824482e-02,
          -3.18227857e-02, -6.94129430e-03, -8.20440985e-03,
          -2.77434438e-02, -2.15703268e-02, -1.01612983e-02,
          -2.09069308e-02, 4.26084362e-03, 3.23833041e-02,
          -4.20293957e-03, 5.81842661e-03, 2.92454893e-03,
          -1.79399624e-02, -2.02607196e-02, -4.97963093e-03,
          -3.10734700e-04, 1.94499120e-02, -7.39552919e-03,
          -5.45879500e-03, -1.41906389e-03, 2.73203081e-03,
          3.69738298e-03, -7.69216241e-03, -1.51126096e-02,
          -2.32015885e-02, 7.73781911e-03, 3.11551685e-03,
          -1.72001626e-02, 5.41394411e-06, 1.02587398e-02,
          -9.59578343e-03, -1.74353942e-02, -1.65005177e-02,
          -2.25357376e-02, -1.25321941e-02, -2.73824148e-02,
          7.61800958e-03, -3.60400346e-03, 1.21311219e-02,
          -3.14654410e-02, 1.25596691e-02, 2.04263683e-02,
          1.30764283e-02, 2.68993229e-02, -4.43012733e-03,
          -3.60118970e-02, -7.22860964e-03, -1.46231968e-02,
          -5.67368828e-02, 5.98181330e-04, 1.81223005e-02,
          -2.64693284e-03, 8.70742742e-03, -6.16466999e-03,
          -3.08231935e-02, 1.19019370e-03, -2.98144016e-02,
          -1.35568241e-02, 5.04995463e-03, 1.73940156e-02,
          2.10760497e-02, -1.22533217e-02, -3.85886780e-03,
          -1.65377911e-02, -1.37324585e-02, -5.70869015e-04,
          -5.65757565e-02, -7.25465780e-03, -3.58956028e-03,
          -8.30427371e-03, -1.11333863e-03, 7.52504962e-03,
          -1.80737823e-02, -6.12797402e-03, -2.54394170e-02,
          -1.63066145e-02, 7.73691060e-03, 9.60164354e-04,
          -1.77687835e-02, 1.41456136e-02, 6.00351777e-04,
          -1.97799597e-02, 1.08856382e-02, 1.25200180e-02,
          -1.99331995e-02, -1.48444045e-02, -1.54858800e-02,
          -2.05095597e-02, 3.51801282e-03, -5.91960619e-04,
          -2.69400999e-02, -6.36910135e-03, 1.49775231e-02,
          -2.06584111e-02, -1.43219810e-02, -1.91211980e-02,
          -1.97470989e-02, 1.15013048e-04, -9.68728121e-03,
          -6.81817625e-03, 4.40872181e-03, 9.24324244e-03,
          7.20744533e-03, -3.09743024e-02, -1.29630882e-02,
          -1.37026431e-02, -1.76013038e-02, -2.00014059e-02,
          -5.47837932e-03, 2.37685628e-02, 3.52646746e-02,
          -2.63850726e-02, 5.85226458e-04, 9.11806710e-03,
          6.84797857e-03, 7.30755692e-03, -1.28386021e-02,
          -1.75304729e-02, -3.40928999e-03, -2.86261830e-03,
          -1.31622078e-02, -6.99924165e-03, 4.00939211e-03,
          -2.90342886e-03, -1.05144009e-02, -6.41740253e-03,
          -1.37369311e-03, 8.03331670e-04, -8.10335763e-03,
          2.57929252e-03, -2.05132049e-02, -3.68937594e-03,
          -4.50364128e-03, -1.18034019e-03, -2.59895362e-02,
          -8.30961019e-03, 8.34401790e-03, 1.48986168e-02,
          -1.76633112e-02, -1.55374594e-02, -9.66736861e-03,
          -1.29781812e-02, -1.01551814e-02, -2.52497736e-02,
          1.97704276e-03, 1.12364823e-02, -3.38840327e-05,
          4.00889246e-03, -1.11038433e-02, 3.02310078e-03,
          6.97660958e-03, 1.58394836e-02, 2.50249933e-02, 3.69688147e-03,
          -4.87442175e-03, -8.48227763e-04, -9.59334988e-03,
          1.19419745e-03, 1.16893183e-02, -8.07263795e-03,
          -2.31832862e-02, 7.35973613e-03, 3.29545699e-03,
          -3.24782450e-05, 5.76265855e-03, 2.10459828e-02,
          -6.53140759e-03, 5.21708978e-03, 1.16093755e-02,
          -9.39335092e-04, 5.06599713e-03, -7.95831997e-03,
          -6.61050342e-03, 3.38092889e-03, 3.58708436e-03,
          9.24373511e-03, 2.07192320e-02, 7.34765409e-03,
          -1.80473384e-02, 1.19057754e-02, -3.11282836e-02,
          -4.02447134e-02, -2.11780835e-02, -1.11392997e-02,
          4.78946790e-03, 9.17664729e-03, -5.56978397e-03,
          -1.55091584e-02, -1.10433260e-02, 2.35799723e-03,
          8.28720350e-03, 3.91186448e-04, -3.50004702e-04,
          -4.50039515e-03, 1.00161228e-02, -9.75780596e-04,
          1.03227580e-02, 1.18795400e-02, 1.68341165e-03, 8.00595270e-04,
          1.21170273e-02, -5.72538609e-03, -1.79565442e-03,
          7.93503411e-03, 7.46109243e-03, -6.58135582e-03,
          7.83446059e-03, -2.09049359e-02, -2.30401941e-02,
          -1.12495851e-02, -7.29783531e-03, -5.45236841e-03,
          1.33610042e-02, -1.09009258e-02, 2.48077661e-02,
          2.80186776e-02, -1.03167910e-02, -2.59299781e-02,
          9.53370798e-03, 1.29575527e-03, -1.72852408e-02,
          1.43345771e-02, 1.12527041e-02, -1.07985185e-02,
          5.23091992e-04, -1.66525203e-03, 2.97199556e-04,
          3.57233472e-02, 1.85409617e-02, -1.44322589e-02,
          7.76460348e-03, 2.91011371e-02, -7.02279666e-03,
          1.44144017e-02, 2.20431481e-03, 1.06115714e-02, 4.13033515e-02,
          -8.83549266e-03, -3.57607519e-03, 9.46783181e-03,
          1.19300112e-02, -1.92560125e-02, -5.28808637e-03,
          -7.40740774e-03, -1.03192893e-03, 1.79063790e-02,
          -1.09129045e-02, -1.22094760e-02, -7.48957135e-03,
          1.77684091e-02, -7.72974407e-03, 2.30033454e-02,
          -7.33743145e-05, -1.36551319e-03, 1.07383905e-02,
          1.04754278e-02, -7.24397507e-03, -8.54218192e-03,
          4.79798345e-03, -1.16980961e-02, 2.59360820e-02,
          -8.72457493e-03, -6.02687383e-03, 2.32514720e-02,
          2.20223553e-02, 7.42235628e-04, 6.78230962e-03, 1.68314483e-02,
          8.94674566e-03, 2.48663444e-02, 1.30369943e-02,
          -4.96449601e-03, 9.24391393e-03, -1.55449333e-02,
          -2.42825525e-04, -3.40442429e-03, 4.46055178e-03,
          -5.82947815e-03, 2.49381978e-02, -1.62966121e-02,
          -2.03402061e-02, -4.87916172e-03, -1.30098499e-02,
          -4.13695257e-03, 1.04264887e-02, 1.56554077e-02,
          -3.51032475e-03, 5.06520364e-03, -6.12221053e-03,
          -1.32730464e-02, -6.59151608e-03, 2.16736812e-02,
          1.97312664e-02, -1.47992244e-03, 9.28696431e-03,
          3.22267488e-02, 3.34329158e-02, 1.51711644e-03,
          -9.16365127e-04, 7.19072530e-03, 1.31136470e-03,
          2.12105531e-02, -9.94911976e-03, 1.38555653e-02,
          -3.47793545e-03, -9.89107043e-03, -6.94915792e-03,
          1.46854734e-02, 1.11802798e-02, -1.74413659e-02,
          -4.57691588e-03, -1.34502919e-02, -5.44541609e-03,
          -2.12967135e-02, -8.55294988e-03, -8.63192952e-04,
          7.43304938e-03, 1.18435249e-02, 2.17619399e-03, 4.14295169e-03,
          -1.00387214e-02, -6.55421615e-03, -1.68629922e-02,
          -3.10715870e-03, 7.02665281e-03, 2.34458093e-02,
          1.54273324e-02, -1.04527241e-02, 9.54258069e-03,
          -2.50295531e-02, -3.95163847e-03, 1.49939582e-03,
          2.55979598e-03, -8.80013406e-03, 3.88929178e-03,
          -5.01314597e-03, 8.92239716e-03, 2.02054903e-02,
          -1.78213641e-02, -1.17275808e-02, -2.03686617e-02,
          6.49370765e-03, 2.19104742e-03, 2.29918361e-02,
          -2.07852689e-03, 3.97458486e-03, 6.84851315e-03,
          -1.24403648e-03, 5.30012418e-03, 3.67088243e-03,
          1.94533542e-02, -4.31011897e-03, -6.55793725e-03,
          -2.55985814e-03, -1.10070193e-02, -2.02743523e-03,
          -1.03122080e-02, 3.59888258e-03, 1.22615872e-02,
          1.15572978e-02, -3.37404525e-03, 1.22251920e-02,
          -1.47683192e-02, 1.80918220e-02, 9.52533260e-03,
          1.35398156e-03, 2.33196374e-03, 1.12295877e-02, 1.29033467e-02,
          8.54842644e-03, 1.40338782e-02, -1.34688057e-03,
          -1.30108669e-02, 4.18176875e-03, -1.00755758e-04,
          1.97665533e-03, -2.86718048e-02, -1.60668849e-03,
          -1.28685012e-02, -3.09501425e-03, -1.98319964e-02,
          1.39426878e-02, 7.27553619e-04, 4.17470839e-03, 1.35437930e-02,
          6.65753568e-03, -6.76145637e-03, -5.01013966e-03,
          1.77939832e-02, 8.68377276e-03, 7.58180162e-03,
          -3.83312744e-03, -2.37822533e-03, -1.10838981e-02,
          -2.71454025e-02, -4.23448067e-03, 1.57803216e-03,
          -5.87080279e-03, 2.04799008e-02, -9.05450340e-03,
          -8.79214052e-03, -3.23313363e-02, -1.95615124e-02,
          -9.30504128e-03, -4.62058559e-03, -7.04640197e-03,
          2.53712782e-03, -3.25586554e-03, -5.84712019e-03,
          -5.04489813e-04, -1.84649006e-02, -2.06581838e-02,
          -1.95146131e-03, 7.17320538e-04, -2.19238233e-02,
          -8.69610161e-03, -3.39489207e-02, 1.93601400e-02,
          3.72947939e-03, -1.33668408e-02, -7.27846753e-03,
          -1.91818760e-03, -8.53253901e-03, -4.83750086e-03,
          1.35138277e-02, 4.95529771e-02, 7.18152011e-03, 1.27326474e-02,
          -2.06255708e-02, -2.06460431e-02, -4.12485749e-03,
          -8.81245267e-03, -2.08098777e-02, 1.04004787e-02,
          4.30252962e-03, 5.44465147e-03, 2.27271840e-02, 2.24842946e-03,
          8.13548733e-03, 2.05370355e-02, 4.55586705e-03,
          -2.08205767e-02, 1.61608029e-02, -1.74204931e-02,
          -1.50148105e-02, -1.13326339e-02, -3.11895646e-02,
          -2.56146654e-03, -2.20001843e-02, -3.53503460e-03,
          -3.35084973e-03, 1.71388090e-02, -5.83089190e-03,
          -2.27912120e-03, 2.53853220e-02, -1.14933471e-03,
          8.55518971e-03, 2.19961919e-04, -1.68057438e-02,
          -2.30242331e-02, 4.01156023e-03, -7.50522548e-03,
          -1.23190805e-02, 4.02537221e-03, -2.18989365e-02,
          -1.66128203e-02, -4.16941904e-02, -2.86368541e-02,
          -3.07215415e-02, 5.01226773e-03, 2.21044663e-03,
          -2.20229663e-02, -1.76845342e-02, -9.03347321e-03,
          7.99380988e-03, 5.13980514e-04, 2.63223387e-02, 2.93861073e-03,
          2.83138137e-02, 1.95441917e-02, -2.43801940e-02,
          4.78962390e-03, -9.79991816e-03, 2.45459657e-03,
          -9.22056194e-03, 5.61659876e-03, -7.04283267e-03,
          1.76978521e-02, -2.57671624e-03, -1.42799942e-02,
          -1.53201921e-02, -1.10934218e-02, 3.92698543e-03,
          -9.56012215e-03, -1.00707607e-02, 1.85880228e-03,
          1.96142625e-02, -2.88176513e-03, -1.86604876e-02,
          -1.86347570e-02, -2.82445196e-02, -2.28898553e-03,
          -8.28186143e-03, -2.86318338e-03, 9.22409445e-03,
          4.89351805e-03, -7.68586528e-03, -1.07650049e-02,
          2.87718251e-02, 2.17545824e-03, 2.30425857e-02, 2.78115924e-03,
          2.01047622e-02, -6.13932544e-03, 9.69540514e-03,
          -3.57367191e-03, -5.35285706e-03, 7.41203176e-03,
          -4.02424578e-03, -2.77832448e-02, -1.69400852e-02,
          -7.15212850e-03, -1.99231636e-02, 1.81555990e-02,
          1.31002106e-02, 7.93387822e-04, 7.73501233e-04, 5.43219503e-03,
          2.86916718e-02, -1.62982161e-03, -5.35435928e-03,
          -2.54158909e-03, 1.17975113e-03, 2.93362583e-03,
          1.03424967e-03, -6.15687389e-03, -8.40226468e-03,
          -1.65634621e-02, -1.86974332e-02, -3.43463533e-02,
          -4.24338654e-02, 9.44931898e-03, 8.97584483e-03,
          -2.27577910e-02, -2.13111495e-03, -5.06912498e-03,
          -2.97119394e-02, -1.01177255e-02, 1.32805348e-04,
          -6.69551827e-03, 8.83679278e-03, -3.36081954e-03,
          -1.13560073e-03, -1.68787427e-02, 1.01318806e-02,
          1.20885689e-02, 1.48012685e-02, 8.38369876e-03,
          -5.19625330e-03, -6.02722215e-03, 4.14629746e-03,
          -1.29895052e-04, -6.19771937e-03, -1.50552876e-02,
          -2.28139423e-02, -1.43599780e-02, -8.95592326e-04,
          5.99006657e-04, 2.37724148e-02, 1.39812753e-02,
          -4.88307932e-03, -2.39796890e-03, 1.22268836e-03,
          -1.18276058e-02, 1.47551885e-02, 6.65402832e-03,
          1.20209670e-02, 7.57821649e-03, -1.21415518e-02,
          -2.86439657e-02, -3.65868583e-02, 4.09996975e-03,
          1.39567954e-02, 2.27689724e-02, 1.93495955e-02,
          -1.46424398e-02, 4.79247356e-05, -8.15134216e-03,
          -2.64899358e-02, -3.45413852e-03, -7.11691985e-03,
          7.25653162e-03, -1.18036503e-02, 4.51859273e-03,
          -4.02940623e-03, -9.03303176e-03, 1.02635589e-03,
          -6.95317565e-03, 5.97269100e-04, 1.01603409e-02,
          1.59918405e-02, 4.60055377e-03, 1.57741923e-02, 4.66989441e-04,
          -1.03245424e-02, 4.63285763e-03, -8.77306238e-03,
          1.22937812e-02, -1.33455796e-02, 1.07766408e-02,
          -3.26059535e-02, -1.08530726e-02, -1.62339322e-02,
          -6.68704929e-03, 6.02007611e-03, 3.33545706e-03,
          7.39463372e-03, 8.89674481e-03, 1.53281698e-02,
          -4.12150926e-04, -1.09794727e-02, -1.37930252e-02,
          -3.04673938e-03, 8.76601692e-03, -1.18005881e-02,
          -1.74886342e-02, -7.04769697e-03, -4.39326745e-03,
          -1.62821598e-02, -6.81941537e-03, -9.73556843e-03,
          7.55297206e-03, -6.03728415e-03, 1.41767049e-02,
          5.86616062e-03, -9.20950342e-03, -9.42071807e-03,
          -4.54990513e-04, -7.88060483e-03, -7.58696347e-03,
          -4.42397129e-03, 7.09156692e-03, 6.43813517e-03,
          -7.93428998e-03, -1.58831719e-02, -6.64270017e-03,
          1.65847242e-02, 1.07580675e-02, -2.42436733e-02,
          -2.19826847e-02, -2.14470290e-02, -1.23538701e-02,
          1.75311079e-03, -8.43503792e-03, -1.14104254e-02,
          -2.49994788e-02, -1.86886396e-02, -1.14274099e-02,
          1.46047659e-02, -3.07632401e-03, -7.98225310e-03,
          1.37355030e-02, -6.67378679e-03, 1.64722223e-02,
          -2.70555206e-02, -1.87180210e-02, -1.99223813e-02,
          -1.25561347e-02, -3.07523906e-02, 3.63204405e-02,
          1.43638179e-02, -1.41731789e-02, 2.90350523e-03,
          -1.31381126e-02, -1.07736327e-03, -3.41978483e-02,
          -6.20696740e-03, -8.98575038e-03, 1.56574063e-02,
          8.03141110e-03, 1.01739331e-03, 1.30279297e-02,
          -1.65860206e-02, -9.10882838e-03, -1.74580682e-02,
          7.82918930e-03, 1.33412406e-02, -8.15488677e-03,
          -8.65865313e-03, -7.56191742e-03, 7.79496739e-03,
          -1.00729624e-02, -8.79985653e-03, -4.21375548e-03,
          6.20027306e-03, -1.18494444e-02, -2.94118337e-02,
          -2.74049528e-02, -2.06790250e-02, 1.62851624e-02,
          -1.77634489e-02, -2.31965203e-02, 1.17468676e-02,
          8.24835338e-03, -2.12791841e-02, -5.62357903e-03,
          -1.09618306e-02, -3.62090394e-03, 6.02175342e-03,
          -1.43013271e-02, -4.37458744e-03, -2.17359653e-03,
          2.61081383e-02, 1.21551678e-02, -1.25971958e-02,
          -2.01785155e-02, 4.65143891e-03, 4.68908064e-03,
          -3.97649407e-03, -7.62056233e-03, 1.11564156e-02,
          4.47513117e-03, -8.74263886e-03, -9.33767669e-03,
          1.70774839e-03, -5.91786625e-03, 2.84766369e-02,
          -1.88278593e-02, 1.75650092e-03, 1.68071333e-02,
          1.72247982e-03, 9.80551820e-03, -1.79899279e-02,
          -1.45197911e-02, -2.74558049e-02, -1.02379099e-02,
          -1.67918541e-02, -4.25970694e-03, 2.19021039e-03,
          -1.18560037e-02, -1.56186260e-02, 2.23553763e-03,
          2.75970972e-03, -1.64891337e-03, 1.95942689e-02,
          -2.11004680e-03, 7.98991788e-03, 1.72828566e-02,
          3.88379255e-03, 3.59228230e-03, 5.85381128e-03, 6.40445715e-03,
          -4.55955463e-03, -7.92522274e-04, 4.52413748e-04,
          -3.49606713e-03, 2.54099164e-02, 4.69973683e-03,
          -1.21854739e-02, -9.91208199e-03, -6.26558531e-03,
          -1.63587015e-02, 2.32881447e-03, -2.12741699e-02,
          -1.44479331e-02, 9.72615741e-03, -3.87772219e-03,
          1.70064927e-03, 4.49418277e-03, -2.26077493e-02,
          -7.69032305e-03, 7.60144228e-03, -5.22452174e-03,
          -2.46887449e-02, 1.05122570e-02, 1.69933643e-02,
          2.39508748e-02, 9.61547531e-03, 1.69889964e-02, 5.86001389e-03,
          2.95134285e-03, -1.59032419e-02, -2.51952317e-02,
          4.42534219e-03, 1.73423823e-03, -7.32886558e-03,
          -4.61075502e-03, -3.08936508e-03, 1.63061954e-02,
          5.89582929e-03, 1.07396450e-02, -1.96700692e-02,
          -8.75717681e-03, -2.06347685e-02, -1.33735845e-02,
          6.41092891e-03, -1.53837427e-02, -6.35288050e-03,
          2.37505860e-03, 5.66390343e-04, -1.52260102e-02,
          7.61687115e-04, 1.71981938e-02, 1.14539759e-02,
          -2.09081806e-02, -6.59092655e-03, -1.88128408e-02,
          -6.57165563e-03, -1.48151452e-02, -2.42749546e-02,
          9.84342862e-03, 2.00150535e-02, -1.25997532e-02,
          -3.91423795e-03, -4.93305153e-04, -4.47468972e-03,
          5.23818145e-03, 7.51249585e-03, -9.22257546e-03,
          -1.01925135e-02, -4.35873261e-03, -7.68365385e-03,
          -1.69673655e-02, 2.74955761e-03, -8.42047948e-03,
          1.29978172e-02, -1.65580364e-03, -3.39643210e-02,
          -1.35889379e-02, 1.37671316e-02, -1.37447938e-02,
          8.73709749e-03, 2.58848956e-03, 4.61259438e-03, 1.32382382e-02,
          -1.44591369e-03, -1.29852956e-02, -9.60946828e-03,
          -3.38633615e-03, 8.31130426e-03, 1.05595756e-02,
          2.22687889e-02, 2.84745991e-02, -3.11598438e-03,
          -1.03900060e-02, 2.86048204e-02, -7.93598313e-03,
          -1.26106180e-02, 1.39064481e-03, -8.57805740e-03,
          5.48963295e-03, 1.12431375e-02, 1.71086006e-02,
          -6.43036747e-03, -3.39758433e-02, -1.52396420e-02,
          -8.27393308e-03, 1.98788499e-03, -2.58214176e-02,
          1.48536479e-02, 2.59170700e-02, -1.93302333e-02,
          -4.97059058e-03, 1.12874508e-02, 1.72104109e-02,
          6.17923634e-03, -1.78058185e-02, -3.77894286e-03,
          8.28000437e-03, 2.01735292e-02, -1.63231641e-02,
          2.65582319e-04, 2.85973884e-02, 3.22217192e-03,
          -2.33910256e-03, -4.86979028e-03, -3.12388409e-03,
          -1.86565783e-04, 2.16720942e-02, -1.91461034e-02,
          1.75229311e-02, 9.88907274e-03, -6.19544834e-03,
          -1.11257909e-02, 1.57269686e-02, -2.22824868e-02,
          -1.87574793e-03, 1.42255500e-02, -2.20962334e-02,
          4.47735796e-03, 6.97041070e-03, 2.01957859e-02, 8.31354596e-03,
          -1.71439946e-02, 1.34225292e-02, -2.77931690e-02,
          6.69083267e-04, -1.82378013e-02, 2.73201261e-02,
          -1.26963304e-02, 4.66806814e-03, -7.44269835e-03,
          3.30708474e-02, 1.55453691e-02, 1.07421903e-02,
          -1.91926723e-03, 2.31071026e-03, -1.09136268e-03,
          -9.81776230e-03, -2.34421022e-04, 7.69621506e-03,
          4.12657261e-02, 2.41611036e-03, 1.93044525e-02, 1.80255026e-02,
          9.37172584e-03, 2.30457298e-02, 1.11159580e-02, 1.41682364e-02,
          1.02409329e-02, 2.46038102e-02, 2.40833517e-02,
          -1.35095688e-02, -2.98724324e-02, 8.47429596e-03,
          -1.36115337e-02, -2.16569249e-02, -1.72433734e-03,
          9.44640487e-03, 3.75611596e-02, -1.66010961e-03,
          1.06712384e-02, 8.13877862e-03, 9.43345297e-03, 5.22353500e-03,
          -2.01035384e-02, 6.16051257e-03, 2.49404088e-03,
          4.02677571e-04, -1.51286330e-02, 6.72067702e-03,
          2.22310424e-02, -9.85747110e-03, 1.38273099e-02,
          1.06340530e-03, -3.58865084e-03, 8.35156161e-03,
          1.18723065e-02, -1.18100585e-03, -1.44740446e-02,
          -5.09424927e-03, 1.14292782e-02, 4.32714215e-03,
          -9.81834438e-03, -1.52430078e-02, -8.46116710e-03,
          1.46820312e-02, -2.51989104e-02, 6.99057477e-04,
          1.21247917e-02, 2.08210942e-04, 7.82621850e-04,
          -3.58854863e-03, -4.72834054e-03, 1.02992915e-02,
          -1.94759183e-02, -9.94782243e-03, -4.67373012e-03,
          5.16866846e-03, 1.49412705e-02, -3.71141569e-03,
          -2.30052546e-02, -2.06435435e-02, 1.20205404e-02,
          2.03136762e-04, -9.45515372e-03, -1.64094660e-02,
          -1.81338713e-02, 2.52163736e-03, 4.28179838e-03,
          -2.78412234e-02, -2.05657594e-02, -6.60413131e-03,
          2.99822558e-02, -8.94522853e-03, -1.66826043e-02,
          -2.22368306e-03, 3.30535974e-03, 8.68349243e-03,
          -5.41088684e-03, -5.79296937e-03, 1.04076741e-02,
          1.51926046e-02, 1.91062428e-02, 3.95710673e-03,
          -2.48047034e-03, 6.97454857e-03, 1.59583951e-03,
          -1.55678093e-02, -2.15961784e-02, -1.92600805e-02,
          2.05979981e-02, -1.30055391e-03, -1.42862815e-02,
          1.43257889e-03, 9.66785010e-03, -2.38181334e-02,
          -3.20302974e-03, -1.10032642e-02, 1.78734877e-03,
          -3.08985310e-03, -4.71338630e-03, 2.39982060e-03,
          -1.88789901e-03, 9.02789086e-03, 6.02805801e-03,
          2.87014595e-03, -5.89549216e-03, -1.66354533e-02,
          -5.06503368e-03, -1.77027378e-02, -2.70340708e-03,
          -1.77621078e-02, 1.47955082e-02, 1.14955427e-02,
          1.73479021e-02, -9.10081994e-03, -1.32911922e-02,
          -2.53224298e-02, 7.93819595e-03, -2.23339489e-03,
          3.38241574e-03, 1.61414891e-02, -4.51574987e-03,
          5.07825566e-03, -9.26528964e-03, -8.73757468e-04,
          6.03483431e-03, 4.98781214e-03, 8.50955956e-03,
          -2.48328410e-02, 1.05487453e-02, 4.27200412e-03,
          1.66696999e-02, 2.79238578e-02, 7.25862244e-03,
          -9.84877581e-04, -8.50268453e-03, -6.37025340e-04,
          -1.67041493e-03, 2.64610965e-02, 1.58589054e-02,
          1.59822311e-02, -8.85166519e-04, 1.14594661e-02,
          -1.63672268e-02, 3.92699568e-03, -7.42296875e-03,
          7.25825084e-03, 1.56776030e-02, 4.07545408e-03, 1.25724841e-02,
          1.80048998e-02, 1.69802476e-02, 1.62355956e-02,
          -6.75448973e-04, 1.72695182e-02, -9.51995142e-03,
          2.41845455e-02, 1.07637513e-02, 1.12814913e-02, 6.62317500e-03,
          1.69428661e-02, -8.20541638e-04, -8.81970767e-03,
          1.65611152e-02, -1.54257973e-03, 1.15246782e-02,
          2.42883642e-03, 5.59524586e-03, 9.11715720e-03, 2.15555653e-02,
          1.45602529e-03, -1.27468482e-02, -4.53286059e-03,
          -5.55404415e-03, 8.87939613e-03, 4.13222285e-03,
          -6.57170138e-04, -5.24606975e-03, -9.82741732e-03,
          7.76775926e-03, -3.18138488e-02, -3.21582821e-03,
          -1.89981435e-03, 4.79165930e-03, -2.63834698e-03,
          -4.58740583e-03, -2.31509730e-02, -5.01439732e-04,
          -2.89055388e-02, 5.64394984e-03, -3.03529901e-03,
          1.20475432e-02, 8.88179708e-03, -1.82015623e-03,
          -1.04362099e-02, -9.29580256e-03, 3.75562883e-03,
          -1.71325784e-02, -6.85114227e-03, -1.07645970e-02,
          6.74782973e-03, -1.52246002e-02, -3.80146243e-02,
          -9.57554206e-04, -5.98232204e-04, 2.29610372e-02,
          -1.30600920e-02, -2.50413008e-02, 1.71355382e-02,
          1.41693810e-02, 7.87014235e-03, 1.38997994e-02,
          -9.85457934e-03, -1.44584859e-02, 1.19538989e-03,
          -2.68460233e-02, -1.28997723e-02, -1.65613194e-04,
          -2.28406359e-02, -2.25116443e-02, -1.92844048e-02,
          -2.48356573e-02, -1.48207564e-02, -4.73743165e-03,
          -8.49314872e-03, -3.72255640e-03, 9.84014291e-03,
          1.39671378e-02, -1.15075009e-02, -3.20451311e-03,
          1.10421572e-02, 7.48842722e-03, 2.67378222e-02,
          -6.37250394e-03, -8.50322656e-03, -4.31558257e-03,
          -2.76043378e-02, -2.86158975e-02, -2.15279330e-02,
          -7.16932351e-03, 1.58658065e-02, 2.34708507e-02,
          5.26304822e-03, -1.20428216e-04, -1.05986483e-02,
          -2.19852943e-02, 4.57646931e-03, 2.01126630e-03,
          -1.54246893e-02, -9.19102633e-04, 1.66969337e-02,
          -5.43801067e-03, -1.71960704e-02, -4.05160896e-02,
          -2.66108848e-02, 4.49428987e-03, -5.59702422e-03,
          -3.01546697e-02, -1.40071325e-02, -8.76333937e-03,
          -2.35611927e-02, 3.95126231e-02, 8.96280166e-03,
          -2.23647263e-02, 5.27098635e-03, 1.78966057e-02,
          1.59967039e-02, 3.56866466e-03, 2.57694703e-02, 2.57760461e-04,
          7.14885304e-03, -1.00054865e-04, -8.61920696e-03,
          -1.94012362e-03, 9.29235667e-03, -1.83199402e-02,
          -3.01657268e-03, 4.45040612e-04, -5.82486670e-03,
          -7.53779942e-03, -2.13576462e-02, 4.66816733e-03,
          2.55351439e-02, 7.44167203e-03, -2.46179774e-02,
          -7.65055837e-03, -1.17070694e-02, 8.68641492e-03,
          -1.74301919e-02, 4.91917878e-03, 5.24995523e-03,
          1.07228896e-03, -2.27439795e-02, -1.71867125e-02,
          -3.67003232e-02, -1.58596113e-02, -9.59341135e-03,
          6.33571576e-03, -2.67054569e-02, -1.04457503e-02,
          1.46928048e-02, 1.59453899e-02, -1.40238963e-02,
          7.26912962e-03, 6.91884337e-03, 1.85208581e-02,
          -2.77022924e-02, -9.87127051e-03, -9.52346157e-03,
          -2.15661321e-02, -1.64412837e-02, 7.04185106e-03,
          -7.16001727e-03, -3.14155151e-03, -9.21782479e-03,
          -5.46805514e-03, 2.08321549e-02, 1.04193799e-02,
          -1.71939395e-02, 3.43247550e-03, 1.37450499e-02,
          -1.52172102e-02, -7.25817494e-03, -1.41543718e-02,
          -8.85118544e-03, -6.95028924e-04, -4.06572036e-03,
          -1.60969142e-02, -1.56257730e-02, 1.12015568e-02,
          7.82221463e-03, 9.04578343e-03, -5.15983254e-03,
          -1.88658517e-02, 1.34833604e-02, 1.32053401e-02,
          -1.43907266e-02, 7.01612886e-03, 9.75519046e-03,
          -6.83022590e-05, -9.91572533e-03, 6.19366649e-04,
          -2.05430593e-02, -6.95692422e-03, -3.91891738e-03,
          -1.14674270e-02, -2.12952551e-02, -2.29127705e-02,
          1.53211621e-03, 8.74768849e-03, -1.07078422e-02,
          -1.36230122e-02, 1.22784935e-02, 6.15902059e-03,
          7.02949148e-03, -1.62507165e-02, 2.49540131e-03,
          1.12948399e-02, 4.43812134e-03, -4.74594673e-03,
          -3.45858745e-02, 9.19661019e-03, 5.42824948e-03,
          3.90063599e-03, -3.18826661e-02, -5.14807785e-03,
          -5.48458751e-03, -7.24116340e-03, -1.12630781e-02,
          -2.54577268e-02, 1.44804292e-03, 1.22204218e-02,
          3.22142802e-03, -3.32661299e-03, -2.30881758e-02,
          2.70492909e-03, 1.31055769e-02, -4.81102942e-03,
          -2.41140742e-02, -7.96769513e-04, 2.25550868e-02,
          2.21870258e-03, -5.91212837e-03, -7.75937689e-03,
          -8.68712179e-03, 4.10926668e-03, -1.89561676e-02,
          -1.42385550e-02, -3.81256244e-03, -7.44517241e-03,
          -2.47072172e-03, -1.37343826e-02, -1.81702282e-02,
          -1.79215670e-02, -1.45364609e-02, 1.03455530e-02,
          -4.72485553e-03, -3.11800353e-02, -3.90200578e-02,
          -1.05319321e-02, 1.25391735e-02, 7.58614857e-03,
          -2.58561391e-02, -2.42337380e-02, -1.09148463e-02,
          -3.44742090e-03, 7.01530604e-03, 3.89120379e-03,
          1.35419762e-03, -3.91501468e-03, -1.33164122e-03,
          -1.05744153e-02, 1.46876760e-02, -4.06690175e-03,
          -1.12732816e-02, 6.01726817e-03, -2.98755523e-02,
          -1.94900464e-02, -7.43695581e-03, 1.24765392e-02,
          -5.44877723e-03, 2.50571817e-02, 2.60845618e-03,
          -2.97641195e-03, -1.59145687e-02, -4.17303145e-02,
          -9.84306447e-03, 5.20116230e-03, 4.55518998e-03,
          -3.44412513e-02, -2.03969516e-02, -2.23580450e-02,
          1.03032952e-02, -1.21284127e-02, -1.16048083e-02,
          -6.98252406e-04, -1.78092513e-02, -6.13034610e-03,
          -2.06295066e-02, -8.76931753e-03, -1.33628491e-02,
          5.90695417e-04, 8.83851759e-03, -1.61890667e-02,
          -1.69060547e-02, 1.03437304e-02, 1.79539970e-03,
          5.99600794e-03, 2.77012568e-02, 7.41774333e-04, 9.64999781e-04,
          -8.81985412e-04, 7.89728109e-03, 1.44166211e-02,
          -5.76077215e-03, -3.11917160e-03, 1.57363946e-03,
          8.66601430e-03, -8.53901450e-03, -4.75946115e-03,
          -1.98930614e-02, 3.51256714e-03, 1.20964115e-02,
          -1.75317191e-02, -4.31302655e-03, -9.22917388e-03,
          2.72773812e-03, -7.71104300e-04, -7.39115709e-03,
          -2.72578206e-02, 7.63252052e-03, -2.85183865e-04,
          -3.46084870e-02, -1.24920346e-02, 5.02365967e-03,
          -1.26278764e-02, -2.67642867e-02, 9.28229466e-03,
          -9.22677852e-03, 1.04355719e-02, 2.27560699e-02,
          -7.69429607e-04, 1.22232093e-02, 4.87918314e-03,
          1.46984607e-02, 9.92718153e-03, -1.47091644e-02,
          -2.52932739e-02, 1.72159839e-02, 4.39507281e-03,
          -2.98299193e-02, 2.15690341e-02, 2.02737357e-02,
          7.25567155e-03, 3.74387391e-03, 1.74108520e-03, 4.12584795e-03,
          2.08135117e-02, 1.93631519e-02, -1.29949590e-02,
          1.38741648e-02, -3.65654822e-04, -1.41444802e-02,
          -2.78675444e-02, -1.50371650e-02, -3.10039986e-03,
          -7.79914437e-03, -7.49684218e-03, -1.00915106e-02,
          4.13957052e-03, 4.19949694e-03, -2.14011185e-02,
          -3.47035527e-02, 1.57631617e-02, 1.36229210e-02,
          2.55333465e-02, 1.93874892e-02, 7.72961741e-03, 3.23091298e-02,
          2.74354629e-02, 2.85147708e-02, 1.40219452e-02, 2.18371558e-03,
          -4.07562312e-03, 2.45831627e-03, -2.50329729e-02,
          -5.97734097e-03, -7.21472269e-03, 1.80958118e-03,
          -3.13105551e-03, -2.05871798e-02, -7.16906553e-03,
          2.79279631e-02, 1.12014711e-02, 7.44298915e-04,
          -2.09745206e-02, -1.86257958e-02, -4.15401068e-03,
          -1.06189334e-04, -1.40321832e-02, -3.94821465e-02,
          1.97585691e-02, 1.07365018e-02, 7.15098297e-03,
          -1.27416681e-02, -8.94221663e-03, -2.25458778e-02,
          -2.64902394e-02, -2.61896607e-02, 1.33388154e-02,
          1.66846961e-02, 3.24731991e-02, -4.45804675e-04,
          -8.34487844e-03, -1.83400419e-02, -1.64957698e-02,
          4.80455346e-03, 5.78615023e-03, -1.27390167e-02,
          7.69493170e-03, 3.34876850e-02, 2.47722548e-02,
          -8.82589351e-03, 1.33689232e-02, -2.38569919e-02,
          7.28302076e-03, 1.38764863e-03, -2.10274141e-02,
          8.86950269e-03, -1.54108936e-02, 1.43373674e-02,
          -1.92699451e-02, 1.45472800e-02, 3.79956723e-03,
          -2.84963753e-03, -1.07423321e-03, -7.47868884e-03,
          5.77744655e-03, -2.27419417e-02, -1.48068694e-03,
          -6.73564710e-03, -7.93453585e-03, -1.03853690e-02,
          1.57280453e-02, -3.04452120e-03, -1.98493022e-02,
          -2.29183696e-02, 2.94259260e-03, 1.88070107e-02,
          -2.82369535e-02, 3.36691067e-02, 8.52593035e-03,
          1.50938947e-02, -8.18747841e-03, -2.09188089e-02,
          -1.48470253e-02, -2.67548878e-02, -9.72135365e-03,
          -2.74541937e-02, 1.20563284e-02, -4.27275803e-03,
          1.42474584e-02, -1.19696297e-02, 8.57634470e-04,
          8.63840431e-03, -1.22775603e-02, -5.65087143e-03,
          -2.30973214e-02, -1.89349819e-02, -9.21126734e-03,
          2.51066894e-03, 1.54384542e-02, -1.77126769e-02,
          -7.82762654e-04, 6.47588773e-03, -1.17240492e-02,
          -8.14777240e-03, 1.05102146e-02, 1.27649838e-02,
          3.22899851e-03, 9.73499939e-03, -9.53619275e-03,
          -1.45989470e-02, -2.90587079e-02, -4.82360926e-03,
          -8.56498908e-03, 9.32064652e-03, -5.20666549e-03,
          -3.12018674e-03, -9.34099965e-03, -2.17877105e-02,
          -8.94208904e-03, -1.60230864e-02, 9.35293443e-04,
          2.86161015e-03, 1.12600699e-02, 7.54965330e-03,
          -1.35891477e-03, 4.94231051e-03, -5.94380219e-03,
          -1.02709059e-03, -2.07128027e-03, -1.46377739e-02,
          -5.15737291e-03, -1.64683834e-02, -3.44131398e-03,
          -1.18200388e-02, 1.72703210e-02, 3.33013907e-02,
          -4.48082853e-03, -4.40732297e-03, -1.11863008e-02,
          3.20401648e-03, -7.60034565e-03, -8.29127058e-03,
          -2.93767191e-02, 4.75780591e-02, -1.75145511e-02,
          -2.18952773e-03, -1.97137743e-02, 1.36722601e-03,
          -9.68324300e-03, -2.40391567e-02, -1.23694856e-02,
          -2.82743014e-02, 2.27934425e-03, 2.63889264e-02,
          2.17757933e-03, 2.81715393e-03, 2.59361640e-02, 1.22809480e-03,
          -6.51927991e-03, -2.35398579e-02, -3.29345204e-02,
          7.91139621e-03, 2.18134224e-02, -1.74819771e-02,
          -1.21094082e-02, 3.60720567e-02, 1.65875573e-02,
          -2.04946157e-02, -4.97223716e-03, 5.35756582e-03,
          7.50334281e-03, 1.17546860e-02, -4.68402309e-03,
          1.63718499e-03, 3.88757773e-02, 4.19574380e-02,
          -1.30409282e-02, -1.17300218e-02, -3.08465271e-04,
          2.22713570e-03, 1.24432463e-02, -5.29316301e-03,
          1.27453031e-02, 2.42454335e-02, 3.15200747e-03,
          -1.92061346e-03, -1.77751463e-02, -1.22153675e-02,
          -2.50320863e-02, 1.24435006e-02, -1.08720735e-02,
          -7.48176873e-03, 9.73891374e-03, 2.48636156e-02,
          -5.73838875e-03, -2.77898796e-02, -4.22920333e-03,
          1.90741718e-02, -1.72746852e-02, -2.08509751e-02,
          -4.86803101e-03, 3.14080380e-02, 3.15024331e-02,
          2.17453716e-03, -2.94442158e-02, -5.41685335e-03,
          -4.37809248e-03, 6.58996310e-03, -7.46719772e-03,
          6.69133943e-03, 3.23290043e-02, 7.41601828e-03,
          -4.31902707e-03, -1.95830017e-02, 5.69548830e-03,
          1.83101930e-02, -2.82116123e-02, -1.10107055e-02,
          -1.81016687e-03, 1.39538804e-02, 1.99386030e-02,
          1.15005514e-02, -5.68172596e-02, -3.59559804e-02,
          -5.79975219e-03, -4.50722780e-03, -8.26004148e-03,
          -1.71765801e-03, 8.07222165e-03, -1.22532025e-02,
          1.15795443e-02, -1.37138516e-02, -2.85321549e-02,
          3.04545159e-03, 1.24372765e-02, 6.26601139e-03, 1.30439585e-05,
          2.61972658e-03, 1.17868258e-04, -1.78400744e-02,
          -1.31199965e-02, -6.96250191e-03, 4.38025658e-04,
          -2.02953350e-03, 1.28581710e-02, 1.29696578e-02,
          -4.29100171e-03, 5.87293738e-03, 1.66797787e-02,
          -7.38556357e-03, 2.90223258e-03, -1.12263961e-02,
          -3.18836741e-04, -1.22995256e-03, -7.35107902e-03,
          -2.96738520e-02, -1.98377147e-02, -2.27956548e-02,
          -1.53984490e-03, -8.99638887e-03, 2.05359738e-02,
          2.22422909e-02, 2.17775609e-02, 2.84019690e-02,
          -2.17988230e-02, -2.80489842e-03, 1.02140754e-03,
          1.06216362e-02, 9.24852211e-03, 1.20952902e-02,
          -2.38877125e-02, -1.12146102e-02, -4.88780206e-03,
          -1.21902879e-02, 4.46128368e-04, 1.15772281e-02,
          -1.32098822e-02, 4.76784166e-03, -3.03782779e-03,
          -3.48924734e-02, -7.80000875e-04, -2.37713289e-02,
          -1.32684922e-02, -5.97599056e-03, 1.90195981e-02,
          9.35162231e-03, 7.58765545e-03, -3.14584887e-03,
          1.51022263e-02, 1.21982936e-02, 2.79398095e-02, 5.95965376e-03,
          8.08905158e-03, 1.12548023e-02, -8.38017277e-03,
          -8.31826124e-03, -9.34576895e-03, 2.63579525e-02,
          2.81556584e-02, 9.19276103e-03, 1.09724933e-02,
          -1.65926535e-02, 6.16958411e-03, -2.15501292e-03,
          -2.57319817e-03, 3.42475586e-02, -3.67924273e-02,
          -1.21782133e-02, -1.50838112e-02, -8.14032927e-03,
          8.89817439e-03, 7.01885577e-03, -1.34826766e-03,
          -1.75409764e-02, -2.11603250e-02, -2.89352089e-02,
          -1.21516455e-02, -1.10705206e-02, 9.85524524e-03,
          4.37300932e-03, 8.54889303e-03, -4.98285796e-03,
          -1.39517551e-02, -1.79836657e-02, 6.71699643e-03,
          4.44900244e-03, -1.16859507e-02, 5.94562618e-03,
          -2.06869394e-02, 2.50532515e-02, 8.74541234e-03,
          1.18405623e-02, 2.98137572e-02, -7.51944957e-03,
          -4.48265579e-03, -2.63135731e-02, 6.50991779e-03,
          -1.73869692e-02, 2.91022044e-02, 2.82690953e-02,
          2.81570852e-02, 1.18693067e-02, -1.57285910e-02,
          1.05785800e-03, 1.31123755e-02, 9.49952006e-03, 1.14457952e-02,
          1.94723456e-04, -1.72292758e-02, -1.85828712e-02,
          -2.35323720e-02, -1.77642442e-02, 4.75962646e-03,
          7.15696532e-03, -2.26249173e-02, -3.97536941e-02,
          -1.35665257e-02, -2.43381150e-02, -8.68279953e-03,
          -1.97869483e-02, 4.33177687e-03, 7.93668162e-03,
          -6.63837185e-04, 1.76144261e-02, 8.70394334e-03,
          5.08905575e-03, 2.20843516e-02, 1.40904114e-02, 7.81034259e-03,
          -1.59289148e-02, 2.11482476e-02, -2.16431599e-02,
          -1.74350776e-02, -2.88136359e-02, -2.11042073e-02,
          -1.30087147e-02, -1.42341945e-02, -3.29115312e-03,
          6.72730012e-03, 3.70019600e-02, 3.76206599e-02,
          -1.52459741e-02, -1.94714870e-02, 8.75701010e-03,
          -8.06205533e-03, 1.05774524e-02, -4.28422028e-03,
          -3.74475378e-03, 2.18947325e-02, -5.25624258e-03,
          -3.61396410e-02, -3.39753106e-02, -4.92653437e-03,
          -1.24123553e-02, 9.90581140e-03, -5.53826801e-03,
          -5.91293862e-03, 3.14620472e-02, 4.08377200e-02,
          5.46582276e-03, -1.85238384e-02, 8.36937502e-03,
          -8.37769825e-03, 8.88312794e-03, -2.51358468e-03,
          -1.92750599e-02, 2.77292030e-03, 4.25335858e-03,
          -3.46920267e-02, -3.45658548e-02, -4.61951923e-03,
          1.62422229e-02, 2.69860849e-02, -5.22901258e-03,
          1.46329878e-02, 2.25760899e-02, -2.99002812e-03,
          -1.38056101e-02, 2.03099959e-02, 2.22486490e-03,
          3.71297216e-03, 2.33715139e-02, 1.91178173e-02,
          -1.79467406e-02, -1.03511624e-02, -1.28849810e-02,
          -9.59366933e-03, 2.52893497e-03, -5.99253597e-03,
          -7.52418581e-03, -1.96956983e-03, -1.84834730e-02,
          -4.17102594e-04, 1.01411343e-02, 7.16814119e-03,
          -1.65065415e-02, -1.58692729e-02, -2.01047696e-02,
          1.55921103e-02, 1.87983587e-02, 4.59822593e-03, 1.34347454e-02,
          2.04358026e-02, -9.33976471e-03, -1.07163712e-02,
          -1.66914668e-02, -2.21906882e-02, 3.32854199e-03,
          -1.43432906e-02, -9.09299776e-03, -1.19792316e-02,
          -1.33929607e-02, -1.07957963e-02, 8.83762550e-05,
          9.26519278e-03, -1.00610908e-02, 1.03266072e-03,
          1.29305879e-02, -8.98632593e-03, -2.28248183e-02,
          1.16527511e-03, 1.89459731e-03, -5.85704297e-03,
          3.04266531e-02, -1.31496089e-02, -1.26015740e-02,
          2.11399943e-02, -1.24072554e-02, 1.70020517e-02,
          4.23254557e-02, -5.56965219e-03, -3.11495527e-03,
          1.12224622e-02, -1.01655498e-02, -4.89217322e-03,
          -1.26603828e-03, 4.56262892e-03, 1.53656267e-02,
          4.89081740e-02, -1.40075316e-03, 7.48500740e-03,
          2.04122383e-02, -2.08052322e-02, -2.42968407e-02,
          1.96292414e-03, -5.45389205e-03, -8.57442245e-03,
          7.58755999e-03, 9.90890712e-03, -6.43826555e-03,
          7.44852982e-03, -2.07806025e-02, -1.72496494e-02,
          1.12448800e-02, 1.99820776e-03, -8.63503106e-03,
          -1.17717392e-03, -1.69054493e-02, -6.20358065e-03,
          -5.74695738e-03, -3.07456385e-02, -2.27667782e-02,
          1.29939998e-02, 2.03148350e-02, 1.46845896e-02, 6.11857325e-02,
          7.33850803e-03, 1.35388458e-02, -5.62922750e-03,
          -1.96033418e-02, -1.28618851e-02, -3.46057373e-03,
          -8.19518603e-03, -5.97049901e-03, 4.59913537e-02,
          -7.35367648e-03, 6.10655313e-03, -2.68965494e-02,
          8.75233393e-03, -2.48025102e-03, 2.70166271e-03,
          8.66787694e-03, -2.00484153e-02, -2.27571535e-03,
          -6.92204153e-03, -3.52535350e-03, -1.51799666e-02,
          -3.31946164e-02, -4.01192158e-02, 3.39901377e-03,
          2.39128619e-02, -1.76698144e-03, -5.16565470e-03,
          -2.67702644e-03, 7.80735910e-03, 1.22583127e-02,
          -1.92548484e-02, -3.95603813e-02, -3.46348844e-02,
          -1.90543174e-03, -1.68282986e-02, 1.68427192e-02,
          -1.63170360e-02, -1.60299533e-03, -1.70517154e-02,
          2.60970332e-02, -4.20972332e-03, -9.00040008e-03,
          -3.35153978e-04, 5.57365594e-03, 1.72293000e-02,
          2.22908263e-03, -5.28355408e-03, -2.31810436e-02,
          8.22546612e-03, -9.52668488e-03, -1.66361984e-02,
          -1.46557819e-02, -5.97489672e-03, -5.84402634e-03,
          -1.78987999e-02, -1.25994096e-02, -3.28956963e-03,
          -9.28971171e-03, -2.82883625e-02, -1.80376191e-02,
          -2.02354267e-02, 1.32077839e-02, 3.86238447e-03,
          -1.84032451e-02, -1.60712786e-02, -5.26270224e-03,
          4.55299346e-03, -2.36457977e-02, -1.70072652e-02,
          -1.13777304e-02, 6.07674709e-04, 2.66028605e-02,
          -1.32928807e-02, -9.56192240e-03, -2.25871392e-02,
          4.17196332e-03, -1.06800552e-02, -1.34225283e-02,
          -3.64782698e-02, 3.63763398e-03, 1.37649123e-02,
          -2.15029268e-05, 1.72542464e-02, -1.64256878e-02,
          7.74883025e-04, -1.22069381e-02, -6.95084268e-03,
          -1.14986924e-02, -4.31620138e-04, 7.01730140e-03,
          -1.91333257e-02, -1.14150774e-02, 3.02613471e-02,
          1.00080520e-02, -7.36169470e-03, -3.01920949e-03,
          -8.82149767e-03, -2.11656615e-02, -1.51482970e-02,
          -1.02571808e-02, 2.37968098e-03, -3.46426317e-03,
          -4.81235143e-03, -1.96558442e-02, -6.01364300e-03,
          -6.23849267e-03, -1.52472025e-02, -6.71584532e-03,
          -9.23460908e-03, 2.00836640e-03, 1.22448159e-02,
          1.56966895e-02, 3.27221653e-03, 1.11936387e-02,
          -2.04391237e-02, -1.69832259e-02, -1.22269122e-02,
          -5.77479647e-03, -2.78075249e-03, 2.08561099e-03,
          9.08165518e-03, -1.72644742e-02, 2.45714851e-04,
          -3.56424376e-02, 2.01753960e-06, -1.28682507e-02,
          1.21215277e-03, -1.14453805e-03, -1.78242847e-02,
          -1.46566471e-02, -2.09181756e-02, 3.84477875e-03,
          7.30306190e-03, -4.73386748e-03, -2.13159272e-03,
          1.47604989e-02, -1.81504618e-02, -4.78825159e-02,
          -1.48835545e-02, -6.07949775e-03, 1.44833382e-02,
          -1.56738367e-02, 1.13557139e-02, 8.64971802e-03,
          1.71074364e-02, -1.56443510e-02, 4.54252679e-03,
          -7.33501860e-04, -1.24308877e-02, 5.49204694e-03,
          1.40134003e-02, 1.57296415e-02, 2.52874698e-02, 2.57290006e-02,
          1.12914201e-02, -7.69699970e-03, 9.03926603e-03,
          6.79618272e-04, 2.16671526e-02, -7.81005435e-03,
          -1.92268640e-02, -4.54124389e-03, -1.23775220e-02,
          -1.88322347e-02, -1.06004747e-02, -2.87586497e-03,
          2.12752866e-03, 2.30606440e-02, -3.76401283e-03,
          -3.65867428e-02, -3.35972011e-02, -1.40654705e-02,
          -3.85584496e-02, -1.74923670e-02, -7.13165756e-03,
          -2.79989559e-02, 6.05394380e-05, -3.51349674e-02,
          9.97309573e-03, 2.44287197e-02, 1.07697798e-02, 1.55428983e-02,
          4.27507050e-02, 3.02754194e-02, 4.40110627e-04, 3.66676524e-02,
          1.63958687e-02, -4.61967988e-03, 3.37370532e-03,
          1.29126450e-02, 5.47318486e-03, 1.98033378e-02, 2.28906330e-02,
          7.94547517e-03, 4.16144803e-02, -1.83745492e-02,
          -1.06936581e-02, -1.03122545e-02, 1.88051704e-02,
          -4.59432648e-03, -1.40228150e-02, 7.25910114e-03,
          -7.45893596e-03, 1.42216329e-02, -5.95368352e-03,
          -2.60539576e-02, -1.51404692e-02, -1.47303594e-02,
          -3.66286328e-03, -3.44049968e-02, -1.51905287e-02,
          -2.66880076e-02, -5.61663276e-03, -1.13987038e-02,
          6.40281430e-03, -8.71588103e-03, 2.63426546e-02,
          3.24534476e-02, 2.47969255e-02, 2.92016622e-02, 2.62343120e-02,
          4.00268771e-02, -3.85175808e-03, -3.53960358e-02,
          -3.43094468e-02, -2.14985367e-02, 8.20943899e-03,
          -1.51677243e-03, -2.94171250e-03, -7.09222117e-03,
          3.21949832e-04, -1.96561441e-02, 9.14136937e-04,
          -1.27292192e-02, -7.05474196e-03, 1.00151449e-02,
          -2.14625597e-02, 4.61277872e-04, -1.04992744e-02,
          2.12079026e-02, 1.05527043e-02, -5.23814885e-03,
          -1.53169660e-02, -1.92229599e-02, 7.46432180e-03,
          -3.50237861e-02, -1.39061948e-02, -1.64658614e-02,
          8.25698953e-03, -4.21497924e-03, 2.67059263e-03,
          -7.52058253e-03, -2.06403947e-03, 5.95768029e-03,
          -2.32212711e-02, -1.11742429e-02, -5.44845685e-03,
          2.18195375e-02, 9.63203050e-03, -5.29451016e-03,
          -1.30906031e-02, -1.54701369e-02, 2.16918923e-02,
          -8.65948200e-03, -1.97140593e-02, -2.52883621e-02,
          -2.21646149e-02, -2.65425965e-02, -8.25362559e-03,
          -1.79092512e-02, -1.17873643e-02, 1.05653256e-02,
          -1.67222340e-02, 1.41654564e-02, -1.53455837e-02,
          -2.04640608e-02, -6.26393221e-03, 1.65638060e-03,
          -1.83046516e-02, -1.05841346e-02, 8.32569506e-03,
          -2.12299135e-02, 1.00209629e-02, -1.52069738e-03,
          -5.48652280e-03, -5.06723719e-03, 4.77492483e-03,
          -1.38781471e-02, -1.49114979e-02, 2.68783979e-02,
          -4.00641351e-04, 1.67427994e-02, -2.27081589e-02,
          -5.04387692e-02, -2.09815446e-02, 7.20954640e-03,
          -1.58179887e-02, 9.05534532e-03, 3.25893685e-02,
          -8.09195117e-05, -4.75110253e-03, 4.86030802e-03,
          -1.98326148e-02, -3.64580303e-02, 5.84150013e-03,
          -2.24511772e-02, -2.97652856e-02, -1.41745061e-03,
          -3.78486365e-02, -5.78594115e-03, -8.92611803e-04,
          -1.78982560e-02, 4.65456909e-03, 1.73012111e-02,
          -1.60073731e-02, -5.91656053e-03, 1.92705970e-02,
          -1.87358819e-02, -1.21368747e-02, -2.71744896e-02,
          -4.15043570e-02, -7.33440742e-03, 1.45443352e-02,
          -1.39938388e-02, -8.87743384e-03, 1.81548242e-02,
          1.30248526e-02, -7.53429858e-03, 2.14641243e-02,
          -8.54230300e-03, -2.29686741e-02, 3.21441777e-02,
          -2.70682765e-04, -4.15250333e-03, 1.94614716e-02,
          1.12577854e-02, 1.31078828e-02, -5.63267665e-03,
          -3.16491909e-02, -3.15173180e-03, -5.32358140e-03,
          -1.39261922e-03, 8.10370781e-03, 9.61760897e-03,
          -8.53307731e-03, -2.09980067e-02, -2.50442233e-02,
          -6.52107690e-03, -1.00064101e-02, -1.16216484e-03,
          -6.90474175e-03, 8.00269376e-03, 1.49086416e-02,
          2.46640928e-02, 5.53013105e-03, -1.13749150e-02,
          -6.37555867e-03, 1.70073733e-02, 2.22261045e-02,
          1.16770389e-02, 3.61814140e-03, -1.73926614e-02,
          1.42743774e-02, -8.31873715e-03, -8.63226503e-03,
          8.75843689e-03, 3.72086167e-02, 1.86436251e-02, 2.34455131e-02,
          2.79768906e-03, 2.44291336e-03, 2.99354978e-02, 1.03223175e-02,
          2.43040919e-03, 1.26659507e-02, 1.77043676e-02,
          -2.53019650e-02, 3.31171812e-03, -1.27789902e-03,
          -1.28889885e-02, 1.57502126e-02, 1.90663971e-02,
          -2.95289569e-02, -3.49086225e-02, -5.61833894e-03,
          8.33145622e-03, 6.60079764e-03, -3.59470723e-03,
          -4.32077650e-04, 2.16372591e-02, 4.19418924e-02,
          1.47338919e-02, -5.26308082e-03, 1.29158255e-02,
          7.53977988e-03, 9.48912557e-03, -9.71338828e-04,
          -7.85096548e-03, 4.12724121e-03, 5.70014911e-03,
          3.48435412e-03, -5.36880270e-03, 1.16327161e-03,
          2.03522779e-02, 2.49091759e-02, 9.84621886e-03,
          -9.37691610e-03, -6.95944438e-03, 1.24643333e-02,
          1.48598254e-02, 6.55403268e-03, 2.22078767e-02, 6.90682884e-03,
          -7.62438448e-03, -9.83956922e-03, -2.49631759e-02,
          -8.55795667e-03, 2.66620121e-03, -2.32869410e-03,
          8.86141974e-03, 9.75183025e-03, 1.66083686e-02, 8.21798015e-03,
          -1.79368607e-03, -1.52544482e-02, -1.12004392e-02,
          9.72672459e-03, -3.19724041e-03, 3.64159793e-03,
          -2.17075143e-02, 2.44663525e-02, 1.30158318e-02,
          -6.46250974e-03, -1.00795198e-02, -1.31783250e-03,
          3.85528139e-04, -2.29864661e-02, 8.22914857e-03,
          7.81681854e-03, 3.05168070e-02, 2.41482668e-02,
          -4.75604506e-03, 1.11354906e-02, -7.68274767e-04,
          3.56638730e-02, -1.38148619e-02, -4.20014840e-03,
          7.26408791e-03, -1.04882689e-02, -1.00678124e-03,
          4.63089719e-03, 6.61451789e-03, 7.84252211e-03,
          -8.39196239e-03, -3.21527980e-02, -2.56377999e-02,
          -4.21240777e-02, 1.46421799e-02, 3.45662646e-02,
          3.11182383e-02, 4.90796342e-02, -4.57977224e-03,
          -2.47628428e-02, -2.38127708e-02, -2.70521324e-02,
          -1.33556491e-02, -1.20710465e-03, 2.22232332e-03,
          6.88933628e-03, 2.73175836e-02, 3.09262984e-02, 2.35742982e-02,
          -2.62520537e-02, -4.18781117e-02, -3.48244868e-02,
          2.78281942e-02, 5.58660105e-02, 5.90148494e-02, 7.68222958e-02,
          2.74855904e-02, 3.51600423e-02, -3.33046820e-03,
          1.39612122e-03, -2.40982859e-03, 1.57377012e-02,
          1.65990205e-03, -8.23527388e-03, -3.66402068e-03,
          -4.48214300e-02, -2.90172342e-02, -1.99748948e-02,
          5.90375438e-03, 1.61727294e-02, -5.54688647e-03,
          1.10089919e-02, 2.54671872e-02, -1.64385363e-02,
          -4.76683490e-02, -1.38413142e-02, 4.71196370e-03,
          3.97823006e-02, -4.31210222e-03, 1.46631682e-02,
          4.27007191e-02, 2.59738360e-02, 1.83689818e-02,
          -4.75280080e-03, 9.61737649e-04, -8.03065673e-03,
          2.58288272e-02, 1.51388571e-02, 1.01633258e-02, 3.97414789e-02,
          6.23406395e-02, 3.01562492e-02, -6.90958463e-03,
          9.10258293e-03, 3.10005452e-02, 5.16952500e-02, 3.75862583e-03,
          2.14815568e-02, 5.36512360e-02, 6.14215098e-02, 3.26739065e-02,
          -1.72059913e-03, -1.65648654e-03, 1.04444856e-02,
          1.82556901e-02, -9.23729734e-04, -1.53315943e-02,
          5.10082319e-02, -6.50523324e-03, -1.89204700e-02,
          -4.33456004e-02, -5.88057935e-02, -3.83704267e-02,
          -2.76264995e-02, -2.72900015e-02, -4.90388507e-03,
          7.29493499e-02, 9.07210931e-02, 5.32678813e-02, 2.27263216e-02,
          2.59598251e-02, 2.16282513e-02, 1.95832886e-02,
          -1.51201691e-02, -3.13232876e-02, 5.19126020e-02,
          2.15283148e-02, -1.35029072e-03, -2.88352147e-02,
          -3.20954956e-02, -2.63226423e-02, -2.47287415e-02,
          -7.18762204e-02, 2.60319142e-03, 4.16146405e-02,
          2.60061473e-02, 1.74516756e-02, -2.08871216e-02,
          -1.04438597e-02, -8.81798472e-03, 8.77445750e-03,
          -1.61441171e-03, -7.59078655e-03, 2.11066063e-02,
          5.28617948e-03, -1.97325461e-02, -4.62716743e-02,
          -1.71993207e-02, 1.89499706e-02, 7.20277801e-03,
          1.66357998e-02, -9.71586909e-03, 5.05508296e-02,
          3.91163751e-02, -7.94904307e-03, -2.99181044e-02,
          -2.94089230e-04, 1.42346544e-03, -5.38256427e-04,
          -2.72768643e-02, 1.19402574e-03, 2.44467445e-02,
          2.98775057e-03, -3.10578719e-02, -5.72832339e-02,
          -3.72808278e-02, -1.24360183e-02, 2.12384295e-03,
          2.00719051e-02, 2.27019750e-02, 3.94910388e-03, 1.18078326e-03,
          -9.07371659e-03, -3.38858403e-02, -2.94910707e-02,
          -8.60066339e-03, 3.96723673e-03, 2.32586879e-02,
          3.42834145e-02, 2.11020745e-02, 5.76419430e-03, 1.41063589e-03,
          -3.39928120e-02, -2.83632372e-02, -1.93634350e-02,
          -1.66538414e-02, -7.49867689e-03, 1.66727379e-02,
          3.01411264e-02, 1.02650682e-02, 3.32310447e-03,
          -1.75722260e-02, -3.94708999e-02, -1.76341031e-02,
          1.92998331e-02, 2.39185505e-02, 1.16698164e-02,
          -6.17058342e-03, -9.92127229e-03, -2.80455612e-02,
          -1.88222174e-02, -4.00022306e-02, -9.31839366e-03,
          3.24836257e-03, 4.34797769e-03, 2.18016542e-02, 4.21461649e-02,
          8.29810090e-03, 7.07472034e-04, -2.79249381e-02,
          -7.50089937e-04, -3.70945036e-03, 1.54419737e-02,
          1.96913853e-02, 8.60016420e-03, 2.98935063e-02,
          -2.86200643e-02, -2.76787151e-02, -7.39184767e-03,
          -3.03184967e-02, -1.56451371e-02, 5.37478598e-03,
          5.29693114e-03, -4.35580127e-03, 1.07381474e-02,
          -8.78517923e-04, -8.59927945e-03, -5.88945858e-03,
          3.18094320e-03, 1.64762791e-02, 2.84341052e-02, 1.04251755e-02,
          -3.74256261e-02, 5.10980515e-03, -1.82838179e-02,
          -2.31706407e-02, -5.45717077e-03, 2.86972336e-03,
          6.05272083e-03, 2.64219716e-02, -1.83937289e-02,
          2.37918254e-02, 3.95183563e-02, -7.32876454e-03,
          -2.38572732e-02, -1.70011278e-02, -2.27457359e-02,
          -2.53167432e-02, 8.82563036e-05, 1.10831019e-02,
          2.36638002e-02, 4.49473858e-02, -1.00846570e-02,
          -3.10189594e-02, -1.74922347e-02, 3.67452949e-03,
          -2.58740527e-03, 7.74952304e-03, 1.98950153e-02,
          6.58185105e-04, 2.29474027e-02, -8.21977388e-03,
          -2.74214684e-03, -1.27226617e-02, -1.00684902e-02,
          -5.31982537e-03, 1.50425974e-02, -1.15262344e-02,
          1.75289263e-03, 1.40567403e-02, -1.63815636e-02,
          -2.41581406e-02, -3.29042296e-03, -1.98668763e-02,
          -2.01910418e-02, -3.87914595e-03, -3.11641097e-02,
          3.52454185e-02, 2.71738581e-02, -2.79576778e-02,
          -3.56897004e-02, -7.33482838e-03, 1.09911943e-02,
          7.68273138e-04, 3.38883209e-03, 2.24003941e-02, 3.39524075e-02,
          2.69714519e-02, -2.90472526e-02, -4.07730415e-02,
          3.98736773e-03, 3.25540453e-03, 8.24091211e-03,
          -7.15971598e-03, 1.02264360e-02, -2.81241513e-03,
          1.06188683e-02, -5.17726988e-02, -5.68911880e-02,
          -4.12706546e-02, -2.53956337e-02, 3.62935499e-03,
          1.78649072e-02, -2.30122562e-02, -4.80510900e-03,
          6.54202234e-03, -5.08519076e-02, -4.99804430e-02,
          -2.32080203e-02, -1.26787256e-02, -1.35476294e-03,
          1.92018952e-02, -1.73760094e-02, 3.14812399e-02,
          2.86674257e-02, -3.45368357e-03, -2.01417878e-02,
          1.17973471e-03, -1.40050752e-02, 2.47669464e-04,
          2.01668981e-02, 1.91126652e-02, 2.52959207e-02, 6.99400203e-03,
          -1.64218340e-02, -2.99504437e-02, -1.49350390e-02,
          -3.69346514e-02, -2.63166260e-02, 4.54125507e-03,
          1.12347500e-02, -2.89608492e-03, 4.43198951e-03,
          -1.82482731e-02, -3.05078868e-02, -2.88214050e-02,
          -3.20166610e-02, 4.35106410e-03, 3.30821648e-02,
          -6.54602842e-03, 1.05189392e-02, -7.36416783e-03,
          -6.76120305e-03, -5.84666766e-02, -3.63119021e-02,
          -5.04022390e-02, -2.68113930e-02, -5.05405990e-03,
          1.44024589e-03, -3.55492200e-04, 2.29018703e-02,
          -1.47497607e-02, -2.38220021e-02, 1.29419686e-02,
          5.03672101e-03, -2.66081542e-02, 2.03890074e-02,
          -1.25451654e-03, 1.19494731e-02, 2.45761033e-02,
          -1.30537516e-02, -9.64332744e-03, 6.57385122e-03,
          7.16982817e-04, -2.07884051e-02, 5.35508571e-03,
          -4.66806209e-03, -1.65966228e-02, 3.63443419e-02,
          -2.90632970e-03, -5.68984859e-02, -2.31630038e-02,
          -8.82637035e-03, -7.47938966e-03, 5.55009581e-03,
          1.54326195e-02, 1.51354373e-02, 4.49621156e-02,
          -7.85938837e-03, -3.58993486e-02, -1.29999341e-02,
          1.18890302e-02, 1.14636123e-02, 2.00964287e-02, 1.40258679e-02,
          -3.61421215e-03, 2.28184578e-03, -1.14815803e-02,
          -2.69127265e-02, -1.38183404e-02, -2.65439264e-02,
          -2.84971632e-02, -2.50833225e-03, -1.20117180e-02,
          1.41173135e-02, 2.13773064e-02, 1.22717423e-02,
          -1.22535313e-02, -1.18030803e-02, -1.25860590e-02,
          -1.51565457e-02, 1.73369162e-02, 1.03992745e-02,
          3.08107901e-02, 3.90877277e-02, -6.41272729e-03,
          -4.22899723e-02, -3.15305106e-02, -3.03721763e-02,
          -2.06454787e-02, 1.49541060e-02, 2.99308114e-02,
          1.51093546e-02, 3.89925428e-02, 3.77608314e-02, 8.47546197e-03,
          -4.76604095e-03, -2.43680514e-02, -5.20840986e-03,
          3.25064100e-02, 6.17985390e-02, -1.58623438e-02,
          2.29509664e-04, -1.00351786e-02, -1.05990749e-02,
          -6.86012534e-03, -1.11743640e-02, -1.41399475e-02,
          -7.78510515e-03, 1.82522312e-02, -4.85841818e-02,
          -2.92983279e-02, -1.65715124e-02, 3.64579540e-03,
          -1.70722825e-03, -1.25354128e-02, 2.32793926e-03,
          -2.22294815e-02, -3.43203694e-02, 7.85364595e-04,
          1.90006960e-02, 2.91145332e-02, 2.44714431e-02, 4.21739090e-03,
          -6.39132177e-03, -1.19278841e-02, 4.19537351e-03,
          2.23670080e-02, -3.36291455e-02, -6.21656748e-03,
          -9.73260310e-03, 9.74228699e-03, 2.55207941e-02,
          1.96213052e-02, 1.62177365e-02, 4.80031315e-03,
          -1.81359723e-02, -1.50520736e-02, -1.76169109e-02,
          -1.89151685e-03, 4.00415361e-02, 3.19165252e-02,
          -3.97155149e-04, 1.99400783e-02, 1.26019784e-03,
          -9.50222462e-03, -4.15920131e-02, -4.07067016e-02,
          -4.27289344e-02, -3.41592683e-03, -4.18939535e-03,
          -1.51357695e-03, -3.19431834e-02, -3.12512368e-02,
          -4.20171581e-02, 1.32960919e-02, 3.80765796e-02,
          6.10006042e-03, 2.30072904e-02, 5.66676296e-02, 3.31249349e-02,
          3.93534675e-02, 4.23952267e-02, 2.90203933e-02,
          -3.65112275e-02, -2.08623540e-02, -2.13254280e-02,
          5.80702210e-03, -2.04306003e-02, 9.44013707e-03,
          -2.10480876e-02, -7.39730801e-03, -2.14915499e-02,
          -5.07875858e-03, 9.11476649e-03, -6.89594122e-03,
          -1.30923232e-04, -2.90604215e-02, 3.32841789e-03,
          -6.83936942e-03, 1.29427295e-02, 3.69547238e-03,
          -1.49875861e-02, -9.92298312e-03, -2.18589939e-02,
          -5.49093122e-03, -2.39785649e-02, -5.21474425e-03,
          -1.23478426e-02, -2.26760563e-02, -1.59985516e-02,
          -1.25739984e-02, 7.16501521e-03, -9.08480212e-03,
          1.50157008e-02, -1.44348843e-02, 3.93615738e-02,
          2.30582692e-02, 1.14299934e-02, 1.44148199e-03,
          -9.28285159e-03, -1.21123949e-02, -4.53345142e-02,
          -2.91103926e-02, -2.45639514e-02, 2.43187957e-02,
          1.52565269e-02, 9.12887976e-03, -2.10320856e-02,
          1.45140793e-02, 1.06790627e-03, -6.36488572e-03,
          8.55267223e-04, -2.09081005e-02, -6.65005110e-03,
          -1.36357537e-02, -3.59271728e-02, 2.91301659e-03,
          -1.86701829e-03, -3.19759995e-02, 1.00728301e-02,
          1.89262927e-02, -1.18225999e-02, -1.07805906e-02,
          1.30279260e-02, -2.21432913e-02, -1.42630795e-02,
          8.77949595e-03, 1.70680676e-02, -1.44450134e-02,
          -1.13368882e-02, -1.53608359e-02, 6.31551631e-03,
          1.83172710e-02, 3.88697512e-03, -1.35352528e-02,
          -1.43785020e-02, 5.79040404e-03, 1.70729235e-02,
          3.33554745e-02, 6.69410266e-03, 8.65978934e-03, 1.94967911e-02,
          -1.87772810e-02, -2.03833301e-02, -9.37636103e-03,
          -1.91697273e-02, -4.82322602e-03, 6.29959861e-03,
          -5.21167996e-04, -7.27838464e-03, 1.00777671e-02,
          -6.49707438e-03, -1.11430055e-02, 1.95581205e-02,
          8.90451297e-03, -1.72275060e-03, 4.05350700e-03,
          1.02188364e-02, 2.41484251e-02, 4.01185174e-03,
          -2.43769400e-03, 1.36694266e-02, -1.06977187e-02,
          -1.46585777e-02, 2.13682302e-04, 2.88746273e-03,
          -1.64156333e-02, -6.70755235e-03, 2.49668676e-03,
          -7.62776285e-03, -2.45943256e-02, -4.49752063e-03,
          -7.92249013e-03, -8.14772770e-03, -7.45367911e-03,
          -3.44772893e-03, 1.21775744e-02, 1.17992675e-02,
          -3.35495220e-03, -1.43819256e-02, 1.45190656e-02,
          -2.69812788e-03, -4.03342396e-03, -7.67198484e-03,
          1.13150664e-02, 6.28000358e-03, -1.37677547e-02,
          -3.16263805e-03, 2.46404894e-02, 8.03073216e-03,
          -5.45279076e-03, -1.92020193e-03, -4.77206102e-03,
          4.51824162e-03, 1.11435764e-02, -8.38560332e-03,
          2.22627656e-03, 2.14239582e-03, 2.64895316e-02, 1.57390605e-03,
          8.89501721e-03, 9.97668784e-03, 1.52948508e-02, 5.23485010e-03,
          -3.14172963e-03, 9.95829608e-03, 1.95580944e-02,
          -4.25754488e-03, -1.14338344e-03, 2.23312918e-02,
          2.71985512e-02, 2.00411920e-02, 6.35153055e-03,
          -2.02961522e-03, -5.24916941e-05, -1.01779941e-02,
          3.41281085e-03, 1.82777556e-04, 7.09134713e-03,
          -1.06542968e-04, -9.30724386e-03, 3.26819066e-03,
          -2.58406228e-03, -7.21604470e-03, 2.01537414e-03,
          1.32071571e-02, -1.03329094e-02, -7.95972627e-03,
          -1.36778718e-02, -1.17587997e-02, 2.43407185e-03,
          1.10326614e-02, 7.00489618e-03, 2.34259367e-02,
          -9.22576990e-03, -2.90472992e-03, 9.05818306e-03,
          5.38393948e-03, -2.97866878e-03, 3.70983314e-03,
          2.20460957e-03, 4.52250475e-03, -6.17783517e-03,
          2.21798718e-02, 1.00066774e-02, -6.69806870e-03,
          -1.53162861e-02, -1.37210684e-02, -8.85768514e-03,
          5.25300950e-03, 1.08407540e-02, 2.66199820e-02,
          -1.36127206e-03, -2.08366755e-02, -3.34948860e-02,
          -1.29273888e-02, -9.95771494e-03, -1.00288093e-02,
          -4.04284336e-02, -1.75595805e-02, 5.75963594e-03,
          1.55620044e-02, 1.93145704e-02, 1.61111839e-02, 3.77738588e-02,
          3.01309507e-02, 3.21813151e-02, -1.64962932e-02,
          -2.81775314e-02, -5.41234156e-03, 3.26354639e-03,
          -4.55659488e-03, -3.10237445e-02, -1.81244053e-02,
          -1.19903060e-02, -2.42138319e-02, -3.53754573e-02,
          -3.47715504e-02, 6.58695167e-03, 1.27940932e-02,
          -6.09986810e-03, 1.68731213e-02, 3.82363275e-02,
          2.36992184e-02, 2.16427557e-02, -1.01812752e-02,
          -9.04407911e-03, 9.01666237e-04, -8.11322220e-03,
          5.71214966e-03, -7.72570958e-03, 3.56845511e-03,
          4.52675391e-03, 2.45572049e-02, -3.40249613e-02,
          -4.02708463e-02, -3.66047062e-02, 1.56704430e-02,
          5.23030274e-02, 2.47773435e-02, 2.97213960e-02,
          -1.93094870e-03, 4.90746573e-02, 1.34257879e-02,
          2.28920095e-02, 7.58991251e-03, -3.40332538e-02,
          -1.43898111e-02, -1.20263798e-02, 2.04066075e-02,
          1.07547119e-02, 1.33306375e-02, -1.37452679e-02,
          -2.54729167e-02, -1.76612008e-02, 1.52224945e-02,
          3.56877334e-02, 8.80665053e-03, 4.09606658e-02,
          -8.25315621e-03, 4.35667448e-02, 5.40978946e-02,
          4.29540165e-02, 2.36026235e-02, 1.15852635e-02, 4.90442850e-02,
          1.87712945e-02, 8.35022423e-03, -7.24727055e-03,
          2.19672453e-02, 1.40199503e-02, 3.98876742e-02, 8.60370975e-03,
          -2.49714646e-02, 1.72909722e-02, 2.82039605e-02,
          4.78035258e-03, -1.59586482e-02, 1.58588272e-02,
          3.17911133e-02, 2.21428275e-02, -2.77598910e-02,
          1.73010323e-02, 5.30714877e-02, 2.61091702e-02, 1.71631239e-02,
          -1.50150564e-02, 2.47903597e-02, 2.47995351e-02,
          5.99832162e-02, 2.70503834e-02, -2.72306539e-02,
          3.53019200e-02, 3.44173200e-02, 5.22244675e-03,
          -2.63506211e-02, 2.53505316e-02, 2.79569924e-02,
          1.85492802e-02, -4.22752611e-02, -2.35497560e-02,
          4.23368551e-02, 4.99938764e-02, 4.38721105e-02, 2.84136906e-02,
          4.89477254e-02, 4.88760397e-02, 4.22456302e-02,
          -1.40680103e-02, -6.32529482e-02, 8.59860610e-03,
          1.12402299e-02, -9.12963040e-03, -2.69219503e-02,
          -1.39296046e-02, 1.64819676e-02, 5.99690666e-03,
          -4.66607697e-02, -1.99749265e-02, 4.70121950e-02,
          4.06951495e-02, 3.81516293e-02, 3.16217244e-02, 6.37922809e-02,
          7.77551308e-02, 5.46282828e-02, -4.03747745e-02,
          -6.82156458e-02, -2.36259960e-02, -3.76392691e-03,
          -2.53627934e-02, -3.34462430e-03, 5.95583441e-03,
          1.59965083e-02, 1.52564014e-03, -6.98816627e-02,
          -3.27383131e-02, 2.14644596e-02, 1.59146264e-02,
          -9.35406052e-03, -2.88807340e-02, 1.50926933e-02,
          2.22590324e-02, 2.89834626e-02, -1.80436615e-02,
          -2.81638503e-02, -5.88565366e-03, -1.73003692e-02,
          -2.10509282e-02, -4.23410349e-02, -1.65502075e-02,
          6.13255939e-03, 5.27938595e-03, 6.63607288e-03,
          -4.18194830e-02, 1.83304306e-03, 1.82374287e-02,
          -1.27651738e-02, -3.44422385e-02, -9.60957911e-03,
          -3.45519767e-03, 1.17599117e-02, -2.51220781e-02,
          -6.20480161e-03, -7.09968619e-03, -2.45947409e-02,
          -3.59773785e-02, -6.46575764e-02, -2.62614004e-02,
          -1.29289692e-02, -1.28065562e-02, -2.28379443e-02,
          -2.89825574e-02, -2.50576306e-02, -5.97337913e-03,
          2.92534498e-03, 5.30943880e-03, -1.08203981e-02,
          3.90119595e-03, -1.25472648e-02, -1.28382174e-02,
          -3.59848700e-02, -3.45460810e-02, -1.91761497e-02,
          -1.83750223e-02, 5.70344226e-03, -1.16237206e-02,
          1.59496237e-02, -2.19044602e-03, -4.15788367e-02,
          -1.06326276e-02, -1.44029129e-02, -1.05292117e-02,
          -1.52037293e-02, -3.69049190e-03, -6.55681035e-03,
          -6.58533257e-03, -2.81976406e-02, -1.98035277e-02,
          -3.28265317e-02, -1.69951119e-03, 3.29301204e-03,
          -1.01727508e-02, -1.39801539e-02, -2.20183916e-02,
          -1.97493136e-02, -3.31511386e-02, -4.04067039e-02,
          -3.40408124e-02, -1.19212419e-02, -2.32926290e-02,
          -9.81133804e-03, 2.17776820e-02, 7.45278504e-03,
          5.43780020e-03, 9.19439271e-03, -4.00991775e-02,
          -4.54094335e-02, -2.23502275e-02, -2.94521302e-02,
          -1.21127302e-02, -1.78471226e-02, 1.40514341e-03,
          -1.02860872e-02, 1.28765637e-03, -4.28897627e-02,
          -3.47722694e-02, 1.51448781e-02, 1.47236949e-02,
          3.49691208e-03, 4.46873810e-03, -1.96561869e-02,
          -1.26881022e-02, -5.36451163e-03, -3.01427338e-02,
          -6.07061349e-02, 8.80649313e-03, -5.18814661e-03,
          1.42019219e-03, -2.16043796e-02, 3.38267023e-03,
          -4.35195230e-02, -3.83660793e-02, -4.57872935e-02,
          -2.29761787e-02, -1.51727879e-02, -2.69524707e-03,
          1.35026788e-02, 5.49132749e-03, -1.09324483e-02,
          -1.35048022e-02, 3.86054325e-03, -2.28567068e-02,
          -2.00684369e-02, -7.44121848e-03, -3.12590711e-02,
          3.89103824e-03, 2.06838697e-02, -3.32846083e-02,
          -2.73838285e-02, -1.76572390e-02, -3.90896685e-02,
          -5.22799827e-02, -6.38426421e-03, -3.07832175e-04,
          1.08107238e-03, 1.25646899e-02, 5.63757587e-03,
          -1.22249918e-02, -2.00945903e-02, -3.68131213e-02,
          -5.79469353e-02, -2.13627536e-02, -8.64358805e-03,
          -1.65699944e-02, 2.86783949e-02, -1.22427018e-02,
          -4.61560376e-02, -3.36359777e-02, -3.00964322e-02,
          -1.93981528e-02, 2.88926121e-02, -2.57471278e-02,
          -1.89190283e-02, 3.37568577e-03, -2.22645663e-02,
          -3.07400106e-03, 3.35127190e-02, -8.03789299e-04,
          -1.91367920e-02, 1.97405387e-02, -2.38043182e-02,
          -1.72011536e-02, 2.88238917e-02, -2.11792774e-02,
          -2.53529381e-03, 3.07638627e-02, -8.47408641e-03,
          -5.76031674e-03, 3.49034183e-02, -8.95919092e-03,
          -2.64486782e-02, -1.44391358e-02, -2.52683088e-02,
          -1.84835736e-02, 1.73898749e-02, -2.92877685e-02,
          -1.73994955e-02, 2.08320133e-02, -8.12638178e-03,
          -3.94690372e-02, 4.06396808e-04, -3.26653235e-02,
          -1.49135878e-02, 9.73318610e-03, -1.38704805e-02,
          -1.48180255e-03, 2.94470191e-02, -7.24441488e-04,
          -1.34593025e-02, 1.07450411e-02, -2.43171100e-02,
          3.92597215e-03, 5.02145812e-02, 1.02154119e-02, 1.28819598e-02,
          2.85401214e-02, 1.75667126e-02, -4.27486859e-02,
          -1.30603295e-02, -3.02033518e-02, 8.66467692e-03,
          4.71892245e-02, 2.09025666e-02, -1.74616072e-02,
          3.53974216e-02, 1.87913757e-02, -3.13421115e-02,
          -3.84313008e-03, -2.63790209e-02, 7.43631087e-03,
          2.33879611e-02, 2.39360193e-03, -3.11852410e-03,
          5.16222753e-02, 1.56723876e-02, -3.37818637e-02,
          -8.83829407e-03, -4.01849449e-02, 3.05497870e-02,
          2.43014339e-02, 2.15847529e-02, 2.35995166e-02, 5.09988330e-02,
          -3.89007805e-03, -5.11937700e-02, -1.71051528e-02,
          -7.71926204e-03, 4.37042676e-03, 4.78023551e-02,
          2.05487851e-02, 3.03384084e-02, 5.99871762e-02,
          -1.52296964e-02, -4.10464965e-02, -3.13907266e-02,
          -5.99566428e-03, -5.89285744e-04, 2.94282902e-02,
          3.15259621e-02, -4.51725954e-03, 4.47079167e-02,
          4.16776910e-03, -3.22163776e-02, -1.90587342e-02,
          -4.82094884e-02, 3.44555452e-03, 4.45889644e-02,
          3.72316837e-02, 3.88786476e-03, 2.70999782e-02, 4.51677106e-03,
          -1.95061266e-02, -2.51837596e-02, -4.55144085e-02,
          -2.36917380e-02, 4.03546505e-02, 3.30041535e-02,
          1.39762526e-02, 3.34127657e-02, -1.41894212e-02,
          -4.49986905e-02, -3.86630259e-02, -3.62726338e-02,
          -2.49296445e-02, 1.14145065e-02, 3.35977599e-02,
          1.91853195e-02, 3.07905376e-02, 1.82804111e-02,
          -5.84994769e-03, -4.65508131e-03, -1.70909949e-02,
          1.78315975e-02, 3.30450870e-02, 4.98560481e-02, 1.13158850e-02,
          1.60251763e-02, -1.04080429e-02, -2.24492066e-02,
          -2.67476290e-02, -3.81104648e-02, -2.42090505e-02,
          4.93384991e-03, 1.02539621e-02, 2.80304272e-02, 2.50665266e-02,
          1.51380403e-02, -1.99403595e-02, 8.21480702e-04,
          -1.54479523e-03, 1.62404608e-02, 3.46105732e-02,
          4.86236345e-03, -3.67041714e-02, -3.41845979e-03,
          5.91429323e-03, 7.91086629e-03, -1.76868625e-02,
          -5.21431724e-03, -3.46468017e-03, -7.83652533e-03,
          -7.61443470e-03, -5.56208342e-02, -1.93601009e-02,
          -7.24741630e-03, 2.78654369e-03, 1.13661746e-02,
          2.67567839e-02, 1.08840419e-02, 1.07071316e-03,
          -5.46233915e-02, -2.99484609e-03, -2.76495423e-03,
          -2.07093488e-02, -1.47138964e-02, -2.20661424e-02,
          8.36906675e-03, 1.01848952e-02, -7.85958581e-03,
          -2.78459471e-02, -4.56957035e-02, -3.60628963e-03,
          3.31382034e-03, 1.56861953e-02, 1.02782259e-02, 1.62480548e-02,
          4.60706744e-03, -1.06888786e-02, -6.00499548e-02,
          -1.06516182e-02, 3.24956141e-02, 2.56579351e-02,
          2.88014840e-02, 4.00280394e-02, 4.12859879e-02, 2.92097833e-02,
          2.85407864e-02, -2.78830947e-03, -6.80152327e-02,
          -1.59704275e-02, -1.25099840e-02, 1.26204202e-02,
          -3.78549397e-02, 6.89092139e-03, -2.32521128e-02,
          -3.90130319e-02, -5.70969507e-02, -1.30175389e-02,
          3.41123007e-02, 4.13919985e-02, 5.78124672e-02, 5.83822243e-02,
          3.21865417e-02, 1.89230777e-02, 2.67599244e-02,
          -1.48757398e-02, -6.11821078e-02, -1.92303192e-02,
          -1.92314703e-02, 1.10767707e-02, -2.65933890e-02,
          1.00591416e-02, -4.17180844e-02, -4.74299043e-02,
          -5.51225431e-02, -2.01765802e-02, 8.31960700e-03,
          1.12612043e-02, 3.40224914e-02, -1.27980309e-02,
          4.46673334e-02, 2.11439952e-02, 7.31246546e-03,
          -7.28387339e-03, -7.06719048e-03, -9.65362135e-03,
          -4.18841690e-02, -2.31272466e-02, -1.21960351e-02,
          1.55962948e-02, -5.79271116e-04, 2.51552649e-02,
          -7.57419690e-03, -8.51883832e-03, 1.18298801e-02,
          2.10676156e-02, 3.79423797e-02, -1.16352187e-02,
          2.29578130e-02, -9.98339057e-03, -4.05107718e-03,
          5.48677472e-03, -8.23161565e-03, 1.26619581e-02,
          5.68115292e-03, 1.04160737e-02, -8.14752933e-03,
          -1.17697213e-02, -2.41695102e-02, 6.43840618e-03,
          1.05614886e-02, 1.09587414e-02, -7.34883826e-04,
          -2.53963154e-02, -1.13741374e-02, -1.36812394e-02,
          8.23591836e-03, -3.24295164e-04, 1.19137336e-02,
          1.98676111e-03, -3.76643077e-03, -1.92064736e-02,
          -4.54374915e-03, 1.59729999e-02, -5.69550612e-04,
          1.60152037e-02, 1.47676170e-02, -1.73885953e-02,
          -4.17656451e-03, 1.23509644e-02, -3.71093466e-03,
          1.26328049e-02, 1.89958848e-02, 2.90416833e-03,
          -2.79210071e-04, -1.07322624e-02, 6.66280650e-03,
          2.23904774e-02, 3.31945228e-03, -2.26617400e-02,
          6.37719454e-03, 1.50866769e-02, 1.25929061e-02, 2.67143846e-02,
          1.91425700e-02, 6.08881377e-03, 1.78696439e-02,
          -7.26496847e-03, -1.81405060e-02, -7.81905837e-03,
          -9.92744602e-03, -1.85086261e-02, -6.28143596e-03,
          1.15123845e-03, -1.34748453e-02, -8.13602190e-03,
          1.42281149e-02, -7.20683020e-03, -1.61495041e-02,
          -1.58530679e-02, -2.79655866e-02, -1.13928334e-04,
          1.37715777e-02, -4.58320370e-03, -4.11798339e-03,
          -1.30843576e-02, -9.15563852e-03, -1.28485505e-02,
          -1.59915406e-02, 1.24509516e-03, 1.19639002e-02,
          1.38869965e-02, -6.74274284e-03, 1.02193737e-02,
          -1.38220415e-02, 1.18203433e-02, -8.46948754e-03,
          -1.90426987e-02, -2.39211991e-02, 6.60787662e-03,
          -1.90680579e-03, -1.00854542e-02, 1.62190851e-03,
          3.55243720e-02, 2.67044529e-02, 3.82511802e-02, 2.36997381e-03,
          3.25853936e-02, 4.12506564e-03, 1.19730353e-03, 7.36416969e-03,
          1.55294565e-02, -2.22917460e-03, 5.98236546e-03,
          2.38402933e-02, 6.30156696e-03, 3.40027101e-02, 7.61299860e-03,
          -3.91734019e-03, 1.24610867e-02, 1.18807675e-02,
          5.34639973e-03, 2.86947731e-02, 1.57998558e-02, 7.54638854e-03,
          1.51175838e-02, 2.23531257e-02, -1.57894695e-03,
          -2.11110571e-03, 5.39553910e-03, 7.28056207e-03,
          1.90197174e-02, 7.59503199e-03, -1.24891941e-02,
          2.06713155e-02, 2.13213754e-03, 1.84834935e-02, 1.10469002e-03,
          -9.33668669e-03, -1.49465846e-02, -7.73970445e-04,
          -3.48735019e-03, 3.55458586e-03, 1.68420300e-02,
          -3.18124867e-03, -7.78214214e-03, 6.02150429e-03,
          -2.67911516e-03, 8.29107035e-03, 1.77357588e-02,
          6.63500885e-03, 6.63730828e-03, -1.72060952e-02,
          -7.14375870e-04, -1.61212753e-03, 2.47608665e-02,
          7.36825215e-03, 9.06926207e-03, -8.88608862e-03,
          -2.16500182e-02, -8.02840386e-03, 3.25561799e-02,
          -4.21211449e-03, -4.96956473e-03, 5.23306662e-03,
          -2.60174014e-02, 1.51030452e-03, 3.83604877e-03,
          5.86180622e-03, 2.93078106e-02, 2.27766167e-02, 1.31622693e-02,
          1.88141945e-04, 1.04073649e-02, -7.35249696e-03,
          -3.17621930e-03, 9.77527583e-04, -7.03279302e-03,
          -2.27389745e-02, -2.85799359e-03, 5.46640297e-03,
          -5.24726463e-03, 4.52815695e-03, -1.20077969e-03,
          1.22539531e-02, -1.73538700e-02, -7.81930331e-03,
          2.15308964e-02, 7.74329389e-03, 9.61321034e-03,
          -1.27286734e-02, 1.31991375e-02, 1.69240981e-02,
          -8.75253230e-03, 7.19303219e-03, -1.89955719e-02,
          -1.59277469e-02, -6.44052168e-03, -9.67210252e-03,
          -6.10690005e-03, 2.73037190e-03, -1.89917702e-02,
          -2.56434530e-02, -1.25463065e-02, -3.58262546e-02,
          -1.47914952e-02, -5.47894277e-03, -7.34691648e-03,
          9.83028207e-03, 1.03244875e-02, -1.64297072e-03,
          -3.81740294e-02, -4.00546305e-02, -1.70018524e-02,
          3.71604529e-03, 2.09341142e-02, 3.08266766e-02,
          -1.34808957e-04, 1.28293666e-03, -1.27143022e-02,
          4.06015199e-03, 2.22399849e-02, 9.11789387e-03, 2.76302285e-02,
          2.63571553e-02, 8.70567486e-02, 6.49418384e-02, 5.61564527e-02,
          3.35302241e-02, -5.38483784e-02, -2.25805007e-02,
          -2.78078672e-02, -2.01044455e-02, -6.96340064e-03,
          4.16484708e-03, -1.35513360e-03, -2.59228218e-02,
          -3.20331641e-02, -7.66878016e-03, -7.96630979e-03,
          -2.16593184e-02, -2.37620417e-02, -1.22320727e-02,
          4.82372716e-02, 3.38136740e-02, 1.81353688e-02, 9.53741278e-03,
          3.08478139e-02, 4.69964370e-02, -1.86307367e-03,
          3.52864154e-03, 1.18385209e-02, 4.43686470e-02, 1.32687818e-02,
          4.97537479e-02, 3.35913934e-02, 2.51152460e-02, 6.74485937e-02,
          1.01882396e-02, -7.64507148e-03, -1.00875869e-02,
          4.20841649e-02, 3.24793682e-02, 2.29668897e-02, 1.66013036e-02,
          1.27487713e-02, 1.84732582e-02, -2.48892922e-02,
          -1.64462086e-02, -1.55433305e-02, 1.00366045e-02,
          -3.95416049e-03, 6.61226828e-03, 2.11259760e-02,
          -1.10991457e-02, 1.59396455e-02, -1.05926841e-02,
          -2.77885571e-02, -3.14366668e-02, -1.32449577e-02,
          -1.70464918e-03, 6.92260126e-03, -8.61888193e-03,
          -1.48913395e-02, 4.33900580e-02, 1.47367911e-02,
          -3.48183653e-06, 1.64530892e-02, 5.68758808e-02,
          8.08348134e-02, 6.62780628e-02, -8.15275684e-03,
          -5.18777966e-02, -9.42049082e-03, -3.00400238e-02,
          -5.32210320e-02, -1.47697404e-02, 2.46898662e-02,
          3.23212706e-02, 5.16160689e-02, -1.36116194e-02,
          -1.15673700e-02, 2.05280520e-02, 6.58044685e-03,
          -2.00766325e-02, -1.27142565e-02, 2.85700224e-02,
          4.52280156e-02, 6.03426844e-02, 1.88337341e-02,
          -1.50941722e-02, 1.09290320e-03, -4.44567613e-02,
          -7.85529166e-02, -4.07801718e-02, -2.50900518e-02,
          7.22170155e-03, 4.40373570e-02, -1.43237598e-02,
          -1.29290167e-02, 1.93859227e-02, 1.34575469e-02,
          -1.30459722e-02, -3.08997370e-02, -1.95093767e-03,
          2.55431831e-02, 4.48433533e-02, 8.76622740e-03, 2.55546272e-02,
          1.04790637e-02, -1.07251415e-02, -4.34742272e-02,
          -5.69228977e-02, -3.08019314e-02, -3.96375870e-03,
          9.24149412e-04, 1.00326119e-02, -6.67117955e-03,
          4.11226824e-02, 4.24636714e-03, -1.31305112e-02,
          -1.32728647e-02, 1.12573998e-02, 3.25977467e-02,
          3.33676897e-02, -1.00660222e-02, -5.54816332e-03,
          1.29704569e-02, 2.12801900e-02, -1.90425869e-02,
          -4.37004678e-02, -2.56824922e-02, 7.17810960e-03,
          6.03761291e-03, -2.09279265e-02, 1.04177864e-02,
          7.62480078e-03, -2.22303085e-02, -3.59014347e-02,
          -3.04165911e-02, -1.24942744e-02, -6.29035011e-03,
          1.45499222e-02, 2.62654610e-02, -2.56217970e-03,
          1.86412204e-02, 3.18224053e-03, -3.14206891e-02,
          -3.24994251e-02, -1.55101502e-02, -1.10134296e-02,
          1.24103744e-02, 2.67379684e-03, 2.82462133e-04, 1.77466534e-02,
          3.14689358e-03, -3.76814380e-02, -5.55233136e-02,
          -3.21072116e-02, -9.57484264e-03, 1.72013398e-02,
          1.51994005e-02, -9.69097298e-03, 1.30421109e-02,
          -5.02259284e-03, -4.06247377e-02, -5.07921986e-02,
          -1.58045348e-02, -1.72843516e-03, 2.39342898e-02,
          9.97454487e-03, 1.32917147e-02, 4.77061532e-02, 1.77826323e-02,
          -4.19205660e-03, -2.59520914e-02, -8.79406184e-03,
          7.44726043e-03, 2.79246327e-02, -2.30777950e-04,
          -8.66930280e-03, 2.28505824e-02, -4.15381597e-04,
          3.52136372e-03, -1.47826914e-02, -8.06480274e-03,
          -1.62102077e-02, 8.77483003e-03, -1.56623162e-02,
          8.38631485e-03, 8.70944746e-03, 1.60357880e-03,
          -1.61571037e-02, -2.18545180e-02, -6.15122495e-03,
          1.02335364e-02, 2.51522604e-02, 2.87350616e-03,
          -1.13352863e-02, -1.15707973e-02, -8.61406419e-03,
          -1.95224378e-02, -2.58393046e-02, -2.91039664e-02,
          -1.19654620e-02, 4.96799499e-03, 4.34911810e-03,
          -2.79636383e-02, 1.34641221e-02, 1.66769475e-02,
          9.52435844e-03, -2.87591200e-03, -9.85968509e-04,
          4.07810416e-03, 3.32069695e-02, 9.42767039e-03,
          -2.45212466e-02, -8.10624973e-04, -6.33579446e-03,
          -1.13604497e-02, -4.59666317e-03, -3.32529731e-02,
          -2.92616393e-02, 1.41618550e-02, 1.80378612e-02,
          -9.51061491e-03, -2.12998409e-02, -7.89774116e-03,
          -2.16427096e-03, -2.47109234e-02, -2.30504964e-02,
          -1.28723681e-03, 1.98841337e-02, 4.78892541e-03,
          2.87681731e-04, 5.81248151e-03, -1.43935776e-03,
          -7.02298898e-03, -4.46603149e-02, -4.68850844e-02,
          -2.44144723e-02, 3.05355731e-02, 1.32473735e-02,
          4.33291588e-03, 1.95343755e-02, 4.74061351e-03,
          -1.51181100e-02, -3.70442457e-02, -4.61669192e-02,
          -3.99924405e-02, 2.68585645e-02, 2.39071008e-02,
          5.09168766e-03, -7.21065589e-05, -4.09906078e-03,
          -2.83633713e-02, -3.44678238e-02, -4.47375774e-02,
          -2.95192339e-02, 2.26259287e-02, 7.63779925e-03,
          1.77912060e-02, 1.32252388e-02, 1.48870638e-02, 1.86395161e-02,
          -9.04417690e-03, -3.18262242e-02, -2.11014878e-02,
          3.64278778e-02, 3.09681203e-02, 1.43195158e-02,
          -2.19746605e-02, 2.03903727e-02, -1.13948174e-02,
          -1.13417450e-02, -3.07696369e-02, -1.08601153e-02,
          4.52708267e-02, 3.18661705e-02, -3.74353817e-03,
          2.87954658e-02, 1.28883664e-02, -3.78725044e-02,
          -2.35176459e-02, -2.75917519e-02, -1.09497888e-03,
          2.48308498e-02, 1.50209395e-02, 3.71479988e-02, 1.25006456e-02,
          -1.14257308e-02, -4.41791564e-02, -2.47557741e-02,
          -4.52071987e-02, 1.73974503e-02, 1.61325987e-02,
          2.52494700e-02, 5.15704183e-03, 1.00063914e-02, 3.72926891e-03,
          -4.40109037e-02, -1.85247175e-02, -2.13458482e-02,
          -2.80490867e-03, 3.79238129e-02, 2.82786414e-02,
          2.31545363e-02, 7.24838465e-04, -2.19152365e-02,
          -5.46137206e-02, -1.02155088e-02, -3.49772871e-02,
          -5.14000328e-03, 1.88012961e-02, 2.19959728e-02,
          1.45908352e-02, 1.07871173e-02, -1.03125093e-03,
          -3.57806906e-02, -2.31499504e-02, -4.98450510e-02,
          -3.73108918e-03, 3.42584774e-02, 3.06468713e-03,
          3.60634066e-02, 2.17975099e-02, 1.32162329e-02,
          -1.55691449e-02, -1.74419545e-02, -3.73479165e-02,
          -6.37256354e-03, 5.39525598e-02, 3.80916744e-02,
          1.43431849e-03, 9.76208597e-03, -2.42991727e-02,
          -1.93841755e-02, 8.93446989e-03, -3.41236442e-02,
          -2.56219059e-02, 2.24496052e-02, 1.31092630e-02,
          1.12262322e-02, 2.35106498e-02, 9.63340717e-05,
          -1.20000653e-02, 1.46210361e-02, -1.07713770e-02,
          -1.30020399e-02, 2.29878612e-02, 3.17874625e-02,
          2.88380906e-02, 2.10321955e-02, -1.03983022e-02,
          -3.44898477e-02, -1.04301004e-02, -2.83701178e-02,
          -1.22943008e-02, 2.45966706e-02, 2.57322732e-02,
          4.49833423e-02, 2.59887148e-02, -3.96561390e-03,
          -2.05399394e-02, 1.80280861e-02, 1.98887717e-02,
          2.56467126e-02, 4.22262736e-02, 1.16653340e-02,
          -4.86150570e-03, 8.26715492e-03, -3.55558284e-02,
          -3.08380295e-02, 2.00075959e-03, -2.90350802e-03,
          -3.64597514e-03, 6.13816269e-03, 1.71162449e-02,
          1.20251831e-02, 2.28681862e-02, -2.52890140e-02,
          -2.58474983e-02, 1.18581876e-02, 9.00309626e-03,
          5.95795270e-03, 1.39066540e-02, 1.31495539e-02, 2.14568693e-02,
          -3.83263032e-05, -4.35475260e-03, 2.72116368e-03,
          5.61627094e-03, 2.16111597e-02, 2.64340620e-02, 2.66284905e-02,
          2.18498465e-02, -5.72130689e-03, 1.10110771e-02,
          1.17593473e-02, -7.76509708e-03, 2.80063897e-02,
          1.66146625e-02, -3.37998220e-03, -3.97981424e-03,
          -1.95928961e-02, 1.80124901e-02, 5.92470728e-03,
          -1.83412656e-02, -6.70555420e-03, -3.30131082e-03,
          -1.54513707e-02, -2.09353957e-02, 6.45339396e-03,
          -2.62559531e-03, -1.95267517e-02, 5.52694499e-03,
          7.28394545e-04, -1.86302438e-02, -5.55564975e-03,
          -9.03106295e-03, -2.38224138e-02, -3.11078317e-02,
          -4.73272055e-02, 2.18855161e-02, 3.43808345e-02,
          2.90488936e-02, 1.95665807e-02, 7.23964348e-02, 3.13670039e-02,
          1.17281303e-02, 1.59104392e-02, 1.60408914e-02,
          -1.81940403e-02, -1.89577658e-02, -4.21784446e-02,
          3.87281040e-03, -3.92005360e-03, 1.21630067e-02,
          -2.63150614e-02, -3.10194623e-02, -2.54499316e-02,
          2.79717916e-03, 5.95087232e-03, -4.36506514e-03,
          -1.07386438e-02, 3.28505263e-02, 4.39202562e-02,
          5.42088272e-03, -1.07522570e-02, -2.16432363e-02,
          -3.58090810e-02, -2.96449754e-02, -4.08856310e-02,
          -6.10542810e-03, -7.86686875e-03, -9.60237533e-03,
          -2.65564099e-02, -3.28585058e-02, -4.69322689e-02,
          2.84760352e-03, 6.38017990e-03, 1.77040475e-03, 2.33181324e-02,
          -1.80891585e-02, -3.04948725e-03, -1.66764352e-02,
          -5.33646438e-03, 1.39820113e-04, -1.40689919e-02,
          1.66751386e-03, 2.68559698e-02, 2.52378266e-02,
          -4.04316559e-02, -2.44223140e-02, -3.09261177e-02,
          -2.77091376e-02, -2.13191137e-02, 7.38512725e-03,
          1.39245344e-02, -1.11902505e-02, 1.92496218e-02,
          -2.03740709e-02, -1.09768189e-04, 7.80236768e-03,
          1.92304701e-02, -5.44716464e-03, -1.86213497e-02,
          -1.17725860e-02, 7.64918467e-03, 2.44411211e-02,
          -1.21968249e-02, 8.14558938e-03, 5.50750969e-03,
          -2.23853625e-03, -3.70925888e-02, 4.33056662e-03,
          -1.01894755e-02, 2.44704559e-02, 6.12602616e-03,
          -2.63331011e-02, -2.44444329e-03, -1.56599153e-02,
          -1.42823607e-02, -5.69217978e-03, -1.80005487e-02,
          -1.17996018e-02, 1.56070804e-02, 8.35127756e-03,
          5.36932796e-03, 3.49170528e-02, 9.75151546e-03,
          -1.01117780e-02, 2.09106295e-03, -1.26689801e-03,
          -2.83200610e-02, 1.13949981e-02, 1.99027229e-02,
          1.11256773e-02, 1.94756351e-02, -1.19975791e-03,
          -1.01012671e-02, -5.55570377e-03, -2.18522865e-02,
          -3.08356285e-02, 2.20875256e-02, 6.51836162e-04,
          -9.26054432e-04, 3.83867249e-02, 6.95339870e-03,
          -1.81736238e-02, -5.73918968e-03, -2.71976609e-02,
          -1.57816615e-02, -1.22500109e-02, -2.63583325e-02,
          -3.26764979e-03, 1.50277866e-02, 5.48254279e-03,
          -2.09887233e-02, 1.02706365e-02, -6.89688459e-05,
          -2.53906213e-02, -8.50926712e-03, -1.06927976e-02,
          -1.52055491e-02, -1.00296251e-02, -1.74359269e-02,
          -2.08119657e-02, -2.07666145e-03, -1.22767854e-02,
          -2.48445962e-02, -4.47401870e-03, -2.39734035e-02,
          2.36821524e-03, 1.69488713e-02, 4.98334877e-03,
          -8.11191648e-03, 2.25894805e-03, 1.02382228e-02,
          -3.10032051e-02, -6.42459095e-03, -1.06692677e-02,
          -1.34472372e-02, -1.79092214e-02, -1.67926457e-02,
          1.09637734e-02, 2.81110704e-02, -3.37425759e-03,
          1.31842708e-02, -1.64693240e-02, -5.38170664e-03,
          1.12318676e-02, 5.43099502e-03, -7.86790624e-03,
          -3.19197662e-02, 1.08720874e-02, 1.31854033e-02,
          1.39210476e-02, -2.50604022e-02, -2.61758119e-02,
          1.33144027e-02, 1.53224654e-02, 4.07293485e-03,
          -1.34360828e-02, -3.92273394e-03, 2.39528604e-02,
          3.23950052e-02, -5.24028856e-03, -2.63254140e-02,
          -1.53945554e-02, 5.76694403e-03, -2.80422624e-02,
          -1.97936911e-02, 3.00786551e-02, 1.01521360e-02,
          2.46964153e-02, -1.68208382e-03, -7.92026985e-03,
          1.33399582e-02, 3.85772027e-02, 1.75966020e-03,
          -4.78572724e-03, 2.77299760e-03, 2.80673802e-03,
          -1.75664183e-02, -2.93070320e-02, -1.02342095e-03,
          3.82707864e-02, 1.86210033e-02, -5.57667622e-03,
          -2.44194902e-02, -2.16711573e-02, 5.05436398e-03,
          -1.49858817e-02, -1.61874313e-02, 1.17593110e-02,
          1.47439986e-02, -1.20122992e-02, -1.78670175e-02,
          -1.67844929e-02, -1.52519103e-02, 4.36480949e-03,
          6.81501627e-03, -1.23251146e-02, 5.17511182e-03,
          2.38957815e-02, 2.83895750e-02, -1.13499984e-02,
          -1.89789515e-02, -1.43911019e-02, 1.87841654e-02,
          -7.53370347e-03, -2.12410837e-02, 3.79118416e-03,
          7.31030991e-03, -5.14993817e-03, -7.99533445e-03,
          -2.68007983e-02, 6.58801931e-04, 1.01188831e-02,
          9.00690444e-03, -6.21035416e-03, -1.59336589e-02,
          -6.82177814e-03, -2.91220956e-02, -1.90529358e-02,
          -1.16317731e-03, -1.02252914e-02, 1.12528801e-02,
          2.19034031e-02, 3.64892371e-03, 3.84972154e-05, 3.40527447e-04,
          -2.25165230e-03, 2.14051288e-02, 1.31488992e-02,
          2.54917960e-03, 1.61203009e-03, -9.72968247e-03,
          -2.18151454e-02, -1.41824856e-02, -4.60515963e-03,
          -2.03858856e-02, 5.56782819e-04, -1.02049410e-02,
          5.12454053e-03, 5.15433401e-03, 8.15533567e-03,
          -1.07460612e-04, -8.22457427e-04, 2.84520676e-03,
          9.63722635e-03, 1.40018295e-02, -4.01861360e-03,
          -2.85992865e-03, 2.03214539e-03, 8.74401303e-04,
          -9.57520027e-03, 1.23300459e-02, -4.42445325e-03,
          5.36655076e-03, 6.99301902e-03, -4.25085193e-03,
          8.39679781e-03, 3.54703255e-02, -4.95890528e-03,
          1.42782088e-03, 7.90576637e-03, -3.43199596e-02,
          4.20730514e-03, 2.09875647e-02, 2.45047323e-02, 3.70921455e-02,
          -3.05085792e-03, 1.32353534e-03, -2.01216042e-02,
          4.42595076e-04, -7.89568108e-03, 7.16568669e-04,
          -1.92124639e-02, -1.99700929e-02, -9.29493457e-03,
          9.00641643e-03, 7.11581961e-04, 1.09707369e-02, 1.33062573e-02,
          -3.15917395e-02, 2.86750193e-03, -2.57381368e-02,
          -2.22884491e-03, -7.31574092e-03, 2.17480566e-02,
          9.55978781e-03, 1.68242287e-02, 3.09985671e-02, 3.52659309e-03,
          7.08457828e-03, 1.49976304e-02, 2.17202287e-02, 2.04702262e-02,
          8.54194257e-03, 2.16376688e-02, 1.88326892e-02, 5.47843007e-03,
          -3.52848996e-03, 1.06405569e-02, -1.54896323e-02,
          1.50721818e-02, 2.98577384e-03, -4.94835665e-03,
          -4.04231576e-03, 5.35161281e-03, 1.51229994e-02,
          -6.48519344e-05, 8.53178278e-03, -2.06024833e-02,
          1.55050412e-03, -1.15181636e-02, -2.50556804e-02,
          -1.60269663e-02, -7.54882628e-03, -1.65901463e-02,
          -1.44309597e-04, 1.29143773e-02, -4.13105637e-03,
          -8.01866595e-03, -9.61438753e-03, 6.97963813e-04,
          1.21194520e-03, 5.69037348e-03, -4.72575705e-03,
          1.91617850e-02, 2.70662997e-02, -1.52265858e-02,
          9.98247508e-03, 1.11173568e-02, -1.14952680e-03,
          -4.10415838e-03, -1.49176046e-02, -2.65613794e-02,
          -3.41798365e-02, -1.49540314e-02, -1.68476105e-02,
          2.57857200e-02, -1.18024945e-02, -2.98333317e-02,
          -2.29740050e-02, -1.59327146e-02, -5.05315512e-03,
          2.15985756e-02, 2.34892033e-02, 7.20216194e-03,
          -1.11283688e-02, -1.18301930e-02, -2.18255650e-02,
          -1.19395331e-02, -7.93870166e-03, -1.46000739e-02,
          -3.67750227e-02, -1.55572435e-02, 2.25390890e-03,
          -1.15309954e-02, -1.19249122e-02, -3.43793421e-03,
          2.81298254e-02, 5.41859819e-03, -6.06647751e-04,
          -8.24649725e-03, -1.44734550e-02, 3.59103009e-02,
          2.57011782e-02, -9.91251413e-03, -4.09474224e-03,
          3.27512436e-02, 8.28103535e-03, -1.01881120e-02,
          -2.53015608e-02, -4.96335104e-02, -3.32224206e-03,
          -7.24020228e-03, -1.97696351e-02, 3.22316494e-03,
          1.15589490e-02, 7.82821421e-03, -3.32661998e-03,
          -8.73351004e-03, -1.23984283e-02, 2.37160604e-02,
          2.17529032e-02, -1.53603149e-04, 5.23184100e-03,
          2.47007292e-02, -6.38897857e-03, -1.15444874e-02,
