%YAML:1.0
opencv_ml_svm:
   svmType: EPS_SVR
   kernel:
      type: LINEAR
   C: 1.0000000000000000e-02
   p: 1.0000000000000001e-01
   term_criteria: { epsilon:1.0000000000000000e-03, iterations:1000 }
   var_count: 7524
   sv_total: 1
   support_vectors:
      - [ 3.10632447e-03, 5.62506728e-03, 1.02362093e-02, 2.42605768e-02,
          5.52577861e-02, 3.44650559e-02, -1.40723260e-02,
          -5.83368912e-03, 8.02843180e-03, 1.12592140e-02,
          2.41401326e-02, 9.40592587e-03, 2.39395369e-02, 1.44064175e-02,
          1.37520814e-02, -1.43832676e-02, 1.59510355e-02,
          6.18179049e-03, 8.41005798e-03, -2.87917648e-02,
          -4.61979257e-03, -5.85992215e-03, -1.65141877e-02,
          2.58563515e-02, 1.07719423e-02, 1.38506317e-03, 2.49146242e-02,
          5.31917205e-04, -1.74655381e-03, -7.43461167e-03,
          -1.07179750e-02, -4.26559933e-02, 2.63903905e-02,
          1.83321955e-03, 5.37512125e-03, -6.17539557e-03,
          1.54025927e-02, 1.92404613e-02, -6.22159941e-03,
          2.12768223e-02, 3.70030589e-02, 1.43155642e-02,
          -1.38723869e-02, 5.27135329e-03, 2.08636317e-02,
          2.41010543e-02, 1.03936775e-03, -9.02464893e-03,
          1.24003086e-02, 3.20275128e-02, 8.69141705e-03, 1.55982515e-02,
          1.02883046e-02, 1.08041307e-02, 6.58703363e-03, 4.84183151e-03,
          -9.73242894e-03, 5.06299594e-03, 6.44068234e-03,
          2.60765459e-02, -1.22143673e-02, -2.15002522e-02,
          -6.14890875e-03, 2.17414554e-02, -1.91624686e-02,
          -1.37858167e-02, 2.29054298e-02, 7.74733140e-04,
          -1.22629842e-02, 7.05350703e-03, -4.08694856e-02,
          -6.54362468e-03, 6.40134467e-03, 4.75436868e-03,
          -1.05227558e-02, -6.95083430e-03, 1.79234124e-03,
          6.99999137e-03, 1.39599973e-02, 1.93149142e-03,
          -1.14746327e-02, 9.00155865e-03, 9.97713301e-03,
          -4.14240547e-02, -1.65936798e-02, 7.30969990e-03,
          2.04568263e-03, 1.22303460e-02, 1.36179784e-02, 6.41239574e-03,
          1.50041888e-02, 1.15109719e-02, -1.87245652e-03,
          2.34402996e-02, 8.39922018e-03, 2.26697628e-03,
          -2.30893632e-03, -1.77020878e-02, -9.51703824e-03,
          1.27435233e-02, 3.37253213e-02, -1.29961679e-02,
          7.91283790e-03, 9.80977807e-03, -1.00709163e-02,
          -1.09310383e-02, 2.03650426e-02, -4.35765646e-03,
          2.66108313e-04, 5.86740905e-03, -4.73276265e-02,
          -1.87138990e-02, -1.89743061e-02, -1.55773130e-03,
          -2.08622087e-02, 4.29543620e-03, 1.02409264e-02,
          2.37616319e-02, 1.94933861e-02, -1.60916131e-02,
          -1.51506625e-04, -1.56634245e-02, 1.73767712e-02,
          1.99242053e-03, 2.33519860e-02, 4.69343830e-03, 4.94150957e-03,
          -6.73117640e-04, -3.40599865e-02, 1.09037399e-04,
          -1.38212629e-02, -1.14019867e-02, -1.07274456e-02,
          1.92340799e-02, -2.72981413e-02, 2.11318918e-02,
          -7.58477580e-03, -2.22506803e-02, -6.32526411e-04,
          -3.13052759e-02, 1.81703027e-02, 4.55064606e-03,
          3.65956277e-02, 1.17306563e-03, 2.59093661e-02, 1.58195233e-03,
          7.46647175e-03, 2.33156867e-02, 1.44018028e-02, 2.62969602e-02,
          3.48613001e-02, 1.44179184e-02, -1.84706170e-02,
          5.35950810e-03, 3.22065759e-03, 7.21920654e-03, 9.87631921e-03,
          1.34633929e-02, 4.08641808e-03, 1.56121829e-03,
          -2.67009679e-02, -1.23791499e-02, 2.28873687e-03,
          -4.60831262e-03, -8.49491637e-03, 1.66772790e-02,
          -1.99533626e-02, 1.10275913e-02, 2.90213767e-02,
          1.79353263e-02, -6.05149195e-04, -7.00345496e-03,
          -1.24019338e-02, -9.59180295e-03, 9.53704678e-03,
          -4.70435596e-04, -1.06162336e-02, 6.98283827e-03,
          -9.51761287e-03, -5.91556774e-03, -1.12106763e-02,
          -1.02107797e-03, 7.66748330e-03, 2.04698872e-02,
          4.45735417e-02, -5.41234249e-03, -2.44350825e-02,
          -7.96550512e-03, -5.70213096e-03, -1.71229877e-02,
          1.90607999e-02, -1.12777529e-02, 9.46752087e-04,
          2.50647049e-02, 2.99983402e-03, 8.35325383e-03, 1.30752437e-02,
          -8.76687188e-03, 5.92895970e-03, -1.23437075e-02,
          -3.03839259e-02, -5.20588318e-03, 1.21427914e-02,
          -1.38741580e-03, -1.16803944e-02, 6.34564180e-03,
          -3.90497944e-03, -8.20941478e-03, -4.90844948e-03,
          -2.61170808e-02, -4.80473135e-03, -1.48096716e-03,
          -1.82934161e-02, -2.03506537e-02, 5.45686297e-03,
          -3.39027792e-02, 3.05611757e-03, 4.05982658e-02,
          2.51606759e-03, 6.86227577e-03, 2.20854990e-02, 1.90456379e-02,
          6.55062217e-03, 3.48880468e-03, 5.12316357e-03, 6.87372452e-03,
          1.43491058e-02, -8.48875474e-03, 1.23480326e-02,
          1.34858824e-02, -7.43285660e-03, -2.08037905e-02,
          -2.05943417e-02, -1.47592667e-02, 9.55083314e-03,
          1.80286989e-02, -1.24786859e-02, 1.61161777e-02,
          -2.81027192e-03, -9.23989993e-03, 1.89028885e-02,
          -5.78378374e-03, -1.51967667e-02, 7.51532568e-03,
          -5.41804126e-03, -2.09967438e-02, 6.57022325e-03,
          -3.30352783e-02, -4.26749848e-02, -1.84477139e-02,
          -1.02747642e-02, 9.81045049e-03, 1.00549189e-02,
          2.39281282e-02, 8.02318845e-03, 2.78436709e-02, 3.18013541e-02,
          -4.27042181e-03, -2.35268958e-02, 4.47731651e-03,
          6.03988243e-04, -6.35654060e-03, 1.77322645e-02,
          -5.62848477e-03, -3.77102848e-03, -1.88567601e-02,
          -2.87710484e-02, -2.63042096e-02, -3.68937058e-03,
          2.12070029e-02, 1.09735765e-02, 1.42835528e-02,
          -5.39461989e-03, 1.40739605e-02, 3.95154255e-03,
          1.23681268e-02, -1.36450166e-02, 3.77972797e-02,
          2.99268793e-02, -2.35544015e-02, 1.72550790e-02,
          -2.17866283e-02, -1.48858083e-02, 7.32545741e-03,
          7.32151326e-03, -5.75560099e-03, 2.68204715e-02,
          -2.70435726e-03, -1.99042019e-02, 9.57342051e-03,
          -7.90258776e-03, 1.19032292e-02, 4.77127358e-03,
          -1.88750995e-03, -1.44646084e-02, 2.51482008e-03,
          1.05908271e-02, -2.41220202e-02, 3.38362390e-03,
          -1.35623626e-02, 2.17184075e-03, -1.14323730e-02,
          -8.71745346e-04, -7.78014818e-03, 1.74694248e-02,
          1.60337016e-02, -3.84942483e-04, 2.72021405e-02,
          1.82725415e-02, 4.93636820e-03, 5.76986186e-03, 2.08518375e-02,
          -1.28874816e-02, -2.35539884e-03, -1.84512627e-03,
          -7.34837613e-06, 6.01770403e-03, -2.03247759e-02,
          2.44551245e-03, -1.61080062e-02, 1.39939496e-02,
          -2.70031616e-02, 6.99631730e-03, 1.98594537e-02,
          -3.22949402e-02, -1.50674665e-02, -1.59003846e-02,
          3.38253751e-02, 3.62021811e-02, 1.56746861e-02,
          -1.47764629e-03, -2.41230149e-03, 1.25183435e-02,
          -3.22011597e-02, 3.95978754e-03, -1.82337426e-02,
          -1.05691643e-03, -1.62931103e-02, -2.06323946e-03,
          -4.04131040e-03, -2.76090484e-03, -2.29369719e-02,
          -1.08674793e-02, -1.71845574e-02, -1.10614840e-02,
          1.71916336e-02, 1.01222340e-02, 2.77016386e-02,
          -9.41119250e-03, 1.92204192e-02, 1.22258160e-02,
          -2.42209192e-02, 1.78659912e-02, -3.69331846e-03,
          -2.14800332e-03, -1.37281409e-02, -9.49880946e-03,
          -1.00673344e-02, -4.30630520e-03, -1.19118327e-02,
          7.19533593e-04, 1.50819886e-02, -2.17083637e-02,
          -1.91699825e-02, -8.23473465e-03, 1.15544703e-02,
          -6.45189686e-03, 3.18967202e-03, -8.10803007e-03,
          -2.06774641e-02, -2.17611883e-02, -1.42360339e-02,
          9.31577757e-03, -4.82851267e-02, 7.33824354e-03,
          7.31442065e-04, 1.15349060e-02, -2.73321513e-02,
          -6.66378764e-03, 1.00373784e-02, -3.03460681e-03,
          6.32557552e-03, 7.72691518e-03, 3.63107584e-03,
          -2.41640373e-03, -7.17075262e-03, 9.80509212e-04,
          -3.85336615e-02, -7.26249442e-03, 1.18298037e-03,
          6.79974351e-03, -1.48582477e-02, 2.48382101e-03,
          -7.91952107e-03, -1.27046909e-02, -5.79898525e-03,
          -2.05554049e-02, -2.65112636e-03, 2.54274011e-02,
          3.21559720e-02, -1.71945691e-02, -1.29757710e-02,
          3.51363374e-03, 5.83358109e-03, 5.21484588e-04,
          -5.03891073e-02, -2.19664555e-02, 1.92953572e-02,
          2.56102793e-02, -1.72288180e-03, 1.69634866e-03,
          -1.17028309e-02, -1.61648763e-03, -3.41969123e-03,
          -2.10145954e-02, 3.46825388e-03, 1.85783561e-02,
          4.07317206e-02, -2.89685465e-03, 5.09963045e-03,
          1.44882221e-02, 7.29911681e-03, 1.58121455e-02,
          -3.37473415e-02, -2.91952658e-02, -1.10736866e-04,
          -1.40693225e-02, -4.68624495e-02, -4.11771331e-03,
          -5.40766632e-03, -4.74524684e-03, 6.80225715e-03,
          -3.98573354e-02, -2.56960429e-02, -2.69646104e-03,
          -1.59243238e-04, 2.68611237e-02, -6.54473854e-03,
          -2.97396462e-02, 2.00827024e-03, 8.81078595e-05,
          -2.62844320e-02, -2.51971325e-03, -1.56079615e-02,
          7.35684019e-03, 5.54311089e-04, -1.48799047e-02,
          -3.49661522e-02, 1.30556412e-02, -3.28436941e-02,
          -2.41400357e-02, -1.24521898e-02, -9.89531726e-03,
          -1.44224577e-02, -1.04105379e-02, -1.11656366e-02,
          -9.53976251e-03, -1.44787261e-03, -1.64421962e-03,
          -1.78102367e-02, 1.09435804e-02, -7.92245287e-03,
          -7.89794978e-03, -5.80855878e-03, -3.03001013e-02,
          -4.76322770e-02, -2.30612662e-02, -1.99027061e-02,
          -2.64458954e-02, 1.61004998e-03, 3.04416264e-03,
          4.08556918e-03, 2.50845794e-02, -2.98803276e-03,
          -2.13324055e-02, 2.24409159e-02, -1.73318144e-02,
          -3.36560421e-02, -1.47566441e-02, 8.10721423e-03,
          1.24832317e-02, 7.44561525e-03, -1.25046419e-02,
          -5.02048805e-03, 1.68635529e-02, 9.43033863e-03,
          -3.71766672e-03, -5.15742833e-03, -1.67359542e-02,
          -1.91876236e-02, 1.40751507e-02, -2.42927000e-02,
          -5.02643920e-02, -1.51498728e-02, -2.21701935e-02,
          -1.56009067e-02, -6.73564244e-03, -7.41793122e-03,
          -2.78463438e-02, -1.80709958e-02, -4.91172969e-02,
          3.02617380e-04, 2.03491338e-02, -6.28285983e-04,
          -2.73494180e-02, 1.55617902e-03, 1.15169724e-02,
          -3.46121076e-03, 1.77709330e-02, 1.27936509e-02,
          -2.31901687e-02, -1.77792378e-03, -1.45665742e-02,
          -5.86348511e-02, -1.86242498e-02, -1.15993526e-02,
          -1.73212513e-02, 1.73036214e-02, 1.17518837e-02,
          -1.99764911e-02, -9.53368284e-03, -4.63529825e-02,
          -1.58983301e-02, 9.97241028e-03, 2.42510065e-02,
          -1.38144447e-02, -2.37176791e-02, -1.57545824e-02,
          -9.17919353e-03, 1.17714070e-02, -1.10807293e-03,
          -2.81878170e-02, -1.58431642e-02, -1.12875663e-02,
          -3.19696255e-02, -1.02831246e-02, -9.47331451e-03,
          -6.94994070e-03, 1.34566259e-02, -6.48884379e-05,
          -7.09714368e-03, -6.34431606e-03, -4.65922616e-03,
          -1.43493889e-02, 1.74566992e-02, -3.04464018e-04,
          -1.33912517e-02, 6.22834777e-03, -3.67270026e-04,
          1.60423052e-02, -1.17578264e-02, -9.38254967e-03,
          -3.72833908e-02, 2.62058852e-03, -2.50449181e-02,
          -3.04710567e-02, -1.54149318e-02, 1.54717676e-02,
          -2.22571958e-02, -1.51423123e-02, -8.23839684e-04,
          -5.57942130e-03, -1.27326744e-02, -9.11192223e-03,
          -4.46191290e-03, 2.70580519e-02, 1.66347530e-02,
          5.43287816e-03, -1.45089766e-02, -7.39498879e-04,
          8.19358043e-03, -1.15856566e-02, -3.12701948e-02,
          -8.84607900e-03, 2.97642574e-02, 3.42511050e-02,
          5.68536809e-03, -1.90304569e-03, 1.26007674e-02,
          3.74936243e-03, 9.76066163e-04, -7.77144777e-03,
          -2.29906887e-02, -2.49809027e-03, -1.61467039e-03,
          -3.78330750e-03, -1.81674249e-02, 7.39252660e-04,
          4.41331975e-03, -1.63208228e-02, -6.50208583e-03,
          3.81634361e-03, 3.34334723e-03, 2.63711205e-03, 9.01105441e-03,
          -6.13663346e-03, 1.19322669e-02, 2.61330251e-02,
          -2.70823650e-02, -1.48967011e-02, 9.38376598e-03,
          2.65330765e-02, 1.46646677e-02, -1.24253109e-02,
          -2.41435785e-03, -2.14522169e-03, 1.58898830e-02,
          -3.27809118e-02, -8.35860707e-03, 1.64028872e-02,
          8.90804082e-03, -2.06020242e-03, -3.57891456e-03,
          -2.11843923e-02, -8.37375876e-03, 1.37281185e-02,
          -1.98864355e-03, 1.96238719e-02, 1.63883008e-02,
          -7.15375831e-03, 7.49871088e-03, -2.10503079e-02,
          -1.32251466e-02, 1.60537604e-02, 4.38313652e-03,
          -1.74932629e-02, 2.18321905e-02, 2.14062762e-02,
          -6.21607061e-03, -2.47807289e-03, 1.75141171e-02,
          1.15618818e-02, 2.53240531e-03, 4.37954217e-02,
          -8.11336376e-03, -9.07415058e-03, -3.28893727e-03,
          -1.64256170e-02, -5.28732268e-03, -2.29230573e-04,
          1.26640443e-02, 2.74586529e-02, 1.72190536e-02,
          -3.48809250e-02, -1.01515967e-02, -2.61351224e-02,
          -2.04739626e-02, -2.71082837e-02, -2.25010328e-02,
          -3.34291067e-03, 1.89118367e-02, 1.08511383e-02,
          2.14754511e-02, -1.32238111e-02, 5.04226948e-04,
          -1.89863800e-04, 1.43477391e-03, -7.69400503e-03,
          -1.16657531e-02, 1.95624083e-02, 4.73039411e-03,
          2.48133168e-02, -6.73844246e-03, -2.77295918e-03,
          6.79182634e-03, 1.71395633e-02, -8.83247424e-03,
          2.37833057e-03, 2.30777613e-03, 3.93176358e-03,
          -2.28050984e-02, -1.05152391e-02, -2.02615708e-02,
          -1.31738093e-02, -4.58516134e-03, -1.01731652e-02,
          5.10803657e-03, 1.62342917e-02, 2.74043973e-03, 8.76842649e-04,
          4.92189452e-03, -1.71244387e-02, -6.24309853e-03,
          1.30125899e-02, 1.35514326e-02, -7.80248083e-03,
          1.70321297e-02, 8.13259650e-03, 1.89951230e-02, 1.75621193e-02,
          -4.40280279e-03, -1.79993697e-02, 2.70298868e-02,
          7.68760359e-03, -1.63253788e-02, -3.25040217e-03,
          2.50173826e-02, -8.86459742e-03, 2.07819603e-02,
          -1.03548169e-03, 6.04032166e-03, 2.92550772e-02,
          2.30814405e-02, -1.36717577e-02, 1.75788160e-02,
          3.41078267e-02, 2.57589645e-03, 1.24356933e-02,
          -2.83710919e-02, -2.35458985e-02, 3.59907262e-02,
          1.33438986e-02, -2.57022530e-02, 7.85638040e-05,
          4.13453020e-02, -3.07934862e-02, 1.45462630e-02,
          -1.53484382e-02, -7.36709731e-03, 2.52335034e-02,
          -4.85103781e-04, -1.99479721e-02, -2.37843674e-02,
          -1.42784847e-03, 1.13787483e-02, 1.89795941e-02,
          -2.02138759e-02, -7.99637381e-03, 1.80784594e-02,
          1.40823526e-02, -3.78259271e-02, -1.93480812e-02,
          1.21386545e-02, 1.24739902e-02, 5.78558026e-03,
          -9.05634370e-03, -3.12413499e-02, 1.00977020e-03,
          5.53979399e-03, -9.95149952e-04, -7.59898592e-03,
          2.41596755e-02, -2.10859603e-03, 2.68304236e-02,
          -1.62822660e-02, -7.40950648e-03, 6.47853035e-03,
          -5.94216119e-03, -6.78886240e-03, -6.38042437e-03,
          1.73077472e-02, -6.24525920e-03, 2.32597087e-02,
          -1.79157201e-02, 4.30007046e-03, 2.37643607e-02,
          8.24675243e-03, -1.04697188e-02, 6.28606416e-03,
          1.05409464e-02, 1.03203943e-02, 4.97313158e-04,
          -9.77641437e-03, -1.19655197e-02, -5.81169035e-03,
          1.10470830e-03, 5.99623285e-03, 2.53192917e-03, 1.52274398e-02,
          1.62536185e-02, -1.95977986e-02, -5.56204142e-03,
          2.74740830e-02, 1.95212290e-02, 1.18703209e-03,
          -1.03000156e-03, -1.43009583e-02, -1.29103614e-03,
          -1.85607560e-02, -2.08624974e-02, -1.04147131e-02,
          1.97258815e-02, 2.54944693e-02, 2.30022735e-04, 6.93830336e-03,
          5.41284261e-03, 2.39565074e-02, 1.31403478e-02, 2.37079384e-03,
          4.87094978e-03, 4.85817902e-02, 1.52525157e-02,
          -1.09754074e-02, -1.72045063e-02, -3.29330787e-02,
          2.95087276e-03, 1.05181383e-02, -1.71094444e-02,
          -6.47061924e-03, 2.63947193e-02, -8.28677602e-03,
          1.62695795e-02, 1.19307050e-02, -1.13056591e-02,
          2.68831872e-03, -8.91478825e-03, -1.25208907e-02,
          2.58821761e-03, 3.68197225e-02, -1.06501887e-02,
          1.14627192e-02, -1.55828884e-02, -1.48542710e-02,
          2.61858571e-02, 1.39994239e-02, 2.04788558e-02,
          -4.98784333e-03, 4.65202332e-02, 1.48375016e-02,
          -1.60532128e-02, -1.61417834e-02, -2.38019731e-02,
          1.94383170e-02, 1.16535444e-02, 8.99569783e-03, 1.02946744e-03,
          3.16489488e-02, -1.98861770e-02, 8.74724239e-03,
          8.35560821e-03, 2.32253573e-03, 6.52797971e-05,
          -1.98634174e-02, -1.25851994e-02, 8.50743521e-03,
          1.73166022e-02, -1.16461527e-03, 1.58528727e-03,
          2.07464807e-02, 1.39075015e-02, 9.47901513e-03,
          -1.00594349e-02, -5.76798804e-03, -4.46301093e-03,
          -1.48697905e-02, -5.47206262e-04, -1.41865239e-02,
          7.13242171e-03, -3.88606498e-03, 3.49711184e-03,
          1.46684775e-04, 4.56523942e-03, 5.34320483e-03, 6.92430278e-03,
          -1.86862145e-02, -1.12706386e-02, 2.24619303e-02,
          -5.91704156e-03, 6.21590624e-03, 8.56051594e-03,
          1.70460548e-02, 1.37890559e-02, -4.13328782e-03,
          1.47407260e-02, -1.41151864e-02, -8.87312554e-03,
          -2.70953011e-02, -1.32881608e-02, -8.22917465e-03,
          -1.84934854e-03, -5.92467887e-03, 1.08254422e-02,
          -5.43893038e-05, -3.16649931e-03, -4.38147178e-03,
          -3.86282280e-02, -2.44135913e-02, -6.51216833e-04,
          -1.58831775e-02, -3.33952904e-02, -3.06178723e-03,
          -2.96745133e-02, -1.34119969e-02, 6.62663020e-03,
          -9.63108521e-03, -1.05659543e-02, -1.22350072e-02,
          2.19053216e-02, 1.95240881e-02, 2.86058858e-02, 3.69420648e-02,
          -1.09081306e-02, 1.21499905e-02, -3.06582712e-02,
          -3.13044637e-02, 4.43069730e-03, 3.47888237e-03,
          5.36295935e-04, 2.43280772e-02, 5.51410764e-03, 1.41632184e-02,
          3.76890488e-02, -1.22717826e-03, -1.49438361e-04,
          1.86949801e-02, -1.87495779e-02, -1.02434773e-02,
          8.06820055e-04, -6.42109569e-03, -9.42516606e-03,
          -2.13929522e-03, -4.10241224e-02, -2.18301751e-02,
          -1.53577337e-02, -2.29433998e-02, -1.62565839e-02,
          5.65838255e-03, 1.17818108e-02, -2.98034889e-03,
          4.41220403e-02, -8.93944234e-04, 1.32476268e-02,
          3.60830612e-02, -7.56093720e-03, -8.55784025e-03,
          5.64618409e-03, 8.56964197e-03, -2.35845335e-02,
          1.35624260e-02, -2.38264371e-02, -3.20973285e-02,
          -1.55018491e-03, -1.00822235e-02, -1.90692004e-02,
          -3.18756187e-03, 8.34863819e-03, -2.95631657e-03,
          4.02567815e-03, -1.19213536e-02, -9.77436453e-03,
          -1.41012557e-02, 1.52390152e-02, -1.59339663e-02,
          1.06033701e-02, 3.03078890e-02, -2.31834538e-02,
          1.39308693e-02, -1.21163959e-02, -7.81932753e-03,
          -1.57118950e-03, 1.18360845e-02, -2.05707140e-02,
          8.60482082e-03, 3.79829179e-03, 3.00651649e-03, 9.25099826e-04,
          -6.67839590e-03, -5.54935494e-03, 1.43716845e-03,
          2.46196184e-02, 2.57492857e-03, 2.60851122e-02, 1.27712078e-03,
          -2.95720454e-02, -5.62897651e-03, -1.31909633e-02,
          6.17553387e-03, -1.38650751e-02, 1.56841688e-02,
          -1.26377493e-03, 2.18939651e-02, -1.58513412e-02,
          -7.69254891e-03, 3.47086452e-02, 7.10080471e-03,
          2.07046606e-02, 2.71561686e-02, 2.52816603e-02,
          -1.72432549e-02, 1.07427302e-03, -3.62486346e-04,
          -2.02937028e-03, 1.03064347e-02, -1.80032458e-02,
          -5.95852733e-03, -9.93230008e-03, 1.97890750e-03,
          -2.70097498e-02, 1.44015243e-02, 1.52311129e-02,
          -5.50510222e-03, 7.88062438e-03, -1.76752489e-02,
          2.44086366e-02, 2.58118007e-03, 5.30524505e-03,
          -1.32729290e-02, 1.83380730e-02, 3.86628974e-03,
          2.54483055e-03, -8.79863650e-03, -3.01977657e-02,
          -1.27621219e-02, -2.94312909e-02, -2.54160706e-02,
          -4.11982276e-02, 2.14298232e-03, 1.01770042e-02,
          -1.43499218e-03, 1.59692615e-02, -2.86941975e-03,
          -5.32946829e-03, 1.26401670e-02, 2.44368650e-02,
          -3.05938348e-03, 2.25047525e-02, 1.27757899e-02,
          -1.30535085e-02, 3.10632139e-02, 1.71032604e-02,
          2.24577095e-02, 1.05241323e-02, 2.14133761e-03,
          -8.94722622e-03, -2.13043727e-02, -1.19727869e-02,
          1.52147273e-02, 2.37877667e-03, -9.20821389e-04,
          -1.89299672e-03, 2.79722475e-02, 1.24750631e-02,
          5.29142469e-03, 9.81722213e-03, 1.41790044e-02,
          -9.72269569e-03, -2.40339804e-03, 8.17935169e-03,
          -5.60231879e-03, 2.35278364e-02, -1.95296924e-03,
          2.33096499e-02, -1.98761448e-02, -3.26020159e-02,
          -1.58074964e-02, -6.36046520e-03, -5.57301752e-03,
          1.49439061e-02, 1.96366161e-02, 7.10074278e-03,
          -7.82757532e-03, -1.00368215e-02, -5.34926169e-03,
          -1.58961099e-02, -4.81453986e-04, -3.99633916e-03,
          3.30684311e-03, -1.92727093e-02, 5.65081276e-03,
          -1.33789610e-02, -2.24340521e-02, 6.19136170e-03,
          8.46703630e-03, -4.71304054e-04, 1.54529267e-03,
          1.57484356e-02, 1.09248813e-02, 1.24536799e-02, 2.73791011e-02,
          -2.11669412e-02, 6.32572453e-03, -1.09954923e-03,
          1.30320331e-02, -1.34169823e-02, -1.09804310e-02,
          -3.99839990e-02, -1.02978470e-02, -1.34104714e-02,
          -9.98056214e-03, -7.45940022e-03, 3.54840420e-03,
          7.49291759e-03, 5.28801174e-04, 1.62136629e-02, 3.67341237e-03,
          7.49036961e-04, 8.45652446e-03, 4.96561313e-03, 1.05318855e-02,
          -3.46590430e-02, -2.90703550e-02, -2.86569726e-02,
          -3.23148146e-02, -2.69162375e-02, -4.60209267e-04,
          -3.74649675e-03, 8.60163942e-03, -1.54440245e-02,
          1.27531113e-02, 2.44917832e-02, -2.01679859e-02,
          -1.56568233e-02, -6.83903089e-03, -6.99183578e-03,
          -2.37238104e-03, 1.37238996e-02, -5.85146248e-04,
          -1.66621283e-02, -3.59458849e-02, -2.44619586e-02,
          -2.10172459e-02, 1.19110122e-02, 2.07083722e-04,
          -2.13693883e-02, -1.73284803e-02, -1.78039409e-02,
          -1.68674849e-02, -3.83140333e-03, -1.26345200e-03,
          -5.60269924e-03, -2.53023859e-02, -1.90602560e-02,
          -1.56832002e-02, -7.07406551e-04, 3.25755915e-03,
          -1.25231780e-02, 1.12448661e-02, -5.18308301e-03,
          5.03248256e-03, -3.24853174e-02, -3.03905010e-02,
          -3.72807123e-02, -2.94606425e-02, -1.79149993e-02,
          8.37049913e-03, -2.41326839e-02, -1.51960356e-02,
          -7.55635696e-03, -1.04705093e-03, 4.70237574e-03,
          -2.80592181e-02, 5.44918701e-03, 3.08417570e-04,
          2.80640973e-03, -1.42914131e-02, -7.10572815e-03,
          -5.36956498e-03, -4.96220924e-02, 1.99187128e-03,
          3.91911203e-03, 1.38193034e-02, 1.31748412e-02,
          -1.26022538e-02, -2.87488452e-03, 1.82786048e-03,
          -7.47241452e-03, 2.05779448e-03, -2.50014048e-02,
          -2.64548194e-02, -1.23981507e-02, -1.92906354e-02,
          -3.59244123e-02, -1.58302803e-02, -1.00648962e-02,
          -1.41236559e-02, -6.07907120e-03, -3.96480858e-02,
          -1.37676951e-02, 4.92478209e-03, -3.80731821e-02,
          -7.67570967e-03, -5.27837547e-03, 1.59173738e-03,
          -3.07672052e-03, 7.37298094e-03, 1.15971006e-02,
          1.87461693e-02, 4.40597124e-02, 1.27741499e-02,
          -3.61582264e-02, -1.05881784e-02, -1.01011191e-02,
          -1.61667764e-02, 1.57870054e-02, -1.95454843e-02,
          -7.62469368e-03, 7.17148883e-03, -2.85793357e-02,
          -2.01009139e-02, 1.00077922e-03, 1.99675048e-03,
          -1.83051415e-02, -3.32535468e-02, -8.90503265e-03,
          -4.15462069e-03, 1.60551223e-04, -4.46158554e-03,
          -3.05439793e-02, -5.84889762e-03, -1.25910919e-02,
          -3.33408937e-02, -3.20560597e-02, -2.04442833e-02,
          -9.44582280e-03, 1.19113093e-02, 1.02220371e-03,
          -1.50889978e-02, -2.17228732e-03, -3.51636531e-03,
          8.78482219e-03, 1.83908101e-02, 1.69281010e-02, 3.71351349e-03,
          -4.15139645e-03, -1.24226836e-02, -1.66820753e-02,
          -1.71025720e-04, -1.04490239e-02, -5.92490251e-04,
          1.21146562e-02, 7.17112189e-03, 3.39944381e-03, 1.43755144e-02,
          -3.63522433e-02, -8.18092376e-03, 2.44677509e-03,
          -8.07234179e-03, 3.76380025e-03, -2.26333514e-02,
          -1.26081929e-02, -2.34575570e-03, 1.26215415e-02,
          3.19506042e-02, 1.77182704e-02, -1.12692928e-02,
          -1.19984597e-02, 2.72344262e-03, -2.88165268e-02,
          -2.13208571e-02, 2.72450969e-03, 1.65574700e-02,
          1.64610241e-02, -8.41828808e-03, 1.11404462e-02,
          3.00946180e-03, 9.00021009e-03, -4.89508547e-03,
          -6.73482567e-03, -2.11600605e-02, 1.27338078e-02,
          -1.79329030e-02, 6.85601449e-03, 6.10210327e-03,
          2.80583487e-03, -1.84447784e-02, -4.51661181e-03,
          -2.25948188e-02, -1.23154791e-02, -8.59238394e-03,
          -1.68974698e-02, 7.87286274e-03, -2.81070173e-03,
          -1.06895268e-02, 9.63089801e-03, -2.57273931e-02,
          -1.35086337e-02, 7.60256592e-03, 2.26118546e-02,
          5.29308291e-03, -2.33678780e-02, -5.37800509e-03,
          -1.80557016e-02, 7.38670258e-03, -2.61252336e-02,
          -2.01857816e-02, 2.74271565e-03, -7.04045454e-03,
          -2.43693609e-02, 5.07048739e-04, 1.86182391e-02,
          -6.21573301e-03, -7.53518520e-03, 1.02144741e-02,
          -1.19668748e-02, -1.39382565e-02, 6.44065952e-03,
          -1.70684587e-02, -2.56873127e-02, -6.53598364e-03,
          -9.92556103e-03, 2.55777091e-02, 3.52313300e-03,
          -2.76745688e-02, 3.77154269e-04, 2.28679180e-02,
          -3.14662755e-02, 2.32570451e-02, 1.79090369e-02,
          1.10980254e-02, 4.77518551e-02, -4.59046522e-03,
          -7.09886104e-03, 5.42523514e-04, -6.89548720e-03,
          1.77311841e-02, 1.32947424e-02, 5.01551433e-04, 2.70674620e-02,
          -1.55337201e-03, -2.26193592e-02, 1.45809799e-02,
          -1.29979784e-02, -1.50120286e-02, 2.20590252e-02,
          -1.60847860e-03, 2.81265681e-03, 4.05261805e-03,
          4.98180389e-02, 4.73645888e-03, -1.55992154e-02,
          1.98041927e-03, 8.03956017e-03, 5.51747484e-03,
          -2.48748139e-02, 4.13828390e-03, 1.09038809e-02,
          -1.40008572e-02, -3.20550762e-02, 2.25898717e-02,
          8.09548236e-03, 4.17799427e-04, -1.26547646e-03,
          3.25495959e-03, -1.01961438e-02, 1.29108923e-02,
          -2.07156744e-02, -2.08093785e-02, 2.04761866e-02,
          -3.86354775e-04, 6.73544779e-03, 2.00733617e-02,
          6.72323117e-03, 1.52183857e-04, 1.63991284e-02,
          -1.00639854e-02, -1.59383938e-02, 2.85809767e-02,
          -6.67206617e-03, -1.91493658e-03, 2.30079908e-02,
          -3.33148763e-02, -9.27416980e-03, 8.15759599e-03,
          -3.35779116e-02, -2.37420071e-02, 2.55224593e-02,
          -1.59761694e-03, 1.14300437e-02, -1.15499860e-02,
          1.46416146e-02, -2.00014431e-02, -3.68721994e-05,
          -2.43480261e-02, 2.59747682e-03, 3.24443541e-02,
          8.53118859e-03, 1.28582865e-02, 2.62101665e-02, 1.22184912e-02,
          -4.99412324e-03, 8.27063061e-03, 3.10406797e-02,
          3.64569128e-02, 1.62842181e-02, -1.08154044e-02,
          2.82650767e-03, 4.02093492e-02, 8.83459114e-03, 1.38215935e-02,
          1.41017195e-02, 4.18967903e-02, 2.50884909e-02, 1.66726317e-02,
          3.88724077e-03, 5.25309588e-04, 2.58354787e-02, 2.50161756e-02,
          -1.98406186e-02, -7.66825164e-03, 1.34390499e-02,
          -4.44528740e-03, -4.99304244e-03, -6.44908566e-03,
          3.51662212e-03, 2.75518987e-02, 4.30934783e-03,
          -7.17413891e-03, 1.19619779e-02, 2.55239122e-02,
          -1.96258072e-02, -2.87459958e-02, 2.73818220e-03,
          -5.37981605e-03, 2.80178245e-03, -1.35845104e-02,
          -3.20845470e-03, -7.44547753e-04, 2.69224141e-02,
          3.64441238e-02, 5.90510434e-03, -1.32194953e-02,
          -3.51252686e-03, 5.74746635e-03, -2.13018376e-02,
          -9.22672264e-03, -1.54191963e-02, 2.69772429e-02,
          1.11021288e-02, 3.06992792e-03, -9.71230492e-03,
          1.02555724e-02, 2.65795421e-02, -1.87751483e-02,
          -1.32076731e-02, -9.62816831e-03, 2.39883959e-02,
          -3.23868133e-02, -7.43016787e-03, -3.43328379e-02,
          -3.41558941e-02, -2.93721911e-02, 2.26201396e-03,
          -3.17955972e-03, 5.09735022e-04, 4.59144041e-02,
          2.23786011e-03, -4.95863333e-03, -1.47227887e-02,
          5.64794661e-03, -9.84700210e-03, 3.62554938e-03,
          -2.21420382e-03, -1.42559875e-02, -1.58331462e-03,
          1.42734060e-02, -2.83300541e-02, -4.06379113e-03,
          1.61997192e-02, 3.85311581e-02, 1.52293295e-02, 3.10379243e-03,
          1.54418368e-02, 2.66438496e-04, 2.68847160e-02, 9.82937589e-03,
          4.20449115e-03, 1.68321002e-02, 6.74111815e-03, 2.89508570e-02,
          -9.14716069e-03, 8.03355535e-04, 1.16244359e-02,
          -4.14466998e-03, -2.69077718e-02, -1.55149670e-02,
          -9.29953717e-03, 2.26141252e-02, 1.74569469e-02,
          -2.22030189e-02, -4.92710387e-03, -8.27676058e-03,
          -2.20928602e-02, -1.20126335e-02, -1.89407580e-02,
          1.58745563e-04, 8.57140170e-04, -5.86313475e-03,
          3.59003735e-03, 7.53480196e-03, 1.38492966e-02, 5.22544654e-03,
          -6.26158295e-03, -1.80499665e-02, 1.46105411e-02,
          3.67543940e-03, -5.12025226e-03, 8.10702797e-03,
          -2.45297723e-03, 2.59968452e-02, 1.29041355e-02,
          1.28802070e-02, 2.67390558e-03, 1.82611663e-02,
          -1.17229791e-02, -7.52066961e-03, -5.17637003e-03,
          1.32243949e-04, 2.59297825e-02, -5.90845557e-05,
          -1.57668330e-02, -3.71871283e-03, 7.74113182e-03,
          -3.57497227e-03, -1.06660305e-02, -2.10613781e-03,
          -6.29342580e-03, 1.34354108e-03, 4.77347663e-03,
          -1.02840271e-02, 1.73065737e-02, 1.83986295e-02,
          8.82471167e-03, 6.02301210e-03, 6.72230544e-03,
          -3.16070346e-03, 1.31718125e-02, -4.37235320e-03,
          6.42882008e-03, 5.89645095e-03, 1.57929845e-02,
          -6.89120451e-03, 1.65529404e-04, 7.97877554e-03,
          -4.52651875e-03, 8.79050046e-03, 2.18562409e-02,
          4.51733684e-03, 2.88648473e-04, 2.16747764e-02, 3.71352807e-02,
          5.70553169e-03, 7.19455397e-03, -1.09028490e-02,
          3.10063036e-03, -2.44677961e-02, -7.17533799e-03,
          -3.69257736e-03, 1.18135605e-02, 4.37732646e-03,
          -9.36644059e-03, 9.22943745e-03, -2.78067142e-02,
          2.31684372e-03, -5.88667532e-03, -1.19063603e-02,
          -8.04402307e-03, 2.59866416e-02, -2.98003783e-03,
          -3.83806508e-03, 8.53232294e-03, -2.14153808e-02,
          -9.58976895e-03, 1.38545856e-02, 1.65808499e-02,
          1.98064395e-03, 5.07437903e-03, 2.74739265e-02,
          -3.49559225e-02, -1.31444484e-02, -2.05183458e-02,
          -2.18570903e-02, 3.16164270e-02, 6.86249556e-03,
          -6.35924237e-03, 4.82917344e-03, -2.76468452e-02,
          -7.66232656e-03, -6.76411623e-03, -2.66351346e-02,
          -6.27498026e-04, 1.32204881e-02, -6.82396407e-04,
          -1.53183227e-03, 2.79806852e-02, -1.30409030e-02,
          -2.21876148e-02, -2.40840297e-02, -1.33437170e-02,
          -3.15823816e-02, -1.65427122e-02, -5.57560986e-03,
          3.91690899e-03, 2.50489581e-02, -4.49460410e-02,
          -3.60480696e-02, 8.04662053e-03, 1.18294796e-02,
          1.30806612e-02, 4.22042310e-02, -1.03680640e-02,
          -1.59618147e-02, 5.77421114e-03, -2.06200574e-02,
          -1.85132753e-02, -1.69698484e-02, -1.67916287e-02,
          -6.07181294e-03, 1.63606219e-02, 7.97672942e-03,
          -1.34202894e-02, -7.93278497e-03, -1.03779035e-02,
          -1.56861730e-02, 2.00132448e-02, 2.55518183e-02,
          -1.40883354e-02, -5.16268192e-03, -5.60322031e-03,
          5.73676871e-03, 2.64193229e-02, -2.77374666e-02,
          -3.17785665e-02, 2.25091167e-03, -2.79042358e-03,
          -6.42153015e-03, -2.07102746e-02, -1.70398522e-02,
          -8.29008780e-03, 9.69922712e-06, -3.47415023e-02,
          4.50343918e-03, -1.60427094e-02, -1.77840367e-02,
          1.15127144e-02, 2.11125873e-02, 2.19386052e-02, 8.29327479e-03,
          1.78536065e-02, -2.87984102e-03, -2.10995376e-02,
          -1.66278332e-02, -6.86754100e-03, -8.82654916e-03,
          -1.40884455e-04, -2.66474355e-02, -1.95751190e-02,
          -1.43649951e-02, -2.82542650e-02, 3.05067841e-02,
          2.48343591e-03, -1.59474816e-02, 1.91038698e-02,
          1.91333927e-02, 2.88931944e-04, -1.14473952e-02,
          2.13846639e-02, -1.91712007e-02, 3.85253225e-03,
          2.48432159e-02, 8.76990031e-04, -2.06002053e-02,
          7.97657017e-03, -2.03546360e-02, -2.30234656e-02,
          -5.02705900e-03, -2.18463894e-02, -3.27840308e-03,
          6.30511378e-04, 4.59477585e-03, 6.11661607e-03, 1.10007459e-02,
          -1.72022134e-02, -1.98811106e-02, -7.19343964e-03,
          3.51097225e-03, 1.74733698e-02, -2.77780672e-03,
          -1.95368472e-02, -3.28014488e-03, -1.64095722e-02,
          -1.20331142e-02, -4.57743146e-02, -7.02992873e-03,
          7.49820657e-03, 7.59131275e-03, -1.12752905e-02,
          1.53465942e-02, -1.91785360e-03, 1.08754318e-02,
          5.04290918e-03, 4.54611750e-03, 2.47098058e-02, 1.00948466e-02,
          -8.20271950e-03, -8.36479105e-03, 1.88712077e-03,
          -8.17328133e-03, -2.00080164e-02, -1.86628022e-03,
          -2.55541969e-02, -1.07511356e-02, 5.81377884e-03,
          2.42435075e-02, 5.73786115e-03, -1.08676469e-02,
          4.30239551e-03, 2.21774504e-02, 8.69985577e-03,
          -1.11856218e-02, 7.33743794e-03, -5.73456474e-03,
          8.20794795e-03, -1.22510258e-03, -1.99255999e-02,
          -3.10348421e-02, -1.13866562e-02, 6.03294186e-03,
          1.51071809e-02, 8.31282325e-03, -1.61817279e-02,
          6.58629183e-03, 1.75667740e-02, 1.20295109e-02, 1.29754627e-02,
          2.31560413e-02, 3.41865071e-03, -1.06428480e-02,
          4.43968922e-03, 1.71904694e-02, -1.73978619e-02,
          -1.62588153e-02, -3.50549631e-02, -1.93458833e-02,
          -3.23510207e-02, -3.59177031e-02, -1.28813274e-02,
          8.87915306e-03, -2.04566699e-02, 2.38240622e-02,
          1.31828906e-02, 5.39539906e-04, 6.08185586e-03,
          -8.96189769e-04, 1.57233998e-02, 2.91303229e-02,
          -1.15448667e-03, 1.30206291e-02, -1.30371181e-02,
          1.10762538e-02, 1.95503118e-03, 9.11656953e-03,
          -3.02922875e-02, -1.18511971e-02, -6.20868476e-03,
          -1.82745233e-02, -2.91753132e-02, 4.68017440e-03,
          1.06460955e-02, 2.37645721e-03, -7.91343555e-05,
          -5.80933085e-03, -2.51386203e-02, 1.32084601e-02,
          2.10630950e-02, 5.17940987e-03, -1.77728422e-02,
          -1.29199764e-02, 1.46420114e-02, 1.04477517e-02,
          -1.99054852e-02, -3.45625654e-02, -1.50794312e-02,
          -1.18937548e-02, -2.30284929e-02, -1.45814265e-03,
          2.19784863e-02, -1.50783956e-02, 8.54445994e-03,
          -1.91755630e-02, -2.60899365e-02, -9.19124857e-03,
          -4.37215855e-03, 6.77876465e-04, -4.55801910e-06,
          -3.14528942e-02, -3.95108312e-02, -1.45120034e-02,
          -6.87831722e-04, 9.82517190e-03, -6.48888480e-03,
          -4.23060992e-04, 9.68135986e-03, 1.01726111e-02,
          3.32016032e-03, 1.46217411e-02, 3.56897414e-02,
          -9.97554231e-03, -2.42884420e-02, -6.44311588e-03,
          9.26222559e-03, -5.26527269e-03, -2.19337293e-03,
          -6.76128967e-03, -1.13183921e-02, 1.34519897e-02,
          -1.76776182e-02, -4.96945297e-03, 5.11863781e-03,
          2.32399013e-02, 7.89988786e-03, -8.49490613e-03,
          -3.79073918e-02, -4.02509421e-02, -1.04378341e-02,
          4.71878005e-03, 1.22630093e-02, -2.51847669e-03,
          5.60784363e-04, 7.31372554e-03, -7.88170844e-03,
          -2.88508479e-02, -1.35171534e-02, -7.98458885e-03,
          -2.58710906e-02, 5.20142773e-03, 1.04022129e-02,
          1.21791521e-02, -9.16080363e-03, -5.87911159e-03,
          6.92157215e-03, -3.76689644e-03, 5.31178666e-03,
          3.04853218e-03, -9.61456634e-03, 8.56482703e-03,
          2.04631612e-02, 3.90059955e-04, -1.03450902e-02,
          -1.93568339e-04, 2.69926572e-03, 3.81605998e-02,
          1.85347500e-03, -5.42001473e-03, 1.22705894e-02,
          2.40068398e-02, -3.41226486e-03, -2.22391654e-02,
          -1.00790923e-02, -1.58982642e-03, 1.81266237e-02,
          2.62768543e-03, 7.89828692e-03, 8.36365949e-03, 2.62656473e-02,
          -6.07337430e-03, -2.19632350e-02, -2.69028656e-02,
          -1.33475708e-02, -1.26349479e-02, -7.55932601e-03,
          2.56849942e-03, 7.03092548e-04, -8.20413046e-03,
          -2.52808351e-02, -1.62864048e-02, -2.63162493e-03,
          6.74465997e-03, 3.73272896e-02, 2.21260749e-02, 1.91551801e-02,
          2.43871175e-02, 2.44410355e-02, 3.83319915e-04,
          -6.53536350e-04, -5.81739377e-03, 5.97597752e-03,
          6.27126684e-03, -1.24325976e-02, 2.46272814e-02,
          6.46730512e-03, -7.11021246e-03, -4.44005942e-03,
          -4.56000399e-03, -2.01603048e-03, 9.44939908e-04,
          1.83690414e-02, -4.87616193e-03, 2.92648803e-02,
          -1.01591349e-02, -2.22469289e-02, -2.04685330e-02,
          -9.08445939e-03, -1.10486485e-02, -2.00949032e-02,
          -2.10115612e-02, -2.27076150e-02, 1.07790241e-02,
          -1.40247755e-02, -1.66637562e-02, -2.12987736e-02,
          2.91476864e-02, 2.62072459e-02, 1.41303176e-02, 2.11548731e-02,
          -2.94733094e-04, 3.40505056e-02, 6.25595264e-03,
          1.20429210e-02, 1.58596002e-02, 2.09738743e-02,
          -1.01452563e-02, -1.12930713e-02, -2.20801719e-02,
          -1.55877015e-02, -2.87742773e-03, -7.69665977e-03,
          -6.67821011e-03, -1.98538764e-03, -7.11050536e-03,
          1.95535105e-02, 1.24876872e-02, -2.85880314e-03,
          -1.34219909e-02, -1.63929630e-02, -3.28315981e-02,
          1.62344426e-02, -8.19171779e-03, -1.48355849e-02,
          4.88446979e-03, 3.65726976e-03, -1.04399491e-02,
          -1.49424942e-02, -1.29184155e-02, -3.53396572e-02,
          -1.95737649e-02, -2.53304224e-02, 1.63160227e-02,
          1.70153435e-02, 2.72738785e-02, -5.18432772e-03,
          2.21814238e-03, 9.30729439e-04, -5.43231796e-03,
          1.44698424e-02, 1.64987296e-02, -1.79456230e-02,
          -8.56562797e-03, 1.79927591e-02, -2.12787520e-02,
          -5.98807167e-03, -7.30110053e-03, -3.76798511e-02,
          -2.14951914e-02, -4.64840233e-03, -4.53374023e-03,
          2.12581065e-02, 9.22091305e-03, 1.26588438e-02,
          -1.31854732e-02, 3.80330510e-03, 5.25870686e-03,
          -3.30465555e-04, -4.66007181e-03, -1.98837016e-02,
          -3.76357581e-03, -1.23538831e-02, 1.58993714e-02,
          -2.25096904e-02, -1.50554618e-02, 1.35069937e-02,
          3.28093432e-02, 5.76843973e-03, -3.17225698e-03,
          -1.87970027e-02, 8.59720353e-03, 4.80346789e-04,
          -2.37286072e-02, 4.46852855e-03, -1.89450551e-02,
          -1.43219195e-02, -1.90131075e-03, -1.27468491e-02,
          -1.17745157e-02, -1.33487172e-02, -4.91870241e-03,
          -3.35928127e-02, 2.34582601e-03, -6.05881307e-03,
          1.72566983e-03, 9.34850797e-03, -6.70294743e-03,
          6.13388605e-03, -1.55273061e-02, 1.87664721e-02,
          -1.11383218e-02, -1.49005195e-02, 1.26743848e-02,
          2.24966649e-02, 3.17968428e-02, -2.35590506e-02,
          1.14167864e-02, 3.67965200e-03, 8.17645155e-03,
          -8.09391029e-03, 3.10192108e-02, -2.96284817e-03,
          9.85237886e-04, 1.18337506e-02, 7.97620136e-03, 1.65647990e-03,
          -7.19346339e-03, 6.33695768e-03, 2.07205210e-02,
          1.50779178e-02, 8.54810001e-04, 5.77500835e-03, 1.54011287e-02,
          -2.10256092e-02, -4.50415863e-03, -4.05856641e-03,
          2.06143465e-02, -4.41217655e-03, 2.81076152e-02,
          -1.13803735e-02, 5.89335477e-03, -6.12297049e-03,
          -8.52706470e-03, -1.88604498e-03, 3.92976776e-03,
          -7.96845555e-03, 4.52218461e-04, -8.47114995e-03,
          -3.41670811e-02, -3.13251256e-03, 1.79035310e-02,
          2.71399003e-02, -9.43816267e-03, -1.00474083e-03,
          -3.87777458e-04, 2.82783229e-02, 6.89464668e-03,
          -1.34358620e-02, -5.55271655e-03, 4.35068086e-02,
          -6.13424554e-03, 1.65641028e-03, -1.66695434e-04,
          -7.60305207e-04, -1.78695712e-02, -6.13423856e-03,
          -1.64727848e-02, -5.00529248e-04, 3.61352228e-03,
          1.15072150e-02, -9.68686212e-03, -5.05057070e-03,
          1.24877691e-02, 1.16336690e-02, -1.57018099e-02,
          -1.63086746e-02, -2.36436930e-02, 8.15800298e-03,
          2.23528799e-02, -1.39758270e-02, 1.73152273e-03,
          2.35244725e-02, 2.68219113e-02, -6.34404644e-03,
          -8.92586261e-03, -1.16032746e-03, 9.17442050e-03,
          -8.84959195e-03, -1.58799142e-02, 1.69203803e-02,
          3.97643931e-02, 1.02805849e-02, -3.52456905e-02,
          -1.27459271e-02, -1.94347594e-02, 1.52041728e-04,
          2.12584343e-02, -9.23199207e-03, 2.59431340e-02,
          2.18292475e-02, 3.07045616e-02, 2.23570205e-02, 5.26477071e-03,
          -1.06020663e-02, -5.64915081e-03, 8.26317631e-03,
          -6.13817386e-03, 1.24549223e-02, 1.06986519e-02,
          2.51535680e-02, -2.81750578e-02, -1.48930158e-02,
          -1.33868167e-02, 7.67849758e-03, -1.02612088e-02,
          -7.09320698e-03, -3.60310706e-03, 3.03732567e-02,
          1.89539939e-02, -1.35200433e-02, -4.06356715e-02,
          -2.99233235e-02, 5.62842004e-03, 1.00404872e-02,
          -3.07188230e-03, 1.11897914e-02, 4.17589247e-02,
          2.71969810e-02, 1.20863190e-03, -2.45505795e-02,
          -7.32244272e-03, 2.12620571e-02, -1.70435775e-02,
          -4.82329167e-03, -1.76589917e-02, 1.14064245e-02,
          2.75420714e-02, -7.78967841e-03, -4.55761328e-02,
          -4.29797508e-02, -9.83773544e-03, -8.50315299e-03,
          -1.81679819e-02, -2.55933516e-02, 1.30213136e-02,
          -7.22036976e-03, 4.37796721e-03, -3.06760296e-02,
          -3.34316380e-02, 1.52306827e-02, 1.97626632e-02,
          -1.81700115e-03, -3.79564217e-03, 1.37205143e-02,
          1.76367816e-02, -7.71525595e-03, -1.16823371e-02,
          3.76940588e-03, 2.10210355e-03, 2.64261868e-02, 8.93743802e-03,
          -1.11245213e-03, 8.16642249e-04, -3.32917017e-03,
          1.24971587e-02, 1.83671320e-04, 1.50800366e-02, 2.88609490e-02,
          2.07108120e-03, -2.60787494e-02, -3.02862693e-02,
          -3.27704358e-03, 8.87644291e-03, -1.40222476e-03,
          -9.91627201e-03, 1.82585197e-03, 3.16933952e-02,
          1.37879914e-02, -3.48289311e-03, 2.06842776e-02,
          -1.05973342e-02, -3.40913720e-02, 7.43298698e-03,
          4.01532650e-03, 8.68445821e-03, 1.79213155e-02,
          -1.32900989e-02, -2.12559570e-02, -2.06508189e-02,
          -1.59143042e-02, 8.86215083e-03, 2.44713156e-03,
          -9.84211732e-03, 8.22409801e-03, 1.84769370e-02,
          -7.94165954e-03, 1.94060709e-03, -9.56137665e-03,
          -2.70905923e-02, 5.29528270e-03, 1.22743631e-02,
          3.00013218e-02, 1.36177735e-02, 2.66330168e-02, 9.10403300e-03,
          -1.74634764e-03, 1.50200417e-02, -9.82885156e-03,
          2.17973581e-03, -2.04543527e-02, -1.96163263e-02,
          -3.41912024e-02, 1.60563490e-04, 2.98576336e-02,
          5.27835125e-03, 2.33074054e-02, 5.27384272e-03,
          -3.35679390e-02, -2.15272456e-02, 4.69929958e-03,
          -2.12975126e-02, 3.27079296e-02, -1.04085607e-02,
          2.91578937e-03, -1.17335198e-02, -2.41809376e-02,
          5.94290858e-03, 9.12980351e-04, 9.22561251e-03,
          -1.16833504e-02, -1.48829045e-02, -2.03287136e-02,
          -1.51819605e-02, -9.01832059e-03, -7.90308416e-03,
          3.20094824e-02, -2.08625998e-02, 1.39423544e-02,
          1.70945954e-02, -2.60971542e-02, 9.92858410e-03,
          3.86016280e-03, -9.64058330e-04, -9.33949184e-03,
          -1.86623242e-02, 1.52048077e-02, 6.61347900e-03,
          1.00242188e-02, 4.00666110e-02, -2.77063306e-02,
          -1.24086579e-02, -2.89631858e-02, -2.09697597e-02,
          -1.08917821e-02, -1.70242712e-02, 5.29836770e-03,
          1.67383738e-02, -5.43316174e-03, -1.62284970e-02,
          -1.35214964e-03, 8.92387051e-03, 1.48293318e-03,
          1.82180572e-02, -1.97973438e-02, -3.78650404e-03,
          4.41630371e-03, -2.68849060e-02, -2.47169705e-03,
          1.89035311e-02, 2.15277355e-02, -2.77508404e-02,
          -2.32043006e-02, -2.29467507e-02, -1.60517413e-02,
          4.63100878e-04, -2.74899136e-02, -8.58801045e-03,
          3.34283337e-02, 1.59432217e-02, 4.23000660e-03,
          -1.38906045e-02, -2.82804482e-02, 2.83236639e-03,
          1.37275578e-02, -1.04492018e-02, -1.93760358e-02,
          3.38444822e-02, -8.02882109e-03, -1.83760282e-02,
          -3.48170586e-02, -3.05137262e-02, -2.04761382e-02,
          -9.45563708e-03, -4.67169704e-03, 1.35882329e-02,
          3.85116227e-02, 2.34327950e-02, -3.29718962e-02,
          -3.37164383e-03, -1.30676944e-02, -1.27144465e-02,
          5.26392646e-03, -1.49662308e-02, -5.83827030e-03,
          3.61221693e-02, -1.49001880e-02, -4.83360514e-02,
          -3.85150756e-03, -1.64231453e-02, -1.76896304e-02,
          -4.34761122e-03, -1.66953206e-02, 7.80935539e-03,
          2.91810054e-02, 2.55766343e-02, 1.08291451e-02, 3.89727345e-03,
          -9.21986997e-03, -1.91417858e-02, 7.51603814e-03,
          8.12420342e-03, -6.71579270e-03, 6.01293007e-03,
          -1.41994255e-02, -3.16384621e-02, 3.17672989e-03,
          -7.22392742e-03, -8.95508286e-03, 1.08021051e-02,
          -1.06587540e-02, 3.49870287e-02, 1.92749109e-02,
          -1.57845393e-02, -2.30193883e-02, 3.49599458e-02,
          2.01052426e-05, -3.86565528e-03, 1.17568895e-02,
          7.61333620e-03, 1.75242145e-02, -8.42670817e-03,
          -1.07127633e-02, -1.25097129e-02, 3.26435044e-02,
          1.91353448e-03, -1.77954286e-02, -2.05449364e-03,
          -4.53303661e-03, 1.14510907e-02, 1.23023139e-02,
          -7.82806799e-03, -3.44286673e-02, -1.71868894e-02,
          1.02182636e-02, 1.70660075e-02, 3.54576111e-02, 1.66663539e-03,
          2.55110376e-02, 1.39557160e-02, -2.00416353e-02,
          -1.68767869e-02, 9.47904540e-04, 5.72646456e-03,
          -4.41091368e-03, 3.52775003e-03, -8.42710212e-03,
          -5.71809360e-04, -2.02972479e-02, -1.52536295e-02,
          -6.17090566e-03, 1.14289699e-02, 8.23096279e-03,
          2.51324475e-03, 1.50708361e-02, -5.25938906e-03,
          5.31074125e-04, 1.09866289e-02, 1.93375070e-02,
          -6.45535672e-03, 2.23325938e-03, 6.97568478e-03,
          -2.08097510e-03, 6.90881861e-03, -1.38783427e-02,
          2.43462548e-02, 4.45890576e-02, -2.35167937e-03,
          -2.31782510e-03, -3.47058848e-03, 2.47066724e-03,
          -3.77203780e-03, -6.77913427e-03, -8.39313399e-03,
          2.06092205e-02, 2.98487842e-02, 1.51801780e-02,
          -1.55825876e-02, -2.01170556e-02, -1.48569245e-03,
          1.07593248e-02, 1.30522121e-02, -2.17591114e-02,
          1.59864817e-02, 1.68933235e-02, 9.86498874e-03,
          -4.47449181e-03, 1.69264134e-02, -1.53079648e-02,
          -1.43709090e-02, 1.71704404e-02, 3.14528029e-03,
          -2.10444233e-03, -2.47454341e-03, -3.99348587e-02,
          -1.18054310e-02, -2.81811096e-02, -4.25850563e-02,
          -2.56015267e-02, 1.08831814e-02, 1.28597962e-02,
          3.54858637e-02, 4.52171527e-02, 7.68623874e-03, 1.03064755e-03,
          -3.23002716e-03, -7.44067226e-03, -5.21605881e-03,
          1.56615917e-02, -1.71683412e-02, 1.17292153e-02,
          2.50008591e-02, -2.50395816e-02, -9.25313216e-03,
          -2.81511098e-02, 1.47909308e-02, -5.61262015e-03,
          4.46070172e-03, 1.98378861e-02, -2.54529971e-03,
          7.48855947e-03, -2.11945660e-02, 1.24378838e-02,
          -9.57831100e-04, -8.10254458e-03, -2.84776278e-02,
          1.37419906e-02, 1.25916703e-02, -4.06679418e-03,
          -2.55111568e-02, -2.91252378e-02, 1.10076917e-02,
          -3.46382549e-05, -2.60693440e-03, -1.13380430e-02,
          -7.81884324e-03, -1.08920038e-02, -1.34345386e-02,
          2.98488680e-02, -1.56014031e-02, 1.35961790e-02,
          2.09643077e-02, 5.48642427e-02, 1.97081715e-02, 2.67436821e-03,
          1.34677654e-02, 5.34981373e-04, 9.60027985e-03,
          -1.17707308e-02, 2.84098322e-03, -1.11525189e-02,
          2.24663243e-02, 5.44394925e-03, 4.72865911e-04,
          -2.26293374e-02, 1.04838936e-02, -3.21530155e-03,
          -2.80559715e-03, 9.43063479e-03, -1.88477635e-02,
          -2.11962182e-02, -1.37709985e-02, -6.77665183e-03,
          -1.83296483e-02, 7.27547007e-03, 3.48957628e-03,
          3.71690094e-03, -3.20786727e-03, -2.21989714e-02,
          -1.12750661e-02, -2.10152958e-02, -1.04844719e-02,
          -9.85366385e-03, 3.80197987e-02, 4.56888601e-02,
          1.92482269e-03, 2.45978497e-03, -4.41762619e-03,
          2.58247647e-03, 1.87375443e-03, -1.44722080e-02,
          -2.51012370e-02, 2.77305208e-02, 2.73428950e-02,
          1.36520863e-02, 8.77218379e-04, -6.52904715e-03,
          -7.32251536e-03, -3.20890658e-02, -3.29491198e-02,
          8.79269186e-03, -6.77467184e-03, 2.03530323e-02,
          -1.14965364e-02, -4.97548934e-03, 6.07490307e-03,
          -4.82078874e-03, -2.20544059e-02, 1.84527319e-03,
          -1.58877131e-02, -3.96410599e-02, -2.82646380e-02,
          -4.03443426e-02, 1.62357166e-02, -1.08807376e-02,
          -1.96007336e-03, -3.09793632e-02, 5.75390691e-03,
          -2.24865582e-02, 1.72758643e-02, 1.19835911e-02,
          4.89761773e-03, -4.59470926e-03, 1.94460042e-02,
          8.88042431e-03, 2.97272392e-03, 7.54115637e-03, 1.02477977e-02,
          -1.12899847e-03, -1.96668264e-02, -2.76091844e-02,
          8.72316118e-03, 1.23851281e-02, 8.17076955e-03,
          -2.07102280e-02, 6.79981289e-03, 3.17893049e-04,
          -2.41250079e-02, -1.46330465e-02, -1.63743775e-02,
          1.38830664e-02, 5.77044720e-03, -4.56098747e-03,
          -2.54131164e-02, 2.40789214e-03, -2.39656717e-02,
          1.65781155e-02, 4.07882556e-02, 2.11898214e-03,
          -1.47631364e-02, -3.80667150e-02, -2.18966361e-02,
          -1.27856769e-02, 1.26249883e-02, -2.61996444e-02,
          2.13378295e-02, 5.47551038e-03, 3.42838257e-03, 2.60965005e-02,
          1.38131026e-02, 1.32095637e-02, -3.34948078e-02,
          1.14727747e-02, -2.91063543e-03, 3.13058048e-02,
          3.92199494e-02, 2.78745741e-02, -3.06717888e-03,
          -1.73291564e-03, 1.38751585e-02, 6.28042500e-03,
          3.81307341e-02, -1.75079554e-02, 9.52596543e-04,
          3.38510200e-02, -5.73143642e-03, -6.09565014e-03,
          -1.19679319e-02, -1.07536027e-02, 2.16784957e-03,
          2.78704315e-02, -4.79588844e-03, -1.79782361e-02,
          -2.74455324e-02, -2.53067557e-02, -3.93793685e-03,
          -1.08631831e-02, 9.39491857e-03, -3.62123130e-03,
          5.17143449e-03, -1.27455825e-02, 1.23331312e-03,
          2.28261016e-02, 4.48871218e-03, -1.08508989e-02,
          3.46167646e-02, 4.45323810e-02, 2.22267583e-02, 4.96242717e-02,
          1.43340547e-02, -4.03506532e-02, -1.83365718e-02,
          -2.75981873e-02, -1.76096079e-03, 1.61742531e-02,
          3.60066108e-02, 5.53133991e-03, 2.93697882e-02,
          -2.91164368e-02, -5.42348297e-03, -1.14950156e-02,
          1.56106390e-02, 1.49063710e-02, -4.43050778e-03,
          2.11908128e-02, 1.87582690e-02, 1.61543526e-02, 2.77696038e-03,
          -2.91974135e-02, -8.08319077e-03, 2.85777700e-04,
          -1.76810473e-02, -2.23060306e-02, -2.94381995e-02,
          -2.84611378e-02, -1.68126076e-02, -7.63267605e-03,
          -2.44921315e-02, -6.33401098e-03, 3.63564068e-05,
          4.23849188e-02, 2.98354533e-02, 4.31328714e-02, 3.32942717e-02,
          2.29588617e-02, -2.44221203e-02, -4.20731716e-02,
          -3.05888988e-02, -8.82396847e-03, -1.23471674e-02,
          2.60222107e-02, -3.19514563e-03, -7.52489502e-03,
          -1.98668172e-03, -3.75909135e-02, -8.74689966e-03,
          -9.58240125e-03, 6.83085294e-03, -2.31307861e-03,
          -1.36936698e-02, -1.61004234e-02, -1.79824512e-02,
          3.99384648e-03, 1.23308655e-02, -1.42054800e-02,
          -2.74658743e-02, -1.63500570e-02, 1.51792606e-02,
          -1.99923906e-02, -2.60689538e-02, -2.52740551e-02,
          3.86971538e-03, 1.50203165e-02, -9.76942666e-03,
          -1.11786565e-02, 7.01333676e-03, 8.99571739e-03,
          8.53735209e-03, 2.05784328e-02, 5.16426843e-03, 2.17323638e-02,
          6.03960361e-03, -2.00786181e-02, -2.03323066e-02,
          -3.08633223e-03, 4.49345484e-02, -1.21026495e-02,
          -9.42844059e-03, -3.25035979e-03, -1.33855110e-02,
          -8.44176579e-03, -4.10132052e-04, -1.33240130e-02,
          1.94104132e-03, 2.14958172e-02, -1.12604769e-02,
          2.18050811e-03, -1.93514414e-02, -1.56231197e-02,
          1.21722892e-02, -2.43626330e-02, -7.71978265e-03,
          5.22158574e-03, 2.00649519e-02, -1.59581807e-02,
          1.62194502e-02, -1.76439397e-02, -7.91484676e-03,
          -2.04114411e-02, -6.66144351e-03, -1.52824987e-02,
          -4.00566822e-03, 1.44392438e-02, 8.62915814e-03,
          4.73236805e-03, 8.76678620e-03, -3.88428681e-02,
          -4.52526333e-03, -2.19892785e-02, 7.79046258e-03,
          1.76245850e-02, 3.47910332e-03, 1.45559257e-03, 7.38662574e-03,
          1.88865401e-02, -2.18188465e-02, -4.20432016e-02,
          -2.87556928e-03, -9.62268189e-03, -1.70352757e-02,
          -1.49897076e-02, -3.54412980e-02, 4.66404995e-03,
          -4.24319180e-03, -3.71066644e-03, 3.14443698e-03,
          -2.06837524e-03, -2.12113932e-02, -3.26178893e-02,
          -2.48279367e-02, -1.06243649e-02, -7.73408730e-03,
          -1.14282984e-02, -3.45149301e-02, -1.21579664e-02,
          -3.05004022e-03, 8.91595089e-04, -2.99636251e-03,
          -2.66754651e-03, 9.51438863e-03, 5.89679321e-03,
          2.54651904e-02, 2.00722390e-03, -1.64247565e-02,
          1.54343080e-02, -6.98132440e-04, -1.79376937e-02,
          -2.34265048e-02, 9.68857203e-03, 3.61682707e-03,
          -4.94472124e-03, -1.66559368e-02, -2.09486624e-03,
          3.41621600e-03, -2.67684478e-02, 2.62779579e-03,
          2.43940763e-02, 1.21372361e-02, 2.68362667e-02, 6.77843858e-03,
          1.23876696e-02, 2.15250021e-03, -4.51899739e-03,
          -8.20646249e-03, 3.49803432e-03, 1.05612306e-02,
          1.26685845e-02, 2.39351839e-02, 1.29789077e-02, 1.12956529e-02,
          4.09788731e-03, 2.06929035e-02, -1.22896675e-02,
          -7.99989328e-03, 1.24899121e-02, 1.38107529e-02,
          2.36509331e-02, 1.33758010e-02, 4.80871135e-03, 3.14441733e-02,
          8.15816224e-04, 1.72689725e-02, 4.91200527e-03, 6.38802443e-03,
          7.13282544e-03, 3.49352509e-02, 1.55734913e-02, 2.57669035e-02,
          -3.70719936e-03, -1.44731011e-02, 9.41911805e-03,
          -1.23439096e-02, 1.03355590e-02, 2.86222007e-02,
          4.03479040e-02, -1.05811553e-02, -1.05779665e-02,
          -6.59059267e-04, 1.23477830e-02, 1.36470245e-02,
          -4.86076623e-03, 4.41295058e-02, 1.86531506e-02,
          4.37377058e-02, 1.68900397e-02, 2.11877213e-03, 2.01834887e-02,
          9.41609964e-03, 1.12470800e-04, -1.15763377e-02,
          -6.17362186e-03, -7.38791469e-03, 2.19018571e-02,
          -4.15410008e-03, 7.62383966e-03, -6.20739115e-03,
          1.13895414e-02, 9.27696470e-03, -3.66265094e-03,
          -1.34763326e-02, -5.95409647e-02, -8.11035465e-03,
          3.40518495e-03, 9.44995787e-03, 2.60546040e-02,
          -5.11599530e-04, -7.30533851e-03, -3.56459827e-03,
          2.15329044e-02, 2.33802889e-02, -5.16888546e-03,
          -7.02285906e-03, -5.39259054e-05, 3.41697782e-03,
          2.09659040e-02, 1.30321104e-02, 1.73371956e-02, 1.45713110e-02,
          -6.94681425e-03, 1.30104208e-02, -1.77942663e-02,
          5.83652221e-03, -6.66736020e-03, -9.31034330e-03,
          -5.58569236e-03, -2.92445091e-03, 6.37196843e-03,
          -1.02923773e-02, -3.12650315e-02, -1.30855469e-02,
          -1.99430715e-03, -2.39757495e-03, 1.85611639e-02,
          8.36293492e-03, 4.48548188e-03, 1.14190904e-02, 6.34577940e-04,
          2.56344620e-02, -1.81140453e-02, -1.95972640e-02,
          2.36797947e-02, -1.94054842e-02, -5.23605151e-03,
          8.61715991e-03, 2.37209327e-03, 8.30343459e-04,
          -3.20349410e-02, -4.16735224e-02, -2.89169196e-02,
          -3.93567942e-02, -5.83155593e-03, 2.43024901e-02,
          3.94457504e-02, 3.76212373e-02, -1.19025987e-02,
          -4.35944796e-02, -3.96554470e-02, -2.70700473e-02,
          -3.45988981e-02, 4.56910487e-03, -9.64424759e-03,
          1.03424909e-02, 1.39612649e-02, 4.15647551e-02, 1.65810678e-02,
          -2.82855183e-02, -3.58913168e-02, -2.59062517e-02,
          1.49804382e-02, 5.33974245e-02, 6.84973001e-02, 4.93763797e-02,
          2.34988201e-02, 2.70231552e-02, 1.00960210e-02, 8.09916575e-03,
          -4.22545290e-03, 2.02553906e-02, 1.15122823e-02,
          -4.59049689e-03, -1.15024792e-02, -2.33184434e-02,
          -2.93768477e-02, -2.24565174e-02, 7.65506178e-03,
          2.69002281e-02, -3.47163156e-02, 7.50829699e-03,
          6.42873067e-03, -3.25929485e-02, -6.34948537e-03,
          -3.54561210e-02, -1.27610490e-02, 1.83051862e-02,
          -1.93520151e-02, 2.65318267e-02, 4.98653799e-02,
          2.77431458e-02, 1.98021019e-03, 6.76560029e-03,
          -1.27299363e-02, 9.31182038e-03, 4.23644409e-02,
          2.30447333e-02, -1.01762144e-02, 2.06894763e-02,
          3.27807851e-02, 2.18954626e-02, -1.15692187e-02,
          -3.05490568e-02, 2.24577878e-02, 5.13050482e-02,
          2.09719897e-03, -2.26620981e-03, 7.97133893e-02,
          5.95095903e-02, 1.00803804e-02, 3.02876392e-03,
          -2.76041944e-02, 3.13651701e-03, 2.33904794e-02,
          -8.89863726e-03, -2.27456093e-02, 5.89764826e-02,
          6.82146847e-03, -3.03737856e-02, -2.33306736e-02,
          -4.88897935e-02, -4.53848355e-02, -1.91556457e-02,
          -2.60530133e-02, -1.71639044e-02, 8.99558961e-02,
          1.04926765e-01, 5.24648018e-02, 7.97979627e-03, 6.55610766e-03,
          2.77904291e-02, 5.50205819e-02, -2.07594093e-02,
          -3.79765704e-02, 3.90468687e-02, 3.16186324e-02,
          -4.03590016e-02, -8.61148071e-03, -3.54256071e-02,
          -2.13640407e-02, -2.99751498e-02, -9.16765705e-02,
          2.81257578e-03, 6.26326576e-02, 3.06997169e-02, 2.63350978e-02,
          7.19272124e-04, -6.75281743e-03, -1.91832557e-02,
          1.55579261e-02, 5.90702612e-03, 1.73201207e-02, 3.29189524e-02,
          -1.23140235e-02, -1.86774358e-02, -3.06354109e-02,
          -2.23833099e-02, 1.16303200e-02, 1.77430380e-02,
          1.96615253e-02, -2.21650805e-02, 4.42794412e-02,
          1.88579392e-02, -2.99559478e-02, -4.52730805e-02,
          -1.27250273e-02, -8.06569774e-03, 1.85705069e-03,
          -3.71911451e-02, -1.55856544e-02, 6.89459732e-04,
          -2.26462483e-02, -5.74169531e-02, -7.24012852e-02,
          -4.88342233e-02, -2.62392461e-02, 2.27764086e-03,
          9.26681235e-03, 3.49004194e-02, 2.58497111e-02,
          -1.77939627e-02, -3.39247286e-02, -4.84077223e-02,
          -3.16859409e-02, 1.47038233e-02, 4.15866971e-02,
          3.37873846e-02, 1.70307439e-02, 4.16925065e-02,
          -1.66212413e-02, -1.34190209e-02, -2.27404404e-02,
          -3.18759959e-03, -2.22747470e-03, 2.96054650e-02,
          7.31605431e-03, 8.27274658e-03, 2.23654732e-02,
          -2.23743543e-02, -2.43503526e-02, -4.38329428e-02,
          -5.02198227e-02, -1.71776675e-02, 4.35665436e-03,
          8.48585367e-03, 9.85394698e-03, 2.57447958e-02,
          -1.17764864e-02, -1.69286076e-02, -2.12691613e-02,
          -3.95954475e-02, -2.13160235e-02, 7.83646828e-04,
          -3.82274739e-03, 1.74208283e-02, 6.17694072e-02,
          8.93713906e-03, -3.15841008e-03, -2.35497151e-02,
          -4.08684107e-04, -1.81408655e-02, 1.25112645e-02,
          2.61285678e-02, 1.62430070e-02, 3.07665113e-02,
          -1.48733631e-02, -2.50278413e-02, -1.45599293e-02,
          -3.35478201e-03, 1.18555333e-02, -1.53993649e-04,
          -1.00884661e-02, -4.89238164e-06, 3.61624435e-02,
          5.09986235e-03, -1.11680329e-02, -4.06168960e-02,
          -5.60595933e-03, -2.04169322e-02, 8.55549239e-03,
          1.16241735e-03, -4.08180654e-02, 1.38623901e-02,
          -1.64752640e-02, -3.03231645e-02, -6.92325318e-03,
          -5.88311581e-03, -2.56350413e-02, -3.09796608e-03,
          -1.99543294e-02, 3.40189151e-02, 4.77397554e-02,
          1.55625967e-02, -5.81203308e-03, -1.99457668e-02,
          1.79241654e-02, -6.32962771e-03, 3.92890116e-03,
          -7.01979501e-03, 4.43565324e-02, 4.56947535e-02,
          -4.95725963e-03, -2.65130941e-02, -3.42676975e-02,
          1.05384039e-02, -8.59958585e-03, 1.90103520e-02,
          2.01293156e-02, -1.32794427e-02, 3.32401916e-02,
          1.44987311e-02, 9.98891052e-03, -4.05557774e-04,
          8.70707631e-03, -4.71384125e-03, 1.82235837e-02,
          -3.07274126e-02, -4.69411956e-03, 1.30706932e-02,
          -1.68863330e-02, -3.02191582e-02, 3.18011665e-03,
          -1.23542463e-02, -2.19549704e-02, -9.13019292e-03,
          -4.82334010e-02, 5.47409467e-02, 5.20579442e-02,
          1.54295674e-04, -2.28146948e-02, 7.89368001e-04,
          2.40625180e-02, 2.58943735e-04, 2.56520957e-02, 4.76767011e-02,
          3.69954668e-02, 3.69411223e-02, -2.70176232e-02,
          -4.04106304e-02, 1.05815171e-03, 6.79439306e-03,
          8.36773869e-03, 3.35208909e-03, 1.09382486e-02, 1.95014123e-02,
          3.25809419e-02, -2.48512179e-02, -5.04809208e-02,
          -3.60742509e-02, -3.36744376e-02, -1.41372280e-02,
          1.67273711e-02, 9.79216769e-04, 4.12909780e-03,
          -1.15023134e-03, -3.01151536e-02, -4.68460396e-02,
          -3.93242482e-03, -2.50771847e-02, -1.41148306e-02,
          2.65915282e-02, -2.94879684e-03, 3.82688157e-02,
          3.96842323e-02, -1.44167989e-02, -4.35152240e-02,
          -7.96143431e-03, -2.88486052e-02, -7.79344561e-03,
          3.21762799e-03, 8.09816644e-03, 4.34091948e-02, 2.23907121e-02,
          4.94394731e-03, -3.29487883e-02, -1.92057882e-02,
          -4.09552604e-02, -4.59210686e-02, -2.50371620e-02,
          2.47852188e-02, 1.16926879e-02, 1.45565404e-03,
          -1.23401089e-02, -4.80997860e-02, -7.43928133e-03,
          -5.43446466e-02, -1.77165605e-02, 2.96698995e-02,
          -1.15057692e-05, 3.39337215e-02, 3.37404199e-03,
          1.56617276e-02, -4.81656604e-02, -4.65133451e-02,
          -5.23622297e-02, -3.78533900e-02, 7.22755957e-03,
          2.76725031e-02, 1.41565595e-02, 1.04670031e-02,
          -1.42525798e-02, -2.47606896e-02, -5.75247919e-03,
          -1.31389778e-02, -2.81929970e-02, 1.45983845e-02,
          4.24697157e-03, 1.56282652e-02, -4.34732949e-03,
          -2.25205552e-02, 1.78399705e-03, -5.55412611e-04,
          -4.75130184e-03, -1.81175284e-02, 1.10814190e-02,
          2.04267073e-02, 1.76120491e-03, 3.40134650e-02,
          -8.39320384e-03, -5.42481504e-02, -3.79167274e-02,
          -1.47828180e-02, 1.53321493e-03, 2.70282850e-02,
          1.36124874e-02, 3.73801403e-02, 3.88183258e-02,
          -1.40874246e-02, -2.59995982e-02, -1.80028453e-02,
          3.52077116e-03, 1.22634908e-02, 2.16560140e-02, 4.45241109e-02,
          4.94012469e-03, -1.70176546e-03, 1.35501672e-04,
          1.28617818e-02, -2.42924225e-02, -2.20274981e-02,
          -4.37357649e-02, -1.15466397e-03, -5.41055901e-03,
          1.02965105e-02, 3.16946432e-02, 3.51477228e-03,
          -8.64380784e-03, -7.38923624e-03, -1.37642734e-02,
          1.05247158e-03, 1.86870303e-02, -1.52074350e-02,
          3.18556055e-02, 4.97239977e-02, -1.82617558e-04,
          -2.04959419e-02, -3.14771198e-02, -2.85499282e-02,
          -2.07152292e-02, 6.15947694e-03, 6.24267273e-02,
          3.49666104e-02, 5.83694428e-02, 2.25039050e-02, 1.64859965e-02,
          -1.63951460e-02, -1.76446773e-02, 5.43158920e-03,
          3.22867632e-02, 8.33603591e-02, -2.79841508e-04,
          2.53063049e-02, 9.16933641e-04, -2.19468474e-02,
          8.08423385e-03, 4.54106630e-05, 1.48089966e-02, 9.13376641e-03,
          -1.19675891e-02, -5.57306483e-02, -2.90441643e-02,
          -1.81087125e-02, -1.87834837e-02, -2.60678725e-03,
          -1.30920410e-02, -2.06219163e-02, -1.31719196e-02,
          -5.34351394e-02, 3.48479711e-02, 5.58616072e-02,
          5.69802187e-02, 3.26938033e-02, 5.06225787e-03,
          -5.93682285e-03, 1.40581438e-02, 3.06402892e-02,
          4.84939404e-02, -6.86583249e-03, 5.63339854e-04,
          1.71343777e-02, 8.31303466e-03, 2.18225010e-02, 9.73727088e-03,
          1.05210561e-02, 1.87158808e-02, 5.13937091e-04,
          -1.91508438e-02, -5.33775613e-03, 1.59500889e-03,
          3.76103446e-02, 2.52381787e-02, 1.19668776e-02, 9.34621599e-03,
          6.47557387e-03, -1.45372329e-02, -4.33757827e-02,
          -4.60985079e-02, -4.70633544e-02, -2.33534165e-02,
          8.42307042e-03, -7.83275929e-04, -2.12234650e-02,
          -2.84544080e-02, -4.71919812e-02, 3.38409506e-02,
          3.51046436e-02, 2.02090070e-02, 3.63890678e-02, 6.32839575e-02,
          4.26686890e-02, 4.44390140e-02, 4.48315293e-02, 4.80342768e-02,
          -2.01857574e-02, -3.66622061e-02, -5.64617105e-02,
          -2.25144476e-02, -1.57199930e-02, 1.35892862e-02,
          -2.08834838e-02, -2.40437742e-02, -7.11306371e-03,
          7.30856846e-04, 5.93911251e-03, -1.55435014e-03,
          1.06280856e-02, 4.67626052e-03, 3.01891193e-02, 2.23715301e-03,
          2.08551846e-02, -1.52438390e-03, -2.36609951e-02,
          -1.62607688e-03, 1.48954568e-03, 5.91538567e-03,
          -2.10014470e-02, -4.23905905e-03, 1.91598979e-03,
          -2.27141213e-02, -1.81011315e-02, 3.98997683e-03,
          -1.35741746e-02, -3.13192457e-02, -2.30426458e-03,
          -2.92586032e-02, 5.53877205e-02, 1.54685834e-02,
          1.82776917e-02, 5.39709628e-03, -8.37629102e-03,
          3.95924988e-04, -3.11410930e-02, -3.15593779e-02,
          -2.46568378e-02, 1.95186343e-02, 2.23097503e-02,
          1.21208820e-02, -2.68305447e-02, -6.08138740e-03,
          4.91409935e-03, 2.10485887e-03, -7.88577925e-03,
          -1.85256433e-02, 1.96523056e-03, 2.19708234e-02,
          -3.32654789e-02, -1.00429393e-02, -6.75760396e-03,
          -1.41888801e-02, 1.83050595e-02, 6.01063482e-03,
          1.97741413e-03, 4.31444822e-03, 3.86186391e-02,
          -2.33224034e-02, -2.67109890e-02, 6.34112302e-03,
          1.39041832e-02, 2.83098803e-03, -1.17928637e-02,
          -3.26507725e-02, 2.74957363e-02, 3.62479948e-02,
          2.62292754e-03, -5.12475101e-03, 6.38087839e-03,
          -7.47268926e-03, 1.35197761e-02, 3.78319882e-02,
          -1.10832381e-03, 2.09762156e-02, 2.36485824e-02,
          -2.10752860e-02, -2.03166287e-02, -1.74291749e-02,
          -1.26562268e-02, 8.38132575e-03, 3.80838546e-03,
          1.21897561e-02, -1.00882668e-02, 2.98155472e-02,
          -2.16077804e-03, -1.56216035e-02, -3.42798652e-03,
          -2.74622580e-03, 4.16604918e-04, -2.46880986e-02,
          -4.84092860e-04, 5.72855957e-03, 6.42601307e-03,
          8.83110892e-03, 1.65752321e-02, -3.63143533e-03,
          -3.06694731e-02, 7.94937555e-03, 1.10454485e-02,
          -1.90053368e-03, -7.03972764e-04, 1.21207796e-02,
          -3.41570340e-02, -2.84099486e-02, 1.35086039e-02,
          -2.81389784e-02, -5.75457094e-03, -1.77825298e-02,
          -1.08201187e-02, 6.10747328e-03, 9.08627454e-03,
          -1.61205307e-02, 1.71911437e-02, 2.24614795e-02,
          9.00118425e-03, 1.07904440e-02, 1.88148674e-02, 1.08726984e-02,
          1.68078598e-02, 7.78926117e-03, -9.04612301e-04,
          2.61992700e-02, -1.83200836e-02, 1.42456405e-02,
          1.01851206e-02, 1.54854422e-02, 7.49450503e-03, 3.53868268e-02,
          1.60463769e-02, 8.64986703e-03, -3.98946373e-04,
          3.63567546e-02, -1.67016052e-02, 6.18141424e-03,
          9.80682904e-04, -2.02420726e-03, 5.25814062e-03,
          -9.13947355e-03, -1.35365799e-02, 1.83656327e-02,
          4.86429268e-03, 4.53649508e-03, 2.14858819e-02, 5.29408036e-03,
          -6.54360140e-03, 4.71425662e-03, 2.20096726e-02,
          1.21509563e-02, -3.01072584e-03, -2.10417472e-02,
          -6.43026223e-03, -1.59037095e-02, -4.07619961e-03,
          -9.14096774e-04, 1.62902884e-02, -7.88215455e-03,
          -1.75073801e-03, 7.54449982e-03, 1.64328367e-02,
          -9.75326810e-04, -8.39512609e-03, -1.83444880e-02,
          -4.19587046e-02, -1.80732962e-02, -9.75329150e-03,
          -1.33291548e-02, 1.62675455e-02, -3.00546468e-04,
          4.40204400e-04, -1.21158548e-02, -1.01101715e-02,
          -7.81899411e-03, -1.84285629e-03, 1.95281077e-02,
          3.79636255e-03, 1.05115669e-02, 1.61733478e-02, 1.98860932e-02,
          -1.81741000e-03, -6.43790746e-03, -2.52093878e-02,
          -5.55304228e-04, -1.02984335e-03, -7.41002569e-03,
          1.19363237e-02, -5.45950932e-03, -2.85676885e-02,
          -4.20619100e-02, -2.22709812e-02, -1.06107295e-02,
          -2.59067155e-02, -3.48673910e-02, -2.46118493e-02,
          4.89386148e-04, 1.19759506e-02, -1.52035542e-02,
          -2.67335121e-03, 3.63825262e-02, 4.03054021e-02,
          4.53574508e-02, 4.47555259e-03, -1.14107495e-02,
          6.30089967e-03, -7.42480438e-03, -1.80974659e-02,
          -2.89491955e-02, -1.65392905e-02, -1.27701992e-02,
          -2.23450307e-02, -3.56670171e-02, -4.88219857e-02,
          -5.60707506e-03, 1.09318476e-02, -4.67982702e-02,
          -5.30757150e-03, 4.88549434e-02, 3.65270823e-02,
          3.84804532e-02, 3.37945833e-03, -2.73111816e-02,
          9.00468230e-03, -7.00264238e-03, -2.02245787e-02,
          -3.57011938e-03, 1.43389693e-02, 3.31712700e-02,
          1.97534934e-02, -1.92133039e-02, -2.93055903e-02,
          -3.09815239e-02, 1.67435128e-03, 5.67226633e-02,
          5.81050403e-02, 2.74605118e-02, 2.72371005e-02, 4.37888913e-02,
          1.45859849e-02, 2.76865214e-02, -1.45582408e-02,
          -3.38020585e-02, -4.17036116e-02, -1.20684393e-02,
          3.46307047e-02, 3.63523215e-02, 9.01049003e-03,
          -1.32825477e-02, -2.94348504e-02, -4.44331206e-03,
          -9.36813769e-04, 1.99627373e-02, 1.59523413e-02,
          1.62832346e-02, 2.87842093e-04, 1.99032798e-02, 4.47318442e-02,
          5.41208759e-02, 5.31124184e-03, 2.19252929e-02, 5.66645600e-02,
          3.40676457e-02, -3.09323240e-03, 2.15611281e-03,
          9.97089408e-03, 3.90284657e-02, 7.16722533e-02, 9.68307815e-03,
          -2.93331221e-02, 1.74754374e-02, 2.35469919e-02,
          9.59257409e-03, -1.57661103e-02, -2.61285529e-02,
          3.64137106e-02, 4.90051955e-02, -2.57951580e-02,
          1.37788290e-02, 5.72817475e-02, 1.05007784e-02,
          -1.43667478e-02, -1.07692834e-02, -1.14831468e-02,
          3.48296463e-02, 6.96328059e-02, 1.69306658e-02,
          -4.06587273e-02, 4.86973450e-02, 2.71513201e-02,
          -1.12355370e-02, -1.24605093e-02, -2.07884796e-02,
          4.24986258e-02, 3.30559909e-02, -2.55298205e-02,
          -5.81039302e-02, 6.35810569e-02, 8.50495547e-02,
          6.88767806e-02, 2.48162262e-02, 4.80667390e-02, 4.33872789e-02,
          3.62807401e-02, -4.79392856e-02, -8.17917511e-02,
          1.91690195e-02, 3.75186168e-02, -1.15718704e-03,
          2.44035777e-02, -9.89509933e-03, -7.12935906e-03,
          -1.93945672e-02, -1.09882846e-01, -5.97544536e-02,
          4.57768738e-02, 6.86760098e-02, 4.51523103e-02, 6.68561272e-03,
          6.38255030e-02, 1.01527408e-01, 7.60823861e-02,
          -4.34235521e-02, -9.75229442e-02, -3.42864245e-02,
          1.31755602e-02, -2.97646821e-02, 3.53655666e-02,
          -1.02259731e-02, 1.43225752e-02, 1.12006851e-02,
          -7.87392482e-02, -3.43651585e-02, 2.82532889e-02,
          2.05247253e-02, -1.72559023e-02, -4.20264527e-02,
          -7.62642222e-03, 1.02742733e-02, 2.65773069e-02,
          -5.16689867e-02, -2.43263096e-02, -4.85037640e-03,
          -3.17431875e-02, -3.39412689e-02, -5.40932044e-02,
          -2.47452371e-02, -8.09199363e-03, 9.40609630e-03,
          -1.15807762e-03, -4.02825810e-02, 7.75264902e-03,
          8.45406856e-03, -2.46772841e-02, -2.39433274e-02,
          -7.52936723e-03, 1.17769521e-02, 4.36007269e-02,
          -3.29800099e-02, 4.54340689e-03, 2.34464463e-02,
          -5.65753970e-03, -2.29590163e-02, -4.66076359e-02,
          -1.84472371e-02, -2.45549642e-02, 7.92238116e-03,
          -1.39067275e-02, -2.04525422e-02, -1.43371476e-02,
          -1.05921207e-02, 3.67413904e-03, -5.08309994e-03,
          -1.05397431e-02, -4.36014868e-03, -6.48629665e-03,
          -8.91583599e-03, -3.09047382e-02, -1.49311768e-02,
          -4.23617754e-03, -7.32419081e-03, 6.22933265e-03,
          -1.56397913e-02, -1.47706631e-03, 9.10587702e-03,
          -2.80473791e-02, -3.31614772e-03, 1.11177042e-02,
          1.07515687e-02, -1.46270832e-02, -1.43778129e-02,
          -5.61553333e-03, -1.22663528e-02, -8.91904719e-03,
          -1.72354635e-02, -3.57025824e-02, -7.72066601e-03,
          1.14508942e-02, -1.33322356e-02, -7.31621031e-03,
          -1.95643734e-02, -8.26885179e-03, -5.58413705e-03,
          -5.51070273e-02, -3.88171934e-02, -4.18151636e-03,
          -2.47466902e-04, 6.79532485e-03, 1.25727486e-02,
          2.45809015e-02, 7.74660381e-03, 1.54404147e-02,
          -4.01234403e-02, -5.20712882e-02, -2.07421146e-02,
          -1.27013717e-02, 1.19996266e-02, 2.44884621e-02,
          1.33667588e-02, -1.12427911e-02, 1.68986600e-02,
          -4.21479531e-02, -3.05252001e-02, -8.20407644e-03,
          -3.74457752e-03, 1.60319414e-02, 5.08966949e-03,
          9.21891909e-03, -1.37697225e-02, -4.84030927e-03,
          -6.60893917e-02, -3.84047925e-02, -3.84661742e-03,
          -1.30503867e-02, 7.35708862e-04, 6.30181516e-03,
          -1.69436098e-03, -3.34450305e-02, -2.15412527e-02,
          -5.12593389e-02, -3.61775570e-02, 1.03959756e-03,
          1.64051373e-02, 4.41531241e-02, 3.48825976e-02, 2.22840346e-02,
          -7.86327012e-03, 2.86372583e-02, -1.81282740e-02,
          -4.47326303e-02, -1.25800399e-02, -1.56894065e-02,
          2.17389613e-02, 3.01882401e-02, 5.88801410e-03,
          -4.59171738e-03, 9.52908769e-03, -4.67783101e-02,
          -3.66448350e-02, 1.46536985e-02, -5.48969620e-05,
          1.66791547e-02, 1.80483293e-02, 1.57868657e-02, 1.61677366e-03,
          7.17222085e-03, -4.64799441e-02, -4.10108864e-02,
          1.66019669e-03, -3.07428953e-03, -2.98851784e-02,
          1.22676305e-02, 5.68244001e-03, -5.40360063e-03,
          1.12001198e-05, -4.01042886e-02, -2.17449851e-02,
          2.29214411e-02, -1.63019821e-02, -2.25554537e-02,
          6.99220365e-03, -1.79255065e-02, 1.40975206e-03,
          4.16001566e-02, 1.24256220e-02, -2.08475944e-02,
          1.31508829e-02, -2.49427315e-02, -2.05574278e-02,
          1.65652893e-02, -1.38697708e-02, -1.01903165e-02,
          2.15535834e-02, -1.17958803e-02, 2.37875488e-02,
          5.15171140e-02, -3.22258682e-03, -3.22473943e-02,
          1.34731832e-04, -2.84475666e-02, -5.72856143e-03,
          2.69200057e-02, -1.40185868e-02, 1.10439835e-02,
          3.38545926e-02, -9.87362489e-03, -3.56487036e-02,
          2.29284745e-02, -1.27667375e-02, -3.22158113e-02,
          1.72030702e-02, 2.19417177e-03, -1.87116880e-02,
          2.58497465e-02, -6.19264646e-03, -1.48564009e-02,
          3.02028656e-02, -1.34048881e-02, -9.65229888e-03,
          3.62437926e-02, -1.41125489e-02, 1.91309713e-02,
          3.33212800e-02, 2.82349680e-02, -4.52037156e-02,
          -2.64712274e-02, -2.81855296e-02, 1.90550182e-03,
          4.71348725e-02, 1.03539592e-02, -1.04828132e-02,
          4.71425243e-02, -2.99237436e-03, -3.71620096e-02,
          1.57408603e-02, -1.29708517e-02, -1.62671860e-02,
          2.54578572e-02, -1.11907404e-02, 1.87314337e-03,
          4.86842468e-02, -1.36073185e-02, -5.38520589e-02,
          -1.78067386e-02, -2.94506345e-02, 2.60956679e-03,
          9.36711673e-03, 8.72919243e-03, 3.69553827e-02, 5.88334426e-02,
          1.21140173e-02, -4.71152030e-02, -6.10188171e-02,
          -2.71519925e-02, 1.16192945e-03, 5.24505749e-02,
          7.23199360e-03, 3.27993557e-02, 5.28005883e-02,
          -2.11651977e-02, -3.63990590e-02, -4.45105024e-02,
          -1.34936646e-02, 1.01359107e-03, 2.18420736e-02,
          2.17863563e-02, 1.00591797e-02, 5.11838757e-02,
          -9.11757257e-03, -3.93179208e-02, -3.33139487e-02,
          -4.55742218e-02, -9.57067125e-03, 3.32788639e-02,
          3.09728924e-03, 7.65030505e-03, 2.37166695e-02,
          -1.44259166e-02, -1.64356902e-02, -9.25108977e-03,
          -2.69814394e-02, -2.86289752e-02, 4.58871014e-02,
          1.51227647e-02, 3.46391872e-02, 2.73854919e-02,
          -2.59704385e-02, -4.06175442e-02, -4.52551842e-02,
          -3.87525037e-02, -3.38041484e-02, 1.15854852e-03,
          5.01429960e-02, 4.14120667e-02, 4.64844704e-02, 8.93953070e-03,
          -1.22569101e-02, -4.60465476e-02, -2.02238485e-02,
          3.44241410e-03, 5.54859005e-02, 7.03858882e-02, 2.89715100e-02,
          -1.73018873e-03, -4.30249386e-02, -4.44946624e-02,
          -3.13222930e-02, -4.91942875e-02, -4.18983400e-02,
          1.64125171e-02, 3.72324549e-02, 5.72785176e-02, 3.64009514e-02,
          8.24388396e-03, -2.83099692e-02, -4.40042764e-02,
          -1.37444790e-02, -3.01102526e-03, 4.37023900e-02,
          4.14048545e-02, -1.54012779e-03, 1.70774963e-02,
          3.41836289e-02, 2.76773516e-02, -1.51767191e-02,
          -2.56496738e-03, 7.36493990e-03, 3.55117209e-02,
          3.54814455e-02, -3.91183496e-02, -1.10397758e-02,
          1.87415238e-02, 1.44167366e-02, 2.23854296e-02, 8.96309316e-03,
          8.10309686e-03, 1.52412551e-02, -2.41980180e-02,
          1.20288171e-02, 2.02643890e-02, 2.32343655e-02, 8.26729555e-03,
          -5.52207418e-03, 3.25157866e-02, 1.73736271e-02,
          1.47617161e-02, -1.35903293e-03, -3.43998820e-02,
          -1.33462688e-02, 1.90022495e-02, 3.10740825e-02,
          1.63173489e-02, 9.81479604e-03, -1.69967359e-03,
          3.84966703e-03, -3.93352024e-02, -2.58291839e-03,
          1.74965989e-02, 2.07519196e-02, 5.18428721e-02, 5.92440702e-02,
          3.58625501e-02, 3.52943800e-02, 2.78348271e-02, 7.76193105e-03,
          -4.47503254e-02, -5.93655184e-02, -4.60939221e-02,
          1.09245852e-02, -2.82217544e-02, 9.47429240e-03,
          -3.71858068e-02, -4.68502268e-02, -3.75181809e-02,
          3.24029964e-03, 1.68526284e-02, 4.82777208e-02, 7.89464414e-02,
          5.39375916e-02, 3.31686288e-02, 1.95460469e-02, 5.45394123e-02,
          1.15631921e-02, -2.81924121e-02, -4.86646667e-02,
          -8.02475400e-03, 4.63792980e-02, -9.07887612e-03,
          -9.32124630e-03, -4.79122475e-02, -3.01258639e-02,
          -2.99440641e-02, -8.33851635e-04, -1.90067999e-02,
          -1.79151502e-02, 3.88122536e-02, -1.31151462e-02,
          5.76550178e-02, 5.58110187e-03, -6.01732230e-04,
          3.33330268e-03, -1.18769631e-02, 2.60881893e-03,
          -2.45095678e-02, -1.78900138e-02, -2.23838408e-02,
          2.45372988e-02, -2.38091126e-03, 8.91307369e-03,
          -1.67277697e-02, 8.97129904e-03, -4.73075546e-03,
          1.74250267e-02, 6.90661147e-02, -3.22422944e-03,
          4.04557176e-02, -4.93242592e-03, -4.49803518e-03,
          6.88825687e-03, 5.01241710e-04, 1.17860073e-02, 2.35862955e-02,
          2.77212933e-02, 6.98594796e-03, -1.58880427e-02,
          -1.97021589e-02, 8.18391889e-03, -2.57815700e-03,
          1.67426709e-02, 2.14050841e-02, 1.88822225e-02, 1.63085735e-03,
          -3.01634073e-02, 1.88786276e-02, 1.60160046e-02,
          -6.58784993e-03, -2.67898059e-03, 9.67719685e-03,
          -1.44960452e-02, -1.96252833e-03, 1.88478250e-02,
          -8.11761711e-03, 1.18407942e-02, 3.23375431e-03,
          -4.04019095e-02, -1.41818440e-02, 1.45053174e-02,
          2.50554197e-02, 3.63480188e-02, 4.51470464e-02, 1.46067701e-02,
          4.79520386e-04, 2.19569374e-02, 9.31620132e-03, 2.08044760e-02,
          9.20149777e-03, 5.24601061e-03, 2.55085547e-02, 2.77937986e-02,
          1.93504188e-02, 1.96120013e-02, 1.91081967e-02,
          -1.08368937e-02, 1.02630388e-02, 2.21416820e-02,
          -2.04482768e-02, 3.85011313e-04, 4.31140419e-03,
          -1.44540810e-03, 9.08265822e-03, -5.71729895e-03,
          -3.32531743e-02, 2.12943810e-03, 4.39487509e-02,
          -1.72981285e-02, 1.27520617e-02, -9.35195852e-03,
          -3.36245783e-02, -2.42165420e-02, 4.18592617e-03,
          -1.67523362e-02, 2.18077190e-02, 6.49368716e-03,
          -9.55596939e-03, -9.87874251e-03, 2.82391836e-03,
          -9.94478166e-03, -4.10553953e-03, -5.00228489e-04,
          -2.82364711e-02, -4.29907022e-03, -6.33962732e-03,
          -1.88275129e-02, 2.12673843e-02, 2.39536213e-03,
          -1.59644932e-02, -1.20373815e-02, 7.06030661e-03,
          -2.99894642e-02, -7.57756410e-03, 5.31862304e-02,
          6.82232669e-03, 4.69074398e-03, -1.10949557e-02,
          4.75842692e-02, 5.60616469e-03, -1.73569880e-02,
          -3.15108187e-02, 2.30562575e-02, 1.75874084e-02,
          2.86105778e-02, 2.23521870e-02, 2.19240738e-03, 4.07042727e-02,
          1.12621323e-03, 3.49839963e-03, -3.64590297e-03,
          1.66597012e-02, 2.42885035e-02, -6.06367504e-03,
          -1.60099044e-02, -1.04865537e-03, 1.96112394e-02,
          3.27460840e-02, 1.77285764e-02, -3.06008593e-03,
          1.66951679e-02, 1.86721478e-02, 2.04333551e-02, 3.92333278e-03,
          8.03818088e-03, 2.11861357e-02, 1.91314109e-02, 1.95561778e-02,
          1.17501069e-03, 1.43852213e-03, 4.04803688e-03, 1.54828308e-02,
          4.00281651e-03, 2.67549814e-03, 8.86156783e-03,
          -8.17372743e-03, 3.15473787e-03, -5.40099200e-03,
          1.46011524e-02, -5.65557601e-03, 5.55127114e-03,
          1.08148269e-02, 8.92384537e-03, -1.01207886e-02,
          1.91735048e-02, 1.42330723e-02, 1.70751996e-02,
          -7.82191521e-04, 1.95392165e-02, 1.02083420e-03,
          5.10731433e-03, 3.01120821e-02, 2.57793125e-02, 2.16253102e-04,
          -7.12064421e-03, -3.63848079e-03, -3.15148733e-03,
          4.26969491e-04, -1.57672670e-02, 2.73825843e-02,
          5.09440824e-02, -3.15159070e-03, 3.54879536e-02,
          2.27959398e-02, 7.52266031e-03, 5.36522130e-03,
          -7.92113971e-03, 2.66724941e-03, -4.22802754e-03,
          -5.08160889e-03, 1.87629573e-02, 2.12094709e-02,
          3.55912768e-03, -8.61081295e-03, -6.36802008e-03,
          6.14929153e-03, -2.76172645e-02, -1.05497856e-02,
          3.15545313e-02, 1.30210398e-02, 2.27154028e-02, 6.00392604e-03,
          -1.52630201e-02, 1.13421185e-02, -1.35360267e-02,
          1.24812331e-02, 1.53503790e-02, 1.07741198e-02,
          -9.99490544e-03, 2.91694105e-02, 2.80719362e-02,
          -1.37381144e-02, -8.28835298e-04, -2.58051157e-02,
          1.06813572e-03, -3.60061554e-03, 8.90133157e-03,
          1.53699075e-03, 2.84867715e-02, 1.84834898e-02,
          -1.59816444e-02, -7.69642589e-04, -3.13024558e-02,
          -5.45986667e-02, -7.27866031e-03, 1.73835233e-02,
          6.37188554e-02, 5.10450266e-02, 1.45600960e-02, 9.54052620e-03,
          9.71771590e-03, -1.52264871e-02, 8.31279438e-03,
          2.93140505e-02, 2.71980986e-02, 4.55591977e-02, 9.17591453e-02,
          7.38877356e-02, 8.36943388e-02, 4.15142514e-02,
          -4.32651527e-02, -3.54410969e-02, -2.19303593e-02,
          -1.85658596e-02, -1.33605418e-03, 1.15442453e-02,
          -5.34269912e-03, -1.62895937e-02, -3.21833417e-02,
          -1.32946791e-02, -4.79786983e-03, -1.17462352e-02,
          -2.44075134e-02, -1.36761246e-02, 4.35249954e-02,
          1.53398430e-02, 2.98102032e-02, 1.21750319e-02, 2.49278378e-02,
          4.82609980e-02, 5.11010084e-03, -2.16701757e-02,
          -7.92274997e-03, -2.86017964e-03, 2.05186531e-02,
          6.15349412e-02, 1.73220318e-02, 1.31684458e-02, 7.45192245e-02,
          2.83158049e-02, -6.32122066e-03, -7.73268053e-03,
          1.18847862e-02, 5.75454794e-02, 5.35859428e-02,
          -2.82230717e-03, 1.03966668e-02, 1.31361671e-02,
          -1.52118513e-02, -2.67505758e-02, -3.53692994e-02,
          -9.17052571e-03, -8.67270399e-04, 1.92409251e-02,
          1.58041455e-02, 8.27463809e-03, 3.81754078e-02, 1.11200027e-02,
          -2.01705657e-02, -1.17275193e-02, -2.85695889e-03,
          1.72643419e-02, 2.74032559e-02, -2.17271987e-02,
          -3.75852659e-02, 4.87892814e-02, 2.22153421e-02,
          5.35599096e-03, 2.65358575e-03, 3.99704687e-02, 1.15582719e-01,
          1.09164938e-01, -2.59077959e-02, -9.04110149e-02,
          -4.97685969e-02, -3.15489881e-02, -6.97203651e-02,
          -7.98200443e-03, -1.28844874e-02, 4.54738885e-02,
          7.37276077e-02, -1.68213770e-02, -8.19929596e-03,
          3.18169184e-02, -2.59986054e-03, -2.16735881e-02,
          -1.73899010e-02, 1.48802139e-02, 6.91576377e-02,
          9.09431949e-02, 9.63203330e-03, -3.44795398e-02,
          -1.35246562e-02, -5.70447855e-02, -7.47497827e-02,
          -4.07899357e-02, -2.37631109e-02, 3.65959220e-02,
          7.26418868e-02, -2.34056404e-03, -2.26277523e-02,
          1.21790613e-03, 1.00371835e-03, -1.88256651e-02,
          -1.36822434e-02, -7.18669826e-03, 2.08016969e-02,
          7.16507360e-02, 1.46023314e-02, 2.00986601e-02, 2.42101979e-02,
          -1.45401321e-02, -2.83148158e-02, -3.18354927e-02,
          -1.62234362e-02, -2.69399546e-02, 2.85846815e-02,
          5.00146206e-03, -2.83795223e-03, 2.05044858e-02,
          -9.79998428e-03, -1.24028074e-02, -6.29234547e-03,
          1.25510981e-02, 2.92945318e-02, 6.02593720e-02, 5.41232759e-03,
          -7.68331718e-03, -9.75223072e-03, 3.81495431e-03,
          -1.85952317e-02, -8.30508955e-03, -1.13282548e-02,
          -5.97631978e-03, 4.20554951e-02, -1.67924929e-02,
          2.36811098e-02, 1.78304370e-02, -9.77781601e-03,
          -3.56555469e-02, -3.78637351e-02, -3.33527266e-03,
          -2.90162507e-02, 2.47951802e-02, 1.50180375e-02,
          -1.28332223e-03, 4.56958776e-04, -4.03141091e-03,
          -2.08540261e-02, -2.36284360e-02, 4.01702157e-04,
          -1.45326266e-02, 1.17766391e-02, 1.96440006e-03,
          2.66429763e-02, 3.33600119e-02, 9.35712550e-03,
          -3.13303806e-02, -5.01828454e-02, -1.67999119e-02,
          -8.00486840e-03, 3.31659243e-02, 3.02319545e-02,
          1.65948700e-02, 1.55880013e-02, -4.96395724e-03,
          -4.00701985e-02, -2.95405705e-02, -1.11574559e-02,
          5.20925329e-04, 4.86492179e-02, 2.92819887e-02, 5.34461904e-03,
          1.22496439e-02, 3.12366220e-03, 3.18117365e-02, 3.04562459e-03,
          2.29287762e-02, -6.68759458e-03, 1.68359876e-02,
          3.47510097e-04, -1.78082529e-02, 5.78012550e-04,
          -2.06121057e-02, 1.84632943e-03, 6.10134844e-03,
          -5.69273892e-04, -2.52636261e-02, -3.52667691e-03,
          -1.60868000e-02, 2.74124704e-02, 1.75105520e-02,
          -3.83304525e-03, 1.54817523e-03, -9.85833816e-03,
          1.07316170e-02, 1.92620065e-02, 6.88665956e-02, 3.07194144e-02,
          -9.23276320e-03, -1.75132472e-02, -5.26044006e-03,
          -8.30849167e-03, -2.15363363e-03, -2.79817712e-02,
          -9.72840283e-03, 3.20451893e-02, 4.04617712e-02,
          -3.13104875e-02, 3.06864101e-02, -1.23091252e-03,
          -1.01849926e-03, 8.04206065e-04, 4.05447138e-03,
          -8.84856377e-03, 2.32425854e-02, -8.17782059e-03,
          -2.71155518e-02, 1.30224340e-02, -1.35901049e-02,
          -1.81711446e-02, 2.48422306e-02, -2.27127802e-02,
          -8.76569469e-03, 2.18201876e-02, -1.46281086e-02,
          4.02231439e-04, 3.66166729e-04, -1.57562029e-02,
          -2.71881442e-03, -3.69006325e-03, -2.88392697e-02,
          -1.38475802e-02, 4.32449169e-02, 4.23907340e-02,
          2.42559984e-02, 1.78907011e-02, -6.51721004e-03,
          -3.37560778e-03, -1.33211780e-02, -2.38330476e-02,
          -1.76008586e-02, 5.39984703e-02, 3.60150784e-02,
          9.00509713e-06, 3.25910449e-02, 9.01380181e-03,
          -1.22267101e-02, -1.63416397e-02, -4.42782342e-02,
          -3.85124721e-02, 2.09203959e-02, 6.75192522e-03,
          6.07552007e-03, 2.21762322e-02, 3.85532994e-03,
          -7.86373578e-03, -4.42753825e-03, -3.57582048e-02,
          -4.78401817e-02, 1.42134894e-02, 8.41579773e-03,
          1.89525317e-02, 2.01692767e-02, 1.13528427e-02, 1.72138568e-02,
          -8.09150562e-03, -3.17535475e-02, -1.79725252e-02,
          6.05540760e-02, 4.80302572e-02, 2.68219295e-03,
          -6.19190931e-03, 2.01155134e-02, 4.86290362e-03,
          2.21395120e-02, -2.61625517e-02, -2.35423092e-02,
          4.85326722e-02, 4.22486030e-02, 1.07660992e-02, 4.01329845e-02,
          -1.00665186e-02, -2.80383080e-02, -2.94542462e-02,
          -3.54968570e-02, -2.72048488e-02, 2.53387894e-02,
          1.76255926e-02, 2.38837283e-02, 7.17742462e-03,
          -3.90157923e-02, -4.54424433e-02, -4.60706092e-02,
          -5.21678254e-02, -3.14472541e-02, -2.01849826e-03,
          -1.06038414e-02, 2.32234970e-02, 4.01935028e-03,
          2.94242846e-03, -6.64499402e-03, -6.01475267e-03,
          -1.45523576e-02, -1.74907595e-02, 3.89787816e-02,
          4.89377752e-02, 4.66405377e-02, -1.82803590e-02,
          -1.50817055e-02, -2.07173079e-02, -1.46573260e-02,
          -1.24225765e-02, -2.08234023e-02, 1.62506383e-02,
          2.66833268e-02, 2.68915799e-02, 1.96801741e-02,
          -7.66416267e-03, -2.15129759e-02, -3.23332511e-02,
          -4.23944481e-02, -2.03278754e-02, 4.00012769e-02,
          -2.07142308e-02, 1.70485415e-02, 3.24559845e-02,
          5.74318785e-03, 1.21519882e-02, -1.40008796e-03,
          -2.08262131e-02, -1.89146418e-02, 5.69726154e-02,
          1.89082827e-02, 2.53852792e-02, 9.42979287e-03,
          -7.19689205e-03, -1.14205005e-02, 3.19981808e-03,
          -2.71913726e-02, -4.00924496e-02, 1.04611656e-02,
          7.37137115e-03, -2.52772355e-03, -9.49333247e-04,
          -3.02227288e-02, 1.86494290e-04, 1.72778610e-02,
          -1.72656719e-02, -2.56764758e-02, 7.36233406e-03,
          -9.84433573e-03, 2.30493248e-02, 1.10320952e-02,
          -1.94063410e-02, -1.88461747e-02, -2.57311538e-02,
          -2.24880986e-02, -2.03126594e-02, 4.13231850e-02,
          4.09720913e-02, 2.55703479e-02, 3.18555161e-02,
          -1.71924545e-03, -2.81603113e-02, -1.38543071e-02,
          2.56088227e-02, 2.96261143e-02, 4.53908443e-02, 1.26657421e-02,
          -2.72657759e-02, -1.11406464e-02, -3.96891385e-02,
          -1.23584140e-02, 1.44721346e-03, -1.84820965e-02,
          -4.37785825e-03, 6.28034398e-03, -2.14866940e-02,
          -1.43771535e-02, 8.20074603e-03, -6.61137514e-03,
          -5.04948525e-03, 1.30528463e-02, -4.76246607e-03,
          1.44155684e-03, 1.70018468e-02, 8.04322597e-04, 1.78414173e-02,
          3.76421362e-02, 1.79730784e-02, 2.06047967e-02, 3.80106419e-02,
          3.66391204e-02, 3.61759178e-02, 1.96434408e-02, 1.09729068e-02,
          -1.55620808e-02, 1.20491525e-02, 1.19082145e-02,
          6.46920176e-03, 3.02080307e-02, 1.65872667e-02,
          -2.93306005e-03, 7.80675467e-03, -2.03872956e-02,
          1.18513424e-02, 2.27428339e-02, 2.88733863e-03, 8.38106684e-03,
          1.39556276e-02, -1.32633066e-02, 7.89659284e-03,
          6.66845264e-03, 4.95762844e-03, -3.24229263e-02,
          4.07862361e-04, -6.72462815e-03, 6.73831394e-03,
          1.03140613e-02, -1.29547762e-02, -4.41817902e-02,
          -2.16790047e-02, -3.93328108e-02, 2.49024555e-02,
          3.32363956e-02, 3.87613215e-02, 3.38282399e-02, 6.48514852e-02,
          3.04814409e-02, 1.48310717e-02, 5.06215729e-02, 2.87681874e-02,
          -5.87688945e-03, -1.70502029e-02, -2.41851024e-02,
          3.03486977e-02, 2.06695264e-03, -1.69626139e-02,
          -3.04607749e-02, -2.67810691e-02, -3.12849544e-02,
          6.40294820e-05, -8.92623048e-03, 3.14616761e-03,
          2.15923842e-02, 5.42423651e-02, 5.69889545e-02,
          -3.94604634e-03, -6.07158896e-03, -9.46994685e-03,
          -2.85228435e-02, -1.69246346e-02, -4.78329025e-02,
          -4.48536361e-03, 2.66542733e-02, 1.01768214e-03,
          -4.95539382e-02, -5.13074063e-02, -4.21352424e-02,
          6.90050510e-05, 4.15892527e-03, 8.70140269e-03, 3.42800543e-02,
          -1.09852115e-02, -1.39272995e-02, -2.32017096e-02,
          1.34364201e-03, -2.13356372e-02, -8.02338496e-03,
          1.43188452e-02, 2.87628360e-02, 2.32158881e-02,
          -1.81047302e-02, -4.81324308e-02, -2.18502022e-02,
          -8.70438013e-03, -2.74340454e-02, 1.90407643e-03,
          2.15601120e-02, -6.10913034e-04, 4.20373457e-04,
          2.72312085e-03, 1.07644694e-02, 2.01349799e-03, 1.69122815e-02,
          -3.80845717e-03, -2.30506826e-02, 1.42863195e-03,
          3.89561169e-02, 1.65457688e-02, 7.79270427e-03,
          -1.53653445e-02, 5.96770784e-03, 7.90663995e-03,
          -2.22069062e-02, 1.30538838e-02, 6.64671138e-03,
          1.78086050e-02, 2.92084720e-02, -1.90150551e-02,
          -2.35705283e-02, 7.27653876e-03, 2.44462700e-03,
          1.36953397e-02, -8.17480125e-03, -9.67730675e-03,
          -9.53764003e-03, 2.80086882e-03, -9.76913981e-03,
          2.08834596e-02, 1.27571495e-02, -1.42704034e-02,
          1.23395314e-02, -1.36254663e-02, -2.98442710e-02,
          1.55559089e-02, 1.44823380e-02, 3.30075226e-03,
          -8.75244103e-03, 5.65112662e-03, -7.30220322e-03,
          1.53654218e-02, -1.59325916e-02, -3.07684671e-02,
          1.68926362e-02, -8.77393130e-03, -1.31070819e-02,
          2.38311440e-02, 1.28815211e-02, -2.72760838e-02,
          4.42737434e-03, -1.17236720e-02, -1.56257693e-02,
          -1.55809708e-02, 1.55088818e-03, -3.64360325e-02,
          -7.14049814e-03, -5.35215437e-03, -4.14358266e-02,
          -2.49370874e-04, 5.67184354e-04, -3.85711044e-02,
          -1.23769408e-02, 1.74794272e-02, -4.17691618e-02,
          -1.13286041e-02, -1.44767305e-02, -4.70012054e-02,
          -2.38056108e-02, 2.81371642e-04, -1.69523451e-02,
          1.29205799e-02, -6.82670949e-03, -4.21424722e-03,
          3.83347347e-02, 1.42482230e-02, -1.62836108e-02,
          -6.71485672e-03, 1.97991892e-03, -3.07469051e-02,
          -2.31870869e-03, 2.78432891e-02, 6.36794185e-03,
          1.74252912e-02, -4.47340729e-03, -6.09856658e-03,
          7.78999692e-03, -2.09854469e-02, -3.88762280e-02,
          -2.25536227e-02, 8.38278607e-03, 1.86926443e-02,
          1.84672475e-02, 1.75996628e-02, 1.13601610e-03, 3.26307863e-02,
          3.18101458e-02, -9.97426454e-03, -1.94771253e-02,
          -1.59322959e-03, 1.30233280e-02, 2.79013067e-02,
          2.01227870e-02, 1.27822496e-02, 2.72898972e-02, 6.67419285e-03,
          -2.80428622e-02, -1.28269223e-02, 1.16258883e-03,
          1.90693289e-02, 3.42488140e-02, 7.46968784e-04,
          -2.37539727e-02, 3.47533524e-02, -6.48076972e-03,
          -8.06888659e-03, -2.07110532e-02, -1.21603273e-02,
          7.01890152e-04, 4.71557304e-02, 1.74768660e-02,
          -9.22301598e-03, -4.90065943e-03, 1.94564238e-02,
          -2.51754187e-02, -3.99262533e-02, 6.34822948e-03,
          1.47305075e-02, 1.90716162e-02, -8.22826941e-03,
          -1.86678562e-02, -1.09363478e-02, 3.58393826e-02,
          -1.60040632e-02, -2.61163041e-02, 2.44261995e-02,
          -1.43218078e-02, 2.49727070e-02, 5.18033002e-03,
          -2.43099704e-02, -4.24461119e-04, 3.87369189e-03,
          2.45224219e-04, -2.21429411e-02, -9.74933896e-03,
          4.18687845e-03, 2.18259413e-02, -1.85113829e-02,
          -3.82957347e-02, -2.83060260e-02, 4.54659760e-02,
          8.14378262e-03, -2.45168898e-02, -8.65931902e-03,
          3.32278870e-02, 3.71370763e-02, 1.07301539e-02,
          -2.20675040e-02, 1.44821098e-02, 1.48786614e-02,
          2.20521633e-03, -1.42547945e-02, 2.23151618e-03,
          -2.26596668e-02, -8.59628525e-03, 2.85086548e-03,
          -2.00336836e-02, 3.71979596e-03, -6.04563858e-03,
          3.36889876e-03, -7.57786445e-03, -6.74035458e-04,
          -2.06546355e-02, -1.92668624e-02, 3.16779427e-02,
          -1.05018839e-02, -8.71935394e-03, 4.42938991e-02,
          1.14120548e-05, -3.34237479e-02, -1.28356107e-02,
          -9.07505490e-03, 1.37186682e-04, 1.51416026e-02,
          -2.49433750e-03, 3.69565636e-02, 3.16036604e-02,
          2.47107074e-02, -4.21504397e-03, 1.67631768e-02,
          -9.43790376e-03, -6.45222317e-04, 2.81750560e-02,
          8.03443324e-03, 6.01398712e-03, -1.14348056e-02,
          -9.35829803e-03, -1.64773259e-02, 7.96733191e-04,
          -3.39294458e-03, -1.66417714e-02, 2.07179389e-03,
          -6.25571003e-03, -1.22450683e-02, 8.03611986e-03,
          -9.66334529e-03, 7.58612575e-03, -5.68289123e-03,
          -2.51677744e-02, -1.17428284e-02, -1.51335159e-02,
          4.86713368e-03, 7.93201290e-03, 2.55778357e-02, 5.32240001e-03,
          -1.64681580e-02, 1.00742346e-02, 1.88922621e-02,
          -1.18846307e-02, -1.61532424e-02, -1.26144076e-02,
          -1.68806352e-02, 6.23176340e-03, 1.77973113e-03,
          1.88798085e-02, 1.61634255e-02, 3.39401653e-03,
          -1.03316474e-04, -4.03775722e-02, -7.24310474e-03,
          -1.52978925e-02, 2.45837145e-03, -5.19135594e-03,
          5.41143212e-03, 2.26167664e-02, 5.66549599e-03, 5.39322942e-03,
          -2.87455483e-03, 1.11275585e-02, 3.26865027e-03,
          4.10899939e-03, 3.51596065e-02, 1.25420867e-02, 2.42701285e-02,
          2.72019412e-02, -7.98399374e-03, -2.01524850e-02,
          7.84216542e-03, -2.87202746e-02, -3.31247598e-02,
          -9.42463800e-03, -9.04923771e-03, 1.44690154e-02,
          1.46841258e-02, -1.36427907e-02, -2.84781661e-02,
          -3.00091156e-03, -1.91275403e-02, -7.46248709e-03,
          7.46311434e-03, -2.89892741e-02, -1.96208376e-02,
          2.25380287e-02, -1.14845531e-02, -7.49388570e-03,
          4.82811732e-03, -6.48197765e-03, 1.09391641e-02,
          1.72931384e-02, 4.79565840e-03, -6.58324268e-03,
          1.38839670e-02, -7.25388993e-03, 2.39202823e-03,
          1.58592127e-02, -1.11377323e-02, -2.28485349e-03,
          -3.03470180e-03, -2.68482454e-02, -4.13164087e-02,
          -3.41122262e-02, -3.40668522e-02, 8.29716865e-03,
          3.42817567e-02, -1.34891653e-02, -2.21418031e-02,
          -4.16317629e-03, -1.82756782e-02, -3.02121229e-03,
          9.24889650e-03, -1.10045522e-02, 2.36874912e-02,
          -2.68922973e-04, -1.58840958e-02, -3.31066586e-02,
          -4.34909202e-03, -1.26505597e-02, -1.50235649e-02,
          -1.23089040e-02, -2.42098216e-02, 3.21325175e-02,
          1.18311504e-02, -1.55851021e-02, -1.49316085e-03,
          2.41383798e-02, -1.41170947e-02, -1.57863286e-03,
          -8.02384689e-03, -1.20963780e-02, 3.16550247e-02,
          4.30151820e-02, -9.82950907e-04, -2.17609759e-02,
          1.76833272e-02, 1.08917616e-02, -3.60928755e-03,
          -1.09544508e-02, -2.45945174e-02, -4.50070901e-03,
          4.42030281e-02, -1.15023674e-02, -2.51196697e-02,
          4.00269544e-03, 5.56591386e-03, -1.81721663e-03,
          -1.11730043e-02, -1.53400041e-02, 2.60608010e-02,
          5.22188582e-02, -8.14870838e-03, -1.69540588e-02,
          1.82394462e-03, 2.16806983e-03, -6.10211072e-03,
          -1.01140896e-02, -4.24184725e-02, -1.54788224e-02,
          2.57283431e-02, -3.16518620e-02, -4.17700876e-03,
          4.29117754e-02, 2.99964193e-02, 1.34009740e-03,
          -2.07737125e-02, -2.50424817e-02, 2.12952984e-03,
          2.86469832e-02, 1.02644898e-02, 2.48742494e-04, 2.12133545e-02,
