%YAML:1.0
opencv_ml_svm:
   svmType: EPS_SVR
   kernel:
      type: LINEAR
   C: 1.0000000000000000e-02
   p: 1.0000000000000001e-01
   term_criteria: { epsilon:1.0000000000000000e-03, iterations:1000 }
   var_count: 7524
   sv_total: 1
   support_vectors:
      - [ 1.64541434e-02, -7.75891589e-04, -8.53757188e-03,
          2.86727455e-02, 4.11923826e-02, 9.17465147e-03,
          -2.55543459e-02, -7.47964438e-03, 7.86855444e-03,
          1.36910379e-02, 2.78745103e-03, 1.38589628e-02, 2.57657152e-02,
          2.98752915e-02, 2.55674720e-02, -3.24904323e-02,
          1.30092036e-02, -5.79688785e-05, -4.31887200e-03,
          -4.33725938e-02, -3.38335261e-02, -1.01645598e-02,
          -5.17962500e-04, 6.16430119e-03, -8.46275711e-04,
          1.88181773e-02, 2.00268496e-02, 1.12893106e-02,
          -5.40189538e-03, 5.33886068e-03, -1.47013948e-03,
          -3.55947688e-02, 3.25992368e-02, 2.36142613e-03,
          2.70139631e-02, 9.44966264e-03, 6.37223246e-03,
          -8.86570569e-03, 6.17034128e-03, 1.14295743e-02,
          3.75330895e-02, 1.29753761e-02, -3.84311564e-02,
          3.34055116e-03, 1.95868630e-02, 1.97478756e-03,
          -9.62420367e-03, -1.32819914e-04, 5.23735676e-03,
          2.69143749e-02, 1.22531801e-02, 7.59663153e-03, 1.26318978e-02,
          2.65802499e-02, 1.31464349e-02, 6.14393363e-03,
          -1.46480452e-03, -1.36669371e-02, -1.00735975e-02,
          1.37681318e-02, -1.17976209e-02, 2.41585937e-03,
          -1.85369723e-03, 1.90463103e-03, 1.30903590e-02,
          9.70944576e-03, 1.90913603e-02, 8.45631305e-03, 1.62159489e-03,
          -5.24574053e-03, -5.50185051e-03, -1.50517644e-02,
          1.65011920e-02, -1.22740073e-02, -6.26604352e-03,
          -2.56558973e-03, 2.73264404e-02, 3.69209773e-03,
          -1.95556274e-03, -4.90633352e-03, 2.41362210e-02,
          -1.76978167e-04, -1.65318735e-02, -2.14152057e-02,
          1.40031287e-02, 1.33029195e-02, 9.46737546e-03, 7.50776846e-04,
          8.29747529e-04, 4.02018093e-02, 8.03710800e-03, 2.42733900e-02,
          -1.56054785e-02, 4.38074407e-04, 2.57850904e-02,
          1.50645897e-02, -8.67063180e-03, -5.37567865e-03,
          -1.09726312e-02, 7.57888285e-03, 1.15621844e-02,
          -2.25577950e-02, 1.30310999e-02, -2.17788033e-02,
          1.01887742e-02, -2.35307273e-02, 2.98184925e-03,
          6.83907245e-04, -2.54842602e-02, -1.78549401e-02,
          -3.44673917e-02, 8.65220930e-03, 7.21534621e-03,
          2.88002640e-02, 8.25913064e-03, 4.96342732e-03, 9.97525360e-03,
          2.76178084e-02, 1.53819807e-02, -5.03510889e-03,
          1.26500688e-02, -1.90566038e-03, 2.90084966e-02,
          1.31358476e-02, 6.76397001e-03, 2.08331030e-02, 1.32139269e-02,
          6.86202850e-03, -2.28127092e-02, 1.25638088e-02,
          -2.58591287e-02, 2.92059593e-03, -2.58723665e-02,
          -5.40981395e-03, -1.21069551e-02, 1.02526909e-02,
          6.40213839e-04, -1.33293075e-02, -1.37222037e-02,
          -4.37237546e-02, 1.12273835e-03, -1.40551256e-03,
          1.27064949e-02, -4.25811717e-03, 1.36234863e-02,
          -8.14555865e-03, 7.72321643e-03, 1.37459962e-02,
          1.47658912e-02, 1.99929234e-02, 1.37522565e-02, 9.86114703e-03,
          -1.94470342e-02, 4.70378017e-03, -5.55456011e-03,
          -1.79494242e-03, 1.85508970e-02, -1.57033745e-02,
          1.14359995e-02, 8.86583049e-03, -4.23375890e-03,
          -2.72727595e-03, 3.38227209e-03, -1.72275468e-03,
          -1.06354691e-02, -7.51198689e-03, -3.10638882e-02,
          2.00894233e-02, 1.33253280e-02, -1.32767390e-02,
          -9.13886726e-03, -1.47875994e-02, -7.42567517e-03,
          2.47691944e-03, 1.22155631e-02, -2.68402286e-02,
          2.60582985e-03, -9.05919168e-03, -1.59977302e-02,
          -1.78432148e-02, 1.11799724e-02, -5.56398137e-03,
          -4.33256943e-03, 9.45961475e-03, 8.80070124e-03,
          2.05262937e-03, 3.12801654e-04, -1.12649901e-02,
          1.21362051e-02, 1.41536184e-02, 2.06466345e-03,
          -1.02582993e-02, -2.73697008e-03, -9.27042123e-03,
          -1.72899361e-03, -3.85813182e-03, 8.42136424e-03,
          6.63672574e-04, -7.29845138e-03, -1.85491126e-02,
          -3.00438516e-02, -4.93781816e-04, 5.32839634e-03,
          5.22235967e-03, -6.79761963e-03, 8.37609731e-03,
          -1.07092010e-02, -1.18688708e-02, -6.30490808e-03,
          -2.20428985e-02, -9.30568436e-04, 1.96142644e-02,
          -1.25079760e-02, -7.56900106e-03, 1.21189775e-02,
          -1.80210881e-02, 9.34150256e-03, 1.24128805e-02,
          -4.41159122e-03, -1.81995332e-03, 5.00071561e-03,
          -9.74711031e-03, -1.27211157e-02, -9.29829385e-03,
          -6.87071634e-03, 2.88457447e-03, -4.63690143e-03,
          -2.37396359e-02, 3.30664106e-02, 2.87950374e-02,
          2.31930031e-03, -2.16473415e-02, -2.32558995e-02,
          -2.12240219e-03, 3.46742175e-03, 2.44357195e-02,
          6.62888924e-04, 1.69229880e-02, 5.62924705e-03,
          -2.24801470e-02, -2.72043459e-02, -6.45139301e-03,
          -8.43828637e-03, -9.27855354e-03, -1.70126595e-02,
          -3.90521847e-02, 1.97948832e-02, -4.93839034e-04,
          -3.58476155e-02, -3.87160182e-02, -3.63648566e-03,
          -1.00108944e-02, 1.30862202e-02, 2.48747636e-02,
          2.08581239e-02, 6.94740638e-02, 6.35180548e-02, 5.17576060e-04,
          -1.43774534e-02, -6.99026650e-03, 2.33783033e-02,
          -4.78808628e-03, 9.66533611e-04, -1.29541401e-02,
          5.31700253e-03, 2.81993533e-03, -2.61492096e-02,
          -3.14575434e-02, -1.83888674e-02, -7.38144619e-04,
          -2.07987847e-03, 5.31201018e-03, 7.04115536e-03,
          3.29729021e-02, 1.10053597e-02, -1.04508204e-02,
          -2.40874868e-02, 3.42002735e-02, 1.66799929e-02,
          -2.04983782e-02, -3.82538652e-03, -1.82832517e-02,
          -2.02934276e-02, -1.87029373e-02, -3.59760486e-02,
          -2.03507897e-02, 7.61909178e-03, -1.34865788e-03,
          9.14823264e-03, 2.92171002e-03, -1.53926276e-02,
          1.27106132e-02, 1.64643899e-02, 1.59525536e-02, 9.56149586e-03,
          2.10081954e-02, -3.33339022e-03, 2.58609699e-03,
          -1.58774741e-02, -2.09836252e-02, 2.60637067e-02,
          9.64189321e-03, 1.32330423e-02, 2.94680358e-03, 2.36770399e-02,
          1.00809140e-02, 1.42214270e-02, 1.97790060e-02, 5.62778767e-03,
          4.86561703e-03, -5.05552674e-03, 1.24585361e-03,
          1.44324172e-02, 6.67410018e-03, 1.72137599e-02, 2.25168429e-02,
          2.97092577e-03, -3.28188459e-03, 1.78238861e-02,
          -2.57225260e-02, 1.49167690e-03, -9.57471784e-03,
          2.75280653e-03, 1.28559303e-02, -2.76088584e-02,
          -2.71592978e-02, -1.38421161e-02, 2.77512278e-02,
          2.48130336e-02, 2.34544687e-02, -2.24806508e-03,
          1.50831521e-03, 1.31920418e-02, -2.96226665e-02,
          -2.02008039e-02, -2.96037663e-02, -1.70237273e-02,
          -8.27896409e-03, -2.98355077e-03, -2.91012898e-02,
          -6.06048200e-03, -1.75033771e-02, 2.18987316e-02,
          -2.85029914e-02, -5.23702102e-03, 2.22129785e-02,
          -3.04961856e-02, 1.84834413e-02, 2.22070096e-03,
          1.65330004e-02, 1.44612081e-02, -5.43838646e-03,
          -2.19063889e-02, 3.97830969e-03, 9.32397787e-03,
          -3.09414510e-02, 1.37406355e-02, -3.37078981e-03,
          3.72493081e-03, -5.44572761e-03, -5.21991914e-03,
          -1.23004348e-03, -3.02826054e-02, -9.63285752e-03,
          -1.85719859e-02, -3.71954497e-03, -2.44406778e-02,
          -8.63074418e-03, -4.58784122e-03, -1.52964620e-02,
          -1.86891090e-02, -2.07888857e-02, 9.86138592e-04,
          -2.95571592e-02, 3.35455337e-03, 7.24223908e-03,
          9.32357460e-03, -1.72368214e-02, 3.99203645e-03,
          -1.08311512e-02, 4.47011879e-03, 1.30499527e-02,
          -1.81861706e-02, 7.85603933e-03, 3.18329153e-03,
          -8.81908927e-03, -1.30030904e-02, 3.20692011e-03,
          -6.14287658e-03, -1.02927554e-02, 1.89357866e-02,
          -3.00235897e-02, 4.74126684e-03, 4.77895467e-03,
          -7.80538097e-03, 5.38158650e-03, -3.21354941e-02,
          -4.45175683e-03, 2.70452779e-02, 3.03087961e-02,
          -8.67737550e-03, -5.37936995e-03, 4.00670664e-03,
          7.58343888e-03, -7.85528310e-03, -4.82207574e-02,
          -6.13985676e-03, -3.73467919e-03, -3.96957481e-03,
          -1.01233358e-02, -3.44647234e-03, -2.19381787e-02,
          5.96287055e-03, -1.04401801e-02, -1.87566634e-02,
          -2.89828586e-03, 1.38911195e-02, 3.50503363e-02,
          -1.23010688e-02, -1.32586462e-02, 7.70197203e-03,
          6.66172197e-03, 9.97040607e-03, -2.71970611e-02,
          -3.63048315e-02, -1.48703689e-02, 3.45205935e-03,
          -2.90751383e-02, -8.57369602e-03, -6.94091758e-03,
          -2.21515493e-03, 1.83201395e-03, 1.09258504e-03,
          9.25417710e-03, -2.87607778e-02, -2.71110665e-02,
          -2.22615693e-02, 2.37818249e-02, -1.22794723e-02,
          1.11203585e-02, 7.84380082e-03, -6.40600454e-03,
          2.00606100e-02, -6.77050417e-03, -1.83664802e-02,
          -4.20082062e-02, -2.46330518e-02, -4.69517671e-02,
          3.61668132e-03, -1.30987065e-02, -5.39162382e-03,
          -9.34814755e-03, -1.31374747e-02, 1.43861854e-02,
          -8.52305721e-03, 1.42121725e-02, -3.70015623e-04,
          7.89449550e-03, 1.36306062e-02, -3.78296804e-03,
          5.30940387e-03, -1.58341657e-02, 5.10392943e-03,
          -2.44800113e-02, -2.82048271e-03, -3.02993786e-02,
          5.79656102e-03, -1.07026622e-02, -2.19841618e-02,
          5.77331847e-03, 1.27356015e-02, -2.97915959e-03,
          4.50401893e-03, -1.60071142e-02, -1.41292075e-02,
          5.90244075e-03, -2.66443659e-03, -2.74659675e-02,
          -2.26708483e-02, -8.86938709e-04, 1.88288707e-02,
          -7.40934513e-04, -3.00195646e-02, -1.77907813e-02,
          -7.55473366e-03, 3.00184228e-02, 4.98811714e-03,
          6.51842682e-03, 5.22034522e-03, -7.16911163e-03,
          4.64687531e-04, -2.40057688e-02, -2.21372824e-02,
          1.06888805e-02, -2.77883187e-03, 1.43874725e-02,
          -1.83764577e-03, -8.63600071e-05, -1.41482214e-02,
          -2.53048930e-02, -5.64036779e-02, -5.39795402e-03,
          -3.11625330e-03, 3.30791622e-02, -4.36726911e-03,
          2.06449092e-03, 1.05746510e-02, -7.52155622e-03,
          2.41505671e-02, 3.76855052e-04, -3.38588059e-02,
          -9.56184976e-03, 1.55319115e-02, -6.08887635e-02,
          -3.27877002e-03, -1.37981074e-02, -4.08345200e-02,
          -7.74763199e-03, -2.12448183e-03, -3.24543044e-02,
          -3.09639401e-03, -2.19478663e-02, 6.10888936e-03,
          2.46102102e-02, 1.97924189e-02, -5.21764625e-03,
          -1.43772550e-02, -1.19117200e-02, -5.53786382e-03,
          2.32980843e-03, 3.10013108e-02, -3.45590413e-02,
          -1.08363813e-04, -1.22886524e-02, -3.72894444e-02,
          -1.42347980e-02, -1.02304611e-02, -8.70232191e-03,
          1.92587562e-02, 3.96275986e-03, -3.52729708e-02,
          4.13500145e-03, -1.26911132e-02, -1.47040458e-02,
          1.91751868e-02, 8.27301200e-03, -1.98635031e-02,
          4.04464081e-03, -9.08474810e-03, -1.38383070e-02,
          -8.72026850e-03, -2.00879592e-02, -3.07253562e-02,
          4.94531356e-03, -1.72231551e-02, -4.43078876e-02,
          -2.97861993e-02, -1.31788012e-02, -2.46039052e-02,
          2.03277171e-03, 6.53536711e-03, -8.31074826e-03,
          1.00909732e-02, 5.98620949e-03, -1.22277662e-02,
          1.93380490e-02, 1.37801291e-02, 1.06574418e-02,
          -2.37089247e-02, -1.88686587e-02, 8.04156531e-03,
          -6.76022656e-03, -2.02491623e-03, -1.98066738e-02,
          -3.47087160e-03, 2.75465399e-02, 3.38415033e-03,
          1.67097780e-03, 1.01619260e-03, -1.70758851e-02,
          -1.98101308e-02, -1.48135535e-02, -3.84398811e-02,
          -2.30293181e-02, 1.10447826e-03, -3.93461250e-03,
          -9.35353711e-03, 3.19639966e-03, 1.34420022e-02,
          6.69830479e-03, -1.64770577e-02, -8.79787782e-04,
          2.24948116e-03, 1.30592603e-02, -4.76310001e-04,
          -2.15065088e-02, -5.36067691e-03, 7.21307145e-03,
          -1.62455849e-02, -7.41052395e-03, -2.25977041e-03,
          -3.21026426e-03, 1.91485882e-02, -2.07607225e-02,
          -1.07926400e-02, -2.06200778e-03, 2.66145114e-02,
          -3.17322859e-03, -9.19654034e-03, 2.28433628e-02,
          2.67286934e-02, 3.02711246e-03, -1.53748656e-03,
          -2.89687309e-02, 5.25165489e-03, 1.67794283e-02,
          -1.01329468e-03, 4.04215243e-04, 9.17268824e-03,
          8.99107021e-04, 2.17004232e-02, -2.12502554e-02,
          -3.30021568e-02, -3.40611883e-03, -8.53667222e-03,
          -1.80948544e-02, -1.44892912e-02, -1.22573655e-02,
          -1.11313155e-02, 9.83557664e-04, 9.19251889e-03,
          -9.27042775e-03, 1.44610982e-02, 4.36687060e-02,
          -7.69579876e-03, 2.63865991e-03, 2.18255591e-04,
          9.82744526e-03, 1.22973816e-02, 1.25135551e-03,
          -1.92879315e-03, 2.23773010e-02, 6.95103919e-03,
          -2.86396705e-02, -1.92044787e-02, -4.60661612e-02,
          -2.54378300e-02, -1.56162502e-02, -2.73903180e-02,
          -2.11135354e-02, -8.81968299e-04, 8.52047745e-03,
          7.96612818e-03, -2.46332977e-02, -1.92266665e-02,
          -1.16671240e-02, -8.89715552e-03, -2.01109564e-03,
          -2.54879743e-02, -8.04790389e-03, -1.09829120e-02,
          9.16061271e-03, -6.18286198e-03, -1.89946406e-02,
          -1.56383142e-02, 1.38193276e-02, 7.85930734e-03,
          -2.05972628e-03, 4.18586470e-03, -5.87651785e-03,
          -7.55256088e-03, -1.56727899e-02, -2.18904540e-02,
          -1.64553188e-02, 4.44197655e-03, 2.26121093e-03,
          4.92056308e-04, -7.97414128e-03, -1.56767368e-02,
          5.26964329e-02, 4.75165434e-03, -9.32250451e-03,
          -6.49675773e-03, 1.38877518e-02, 6.55178912e-03,
          -2.05985345e-02, 4.77076648e-03, 5.57934772e-03,
          7.10796705e-03, 8.59147497e-03, -1.96731389e-02,
          5.99605590e-03, 2.45061703e-02, 7.19782803e-03,
          -8.01822171e-03, 1.03622824e-02, 2.11096425e-02,
          -1.67359207e-02, 4.11786996e-02, -4.72703530e-03,
          2.44967099e-02, 3.03833243e-02, 2.40059588e-02,
          -1.21398596e-02, 2.79689897e-02, 2.88913101e-02,
          2.42679240e-03, 8.16264842e-03, -4.69455644e-02,
          -5.79231326e-03, 2.88519710e-02, -5.89192193e-03,
          -2.66014580e-02, -8.30318592e-03, 2.34544519e-02,
          9.10233241e-03, 3.21577042e-02, -1.21245449e-02,
          5.16808406e-03, 5.89870382e-03, 2.51032849e-04, 4.77417605e-03,
          2.96542677e-03, -2.56320648e-03, -1.24843130e-02,
          2.82561239e-02, -1.96727403e-02, -5.42727346e-03,
          1.04273297e-02, -9.98027623e-03, -7.68391462e-03,
          1.71062425e-02, 1.38047803e-03, 2.47880220e-02, 1.68994330e-02,
          6.89529581e-04, -1.61548257e-02, -6.45099254e-03,
          7.54787354e-04, -1.84111681e-03, -1.71599984e-02,
          1.55664980e-02, -1.39108719e-02, 2.79167444e-02,
          -2.59382706e-02, -8.21842067e-03, -1.17530057e-03,
          1.06255338e-02, -4.63912264e-03, -2.12427671e-03,
          1.01618376e-02, 8.46144371e-03, 8.81361961e-03,
          -5.64539293e-03, 2.53811339e-03, 2.06847470e-02,
          3.37235467e-03, 7.74429925e-03, -8.60217866e-03,
          -2.87424289e-02, 2.03027818e-02, 2.06067115e-02,
          7.39067618e-05, 6.82007009e-03, 1.33587411e-02, 6.74406951e-03,
          2.00346261e-02, -1.13013936e-02, 1.24081168e-02,
          -3.79695604e-03, -1.00778032e-03, -4.45137965e-03,
          1.41123040e-02, 2.42913496e-02, -8.82877689e-03,
          -1.13824643e-02, -2.36394405e-02, -6.89154165e-03,
          -2.48978846e-02, -3.08593176e-03, -8.76917411e-03,
          1.70877632e-02, 9.07334592e-03, -7.39357946e-03,
          -1.45986909e-04, -3.88204190e-03, 8.03157035e-03,
          -2.53716912e-02, 1.19191054e-02, -1.09229153e-02,
          7.30609614e-03, 1.02861377e-03, 3.06858774e-03, 1.61668286e-02,
          -2.33352687e-02, -3.74381838e-04, 2.36064401e-02,
          4.32763668e-03, -5.67542017e-03, 2.08515525e-02,
          1.19033139e-02, 1.13259451e-02, 2.27048397e-02,
          -1.93541460e-02, -1.61915570e-02, -5.95539622e-03,
          -5.25147375e-03, -3.88490828e-03, 3.52899320e-02,
          -4.74959990e-04, 4.77921078e-03, -1.08452579e-02,
          -3.55033670e-03, 1.39998477e-02, 2.63508279e-02,
          4.33134548e-02, 1.35027527e-04, 2.23997179e-02, 1.86335277e-02,
          -9.67325456e-03, -1.40749523e-02, -1.47950808e-02,
          -8.48408137e-03, 1.52824167e-02, 9.65318922e-03,
          9.04778601e-04, 3.52233686e-02, -9.57732927e-03,
          -9.08080302e-03, 1.34059517e-02, -9.69215296e-03,
          5.21382084e-03, 1.25757577e-02, -1.06420892e-03,
          -8.75175279e-03, 1.43453050e-02, -1.47022372e-02,
          -1.03027616e-02, 1.13806091e-02, -3.42490477e-03,
          1.31861400e-02, 8.86861514e-03, 3.76912067e-03,
          -1.81356966e-02, 1.46349687e-02, 1.22137170e-03,
          -5.93645591e-03, 8.64766596e-04, -2.02630255e-02,
          -3.86472442e-03, 1.20062754e-02, -7.65924994e-03,
          -1.22352513e-02, 2.46740449e-02, 4.29619686e-04,
          -1.74545087e-02, 8.61279666e-03, -1.78176761e-02,
          -5.30705601e-03, 6.01237128e-03, -1.23188144e-03,
          -1.50316181e-02, 1.43433576e-02, 1.17894178e-02,
          1.45283330e-03, -1.44671779e-02, -3.76778953e-02,
          -2.00122241e-02, 6.00345246e-03, 5.69749810e-03,
          1.13325575e-02, 2.14518998e-02, 8.25513061e-03,
          -2.23748200e-03, -5.86616527e-03, -2.30665356e-02,
          -3.08829416e-02, 1.61578469e-02, -1.26882419e-02,
          -1.12831220e-03, 3.93303670e-03, 2.85801652e-04,
          -1.09739956e-02, 4.57832450e-03, -2.18071472e-02,
          -2.42505446e-02, -2.98977806e-03, -4.74511227e-03,
          4.23489418e-03, 2.19696369e-02, 3.39112282e-02,
          -2.71417238e-02, 2.67610594e-04, -3.07020694e-02,
          -3.70679013e-02, -2.24302756e-03, -1.75023265e-02,
          -2.65647331e-03, 4.67681442e-04, -2.68437434e-04,
          2.05346067e-02, 5.05099185e-02, 1.60649270e-02, 6.65804092e-03,
          2.10858453e-02, -1.14517277e-02, -3.45045328e-03,
          9.82628670e-03, -3.70480207e-04, -4.26666019e-03,
          1.67581660e-03, -3.66128646e-02, -4.35113674e-03,
          3.16267950e-03, -2.10787095e-02, -9.76182707e-03,
          1.16931433e-02, -5.18040080e-03, -1.82459485e-02,
          3.29725966e-02, 1.85075135e-03, 1.11064711e-03, 4.40144120e-03,
          -6.34155609e-03, 2.00312817e-03, 7.29899900e-03,
          -1.31852226e-02, -2.88932063e-02, 7.35200057e-03,
          -3.99059430e-02, -2.12258864e-02, 4.64907382e-03,
          -1.24521293e-02, -1.91276670e-02, -1.02473833e-02,
          -6.19134866e-03, -1.26045281e-02, -5.85450372e-03,
          -1.02286218e-02, -9.89896216e-05, 2.63868622e-03,
          1.02524934e-02, 5.33586880e-03, 2.45266184e-02, 1.82514023e-02,
          -9.20314062e-03, 5.46985539e-03, -1.47836218e-02,
          -1.51607096e-02, 6.72345562e-03, -8.43263790e-03,
          1.01938844e-02, 2.63503920e-02, 6.25817385e-03,
          -8.65165796e-03, -4.01148200e-03, -2.21114270e-02,
          8.01332854e-03, -1.51029741e-02, -1.94549037e-03,
          -4.06923145e-03, 1.05945077e-02, -6.42491085e-03,
          -2.97589489e-04, -5.53027494e-03, -2.41075829e-02,
          -1.41007099e-02, -7.53149856e-04, 5.44339884e-04,
          2.74100509e-02, 3.24430838e-02, -4.84230509e-03,
          -1.35165043e-04, 2.75756512e-02, -4.38826345e-03,
          -7.25133228e-04, 1.50171146e-02, 1.20135751e-02,
          -7.56216177e-04, 1.79468729e-02, -2.05860287e-03,
          3.48755275e-03, 1.23892231e-02, -7.12812599e-03,
          4.27955150e-04, 1.31776079e-03, -4.21508448e-03,
          -2.89113969e-02, 1.05813192e-02, 1.14784418e-02,
          3.21875289e-02, 3.51079665e-02, 1.81226619e-03, 2.71564983e-02,
          2.95828725e-03, 9.93643887e-03, 7.89869111e-03, 1.98755432e-02,
          7.22790277e-03, 7.74298329e-03, 1.27340909e-02,
          -9.06084664e-03, 1.44143244e-02, -7.08531495e-03,
          -3.30983773e-02, -2.90310495e-02, 1.15438662e-02,
          8.89527518e-03, -1.13333594e-02, -5.06621599e-03,
          -3.64098325e-03, 1.49373626e-02, -6.55971642e-04,
          2.09174063e-02, -3.56448605e-03, 1.35546420e-02,
          -7.90653843e-03, -3.68792820e-03, -8.92553770e-04,
          1.36903999e-02, 4.04386520e-02, -2.32768268e-03,
          1.51070841e-02, -1.76155716e-02, -1.08916052e-02,
          -5.33939619e-03, -1.42508429e-02, -6.25975057e-03,
          -8.57199077e-03, 6.24344358e-03, 1.16084795e-02,
          1.16874035e-02, 2.52184961e-02, 2.43759491e-02, 1.79939496e-04,
          -1.77046470e-02, -2.55077682e-03, -1.16591696e-02,
          -1.28811473e-04, 2.36658789e-02, 7.13946903e-03,
          4.78446862e-04, -3.36797647e-02, -3.70999649e-02,
          -5.58658363e-03, -4.49190993e-04, 1.69025529e-02,
          3.23797092e-02, 1.54817989e-02, 1.28922584e-02, 5.92270494e-03,
          4.03918745e-03, -1.73412971e-02, -4.50569857e-03,
          9.14837606e-03, 1.37280428e-03, 2.29495112e-02,
          -2.80264532e-03, 9.72188264e-03, 1.13063036e-02,
          -1.18740406e-02, 1.52685528e-03, 1.10462541e-02,
          7.49514764e-03, -4.58161207e-03, 6.90813875e-03,
          2.13907193e-02, -4.76476224e-03, -6.69762027e-03,
          -2.67407894e-02, 7.18907337e-04, 1.13319354e-02,
          -1.87029724e-03, -1.42985005e-02, -5.87025483e-04,
          -2.83769029e-03, -1.71809457e-02, -1.19029246e-02,
          4.25005658e-03, -8.36180523e-03, 9.77169909e-03,
          6.91914116e-04, -1.89650841e-02, 3.63463024e-03,
          -2.49186065e-03, -8.20557028e-03, 3.41510796e-03,
          1.02119800e-02, 1.71166975e-02, -1.82540528e-02,
          -3.22026722e-02, -3.24036144e-02, -1.55276693e-02,
          -1.25957495e-02, -7.53512140e-05, 3.50702344e-03,
          9.55386832e-03, -9.92803089e-03, 2.56495159e-02,
          -7.46709434e-03, -3.73726711e-02, -2.35890802e-02,
          -2.49682390e-03, -3.67827667e-03, -1.16013903e-02,
          -2.22616177e-03, 1.32928956e-02, 2.67575029e-03,
          -2.39307992e-02, -4.72153649e-02, -3.22926231e-02,
          2.32558399e-02, 7.06690317e-03, -1.56596731e-02,
          -2.60848496e-02, 8.77528545e-03, -2.25783084e-02,
          -6.00915588e-03, -1.62740033e-02, 3.83184012e-03,
          2.57998309e-03, 1.87947124e-03, -4.71377885e-03,
          8.41134042e-03, 4.16692626e-03, -4.36373428e-02,
          -1.09307179e-02, -1.96533836e-02, 2.55447961e-02,
          -1.01533476e-02, -1.00525580e-02, -3.08141261e-02,
          -1.68803148e-02, -3.16214003e-02, 1.00168809e-02,
          1.15185033e-03, -2.31093504e-02, 5.87338535e-03,
          -4.12816694e-03, -4.29678097e-04, -2.94242371e-02,
          -9.99599346e-04, 2.69721379e-04, -7.14843767e-03,
          -8.01131874e-03, 7.32156029e-03, 1.95397604e-02,
          -2.19020136e-02, -5.53027028e-03, -1.32215917e-02,
          1.13785742e-02, -6.56072935e-03, -4.44164053e-02,
          -6.39289012e-03, 5.75896818e-03, 1.24750081e-02,
          -7.80216930e-03, -1.99536961e-02, -8.27427860e-03,
          5.73771447e-03, -2.24406552e-02, -3.37823667e-02,
          -1.42066153e-02, 6.46882318e-03, 9.13279038e-03,
          -1.86724227e-03, -3.39244045e-02, 6.93544094e-03,
          -8.28672107e-03, -2.36479938e-02, -1.98900010e-02,
          -1.08294655e-02, 1.92225557e-02, 6.51702797e-03,
          -5.70222363e-03, -1.14321597e-02, 1.77016873e-02,
          3.21027674e-02, -3.65335471e-03, -1.76664684e-02,
          7.66228535e-04, 2.92150374e-03, -2.91631836e-03,
          6.07264834e-03, -2.91492250e-02, -3.69143148e-04,
          1.92909297e-02, 5.97590522e-04, -1.05687734e-02,
          7.96374213e-03, 7.51508772e-03, 7.98892602e-03, 9.15838173e-04,
          3.70197883e-03, 2.33997907e-02, 3.85048147e-03, 1.11411149e-02,
          -1.51511654e-02, -2.98579456e-03, -4.17089462e-03,
          -1.21528218e-02, -5.34753408e-03, -9.44800302e-03,
          6.11172849e-03, 3.74577753e-03, -3.35533917e-03,
          8.32394883e-03, 3.07980087e-03, -2.03735922e-02,
          -1.44972117e-03, 1.99514534e-02, 4.74426523e-03,
          -4.73235408e-03, 1.24576855e-02, 2.37689894e-02,
          -8.26699380e-03, -6.23594224e-03, -1.06497277e-02,
          -1.74438320e-02, 9.60465800e-03, 3.96352913e-03,
          3.20140360e-04, -5.43370203e-04, 3.11146490e-03,
          -1.93257835e-02, 2.32858676e-03, 5.57594292e-04,
          1.75221302e-02, -6.16319105e-03, -2.81489897e-03,
          -1.11604063e-03, 1.99610344e-03, 1.18179023e-02,
          -1.19781150e-02, -1.95720643e-02, -1.20755117e-02,
          1.49890259e-02, -1.45503161e-02, -3.27356160e-03,
          -6.01372076e-03, 4.55284026e-04, 2.49033254e-02,
          -1.35943694e-02, 1.63835101e-02, 1.43254902e-02,
          1.11195091e-02, 8.26672651e-03, -2.12757178e-02,
          -1.30574610e-02, -7.91082252e-03, -7.87061360e-03,
          -8.43909476e-03, -1.03853792e-02, -1.47853494e-02,
          -1.18832262e-02, 2.94655357e-02, -7.77879590e-03,
          -5.59869362e-03, -1.09475199e-02, -3.65369418e-03,
          -4.78646299e-03, -5.36265969e-03, -2.55642016e-03,
          1.38891498e-02, 1.47664943e-03, 2.92900088e-03, 1.75259225e-02,
          1.46452757e-02, 3.60709541e-02, -2.90823914e-02,
          -1.32153532e-03, 3.85230873e-03, 2.87045464e-02,
          -1.98710766e-02, -2.00535133e-02, -5.13930689e-04,
          6.41243393e-03, -2.01672390e-02, -3.86761781e-03,
          -3.34063312e-03, -1.27988961e-02, 2.12769583e-02,
          1.35749150e-02, 3.66871688e-03, 1.03821314e-03, 1.58982985e-02,
          9.48411506e-03, -3.24854515e-02, -3.09149176e-03,
          1.26185436e-02, 3.82700413e-02, -1.21165439e-03,
          -3.67629975e-02, -9.71649121e-03, 1.13325985e-02,
          -3.60282697e-02, 1.06782420e-02, 7.55080720e-03,
          2.12183855e-02, 4.09787968e-02, 7.62551441e-04, 4.32033511e-03,
          -7.34537933e-03, 6.04842184e-03, 1.82766486e-02,
          1.83575116e-02, 1.76414717e-02, 4.51546982e-02, 2.44471151e-03,
          -9.75826662e-03, 9.83067416e-03, -1.13493949e-02,
          -2.89601013e-02, 1.23315686e-02, -2.02739555e-02,
          4.78862412e-03, 2.73536742e-02, 3.96097116e-02,
          -9.17871948e-03, -8.36118124e-03, -5.96126914e-03,
          3.04315845e-03, -1.86059345e-02, -1.31151425e-02,
          1.86175890e-02, 2.25960296e-02, -1.14993565e-02,
          -1.84005350e-02, 2.17505246e-02, 2.24286783e-02,
          -1.12669012e-02, -1.42134342e-03, 1.65888499e-02,
          7.32979318e-03, 2.42385529e-02, -1.32483253e-02,
          -6.21280447e-03, -8.84670950e-03, -7.31605012e-03,
          -6.81117363e-03, 1.42183052e-02, 9.98006109e-03,
          6.75704051e-03, 1.18087651e-02, -3.41505632e-02,
          3.65342014e-02, -1.93452882e-03, -1.14835100e-02,
          -4.82079852e-03, 1.37481708e-02, 6.33718306e-03,
          9.07476153e-03, 1.95216052e-02, -1.69829093e-02,
          -1.30423298e-02, -1.09447930e-02, 1.84653234e-02,
          2.34140689e-03, 1.29946088e-02, 1.99474916e-02,
          -1.41288079e-02, 1.90692935e-02, -2.60007922e-02,
          4.04258445e-02, -7.58973649e-03, -1.17018549e-02,
          2.34027350e-04, 2.54942384e-02, 1.16296588e-02, 2.22080387e-03,
          2.20235307e-02, 2.10083053e-02, 2.23610066e-02, 1.10888919e-02,
          -1.70168355e-02, -5.62486751e-03, 1.90644171e-02,
          1.49059966e-02, 9.38776787e-03, -3.76004889e-03,
          1.81654673e-02, 3.81118469e-02, 3.12030204e-02, 3.78860906e-03,
          3.66734038e-03, 9.70223639e-03, 3.00800931e-02,
          -1.42976129e-02, -3.11179236e-02, 1.54355559e-02,
          -3.37084532e-02, 1.31481625e-02, -9.42004099e-03,
          -1.55241252e-03, 1.64396539e-02, 1.15570473e-02,
          -2.20863875e-02, -1.21315680e-02, 8.26655421e-03,
          -2.38306522e-02, 1.18762460e-02, 2.16327910e-03,
          4.90817754e-03, 1.07226400e-02, -2.99752620e-03,
          2.36203452e-03, -1.03708180e-02, 1.16882883e-02,
          2.46289968e-02, 8.07883684e-03, -9.80014727e-03,
          1.77524704e-02, 6.82579586e-03, -3.64493509e-03,
          -5.07934904e-03, -1.43309599e-02, 2.47668475e-02,
          1.55001897e-02, -1.90234892e-02, -1.18141863e-02,
          -2.88728788e-03, 1.23543935e-02, -8.48563761e-03,
          -6.53074542e-03, 6.29901374e-03, 4.60981689e-02,
          -1.70283746e-02, 1.24540098e-03, -6.93464186e-03,
          3.87556315e-03, -1.91595294e-02, -1.83161639e-03,
          -2.06494499e-02, 5.11899777e-03, 5.20482361e-02,
          -2.35003270e-02, -2.77119074e-02, -6.62210770e-03,
          -8.74444842e-03, -1.31242760e-02, -8.96270014e-03,
          -1.45612061e-02, -2.67070346e-02, 5.73583879e-03,
          -8.03216640e-03, -2.86868904e-02, -6.71896571e-03,
          2.24577007e-03, 1.56151038e-02, -1.60692632e-02,
          -9.91482474e-03, 1.36400629e-02, 1.50344325e-02,
          -8.80242605e-03, 3.13899741e-02, -4.55128402e-03,
          -2.23516745e-05, -5.06005064e-03, 2.07057204e-02,
          -2.98840888e-02, -8.79217405e-03, 1.64192729e-02,
          -3.26784886e-02, -2.59322263e-02, -9.38018318e-03,
          -2.41510216e-02, 1.71922334e-02, 7.16709299e-03,
          -2.59993523e-02, 2.48486847e-02, 1.37306051e-02,
          -3.18199992e-02, 4.20041056e-03, -2.39167474e-02,
          -5.78608224e-03, 1.59183182e-02, -3.11716311e-02,
          -2.33365130e-02, 6.24890765e-03, 3.06782853e-02,
          1.54340854e-02, 1.47620859e-02, -2.32113097e-02,
          -7.90347997e-03, 5.27885277e-03, -2.35981178e-02,
          -1.52632454e-02, -7.36441975e-03, 2.28992943e-02,
          1.10184914e-02, 1.14484215e-02, -9.73118644e-04,
          1.17755495e-02, -1.27490573e-02, -8.43700022e-03,
          -2.27604769e-02, 1.03004750e-04, 2.54768636e-02,
          -3.03134928e-03, 1.83174964e-02, -1.34178968e-02,
          1.26581406e-02, 1.70555394e-02, -1.12243816e-02,
          -1.23079326e-02, -1.79367810e-02, 1.87597498e-02,
          -1.08569534e-03, 1.76195260e-02, 3.15852351e-02,
          2.13705283e-02, 2.27401732e-03, -2.59066676e-03,
          -3.70964454e-03, -8.62993021e-03, -5.12979226e-03,
          -2.00252095e-03, 4.56888275e-03, 9.38368775e-03,
          1.76798329e-02, -1.17284972e-02, -2.09110323e-02,
          9.20375623e-03, -3.81334638e-03, -7.77126104e-03,
          -7.85105489e-03, -1.00650312e-02, -1.07456725e-02,
          2.02050451e-02, 1.17271142e-02, 4.75315814e-04,
          -5.82149578e-03, -2.10010018e-02, 8.70921183e-03,
          -3.96208232e-03, 5.32137882e-03, 1.51805375e-02,
          5.52894734e-03, 1.10182585e-03, -4.45378385e-03,
          -2.47232127e-03, -2.26618592e-02, 1.24657108e-02,
          -8.15044623e-03, -4.75695683e-03, -1.58962130e-03,
          1.75209697e-02, 8.88504274e-03, -3.08066048e-02,
          9.74514801e-03, -5.58727747e-03, -1.61014646e-02,
          -2.59321555e-03, -1.43815614e-02, -1.32395597e-02,
          4.97664278e-03, 1.14268577e-02, -5.46982251e-02,
          -1.69622581e-02, -1.30511001e-02, -2.00606212e-02,
          1.43860874e-03, -1.19199753e-02, -8.76440573e-03,
          6.75974356e-04, -3.37056890e-02, -5.51620824e-03,
          -9.34026856e-03, -6.71024993e-03, 9.93783120e-04,
          -6.49259612e-03, -2.03048326e-02, -1.53718684e-02,
          4.71930718e-03, -2.24503526e-03, -1.79477166e-02,
          -3.73461433e-02, -3.34600313e-03, -2.93816160e-02,
          -1.91768371e-02, -1.23787066e-02, -6.88391738e-04,
          2.85462546e-03, -1.14102941e-02, -3.95950861e-02,
          6.23652106e-03, -8.53404403e-03, -9.75604262e-03,
          9.36929416e-03, -3.30592715e-03, -1.31636728e-02,
          3.61116533e-03, -3.75083201e-02, -1.63688771e-02,
          2.18883599e-03, -2.99671497e-02, -1.25292614e-02,
          2.56204717e-02, 7.10434793e-03, -1.61023270e-02,
          -1.13195693e-02, -1.48312235e-02, -7.64707988e-03,
          -1.06971962e-02, 7.74156116e-03, -1.69803388e-02,
          -5.54900803e-03, 2.21090950e-03, 1.12916240e-02,
          2.19141152e-02, 1.50862196e-03, -1.44490832e-02,
          -1.39204115e-02, -2.08636168e-02, -3.79329212e-02,
          1.21986391e-02, -6.52451115e-03, 9.29703843e-03,
          -1.14248798e-03, -1.49247646e-02, 3.61812860e-03,
          -1.58768389e-02, -2.53961235e-02, -5.71098120e-04,
          -9.38625634e-03, -5.86068537e-03, 3.61801521e-03,
          1.43422475e-02, 4.24597040e-03, 2.69008544e-03,
          -2.15917025e-02, -2.40123905e-02, -1.23112164e-02,
          -2.22105049e-02, -3.05682141e-02, -1.23602781e-03,
          8.66026990e-03, -2.52074320e-02, 3.59662473e-02,
          8.37964378e-03, -4.30886727e-03, -7.13276095e-05,
          -2.27121031e-03, 3.85915837e-03, 1.00118648e-02,
          1.53156295e-02, -6.28643762e-03, -2.12596450e-03,
          1.95473414e-02, -3.30155645e-03, 1.35780973e-02,
          1.36957485e-02, -1.48370760e-02, -1.01270145e-02,
          1.71234068e-02, -6.57065259e-03, 8.88264365e-03,
          1.08169690e-02, 1.22223306e-03, 1.36758406e-02, 5.42643853e-03,
          -1.81567091e-02, -6.52949791e-03, 6.37914520e-03,
          1.59905734e-03, -2.95359385e-03, -9.43246484e-03,
          -2.61134040e-02, -3.87320132e-03, -4.60711308e-03,
          -3.28218155e-02, -2.44400892e-02, 1.95838721e-03,
          -4.30898415e-03, 2.25292356e-03, -6.14334829e-03,
          -7.85240997e-03, 1.72677673e-02, 1.11135570e-02,
          -1.08451825e-02, -1.73804890e-02, 3.19066085e-02,
          8.23154929e-04, -2.75022667e-02, -2.58996785e-02,
          -2.58368682e-02, -2.65092179e-02, -1.16852364e-02,
          -6.65037939e-03, -2.95172743e-02, -3.14922887e-04,
          -1.55730909e-02, 2.97713443e-03, -6.98681036e-03,
          -1.00319274e-02, -1.10574821e-02, 5.66971907e-03,
          8.50478932e-03, -8.81637633e-03, 1.36474101e-02,
          -4.06864425e-03, 5.18920319e-03, -8.61047395e-03,
          -2.32937280e-02, -3.21341529e-02, -1.86916683e-02,
          -1.20134256e-03, -2.39378735e-02, -3.64671424e-02,
          -2.79808454e-02, 7.75525672e-03, 1.36707621e-02,
          8.24524090e-03, 6.50278758e-03, 1.51991742e-02, 2.66253408e-02,
          2.62490404e-03, 3.11400890e-02, 3.57430652e-02,
          -1.23594664e-02, -8.92645400e-03, -1.95988845e-02,
          -2.46661361e-02, -3.52092497e-02, -5.77975484e-03,
          -8.12496152e-03, -3.06030293e-03, -1.93088467e-03,
          1.48767596e-02, 1.89212468e-02, 9.86764440e-04, 1.00816274e-02,
          1.66802257e-02, -1.18452962e-03, -6.99071912e-03,
          -8.76302086e-03, 5.11750253e-03, -6.26160484e-03,
          7.99290196e-04, -9.38874204e-03, 6.54822960e-03,
          -1.07187303e-02, -1.13758557e-02, -8.49147979e-03,
          -5.41163841e-03, -9.35478311e-05, -1.40225105e-02,
          9.58487485e-03, 1.67317651e-02, -1.81010843e-03,
          6.69443252e-05, 3.95052979e-04, 1.39369387e-02, 1.32539915e-02,
          -9.04713850e-03, -2.39947829e-02, -9.76737961e-03,
          1.04669044e-02, 1.14593692e-02, -5.62112126e-03,
          -5.42088505e-03, -1.29061053e-03, -7.97705539e-03,
          -2.34823450e-02, 2.51094135e-03, -8.32997728e-03,
          -2.55265664e-02, 6.09840034e-03, 8.84564361e-05,
          -1.03041707e-02, -1.02446284e-02, -7.48109538e-03,
          2.30921395e-02, 1.28646437e-02, -1.94447972e-02,
          -4.61559258e-02, -1.30367307e-02, 8.82289745e-03,
          1.85910221e-02, -9.38746892e-03, -1.17423944e-02,
          8.49710405e-03, -2.01573782e-03, -2.05591843e-02,
          -1.84435323e-02, 2.44362443e-03, -1.09200960e-03,
          1.29318908e-02, -4.46237670e-03, 9.89511609e-03,
          -1.55369090e-02, -6.96129678e-03, -1.21528199e-02,
          -3.44306603e-02, -7.39115104e-03, -1.31279519e-02,
          2.05581300e-02, 1.80721644e-03, 2.63829716e-02,
          -2.91821803e-03, -1.47056887e-02, 1.81331870e-03,
          -2.57638674e-02, 7.10690210e-06, -9.88116860e-03,
          -1.08146090e-02, -1.41745005e-02, -6.16601552e-04,
          -1.40201105e-02, -1.34624261e-02, -6.00061007e-03,
          2.12669931e-02, 2.07608435e-02, -3.24435625e-03,
          -6.52062474e-03, -5.20603079e-03, -8.87115300e-03,
          -2.47086808e-02, -2.40686983e-02, 8.79465975e-03,
          -1.16065145e-02, -5.40179620e-03, -1.59283001e-02,
          -1.56832933e-02, -4.23345715e-04, 3.31332609e-02,
          -7.83665944e-03, -1.25824111e-02, -7.01747602e-03,
          7.08191050e-03, 3.29116620e-02, 2.37086937e-02,
          -1.09029450e-02, 2.10822676e-03, 7.37045426e-03,
          -2.12534014e-02, -2.26091836e-02, -1.83624029e-02,
          1.44057339e-02, 2.87658367e-02, 1.62500460e-02,
          -2.38645822e-03, 5.66736655e-03, 7.30877556e-03,
          -1.85149850e-03, -7.16091832e-03, -2.69355401e-02,
          -1.15592470e-02, -2.05729045e-02, -1.44335330e-02,
          -1.38645992e-02, -5.28444722e-03, 3.40446597e-03,
          9.59422905e-04, -2.13018488e-02, -7.11072423e-03,
          1.36796972e-02, 2.84396894e-02, 3.34811844e-02, 6.43654913e-03,
          2.31635440e-02, 1.58469416e-02, 8.17870162e-03,
          -2.80932318e-02, -1.78065319e-02, 2.89206789e-03,
          -1.49834901e-02, -1.04471957e-02, 1.07785780e-02,
          2.12408621e-02, 6.25021697e-04, 7.42601044e-03, 1.41441151e-02,
          -7.41980877e-03, -1.39958523e-02, -2.99783261e-03,
          -2.66141333e-02, 3.25274244e-02, -2.11682897e-02,
          -8.49690661e-03, 5.65310102e-03, -9.11591295e-03,
          -2.34723873e-02, -3.36036533e-02, -1.92193482e-02,
          -2.49915589e-02, 7.67286774e-03, -2.68477667e-02,
          -1.97420008e-02, -8.14534910e-03, 6.62258267e-03,
          1.47458715e-02, 1.52237881e-02, 2.04329565e-02,
          -1.28716147e-02, 3.21643092e-02, 2.52303779e-02,
          2.11907756e-02, 1.84823647e-02, -4.61615110e-03,
          1.23121694e-03, -1.24632660e-02, 8.58955085e-03,
          1.89434458e-03, -9.96309705e-03, -3.51045746e-03,
          -5.98406792e-03, -3.21136182e-03, 4.08456166e-04,
          2.43511125e-02, 1.33530404e-02, 1.61686055e-02,
          -9.76761803e-03, -2.22664587e-02, -1.44974878e-02,
          1.31703364e-02, 1.93472020e-02, 7.38665042e-03, 7.12735718e-03,
          4.48687095e-03, 2.51948414e-03, 1.06057981e-02, 1.24346087e-04,
          -3.00835930e-02, -1.21604670e-02, -5.11912024e-03,
          1.54608488e-02, 2.89990436e-02, 9.83445998e-03, 8.52571521e-03,
          6.42741285e-03, -1.30355312e-02, -2.04765350e-02,
          8.62945896e-03, 1.98917817e-02, -1.10495081e-02,
          5.77701209e-03, 1.97227690e-02, -6.12230413e-03,
          -1.92589369e-02, -1.29255876e-02, -3.45854722e-02,
          3.19135771e-03, -1.07528549e-02, 1.47201419e-02,
          1.89810363e-03, -8.92441440e-03, 3.14973071e-02,
          4.08827886e-03, 3.07287797e-02, 7.70038133e-03, 1.53863067e-02,
          5.95174916e-03, -1.18660172e-02, -7.82286841e-03,
          -8.83461535e-03, 1.70983076e-02, -2.16180757e-02,
          -7.51784584e-03, 4.65967320e-03, 2.15424225e-02,
          -1.47580104e-02, 8.45697336e-03, -3.19642597e-03,
          1.18105896e-02, 4.55020647e-03, -2.27941144e-02,
          2.48312280e-02, -5.28562907e-03, 8.55794922e-03,
          -2.92995200e-03, -6.36689225e-03, -7.10917637e-03,
          -3.06438655e-03, -1.15044916e-03, -2.20100731e-02,
          1.68233234e-02, 5.14424779e-03, 1.59389246e-02,
          -7.64944497e-03, -2.02673655e-02, 1.65631517e-03,
          -1.35700882e-03, 1.60341151e-02, -2.62063053e-02,
          -4.64806380e-03, 3.70216835e-03, 1.62498932e-02,
          1.14725612e-03, -1.43407704e-02, 3.06508294e-03,
          3.77357192e-03, 5.57027757e-03, -1.23551236e-02,
          2.04123594e-02, 1.95187442e-02, 1.16285998e-02, 1.12586534e-02,
          9.71042458e-03, -2.69575161e-03, -6.60221884e-03,
          4.18592291e-03, -1.54928491e-02, 1.36658279e-02,
          3.16286134e-03, 8.76634941e-03, -1.17516021e-04,
          8.88882764e-03, 1.18416082e-03, -3.68875219e-03,
          1.57746077e-02, 1.99031420e-02, 2.72714347e-02,
          -6.59661600e-04, 4.24153637e-03, 9.74089373e-04,
          1.29191754e-02, 1.25747006e-02, -3.33427568e-03,
          -2.08470002e-02, -1.69917140e-02, -1.75571407e-03,
          1.41728027e-02, 1.71828782e-03, 3.10713500e-02, 4.56249155e-02,
          1.52821168e-02, -2.04639602e-03, -1.15999477e-02,
          1.50847631e-02, 1.81821361e-02, -1.18760014e-04,
          -5.33633726e-03, 4.67374995e-02, 8.65618978e-03,
          -1.50500017e-03, -9.42071620e-03, -1.40531529e-02,
          4.46802564e-03, -6.13263389e-03, 5.02720801e-03,
          7.87475519e-03, -2.37961672e-03, 3.38499099e-02,
          9.44390427e-03, 8.84039793e-03, 1.29391588e-02,
          -1.45541226e-05, 9.52044688e-03, -8.38986970e-03,
          -1.68316569e-02, 4.84500546e-03, 3.54500115e-02,
          -9.76874959e-03, -2.02832762e-02, 3.30592915e-02,
          1.56899523e-02, 4.96624550e-03, -2.21434962e-02,
          -4.07788157e-03, 9.75433271e-03, 2.80753002e-02,
          -2.67908573e-02, -6.49503432e-03, 5.60276285e-02,
          3.81647907e-02, -6.65747561e-03, -6.31696265e-03,
          7.10905436e-03, 7.65503198e-03, 2.70651206e-02, 4.34112735e-03,
          2.21973490e-02, 1.29604833e-02, -5.08045452e-03,
          1.45779178e-02, -1.71381794e-02, -1.03581017e-02,
          -2.08067447e-02, 7.41644949e-03, -1.43797304e-02,
          -1.13644209e-02, 2.09229849e-02, 1.22141279e-02,
          -4.47926810e-03, -3.21075926e-03, 7.21531501e-03,
          4.90594469e-03, -5.18971868e-03, -2.17557829e-02,
          -1.43091148e-02, 4.88082059e-02, 2.61612665e-02,
          -8.54023546e-03, -2.32511107e-02, -2.05952255e-03,
          1.74084445e-04, 1.36918416e-02, -7.31365802e-03,
          4.09271423e-04, 3.15675028e-02, 2.06816252e-02,
          -5.63134346e-03, -1.03161493e-02, 4.79950197e-03,
          4.09959406e-02, -8.50532763e-03, -1.06381457e-02,
          -4.11796197e-02, 2.07117740e-02, 9.57636163e-03,
          1.13145728e-02, -1.47825088e-02, -2.23578475e-02,
          -7.30370125e-03, 5.01399348e-03, 8.15516058e-03,
          -1.96023583e-02, 5.96054690e-03, 1.10276015e-02,
          2.67498083e-02, -2.84823496e-03, -1.41489934e-02,
          3.45866084e-02, 4.56567947e-03, -8.88886303e-03,
          6.23468263e-03, 1.00005930e-02, -7.36984238e-03,
          -1.68954227e-02, -8.02534819e-03, -6.97711343e-03,
          -6.66448660e-03, 2.05332004e-02, 1.76042058e-02,
          3.90975326e-02, 1.96005441e-02, 8.93486198e-03,
          -6.55451883e-03, -1.90714356e-02, -1.38602098e-02,
          8.86773691e-03, 4.79069306e-03, 3.28668510e-03, 6.37758197e-03,
          1.12981698e-03, -1.54758226e-02, -3.17848776e-03,
          -2.29296624e-03, 4.44613106e-04, 1.29140299e-02,
          6.90075569e-03, 1.49327507e-02, 4.97917682e-02, 1.36382505e-03,
          -2.26792600e-02, -9.11108684e-03, -1.27586571e-03,
          -4.47627157e-03, 1.68782715e-02, 9.89824999e-03,
          -1.26349023e-02, -1.03966994e-02, -1.15272999e-02,
          -1.19011244e-02, 4.05174494e-03, -3.32569219e-02,
          3.71045643e-03, 1.21025788e-02, -1.80020239e-02,
          -4.58585564e-03, -9.42043588e-03, 1.26372455e-02,
          -1.01658469e-02, 1.77606512e-02, 8.90958495e-03,
          1.22006377e-02, -3.63638508e-03, 1.84314083e-02,
          1.30544314e-02, 1.18407970e-02, -2.02941541e-02,
          -1.57001335e-02, -1.01252524e-02, -3.72281373e-02,
          -4.18264717e-02, -1.10595422e-02, 1.93230771e-02,
          1.11171808e-02, 1.41978776e-02, 1.74817853e-02,
          -2.23386399e-02, 8.65194388e-03, -1.67721603e-02,
          -2.39888877e-02, 1.78539529e-02, -2.71001011e-02,
          -8.72536935e-03, -1.25942500e-02, -2.23896978e-03,
          1.01849893e-02, -8.26453231e-03, 1.03174187e-02,
          -1.67456269e-02, -3.11725400e-02, -1.59738213e-02,
          -2.75262464e-02, -1.69761498e-02, 2.54253071e-04,
          2.08858512e-02, -1.80138368e-02, -1.03779566e-02,
          6.00671920e-04, -2.18583215e-02, 5.26493241e-04,
          4.91165416e-03, 1.94108859e-02, 7.82644562e-03,
          -3.99587350e-03, 6.99691847e-03, 4.82082507e-03,
          4.27825190e-03, 2.39524301e-02, -1.63863227e-02,
          1.29706308e-03, -1.85413733e-02, -1.48804514e-02,
          -1.31063368e-02, -4.74926783e-03, 1.00357772e-03,
          2.16617715e-02, -3.73094669e-03, -2.04140842e-02,
          1.65587082e-03, 1.90803576e-02, 5.37755806e-03, 3.61201838e-02,
          6.37089089e-03, -1.16315139e-02, -8.45210452e-04,
          -1.12207485e-02, -2.95633078e-02, -6.68133516e-03,
          2.30639614e-02, -9.09869652e-03, 4.06207331e-03,
          -2.07675551e-03, -4.00339393e-03, -9.95937455e-03,
          -2.14690864e-02, -1.80135611e-02, 2.45697442e-02,
          2.67007239e-02, -8.97156075e-03, 1.31200077e-02,
          1.03708368e-03, 3.69417947e-03, 1.87222678e-02,
          -1.28314663e-02, -1.87007505e-02, 3.33617069e-02,
          1.23586301e-02, -3.17031108e-02, -2.20029633e-02,
          -2.73735002e-02, -1.63584854e-02, -1.33575797e-02,
          -4.16321307e-03, -7.82279670e-03, 1.93528850e-02,
          2.56719291e-02, -1.69197358e-02, -1.09581160e-03,
          1.96646694e-02, 1.03665488e-02, -5.83368540e-03,
          -1.69432573e-02, -1.64400022e-02, 2.67536063e-02,
          -1.02671161e-02, -5.57382442e-02, -1.02683790e-02,
          1.18535105e-02, 1.21721914e-02, 1.86221246e-02,
          -1.04187299e-02, 6.05527498e-03, 4.56913225e-02,
          4.42345850e-02, -1.89425573e-02, -8.17182939e-03,
          5.96588664e-03, -2.72379816e-03, 1.24797374e-02,
          -1.89080334e-03, -1.39328679e-02, 2.46796533e-02,
          5.09842392e-03, -3.85241099e-02, -2.19596103e-02,
          9.93563444e-04, 2.07159836e-02, 2.58434583e-02,
          -1.30196530e-02, 5.50165167e-03, 2.85525545e-02,
          5.48464712e-03, -2.98229214e-02, -1.98559719e-03,
          1.01815490e-02, 1.42942797e-02, 2.48464569e-02,
          -1.06927138e-02, -4.46288427e-03, -6.98255654e-03,
          -8.57132208e-03, 1.43604958e-02, 1.94842815e-02,
          7.78017286e-03, 7.75911380e-03, 2.44707987e-02,
          -2.42418088e-02, -6.45569805e-03, 3.63616422e-02,
          1.14551373e-02, -2.14511696e-02, -3.43242027e-02,
          -6.27963711e-03, 2.87335943e-02, 4.43620123e-02,
          -1.00407070e-02, 2.26858631e-02, 4.88962382e-02,
          -1.84075776e-02, -3.77540896e-03, -3.26986797e-03,
          2.43464042e-03, 1.62063483e-02, 1.93526410e-02,
          -3.77822062e-03, -1.17347660e-02, -1.71898920e-02,
          -1.03318235e-02, 2.00950168e-02, 3.03867459e-02,
          8.44162609e-03, -6.26269635e-03, 2.17724312e-02,
          -2.14090925e-02, -1.63555965e-02, -9.28773195e-04,
          -4.56790486e-03, -1.30941458e-02, 3.92522737e-02,
          -5.71640255e-03, -2.98702326e-02, 2.53839273e-04,
          -2.64852010e-02, 3.10344249e-02, 6.33068383e-02,
          -4.85274522e-03, 4.95469570e-03, 5.79399988e-03,
          1.88895632e-02, 7.15985335e-03, 1.56534053e-02,
          -6.15735725e-03, 1.36616044e-02, 4.58298214e-02,
          -7.30091240e-03, -3.06183863e-02, 4.79904050e-03,
          -6.33910578e-03, -7.20195798e-03, 2.67462968e-03,
          -1.34244170e-02, 7.58890901e-03, 1.22747766e-02,
          7.73480069e-03, -7.38048740e-03, 3.40529792e-02,
          6.20923471e-03, -1.50228152e-02, 2.71392036e-02,
          1.23829804e-02, -6.91747246e-03, 1.83253211e-03,
          -1.93503592e-02, -2.25543585e-02, -4.18243837e-03,
          -1.09216766e-02, -1.49985543e-02, 1.02567878e-02,
          1.89258028e-02, 1.80337969e-02, 4.42429781e-02,
          -2.16090120e-04, -1.23546710e-02, 2.41122162e-03,
          9.22254007e-03, -2.36743409e-02, 5.05361240e-03,
          -2.25702021e-03, -3.32089961e-02, 3.03146336e-02,
          -8.43401812e-03, -1.66688971e-02, -2.91411467e-02,
          2.93481592e-02, -1.86539255e-02, -1.09893475e-02,
          1.42188696e-02, -4.60414775e-03, 8.49373545e-03,
          -1.26464842e-02, -1.27872201e-02, 1.52587453e-02,
          -1.46481721e-02, -1.13857631e-02, 6.59791380e-03,
          1.15775364e-02, 1.17429653e-02, -1.44684315e-02,
          -1.91461854e-02, 3.71306972e-03, 2.83898823e-02,
          -1.64565444e-02, -1.55026447e-02, -2.24574320e-02,
          -5.74052194e-03, -1.58814285e-02, 2.70668808e-02,
          -8.40509217e-03, 5.70881821e-04, 2.26817168e-02,
          4.08542417e-02, 6.91337883e-03, -1.81560393e-03,
          -9.38534085e-03, 2.10995581e-02, 1.18153803e-02,
          -1.45380069e-02, 1.28742084e-02, 5.65821538e-03,
          3.80088133e-03, 1.52240088e-03, -7.57722184e-03,
          -1.97282098e-02, 1.58132520e-02, -2.11113282e-02,
          -3.00512370e-02, 6.37202244e-03, 2.13168096e-02,
          -1.39217945e-02, -2.09386740e-02, -4.37645754e-03,
          -1.77317020e-02, 9.33393650e-03, 6.81474293e-03,
          -1.58589482e-02, -2.40208730e-02, 7.25752395e-03,
          7.29072653e-03, -1.76303256e-02, -3.19902715e-03,
          2.47678324e-03, 2.43137106e-02, 1.38386637e-02,
          -2.19162051e-02, 9.25995782e-03, 2.26871390e-03,
          -2.42323019e-02, -8.59954674e-03, -4.67832852e-03,
          -2.38194205e-02, 8.95856973e-03, 2.04924475e-02,
          -7.88047910e-03, 1.10467337e-03, -7.73658510e-04,
          -6.02045655e-03, -1.34252496e-02, -4.87229275e-03,
          4.75042965e-03, -1.36068221e-02, 1.55114187e-02,
          -1.56935509e-02, -3.03057488e-02, -1.13416789e-03,
          4.92780050e-03, -1.00851373e-03, 1.04355039e-02,
          -4.70031658e-03, -1.65010430e-02, -1.39810126e-02,
          -1.42949913e-02, 6.12199027e-03, 1.20047270e-03,
          1.74674462e-03, -9.50308144e-03, -4.76094009e-03,
          4.54090070e-03, 3.19207407e-04, 1.92734301e-02,
          -4.29450301e-03, -1.53626418e-02, 6.22958364e-03,
          6.25928352e-03, 1.84970833e-02, 2.09303629e-02, 4.51145228e-03,
          -1.47166289e-02, -5.84072899e-04, -1.30055947e-02,
          2.09341552e-02, 2.79052742e-02, 2.44846214e-02, 2.99870432e-03,
          -7.70333968e-03, -1.92453321e-02, -4.93030390e-03,
          6.41215360e-03, 3.92896545e-05, 1.60648543e-02,
          -1.65723718e-03, 1.81696480e-04, -8.62522889e-03,
          2.43440052e-04, 1.64807010e-02, -3.03972512e-03,
          1.87189076e-02, 2.51774816e-03, -8.03340133e-03,
          -4.79271188e-02, -1.25617469e-02, -3.95043986e-03,
          7.36658694e-03, -1.84828620e-02, 1.17480112e-02,
          2.73441542e-02, 1.86634399e-02, 1.53029291e-02, 5.17027220e-03,
          2.10659783e-02, -4.49921703e-03, 1.02661056e-02,
          1.61149725e-02, 2.24363636e-02, 2.71914788e-02, 1.25714848e-02,
          7.10051972e-03, -1.31401932e-02, 8.46389215e-03,
          4.21238691e-03, 2.25865842e-05, -1.66643299e-02,
          -2.47715227e-03, 1.77904572e-02, -6.63268985e-03,
          -5.64181246e-03, -2.43558306e-02, 1.48420385e-03,
          1.08391941e-02, 1.94350816e-02, 6.47540344e-03,
          -2.64679473e-02, -2.45645437e-02, -1.69645026e-02,
          -4.27575287e-04, 4.82935458e-03, -2.43088659e-02,
          -1.49013940e-02, -6.62948657e-03, -2.29671914e-02,
          1.14491477e-03, 2.97621414e-02, 7.38960877e-03, 9.29333642e-03,
          3.08857616e-02, 3.29128057e-02, 1.55343562e-02, 1.62587669e-02,
          -8.33574869e-03, -4.83330153e-02, -2.07833201e-02,
          -1.32049881e-02, 4.12496738e-03, 2.39743758e-03,
          2.71280054e-02, 1.00028254e-02, 1.17665557e-02,
          -4.55975309e-02, 3.85521073e-03, 9.94773209e-03,
          2.01093350e-02, 1.21462001e-02, 6.99633546e-03,
          -4.02603718e-03, 3.05238436e-03, 2.17424687e-02,
          6.14549080e-03, -1.98679529e-02, 4.43666987e-03,
          -4.19834862e-03, -5.37105463e-03, -3.63023952e-02,
          -3.31233852e-02, -1.65345669e-02, -7.50998326e-04,
          -1.87138375e-02, 1.08505366e-03, 1.05142372e-03,
          1.16899731e-02, 2.43748631e-02, 2.50421441e-03, 2.24468522e-02,
          2.07158569e-02, 2.89581101e-02, -1.29853720e-02,
          -4.61613573e-02, -2.46449113e-02, -1.90671645e-02,
          -2.17613243e-02, -2.02737525e-02, -3.68032828e-02,
          -1.55191980e-02, -3.56659497e-04, -3.58127467e-02,
          -9.94719472e-03, -1.71572101e-04, 5.99915721e-03,
          2.77500623e-03, -2.52095331e-02, 1.07016880e-02,
          5.77081926e-03, -9.90430708e-04, -8.11181311e-03,
          -1.23930471e-02, -1.66340377e-02, -1.85058452e-02,
          -5.18933404e-03, -2.16425881e-02, -1.38209974e-02,
          -4.28439537e-03, 6.84058806e-03, 7.40362285e-03,
          -1.40176769e-02, -1.55975800e-02, -5.30583365e-03,
          -1.05849970e-02, -1.93722732e-02, -5.76937990e-03,
          6.84125058e-04, 1.16576469e-02, 5.65603562e-03,
          -1.79401655e-02, -1.42110148e-02, -1.73404422e-02,
          -5.32647537e-04, -6.92675728e-03, -1.19877281e-02,
          -8.18414893e-03, -1.80018134e-02, -2.31175348e-02,
          3.04949954e-02, -1.26169296e-02, -2.81421794e-03,
          9.19492543e-03, -1.26569504e-02, -4.21705336e-05,
          6.79424917e-03, -7.07601605e-04, 1.96693540e-02,
          1.63863469e-02, -1.34901134e-02, 1.05860690e-02,
          1.43652763e-02, 5.56807686e-03, 1.50276264e-02,
          -1.18802919e-03, -5.10271313e-03, -1.52513348e-02,
          1.82145089e-02, -8.31285585e-03, -1.07507771e-02,
          1.24279158e-02, -3.45986546e-03, -9.25442262e-04,
          5.70563506e-03, -3.44856419e-02, -1.61083024e-02,
          7.86136463e-03, -4.83393250e-03, 1.19411498e-02,
          1.33829145e-02, -1.50390097e-03, -6.05306495e-03,
          1.28192734e-03, -2.09867172e-02, -3.56964655e-02,
          1.84174757e-02, -2.19309609e-02, -1.25043048e-02,
          -2.31171343e-02, -2.73356996e-02, -3.80514655e-03,
          -2.00834620e-04, -2.72388151e-03, 1.02488119e-02,
          3.23971845e-02, -5.11941034e-03, 1.20135192e-02,
          8.57145060e-03, -6.79867109e-04, -2.96307937e-03,
          -2.75039207e-02, -3.07042412e-02, 8.80784914e-03,
          1.49670970e-02, -5.55632962e-03, 3.74157121e-03,
          6.87993132e-03, 1.57452957e-03, -5.93405403e-03,
          -6.50098920e-03, -1.14921127e-02, -9.86348744e-03,
          3.61063853e-02, -1.77818967e-03, 8.18573032e-03,
          2.05059592e-02, -6.54782215e-03, 6.62586559e-03,
          -2.02509146e-02, -4.62909788e-02, 1.31240105e-02,
          9.15129296e-03, -5.37201122e-04, 6.64635468e-03,
          -1.69471884e-03, -1.95731386e-03, -1.23557942e-02,
          -1.19433831e-02, 1.95587068e-04, 3.42537242e-04,
          -1.74770728e-02, 1.25669129e-02, 3.71931412e-04,
          1.61115304e-02, 1.63951498e-02, -2.40475475e-03,
          -1.32435588e-02, 9.81422141e-03, -2.90436018e-03,
          1.28286388e-02, -2.81900563e-03, -1.26110157e-02,
          4.08781786e-03, 3.96890268e-02, -2.49511329e-03,
          -1.10367546e-02, 2.67734891e-03, 3.10010035e-02,
          1.09444074e-02, 2.42053363e-02, 4.52175707e-04, 7.53355352e-03,
          -1.27252738e-03, 6.11926010e-03, -1.31321562e-04,
          1.15416097e-02, 3.06769442e-02, -3.57418507e-02,
          1.11342082e-02, -3.90074514e-02, -9.93140414e-03,
          7.44273840e-03, 1.40402066e-02, -2.14112066e-02,
          -1.99401639e-02, -1.78376827e-02, -2.49537732e-03,
          1.33326501e-02, -1.58051644e-02, 3.29086445e-02,
          3.29184048e-02, 3.78834456e-02, 9.69824288e-03,
          -2.01002080e-02, 2.64810608e-03, 7.27009680e-03,
          2.13828956e-04, -1.78512577e-02, -2.43843682e-02,
          -3.08377519e-02, 2.00401638e-02, -1.94006003e-02,
          -8.32449924e-03, -1.99901732e-03, 8.04486591e-03,
          3.01677287e-02, -4.08429001e-03, 1.71080569e-03,
          -2.84267850e-02, 1.02325613e-02, -5.27566019e-03,
          1.19843683e-03, 7.50738196e-03, -9.49111243e-04,
          6.42196101e-04, -3.16064362e-03, 1.33002708e-02,
          1.76622123e-02, -1.18331914e-03, -5.81218628e-03,
          -8.87667295e-03, -1.30767617e-02, 2.33234046e-03,
          -9.70109925e-03, 2.72196047e-02, 1.26351584e-02,
          1.35188978e-02, 6.13986747e-03, -2.74993610e-02,
          -2.33146138e-02, -2.35999282e-02, 2.20023878e-02,
          1.05669498e-02, -1.54275820e-02, -1.62839668e-03,
          -7.75356370e-04, -1.19563360e-02, -3.07400674e-02,
          -8.06269795e-03, -5.24806743e-03, 1.55146457e-02,
          9.27776622e-04, -1.39405648e-03, 2.08427012e-02,
          -1.94411129e-02, 2.67468020e-02, -3.16488408e-02,
          -4.47139889e-02, -1.61303673e-02, -2.68223304e-02,
          -1.97696630e-02, -6.81378227e-03, -3.81661486e-03,
          2.02468524e-04, -2.12508850e-02, -4.39179838e-02,
          -4.69812974e-02, -4.53224294e-02, -5.76846825e-04,
          2.43778471e-02, 1.76060703e-02, 4.04621214e-02, 1.55420322e-02,
          -1.76165495e-02, -3.09180412e-02, -2.82949973e-02,
          -1.92597806e-02, -2.93883169e-03, -1.10090384e-02,
          1.36573231e-02, 3.75204831e-02, 1.15688071e-02, 2.97853984e-02,
          -7.46554974e-03, -4.75151576e-02, -4.30437699e-02,
          2.17940658e-02, 5.62638044e-02, 6.26456738e-02, 6.95386752e-02,
          4.76321485e-03, 9.67607368e-03, 2.40105689e-02, 1.59220882e-02,
          2.55118334e-03, 1.13357315e-02, 3.75889195e-03, 5.07443910e-04,
          5.71868196e-03, -1.32515244e-02, -3.79224718e-02,
          -3.31288055e-02, -3.46205127e-03, 8.21981952e-03,
          -1.72834843e-02, 2.28418852e-03, 1.68699045e-02,
          -1.67466775e-02, -2.62040999e-02, -3.02458722e-02,
          -1.92835070e-02, 1.53772216e-02, -5.45626134e-03,
          4.20222469e-02, 4.91147004e-02, 2.67127566e-02, 1.99681129e-02,
          -6.47384673e-03, -2.59729680e-02, -8.98560416e-03,
          3.55619490e-02, 4.14352491e-02, 3.74558032e-03, 2.51981299e-02,
          3.22950929e-02, 1.56879164e-02, -1.64149702e-02,
          -1.90282483e-02, 2.37745326e-02, 4.94038723e-02,
          4.22959775e-03, 3.99412448e-03, 7.68593922e-02, 8.06246623e-02,
          1.46488976e-02, 1.03774003e-03, -1.30026666e-02,
          -3.49186477e-03, 2.04425603e-02, -6.37643831e-03,
          -3.31644225e-03, 5.26850149e-02, 1.92621518e-02,
          -3.18617448e-02, -3.25504802e-02, -6.98093027e-02,
          -5.61818928e-02, -2.08784826e-02, -1.86879374e-02,
          -2.64009517e-02, 8.34437460e-02, 9.98461470e-02,
          4.70314436e-02, 1.55500630e-02, -9.32349940e-04,
          2.72171777e-02, 4.26770896e-02, -2.21333969e-02,
          -3.32779177e-02, 4.07226272e-02, 2.09449921e-02,
          -3.56334113e-02, -3.20310928e-02, -5.85056059e-02,
          -2.80176997e-02, -4.22281623e-02, -7.75038153e-02,
          1.52801943e-03, 5.93957677e-02, 2.93961838e-02, 8.97618756e-03,
          -2.27254070e-02, -2.38170493e-02, -1.23891244e-02,
          2.43238322e-02, -5.39732305e-03, -8.58061761e-03,
          2.52220742e-02, -2.09520422e-02, -2.79379673e-02,
          -2.90402807e-02, -2.02425178e-02, 2.79484466e-02,
          2.73763444e-02, 2.55163712e-03, -5.28788520e-03,
          4.48277779e-02, 7.08956271e-04, -2.84379274e-02,
          -4.00276035e-02, -1.75488442e-02, 7.04062590e-03,
          4.43421165e-03, -2.66750176e-02, -5.49929822e-03,
          4.88226209e-03, -1.63305942e-02, -4.64217439e-02,
          -3.61444168e-02, -4.68831249e-02, -2.30096243e-02,
          1.87201276e-02, 1.88834015e-02, 1.65900066e-02, 1.75378062e-02,
          -1.88901871e-02, -1.73787344e-02, -3.24264839e-02,
          -2.99722292e-02, 7.28368433e-03, 3.90446559e-02,
          2.37171594e-02, 3.51780728e-02, 5.09864911e-02,
          -1.26793655e-02, -7.28373323e-03, -1.60217993e-02,
          -2.83405222e-02, -7.46501749e-03, 2.25939509e-02,
          2.65769158e-02, 1.73743237e-02, -1.17685948e-03,
          -1.10840593e-02, -1.89924613e-02, -2.40908861e-02,
          -4.84896637e-02, -2.97993962e-02, 1.37989977e-02,
          3.17314081e-02, -2.85820826e-03, 1.80137297e-03,
          -1.68577526e-02, -2.46604942e-02, -2.15670690e-02,
          -2.94414293e-02, -2.54218262e-02, 1.12303952e-02,
          1.31010516e-02, 3.29660401e-02, 6.55540451e-02, 4.56546713e-03,
          4.29606996e-04, 1.35732843e-02, -3.59048229e-03,
          -7.81152816e-03, 2.53688097e-02, 2.66783796e-02,
          1.82173029e-02, 2.93291193e-02, -2.81360857e-02,
          -4.30573747e-02, 6.42773556e-03, -1.70571376e-02,
          -1.03394566e-04, 1.47965678e-03, -1.01080080e-02,
          -1.22440569e-02, 3.04215774e-02, 1.08678881e-02,
          -5.88412210e-03, 1.07215326e-02, -4.48756386e-03,
          -2.01740619e-02, -1.40244752e-04, -1.91246695e-03,
          -3.87766287e-02, 8.63277260e-03, -1.53671941e-02,
          -1.78182721e-02, 2.30826549e-02, -6.25861669e-03,
          -1.38011584e-02, 3.17598414e-03, -1.76954512e-02,
          2.32122168e-02, 3.05488408e-02, -7.48247514e-03,
          -2.11734548e-02, -1.78382881e-02, 1.73071399e-02,
          -1.71003118e-02, 6.11084048e-03, 1.18274251e-02,
          1.14706820e-02, 3.29468437e-02, -1.77732706e-02,
          -4.33171913e-02, -4.23245504e-02, 3.26401554e-02,
          1.31282015e-02, 3.13791968e-02, 3.68705466e-02,
          -9.58751421e-04, 3.38948779e-02, 1.22510139e-02,
          4.86079557e-03, 3.82475147e-04, 2.32996177e-02, 9.86352749e-03,
          1.86438803e-02, -1.72963478e-02, -3.16758477e-03,
          1.55095737e-02, -1.84682943e-02, -2.66904607e-02,
          -2.33481117e-02, -1.72594395e-02, -4.83034365e-03,
          -3.15532042e-03, -2.59695724e-02, 1.75734404e-02,
          3.37067433e-02, -2.93658990e-02, -3.66288945e-02,
          -5.81162894e-05, 2.58814059e-02, 3.11342091e-03,
          2.43595857e-02, 2.50482280e-02, 3.49990278e-02, 3.96107063e-02,
          -3.34503725e-02, -2.97172572e-02, 5.66969858e-03,
          -2.57386756e-03, 3.38755024e-04, -2.27245891e-05,
          3.62299616e-04, 1.68358479e-02, 2.87375450e-02,
          -5.03044277e-02, -5.96164688e-02, -2.60462761e-02,
          -1.86839439e-02, -5.02598181e-04, 1.57660134e-02,
          1.12937130e-02, 1.47215426e-02, 3.33918333e-02,
          -4.14968878e-02, -5.19761853e-02, -1.17907915e-02,
          -2.84774508e-02, -3.39294411e-02, 3.74244293e-03,
          -1.08777685e-02, 5.30040860e-02, 2.47523710e-02,
          -2.40124185e-02, -3.29499729e-02, -2.63371002e-02,
          -4.30440530e-02, -1.29027404e-02, 1.94711369e-02,
          2.42131054e-02, 2.82892175e-02, 7.68775074e-03,
          -9.31143668e-03, -3.64615582e-02, -8.36326275e-03,
          -3.50307189e-02, -3.31199206e-02, 4.23131231e-03,
          3.73095572e-02, 2.34183706e-02, 2.35359278e-02,
          -1.97378658e-02, -5.16008213e-02, -2.63627879e-02,
          -3.99230123e-02, -2.25977041e-02, 4.30136137e-02,
          -2.06680107e-03, 2.35590488e-02, 1.80881787e-02,
          -1.52258587e-03, -7.45552480e-02, -5.77293374e-02,
          -4.59680893e-02, -3.03109810e-02, 1.64092146e-02,
          1.80992633e-02, 1.62173789e-02, 3.44467945e-02,
          -1.65729299e-02, -2.92428508e-02, 1.00394422e-02,
          -1.27697177e-03, -2.37160418e-02, 1.77343171e-02,
          8.29478074e-03, 2.09297519e-02, 3.17999572e-02,
          -2.45747007e-02, -5.02528204e-03, 5.65744750e-03,
          -6.00132905e-03, -1.59304403e-02, 1.26716653e-02,
          1.69202536e-02, 2.71749194e-03, 5.96560985e-02, 3.18176998e-03,
          -4.93934527e-02, -3.36328633e-02, -3.06558236e-02,
          -1.42404921e-02, 9.82137769e-03, 1.46584352e-02,
          8.82267300e-03, 6.36460930e-02, 1.55892700e-03,
          -1.15963947e-02, 7.51159713e-03, -4.27172286e-03,
          6.25095796e-03, 1.13127725e-02, 1.88426226e-02, 1.03188474e-02,
          1.53155299e-02, 4.85496782e-03, -3.26063042e-03,
          -3.12107224e-02, -1.09643741e-02, -1.98798832e-02,
          1.74798109e-02, 9.15049575e-03, 2.97422539e-02, 2.29297262e-02,
          1.08958827e-02, -1.30855467e-03, -1.21874064e-02,
          -2.14430671e-02, -8.77863448e-03, 1.26531105e-02,
          2.74578463e-02, 2.35086549e-02, 4.93260846e-02,
          -2.06246413e-03, -1.91814788e-02, -2.61398777e-02,
          -2.46744454e-02, -9.84688941e-03, 2.37006601e-02,
          2.80338135e-02, 1.91985387e-02, 4.49318588e-02, 3.24577689e-02,
          1.14120487e-02, -1.92709323e-02, -3.27197276e-02,
          1.42984763e-02, 3.98810990e-02, 5.70283122e-02, 3.91677342e-04,
          2.65582837e-02, 9.24698450e-03, 4.19123610e-03, 9.32976231e-03,
          -4.28567501e-03, -4.68431041e-03, 8.80250242e-03,
          4.85309912e-03, -3.64799798e-02, -1.46563835e-02,
          -1.02890823e-02, 2.97749694e-03, -2.77056801e-03,
          -6.05345564e-03, -2.34164926e-03, -1.63586985e-03,
          -4.58233096e-02, 1.28128259e-02, 4.29199971e-02,
          4.40067016e-02, 3.97727489e-02, 1.90168410e-03,
          -2.39533689e-02, 6.82919985e-03, 2.61869673e-02,
          2.83479430e-02, -1.54445693e-02, 1.38199925e-02,
          1.31236957e-02, 7.13471090e-03, -7.65821198e-03,
          2.08683917e-03, 2.21644752e-02, 1.46465516e-02,
          -5.93504217e-03, 1.40567907e-04, -4.26331162e-03,
          -1.01124039e-02, 2.13130806e-02, 8.06220621e-03,
          6.42225496e-04, 2.37514023e-02, 1.65688787e-02, 6.60558604e-03,
          -4.40389961e-02, -3.80366109e-02, -4.69335169e-02,
          -3.65835615e-02, -2.23682802e-02, -1.30789680e-02,
          -2.19773408e-02, -2.35496927e-02, -3.61978561e-02,
          1.89684741e-02, 3.71639021e-02, 1.76012293e-02, 1.44926263e-02,
          7.08622262e-02, 4.19347584e-02, 5.33402637e-02, 5.14234863e-02,
          3.46434899e-02, -5.95339127e-02, -2.85525303e-02,
          -3.38389240e-02, -3.42577533e-03, -3.22927884e-03,
          -4.83646570e-03, -3.19616757e-02, -1.68992765e-02,
          -2.92743947e-02, -2.13343929e-03, 1.15818949e-02,
          -4.49994672e-03, 7.20666663e-04, -5.42145176e-03,
          2.05504410e-02, -8.08788743e-03, 2.13988703e-02,
          9.88040958e-03, -2.20581125e-02, -9.76085197e-03,
          -3.30246687e-02, -1.28797702e-02, -1.96574833e-02,
          1.21794874e-02, 3.80051741e-03, 5.89599833e-04,
          -1.42970504e-02, -1.10035772e-02, 1.88616465e-03,
          -2.55251434e-02, -2.80713080e-03, -4.10776660e-02,
          3.07485312e-02, -1.31014362e-03, 1.49855856e-02,
          -3.49500938e-03, -1.31958378e-02, -9.82239004e-03,
          -4.23166640e-02, -4.36797738e-02, -3.51527259e-02,
          4.74357465e-03, 1.79070514e-02, 3.28585841e-02,
          -1.38965864e-02, 1.06790308e-02, -6.71441026e-04,
          -1.68386567e-02, -6.79190457e-03, -7.39450101e-03,
          1.33536663e-02, 8.37197900e-03, -2.45325770e-02,
          -6.23993063e-03, 8.51349346e-03, -1.19946245e-02,
          -1.42307987e-03, 1.82911754e-02, 3.18820518e-03,
          9.84110124e-03, 1.03748133e-02, -1.69089828e-02,
          -1.46900071e-02, -9.08696279e-03, -3.49545211e-04,
          9.08221025e-03, 1.51934265e-03, -2.64029708e-02,
          1.21594407e-02, 2.89994795e-02, 2.12585796e-02, 5.63907204e-03,
          7.07245851e-03, -9.50683653e-03, 5.37350774e-03,
          3.79772037e-02, 1.79122705e-02, 8.21014121e-03, 1.37095638e-02,
          2.73260451e-03, -6.71947747e-03, -9.15315747e-03,
          -1.37643926e-02, 2.31142947e-03, 1.71439741e-02,
          2.49622688e-02, 2.43985443e-03, -2.03930214e-03,
          -1.14949839e-02, -1.14240618e-02, 1.00659886e-02,
          -3.40760686e-03, 9.89637244e-03, 1.37558104e-02,
          -2.91851209e-03, 1.39659783e-02, -1.21729178e-02,
          -2.03787312e-02, 2.74362750e-02, 1.07418066e-02,
          -2.60166675e-02, -2.14801058e-02, -3.33796954e-03,
          -5.54444408e-03, -1.53903244e-02, -1.15198726e-02,
          -1.31753273e-02, -8.15222505e-03, -1.11946762e-02,
          -3.26161869e-02, -1.70515832e-02, -4.56440868e-03,
          -1.86792891e-02, 7.10966857e-03, 1.11052080e-03,
          -2.82274876e-02, 1.80515926e-02, 1.38241611e-03,
          -4.29978408e-03, -1.83088072e-02, 9.89898015e-03,
          3.37206274e-02, 3.76304169e-03, -2.76207775e-02,
          -1.74693931e-02, 2.20858790e-02, -1.15453424e-02,
          1.35125825e-02, 5.78761939e-03, -1.38551649e-03,
          -2.09404528e-02, 2.32213810e-02, 1.03320647e-02,
          1.41287716e-02, 1.74654424e-02, 1.14418529e-02,
          -1.62006952e-02, -8.12509563e-03, -6.89066108e-03,
          8.74647032e-03, -8.33593018e-04, -2.08336208e-02,
          -3.83671047e-03, 1.29853655e-02, -9.42373462e-03,
          1.32861352e-02, 2.22936459e-02, 7.14989565e-03,
          -1.56328846e-02, 8.02825857e-03, 3.27485264e-03,
          2.96309646e-02, -4.04519448e-03, -1.59304440e-02,
          8.46081600e-03, 9.50971153e-03, -1.46420058e-02,
          8.22697592e-04, 1.70291178e-02, -7.98813417e-04,
          -1.17035197e-04, -6.43695053e-03, 1.10106329e-02,
          6.33686455e-03, -4.90433013e-04, -1.74255483e-02,
          -2.89630704e-02, 1.23175594e-03, -3.12729459e-03,
          4.98403236e-03, 3.23829539e-02, -9.57816280e-03,
          4.82500950e-03, 1.97224915e-02, 9.81118623e-03, 3.53774754e-03,
          9.85199213e-03, 1.38754500e-02, 1.55222993e-02,
          -1.52106276e-02, 2.43344922e-02, 6.99117780e-03,
          -3.62572260e-03, -8.65560584e-03, -2.21755151e-02,
          -9.67816170e-03, -9.67577100e-03, 1.10823167e-02,
          2.57312786e-02, 2.01722961e-02, -1.77392829e-02,
          -2.68382020e-02, -1.66974869e-02, 5.86360879e-03,
          -1.48101766e-02, -5.13796955e-02, -3.65206413e-02,
          2.59070583e-02, 1.90393068e-02, 1.10944884e-03,
          -3.34245106e-03, 4.72173505e-02, 4.44397926e-02,
          5.96480966e-02, 1.43385297e-02, -2.23640110e-02,
          1.34670772e-02, 2.09795740e-02, -1.86243895e-02,
          -4.51229624e-02, -2.38951668e-02, -1.04189450e-02,
          -3.26336473e-02, -4.70961556e-02, -4.51778099e-02,
          2.15040334e-02, 9.33495874e-04, -1.95608754e-02,
          2.78914534e-03, 5.52925207e-02, 2.28133388e-02, 3.26308571e-02,
          5.47634298e-03, -1.64430011e-02, 8.67291074e-03,
          -2.19239853e-02, -1.06445467e-02, -1.14126485e-02,
          2.19987798e-02, 3.31297680e-03, 3.18870880e-02, 5.97940991e-03,
          -2.04527080e-02, -2.93235537e-02, 4.69720690e-03,
          6.38007745e-02, 4.24616262e-02, 3.78418341e-02,
          -2.62775086e-03, 3.96122113e-02, 4.22339849e-02,
          3.71187329e-02, -5.57533279e-03, -4.28193398e-02,
          -3.09160165e-02, -1.27886953e-02, 4.48577777e-02,
          1.27684856e-02, 2.28730813e-02, 8.97161197e-03,
          -1.68288182e-02, -2.17829905e-02, -1.04490202e-02,
          1.83353871e-02, 2.83615626e-02, 1.80435553e-02,
          -2.62198821e-02, 3.85233425e-02, 3.86038981e-02,
          4.89412993e-02, -7.16214115e-03, 2.22943667e-02,
          7.07765669e-02, 3.11771575e-02, 1.09118968e-02,
          -7.47061521e-03, 1.46008618e-02, 3.53844315e-02,
          4.95266058e-02, 6.71049627e-03, -4.37266678e-02,
          3.13692503e-02, 2.66625062e-02, -5.92485024e-03,
          -1.31226368e-02, -4.79525980e-03, 4.55263928e-02,
          2.80894153e-02, -4.36706580e-02, 9.66093875e-03,
          4.98644300e-02, 3.28226574e-02, 3.97946825e-03,
          -1.33757107e-02, 6.99060084e-03, 3.64325047e-02,
          5.09371646e-02, 9.71514545e-03, -3.34233604e-02,
          4.21274602e-02, 3.80503237e-02, -1.30233690e-02,
          -2.58059278e-02, -1.83287505e-02, 4.41754572e-02,
          2.34193285e-03, -4.89519611e-02, -5.95211387e-02,
          7.06055015e-02, 9.37228724e-02, 6.14865981e-02, 3.19256596e-02,
          3.96542102e-02, 7.06808344e-02, 5.61327375e-02,
          -4.66630384e-02, -8.86101350e-02, 1.35525316e-02,
          2.68284064e-02, -8.09579622e-03, 1.73362947e-04,
          -3.23869176e-02, 3.31777148e-03, -1.57769732e-02,
          -8.74270871e-02, -5.19808307e-02, 5.72590232e-02,
          6.17258251e-02, 4.14311215e-02, 1.87567491e-02, 3.96209843e-02,
          9.25186574e-02, 7.10924491e-02, -5.85693642e-02,
          -1.03276685e-01, -2.10969392e-02, 2.49041114e-02,
          7.33879162e-03, 2.96138301e-02, -1.66857783e-02,
          2.15135124e-02, 2.39166729e-02, -8.93169418e-02,
          -4.13972214e-02, 2.56246831e-02, 6.11110032e-03,
          -4.05437313e-03, -2.91288719e-02, -1.57004744e-02,
          1.14432285e-02, 1.14510674e-02, -4.77574840e-02,
          -1.97962876e-02, 3.30098718e-03, -4.73073078e-03,
          -1.21348994e-02, -1.45139350e-02, -3.59384902e-02,
          -2.71842442e-02, 4.55285423e-03, 2.47216481e-03,
          -5.35132289e-02, 5.62020903e-03, 3.17066126e-02,
          1.20297913e-02, -2.58968920e-02, -2.66420487e-02,
          1.94186941e-02, 3.37858535e-02, -4.57720459e-02,
          -9.56832524e-03, -4.99490090e-03, 1.04876643e-03,
          -2.06001457e-02, -4.22984138e-02, -4.66345921e-02,
          -1.07088694e-02, 1.49756651e-02, -3.27979028e-02,
          -2.00189054e-02, -2.28188671e-02, -6.80672063e-04,
          9.69197322e-03, 1.54583026e-02, -1.60014573e-02,
          -2.66673341e-02, -8.84141191e-04, 3.98836518e-03,
          -3.01763024e-02, -1.97068676e-02, 1.54121104e-03,
          -1.14575159e-02, 1.36324391e-02, 2.10430962e-03,
          -1.38219157e-02, 1.56996343e-02, -3.72884199e-02,
          -2.02204753e-02, 1.18310591e-02, 6.43174862e-03,
          -1.27794323e-02, -2.57752370e-03, -3.46155763e-02,
          -2.29123160e-02, -3.10099276e-04, -4.00259346e-02,
          -3.97219583e-02, 1.73808914e-02, 2.38787942e-03,
          -2.20452119e-02, -1.33565497e-02, -3.14399414e-02,
          -1.24208080e-02, 2.12243758e-03, -5.72066344e-02,
          -3.12560499e-02, 1.58124529e-02, 2.05464344e-02,
          1.92955229e-02, 3.98921706e-02, 1.67935695e-02,
          -3.78963910e-03, 1.19297830e-02, -3.88144329e-02,
          -4.73528244e-02, -1.45522105e-02, -1.03574889e-02,
          2.20872834e-02, 1.34885283e-02, 1.48011353e-02, 9.37019999e-04,
          -8.99064529e-04, -5.08859232e-02, -3.87078300e-02,
          4.51111840e-03, -2.99005164e-03, 4.44038911e-03,
          2.05652993e-02, -4.45545977e-03, -2.79891095e-03,
          1.66561976e-02, -2.34826524e-02, -5.17862737e-02,
          -1.91166718e-02, -2.06686817e-02, 1.09220454e-02,
          1.51259545e-02, 7.04110740e-03, -1.22605925e-02,
          -2.10196637e-02, -5.58659658e-02, -4.32405509e-02,
          -3.50267859e-03, 1.33620389e-02, 2.68446356e-02,
          2.03112140e-02, 2.34634522e-02, 1.12335784e-02, 1.55046079e-02,
          -3.60048413e-02, -2.79791132e-02, -2.25734455e-03,
          -3.26182358e-02, 1.77530907e-02, 2.25351900e-02,
          -8.37903004e-03, -4.77102073e-03, -6.73655653e-03,
          -3.75957452e-02, -3.20009813e-02, 1.12603493e-02,
          -1.23763382e-02, 2.44722585e-03, 2.03319136e-02,
          2.27915980e-02, 7.34180491e-03, -1.02445977e-02,
          -5.38546555e-02, -4.20869775e-02, 5.13969455e-03,
          -3.11348550e-02, -1.84396598e-02, 3.28671187e-02,
          1.77468434e-02, -8.13169684e-03, -1.37737638e-03,
          -3.16444859e-02, -2.43025087e-02, 3.58741544e-02,
          -1.67628601e-02, -1.81453377e-02, 2.01016199e-03,
          -1.99716948e-02, -4.50817775e-03, 4.91783209e-02,
          2.42253044e-03, -7.45699042e-03, 3.76436748e-02,
          -1.76727716e-02, -1.37554901e-02, 3.36865559e-02,
          -2.37402506e-02, -2.15159841e-02, 1.99547689e-02,
          -1.41328406e-02, 1.22189019e-02, 5.91696240e-02,
          -1.50311654e-02, -2.20977720e-02, -8.99810996e-03,
          -2.61620730e-02, -9.15944483e-03, 3.49299088e-02,
          -1.52132576e-02, -2.22402439e-02, 3.62863913e-02,
          -2.62672193e-02, -2.19227560e-02, 1.84116382e-02,
          -2.75257435e-02, -2.63623353e-02, 5.83771151e-03,
          -4.83463658e-03, -5.60833886e-03, 4.77331840e-02,
          -9.88244824e-03, -1.04854414e-02, 1.77423432e-02,
          -1.12918224e-02, -8.32581986e-03, 5.28300926e-02,
          -1.35930162e-03, 2.42512394e-02, 4.55594733e-02,
          9.82232206e-03, -3.37380394e-02, -3.48619856e-02,
          -1.97586976e-02, 1.43358763e-02, 8.11558142e-02,
          1.59056112e-02, -2.56541371e-02, 4.05047089e-02,
          -1.51270740e-02, -2.08875965e-02, 7.67790433e-03,
          -3.10320016e-02, -1.42801665e-02, 3.32566090e-02,
          -9.29161720e-03, 1.56685691e-02, 3.97659242e-02,
          -1.32340789e-02, -3.21268439e-02, -4.40662764e-02,
          -4.03107628e-02, 1.60664339e-02, 4.51754183e-02,
          1.43788941e-02, 5.56103699e-02, 5.86047322e-02, 5.54370554e-03,
          -2.77767032e-02, -1.68676656e-02, -1.88520383e-02,
          -5.04961051e-03, 6.14067949e-02, 1.94719788e-02,
          1.13231447e-02, 6.07793257e-02, -1.86181460e-02,
          -1.91772506e-02, -1.08414618e-02, -2.18079146e-02,
          -1.89518016e-02, 1.19116781e-02, -7.21368566e-03,
          2.67916229e-02, 2.88491864e-02, -1.80467702e-02,
          -2.39795018e-02, -2.50321943e-02, -4.06397544e-02,
          -1.51726268e-02, 6.29846230e-02, 3.32991555e-02,
          5.99698210e-03, 1.68891940e-02, -2.06885189e-02,
          -7.43410224e-03, -1.40359327e-02, -4.40266654e-02,
          -2.34328080e-02, 5.14538474e-02, 1.78370532e-02,
          1.96054373e-02, 5.21627329e-02, -6.80259755e-03,
          -2.34243665e-02, -1.70791447e-02, -3.77465971e-02,
          -1.87808797e-02, 1.11164171e-02, 2.61766799e-02,
          4.06776220e-02, 4.94446307e-02, 2.23505348e-02, 9.90731642e-03,
          -2.31406819e-02, -2.82097775e-02, 9.65139270e-03,
          5.21476194e-02, 5.17573170e-02, 1.79438666e-02, 1.53157935e-02,
          -3.51584479e-02, -3.45916897e-02, -3.92621197e-02,
          -4.14592177e-02, -1.02883503e-02, 3.44442539e-02,
          2.60086432e-02, 4.35875952e-02, 2.89024096e-02, 8.96431785e-03,
          -3.24907117e-02, -4.65979725e-02, -7.79829174e-03,
          1.12502240e-02, 5.71697429e-02, 3.18300053e-02,
          -1.49211437e-02, 2.01728940e-02, 2.71274596e-02,
          3.90762426e-02, -7.62648461e-03, -2.12752074e-02,
          4.53802431e-03, 2.69175321e-02, 2.09386051e-02,
          -4.49101888e-02, 1.10270653e-03, 1.60505958e-02,
          9.91430227e-03, 2.99310461e-02, 1.86903868e-02, 3.31756882e-02,
          2.08650902e-02, -2.64867991e-02, 1.92870162e-02,
          1.75892022e-02, 4.76660347e-03, 1.31559884e-02,
          -2.59157326e-02, 1.12860529e-02, 1.01499138e-02,
          1.97512042e-02, -1.05139031e-03, -2.87050381e-02,
          2.64513679e-03, -2.33622245e-03, 1.92701239e-02,
          1.75374318e-02, 1.45737659e-02, 1.40314046e-02,
          -3.34810349e-03, -4.11269478e-02, -1.37294838e-02,
          2.42208038e-02, 3.09476554e-02, 2.42492631e-02, 7.18176514e-02,
          5.10935150e-02, 4.26292904e-02, 2.94813253e-02,
          -1.19173545e-02, -7.18875304e-02, -4.10157144e-02,
          -2.81209201e-02, 5.93746360e-03, -2.07950622e-02,
          -1.41498661e-02, -2.82290373e-02, -3.64295170e-02,
          -6.21448942e-02, 4.01735166e-03, 3.00871376e-02,
          4.51885015e-02, 4.80502136e-02, 7.44890422e-02, 4.04858626e-02,
          1.51107442e-02, 2.78017074e-02, -6.30809413e-03,
          -6.37280121e-02, -4.42478955e-02, -1.20692523e-02,
          -1.26633011e-02, -9.45118349e-03, -3.30025107e-02,
          -5.68571910e-02, -4.82633486e-02, -6.39838204e-02,
          -6.16163947e-03, -5.78568131e-03, -1.02091739e-02,
          2.09893622e-02, -2.51299366e-02, 2.83173174e-02,
          6.64626621e-03, -3.61649180e-03, 1.50605117e-03,
          7.73436390e-03, 6.03439286e-03, -1.73623357e-02,
          -2.18094196e-02, -3.96510400e-02, -1.14786262e-02,
          -1.79417934e-02, 1.70261078e-02, 7.48462277e-03,
          -1.51791312e-02, -4.89169359e-03, 1.85118914e-02,
          3.29247229e-02, 3.63272359e-03, 1.44480672e-02,
          -3.25916559e-02, -2.79628225e-02, -1.27401249e-02,
          -2.13843044e-02, 7.23182736e-03, 4.21093497e-03,
          2.34940704e-02, 2.48989649e-03, -2.30652355e-02,
          -3.55691947e-02, -1.48524409e-02, -1.00393053e-02,
          -2.39113462e-03, 8.82100221e-03, 2.27951370e-02,
          5.59496554e-03, -1.85877886e-02, 1.32279880e-02,
          3.64205963e-03, 1.57512520e-02, 3.83294281e-03, 3.58240353e-03,
          -1.06355418e-02, 1.63046531e-02, 3.83113958e-02,
          -8.27057101e-03, 1.25043811e-02, 6.19495101e-03,
          -2.15822202e-03, -7.38744158e-04, -3.03157140e-02,
          1.34264957e-03, 1.91450324e-02, 2.48965770e-02, 4.25437093e-03,
          1.49536477e-02, 1.10172667e-02, -3.15255322e-03,
          -2.34033111e-02, -1.06210625e-02, -1.88599415e-02,
          1.17160743e-02, 2.69437339e-02, 4.45290981e-03, 2.10931730e-02,
          4.73854970e-03, -1.49441110e-02, -2.26341244e-02,
          1.91047452e-02, -1.28762266e-02, -4.99131717e-03,
          3.52236372e-03, -9.20840446e-03, -6.18624687e-03,
          -9.56578553e-03, 2.52274447e-03, 9.11875255e-03,
          9.41007806e-04, -1.57057382e-02, -4.89257416e-03,
          7.22205685e-03, -4.83295023e-02, -1.30519969e-02,
          1.46573707e-02, 3.88433295e-03, 5.96512854e-03,
          -2.39147898e-03, -8.37473944e-03, -7.84772681e-04,
          9.12475958e-03, -9.21748951e-03, 1.60071682e-02,
          2.77930195e-03, -1.89268552e-02, 6.14747358e-03,
          -1.51375988e-02, -4.80575440e-03, 1.90338306e-02,
          2.32276856e-03, -2.18176451e-02, 7.62204267e-03,
          7.56296562e-03, 1.28825358e-03, 5.91163756e-03, 2.35762876e-02,
          1.44111132e-02, 6.77673332e-03, -2.55822064e-03,
          1.81708783e-02, 3.60752991e-03, -1.08685791e-02,
          -1.60282757e-02, 4.20244643e-03, -1.37269711e-02,
          1.99529380e-02, 2.27095243e-02, 1.48426797e-02, 2.35010386e-02,
          9.28645488e-03, -7.44470814e-03, 2.93878634e-02,
          8.96403741e-04, 2.00594161e-02, -5.38138021e-03,
          -1.61355548e-02, 1.54858511e-02, 7.45971827e-03,
          3.25398669e-02, 1.50745297e-02, -2.86469352e-03,
          -5.69490949e-03, 2.14939602e-02, 1.25600230e-02,
          -4.66597360e-03, 1.97809562e-02, 2.36274935e-02,
          3.27922404e-02, 1.60523355e-02, 3.96803115e-03, 4.23566625e-03,
          -2.20391657e-02, -1.98582676e-03, 5.55046718e-04,
          3.06952037e-02, 1.12995049e-02, -1.13089709e-03,
          -6.91181095e-03, 1.92436017e-02, -6.21941825e-03,
          4.22580447e-03, -1.26936883e-02, -5.10126911e-03,
          1.01210056e-02, -2.52841879e-02, 1.05553502e-02,
          1.50323473e-03, 3.86602990e-02, 1.95764797e-03,
          -6.45511132e-03, -1.23996418e-02, -1.86988916e-02,
          1.76809151e-02, 1.12498412e-02, 6.63990155e-03,
          -1.19454898e-02, 5.20089176e-03, -2.09885016e-02,
          9.27287061e-03, -2.56844498e-02, 1.82316499e-03,
          1.04306769e-02, 1.17625626e-04, 3.84493023e-02,
          -5.77368774e-03, 9.86301340e-03, -3.22578871e-03,
          5.40441740e-03, -4.95336019e-03, -1.77024640e-02,
          -5.47033176e-03, 2.88267434e-03, 5.52782137e-03,
          -7.62830861e-03, 1.35638183e-02, 5.36385179e-03,
          8.31634738e-03, -1.20325647e-02, -1.71917956e-02,
          2.57896595e-02, -1.25766173e-02, 8.56971648e-03,
          1.80020090e-02, 1.11434683e-02, 1.30551895e-02,
          -5.30061219e-03, -1.01605407e-03, -6.38324767e-03,
          -4.28507337e-05, 2.09081862e-02, 1.04113091e-02,
          -8.14450177e-05, -4.63317381e-03, -2.34287828e-02,
          -7.07365805e-04, -6.01073261e-03, -1.67720001e-02,
          -9.73226782e-03, -1.01597374e-02, -6.75200764e-03,
          4.32729861e-03, -4.82640462e-03, 5.70309069e-03,
          -3.49157937e-02, -4.55865413e-02, -3.17557938e-02,
          8.44775233e-03, 1.58385616e-02, 3.84181403e-02, 1.27575062e-02,
          4.92832810e-03, -1.14680007e-02, -5.47198812e-04,
          4.93681245e-03, 1.43892933e-02, 1.04946969e-02, 1.12680672e-02,
          8.31127763e-02, 6.68603256e-02, 7.40539506e-02, 3.84282023e-02,
          -2.17201654e-02, -4.13229987e-02, -3.46250311e-02,
          -3.37269083e-02, -1.46039622e-02, 7.92910624e-03,
          -1.57910526e-05, -3.05425748e-02, -1.12528894e-02,
          -6.12854725e-03, -1.08040860e-02, -1.29844192e-02,
          -3.18600163e-02, -8.06304161e-03, 4.56643291e-02,
          3.90223227e-02, 1.93825960e-02, 2.72478256e-02, 2.48611663e-02,
          1.94310565e-02, 5.46624791e-03, -6.06775377e-03,
          1.31301833e-02, 1.02210678e-02, 2.17515454e-02, 5.54266609e-02,
          3.49310823e-02, 7.47394282e-03, 4.72245105e-02, 1.23318527e-02,
          4.86967666e-03, 4.89358732e-04, 8.96954630e-03, 6.06613867e-02,
          4.72828522e-02, 2.25877180e-03, 4.40628175e-03,
          -3.42587335e-03, -1.63474828e-02, -2.29909755e-02,
          -2.57848646e-03, -1.28582148e-02, 7.01640220e-03,
          8.89713876e-03, 3.03187612e-02, -1.01202540e-02,
          3.51634319e-03, -2.00109910e-02, -6.61327783e-03,
          -2.09490601e-02, -9.21375584e-03, 2.19899267e-02,
          1.38279581e-02, -3.67959705e-03, -3.09662167e-02,
          2.79657096e-02, 5.77825354e-03, 6.46564551e-03, 4.38105175e-03,
          3.47396061e-02, 9.16408822e-02, 9.94778723e-02,
          -2.90191304e-02, -7.46178553e-02, -3.41325663e-02,
          -1.67274326e-02, -3.92326303e-02, -1.97554380e-02,
          -1.68736018e-02, 3.82195823e-02, 8.38833824e-02,
          -1.70278829e-02, -1.79992691e-02, 1.15046278e-02,
          -8.56196601e-03, -1.25544118e-02, -1.34912999e-02,
          3.46573666e-02, 6.06009848e-02, 6.64113984e-02,
          -1.27362297e-03, -1.51493279e-02, -8.35440960e-03,
          -3.09826955e-02, -4.64018658e-02, -4.64720204e-02,
          -9.10509378e-04, 2.37068515e-02, 6.35782182e-02,
          -1.21619096e-02, -3.47531997e-02, -7.60041410e-03,
          8.11097026e-03, -1.46260345e-02, -5.22226878e-02,
          -2.36541983e-02, 4.08670604e-02, 8.00315216e-02,
          9.32459906e-03, 4.95448802e-03, 2.12171813e-03,
          -1.46198459e-02, -3.22489776e-02, -4.44764681e-02,
          -4.74291667e-02, 3.65576637e-03, 4.97549735e-02,
          1.40044028e-02, -1.08619267e-02, 3.37459259e-02,
          4.95554227e-03, -4.55694925e-03, -4.14683074e-02,
          1.41118411e-02, 3.91629450e-02, 5.96116260e-02, 6.59074448e-03,
          -1.13879843e-02, 2.30133273e-02, 1.62391346e-02,
          -1.73390955e-02, -3.52099240e-02, -1.71035789e-02,
          1.10763069e-02, 2.04534270e-02, -9.52995557e-04,
          4.42439504e-03, 1.41983302e-02, -8.63543339e-03,
          -2.69188043e-02, -3.32559459e-02, -3.99934985e-02,
          -1.24775805e-02, 3.53224576e-02, 9.99758206e-03,
          8.52479413e-03, 1.29872700e-02, -7.02841394e-03,
          -4.53943610e-02, -4.69125099e-02, -3.06254961e-02,
          -4.95067285e-03, 1.51947150e-02, 8.66275281e-03,
          1.25854192e-02, 2.61281747e-02, -2.68640532e-03,
          -1.53264459e-02, -4.22267951e-02, -1.76140778e-02,
          -5.42166689e-03, 2.19522901e-02, 3.20061930e-02,
          9.95317940e-03, 2.23003165e-03, 7.16754561e-03,
          -2.92952172e-02, -4.26534116e-02, -2.07392387e-02,
          -1.05633484e-02, 2.42936667e-02, 5.56544103e-02,
          1.54800303e-02, 2.17810869e-02, -5.07272035e-03,
          -5.94921689e-03, -3.00423168e-02, -5.11271693e-03,
          9.20358859e-03, 3.40616554e-02, 3.05925924e-02, 1.71315875e-02,
          1.98762957e-03, -1.46832978e-02, -5.88890072e-03,
          -1.04872035e-02, -6.11379510e-03, -8.55365582e-03,
          2.53858771e-02, -1.53181172e-04, 3.81952934e-02,
          2.67597605e-02, 1.06286136e-02, -4.78078751e-03,
          -2.35077441e-02, -2.08485406e-02, -2.50466517e-04,
          2.92438325e-02, 3.39327045e-02, 1.85276603e-03,
          -4.01637331e-03, 5.70146600e-04, -2.83868928e-02,
          -2.19761655e-02, -2.28224806e-02, -2.34775543e-02,
          1.87620111e-02, 1.60962939e-02, 3.88203119e-03, 9.10023972e-03,
          -9.00971529e-04, -4.42846725e-03, 5.11633744e-03,
          9.85513069e-03, 9.41359904e-03, 2.45097112e-02, 4.76258248e-03,
          -3.34176086e-02, -3.63904773e-03, -2.23638732e-02,
          -2.19947342e-02, 1.73247941e-02, -3.35197821e-02,
          -1.69145092e-02, 6.20999141e-03, -8.41370504e-03,
          1.57109573e-02, 6.70861162e-04, -1.56150293e-02,
          -1.28834546e-02, -7.89923780e-03, 1.44281881e-02,
          -2.13964749e-03, 3.52356173e-02, 3.38111334e-02,
          1.89369582e-02, 6.48171501e-03, -1.05428025e-02,
          -4.18139203e-03, -2.05832161e-02, -3.35989185e-02,
          -1.80872530e-02, 2.17112713e-02, 2.50931866e-02,
          5.03804721e-03, 4.49490435e-02, -5.99123538e-03,
          -1.05384756e-02, -1.72064845e-02, -5.10128811e-02,
          -3.04265376e-02, 2.73258034e-02, 6.15736376e-03,
          -1.70019455e-02, 4.87483516e-02, -1.29544362e-02,
          -7.20034679e-03, -5.23332367e-03, -4.71177138e-02,
          -4.50916067e-02, 6.74186554e-03, 5.99833112e-03,
          3.23914997e-02, 2.17189640e-02, -3.81563650e-03,
          1.19824521e-02, 8.09578877e-03, -2.10265014e-02,
          -9.46797058e-03, 2.84709632e-02, 3.41312326e-02,
          1.89343635e-02, 4.99360729e-03, 4.34185378e-03,
          -6.36427477e-03, 1.27099901e-02, -1.86306126e-02,
          -9.92161781e-03, 1.48335705e-02, 3.94176170e-02,
          -1.26160411e-02, 4.87468354e-02, -8.38792231e-03,
          -1.67542342e-02, -5.58097614e-03, -3.57414670e-02,
          -1.84132997e-02, 2.41024718e-02, 2.17513591e-02,
          2.61291917e-02, 9.55632422e-03, -4.49929945e-02,
          -4.41021211e-02, -3.57056148e-02, -4.86044772e-02,
          -4.08962864e-04, 1.56794973e-02, 2.52939630e-02,
          3.18219326e-03, 1.86797027e-02, 5.86014660e-03,
          -2.16827150e-02, -1.13490690e-02, -1.70063432e-02,
          -1.19630173e-02, 1.99994761e-02, 2.20449120e-02,
          2.93213315e-02, 8.24576151e-03, -3.81178856e-02,
          -5.28934188e-02, 4.07134928e-03, -2.97654141e-02,
          -1.50262900e-02, 2.69993525e-02, 3.04059666e-02,
          4.16516215e-02, 1.98861621e-02, -1.89528912e-02,
          -1.25597771e-02, -1.55616328e-02, -3.16002369e-02,
          -1.79234073e-02, 4.59614098e-02, 2.51118820e-02,
          2.79428046e-02, 1.12899253e-02, -3.32876481e-03,
          3.63611593e-03, -1.29602812e-02, -2.70438790e-02,
          -1.62977837e-02, 5.23561910e-02, 1.68224983e-02,
          2.41613034e-02, 1.39129562e-02, -4.38755639e-02,
          -8.59381538e-03, 9.26256925e-03, -2.47812215e-02,
          -3.47437635e-02, 9.81103815e-03, 2.18059104e-02,
          -4.71128384e-03, 8.94206855e-03, -2.83335485e-02,
          5.01749991e-03, 2.23991778e-02, -1.91700715e-03,
          -1.98334195e-02, 1.10520772e-03, 4.44306666e-03,
          2.40552351e-02, 2.25714669e-02, -1.08202267e-02,
          -2.73796134e-02, -3.37542482e-02, -1.20448014e-02,
          8.07593763e-03, 5.70017323e-02, 2.93280967e-02, 4.97038886e-02,
          2.23918147e-02, 1.67331118e-02, -5.12330979e-02,
          -4.35652807e-02, 6.54348638e-03, 2.79077124e-02,
          5.73809743e-02, 3.36957127e-02, 2.11775582e-03, 5.20211551e-03,
          -2.81526521e-02, -2.75545265e-03, 1.36356262e-04,
          1.19229872e-02, 1.34897074e-02, 1.87360980e-02, 1.01092132e-02,
          1.59325940e-03, 5.69663523e-03, -1.67194139e-02,
          -2.11851578e-02, -1.16534838e-02, 1.76661671e-03,
          -3.99102364e-03, 1.31002367e-02, 2.08908040e-02,
          2.91677285e-02, 2.90721804e-02, 2.02178694e-02,
          -1.02626754e-03, 7.74270343e-03, 1.69298481e-02,
          2.33352799e-02, 4.05846722e-02, 4.09648977e-02, 5.23186335e-03,
          6.21881429e-03, 1.01446519e-02, 1.26529969e-02, 3.68012674e-02,
          2.82009002e-02, 6.31642062e-03, 2.84447265e-03, 4.65877261e-03,
          1.30590880e-02, 8.21899809e-03, -1.02639310e-02,
          1.84819190e-04, 6.23611221e-03, -1.29747037e-02,
          -5.95410634e-03, 1.08322361e-04, 2.45943554e-02,
          -3.03245354e-02, -1.90087352e-02, -1.05602182e-02,
          -2.99058016e-03, 1.99195012e-04, 5.22594200e-03,
          -4.78646569e-02, -3.50808501e-02, -2.56299656e-02,
          3.18179540e-02, 3.46302278e-02, 4.07916829e-02, 2.49355044e-02,
          8.25983360e-02, 4.25080881e-02, 1.38423983e-02, 3.89985852e-02,
          3.61258239e-02, -1.03252809e-02, -1.79848224e-02,
          -1.23955598e-02, -5.84227312e-03, -6.41981326e-03,
          -1.92491096e-02, -3.63705568e-02, -1.81026869e-02,
          -2.44526621e-02, -1.81776844e-02, -8.36256519e-03,
          1.36436643e-02, 5.94593771e-03, 2.61159092e-02, 4.91226092e-02,
          -1.78916822e-03, -2.79346434e-03, -1.04536097e-02,
          -4.40897606e-02, -2.34251674e-02, -3.08129545e-02,
          -1.13435909e-02, -1.55752040e-02, -1.74282659e-02,
          -3.60085331e-02, -4.65184152e-02, -4.31161970e-02,
          8.68739747e-03, 1.18700424e-02, 1.87639128e-02, 2.35564448e-02,
          9.73534130e-04, 3.06261494e-03, -2.26282962e-02,
          -2.25840486e-03, 3.82215367e-03, -2.82657370e-02,
          2.01835041e-03, 1.53868888e-02, 2.39957273e-02,
          -1.77809056e-02, -1.11167012e-02, -2.23321542e-02,
          -2.76197530e-02, -2.17593312e-02, -1.37982499e-02,
          1.91776473e-02, -6.48529967e-03, 6.99362950e-03,
          -2.54306570e-02, -4.33651963e-03, 8.12625885e-03,
          7.85483234e-03, -1.24854036e-02, -5.27362153e-02,
          -3.23503725e-02, -8.39334796e-04, 1.75853018e-02,
          -2.31490061e-02, 5.37031051e-03, -2.85531487e-03,
          -5.13688894e-03, -3.56149711e-02, -1.73452795e-02,
          -1.39536452e-03, 1.32422494e-02, 2.58130040e-02,
          -1.46981608e-02, 1.78062115e-02, 1.12762116e-02,
          3.84707213e-03, -1.33483000e-02, -2.23770048e-02,
          -5.87644987e-03, 4.29715216e-03, 9.28489398e-03,
          5.89994900e-03, 3.16678584e-02, 9.22181923e-03,
          -1.52845010e-02, -3.51403328e-03, -1.96094736e-02,
          -4.17356826e-02, -9.51301027e-03, 1.16340611e-02,
          -1.04516866e-02, 3.33913229e-03, 4.91754431e-03,
          7.33545702e-03, -4.58326249e-04, -3.45217884e-02,
          -1.47154890e-02, 1.97068676e-02, 3.93103901e-03,
          1.18929027e-02, 2.31134538e-02, 1.72007270e-02,
          -2.30987016e-02, -1.19559756e-02, -1.43893966e-02,
          -1.29244728e-02, -9.44288168e-03, -9.23627149e-03,
          -2.22815387e-02, 1.64976176e-02, -2.64220638e-03,
          -2.45903991e-02, 8.57855286e-03, 3.60394921e-03,
          -1.77118480e-02, 1.35963587e-02, 1.21127546e-03,
          -3.43100578e-02, 7.92714022e-03, 1.06600616e-02,
          -1.20632595e-03, 1.47896362e-02, -2.29422059e-02,
          -2.17453297e-02, 1.94504000e-02, 4.27465001e-03,
          1.28792261e-03, 1.84621941e-02, 5.34748472e-03,
          -2.31966171e-02, -1.21996198e-02, 8.85679480e-03,
          -1.97550040e-02, 1.15893027e-02, 7.20727025e-03,
          -2.36217659e-02, 9.07564163e-03, 2.16059797e-02,
          1.02741672e-02, 3.66463102e-02, -5.06278547e-03,
          -1.58128478e-02, -2.88960207e-02, -1.99204441e-02,
          -2.18560628e-04, 2.90927961e-02, -3.64502310e-03,
          -1.16860615e-02, 4.81013535e-03, 8.28903727e-03,
          -2.57003331e-03, -2.72804182e-02, -3.25622074e-02,
          1.48409535e-03, 3.89255732e-02, 5.19028539e-03,
          -1.78981554e-02, -2.08725426e-02, 1.29307276e-02,
          -4.88203485e-03, -2.60221343e-02, -1.49053643e-02,
          1.25546835e-03, 3.96148115e-02, -7.03140534e-03,
          -4.58132802e-03, 3.22935656e-02, 4.14976338e-03,
          1.96082634e-03, -3.16621959e-02, -5.51788369e-03,
          3.34714837e-02, 7.50520676e-02, 1.42151220e-02,
          -2.96434877e-03, 4.52085352e-03, 1.05998125e-02,
          -2.19010208e-02, -3.88095081e-02, -2.29027849e-02,
          -4.37733764e-03, 2.19168458e-02, -9.97587480e-03,
          -2.22206078e-02, -2.15528235e-02, 2.98786517e-02,
          -2.79326104e-02, -1.64714381e-02, -3.99949728e-03,
          -9.81667079e-03, 8.83914903e-03, -9.51608364e-03,
          -1.76429879e-02, -1.38627803e-02, 6.48438418e-03,
          -3.54739744e-03, -2.16269847e-02, -2.16694898e-04,
          2.40823235e-02, 5.25223166e-02, -3.79156627e-05,
          -9.93668195e-03, -1.51048191e-02, 1.67002883e-02,
          -4.57856152e-03, -1.82039663e-02, -6.58532558e-03,
          2.08127722e-02, 3.24550644e-02, -2.31416430e-03,
          -2.26670355e-02, -8.27688258e-03, 1.99474450e-02,
          1.41128968e-03, -9.46635846e-03, -4.32837009e-03,
          4.55657253e-03, -1.49627570e-02, -8.08913819e-03,
          -8.89573898e-03, -9.20823589e-03, 2.14633737e-02,
          4.54964070e-03, -1.82194856e-03, -1.57267563e-02,
          -2.33696867e-02, -2.99974177e-02, 1.26834866e-02,
          4.25924361e-03, 3.42073664e-03, 3.66286607e-03,
          -1.10330200e-02, -2.14165617e-02, -2.12021936e-02,
          6.97745383e-03, 1.42618176e-02, -3.34586878e-03,
          -9.21092089e-03, 2.32340954e-02, -1.15466751e-02,
          -2.28159949e-02, -2.27983631e-02, -1.08557278e-02,
          5.96650084e-03, 2.03829501e-02, 2.12934464e-02, 1.17588677e-02,
          2.79961284e-02, -7.54114473e-03, -2.10451465e-02,
          -1.74549837e-02, -7.85573479e-03, -2.58840099e-02,
          -1.36898821e-02, 1.15353158e-02, -5.80383325e-03,
          -2.18724075e-04, 2.83546038e-02, 2.13185116e-03,
          2.56315037e-03, -6.86598301e-04, -2.74517871e-02,
          6.09060470e-03, 2.38256752e-02, 3.19128260e-02, 2.80532539e-02,
          -1.70020778e-02, -1.52177699e-02, -3.53517383e-02,
          -4.95967106e-04, 1.04668662e-02, 2.79532955e-03,
          -9.05791391e-03, -2.18065865e-02, -1.10462811e-02,
          1.18695507e-02, 1.27245486e-02, 5.68976300e-03, 1.46280788e-02,
          -1.24124847e-02, -1.03360517e-02, -7.07053719e-03,
          1.28296642e-02, -4.84761829e-03, 6.73195720e-03,
          -9.99000669e-03, 1.85660121e-03, 8.01190734e-03,
          -9.32470523e-03, -2.09895037e-02, -7.37904245e-03,
          1.43659236e-02, 6.90749194e-03, -2.09039915e-03,
          1.67082641e-02, 1.53740710e-02, 2.09980700e-02, 1.65100396e-03,
          3.81938345e-03, -1.45281898e-02, 1.64498165e-02,
          -7.47638755e-03, -1.49027845e-02, -5.79505600e-03,
          -2.20623752e-03, 1.10398314e-03, -1.00076292e-03,
          -1.66706629e-02, -2.25534216e-02, -8.06517154e-03,
          -1.63082611e-02, -2.76942533e-02, 8.86626635e-03,
          -1.34720281e-03, -1.06181344e-02, -3.19155748e-03,
          3.11690709e-03, -2.06682142e-02, -1.04545970e-02,
          -3.22151445e-02, -5.36022382e-03, 1.48554351e-02,
          1.97236445e-02, 2.26402795e-03, 4.76630824e-03, 1.58114098e-02,
          6.73453044e-03, 2.52684373e-02, -6.19765697e-03,
          6.86917454e-03, 1.04378466e-03, -1.52702508e-02,
          -2.06003413e-02, -2.62551252e-02, -1.15724262e-02,
          1.23621058e-03, 2.27390360e-02, 1.57243991e-03,
          -4.21582945e-02, -1.59341600e-02, -9.05556697e-03,
          -9.55564622e-03, -1.32309413e-03, -6.33674534e-03,
          1.18413130e-02, 9.74422041e-03, -3.75347771e-02,
          -3.65432277e-02, -1.54683990e-02, -2.43713167e-02,
          -1.68540739e-02, -8.76745488e-03, -3.15964036e-02,
          1.33122988e-02, 1.25630209e-02, -3.65037434e-02,
          1.80208765e-03, 1.37402611e-02, -7.78997457e-03,
          -7.62687763e-04, -1.27723441e-02, -1.48009816e-02,
          2.83127408e-02, 4.38974388e-02, 1.68660507e-02,
          -6.82492880e-03, 1.31059987e-02, -1.78311591e-03,
          -2.29172669e-02, -2.31193453e-02, -3.57860029e-02,
          -4.39104438e-03, 2.03277059e-02, -6.10056939e-03,
          -4.31639887e-03, 3.99895664e-03, 3.14299110e-03,
          -6.53915340e-03, 5.17546618e-03, -2.62409747e-02,
          2.57357210e-02, 4.06242684e-02, -3.08641838e-03,
          -7.36161135e-03, -5.94287645e-03, 4.12988011e-03,
          -1.62731949e-02, -2.79308949e-02, -4.70234528e-02,
          -3.17469612e-02, 8.35018605e-03, -2.41319431e-05,
          -6.17641630e-03, 2.34071501e-02, 1.00992704e-02,
          -4.27877903e-03, -1.56158181e-02, -9.60404892e-03,
