%YAML:1.0
opencv_ml_svm:
   svmType: EPS_SVR
   kernel:
      type: LINEAR
   C: 1.0000000000000000e-02
   p: 1.0000000000000001e-01
   term_criteria: { epsilon:1.0000000000000000e-03, iterations:1000 }
   var_count: 7524
   sv_total: 1
   support_vectors:
      - [ -1.73108894e-02, -1.81498565e-02, -7.21470686e-03,
          2.82069128e-02, 1.60163771e-02, 1.82935148e-02,
          -6.58285758e-03, 8.53086729e-03, -7.09479162e-03,
          -6.10462064e-03, -4.20814240e-03, 2.24009226e-03,
          2.11376138e-02, -9.16375138e-04, 1.84650955e-04,
          -2.05566026e-02, 1.14113847e-02, -7.72802485e-03,
          -1.59834663e-03, -3.08164470e-02, -2.22957935e-02,
          9.12839267e-03, 7.88700301e-03, 2.05152668e-02, 5.08622453e-03,
          1.69686601e-02, 2.42789928e-02, 2.29418278e-02, 1.33277774e-02,
          1.50391329e-02, 6.89424342e-03, -2.63746120e-02,
          3.69270542e-03, -1.43078174e-02, 7.60043878e-03,
          1.34540191e-02, 2.47860822e-04, 3.55297117e-03,
          -1.97065645e-03, 5.42730978e-03, 1.95902213e-02,
          3.79103865e-03, -2.66395360e-02, 2.83518503e-03,
          2.15726509e-03, 2.82108109e-03, -1.53541770e-02,
          -8.98597110e-03, 4.01099026e-03, 3.99629995e-02,
          1.78162660e-02, -1.45524023e-02, -6.69081090e-03,
          -6.23920187e-03, 9.63504054e-03, 1.02320279e-03,
          1.35270879e-02, 1.33600635e-02, 1.92373190e-02, 4.03708778e-03,
          -8.87925085e-03, 5.85727103e-04, 8.37411359e-03,
          1.53024569e-02, -1.96204334e-02, 9.35164001e-03,
          1.74889974e-02, 8.00149236e-03, 1.68759644e-03,
          -3.89981014e-03, 1.25109043e-03, 3.73129407e-03,
          1.44217527e-02, 9.98112746e-03, 3.49236419e-03,
          -2.26229290e-03, 3.47443223e-02, 2.32801363e-02,
          3.67428828e-03, -1.20449411e-02, -1.48046704e-03,
          -2.48252111e-03, -1.72432919e-03, -2.16285307e-02,
          -1.70840900e-02, 1.46922907e-02, 2.60809548e-02,
          3.80645809e-03, -8.86499602e-03, -2.40610229e-04,
          2.63662860e-02, 1.23819150e-02, 1.26553781e-03, 1.86537262e-02,
          2.01084856e-02, 3.56450565e-02, 1.08054548e-03, 1.22884326e-02,
          -4.71851090e-03, 1.27381356e-02, 1.73085332e-02,
          -1.41313756e-02, 1.10312058e-02, -8.41366034e-03,
          9.33281519e-03, -1.90742239e-02, -1.39348293e-02,
          -1.99641362e-02, 1.25380894e-02, 5.03046112e-03,
          -1.30397212e-02, 4.86744242e-03, 7.01465225e-03,
          1.63231846e-02, -9.45396721e-03, -1.73628032e-02,
          1.59299020e-02, 1.44265201e-02, 2.60960613e-03,
          -1.19524105e-02, -9.60817747e-03, -2.15379931e-02,
          1.24649424e-02, 2.05250531e-02, -5.76217566e-03,
          1.76886120e-03, 1.86972078e-02, 1.91598609e-02, 4.33625607e-03,
          2.35424787e-02, 8.17285571e-03, -2.36561382e-03,
          -1.94679294e-02, -1.68406181e-02, -7.79744983e-03,
          5.28128119e-03, -5.30554960e-03, -1.67506281e-02,
          -2.26868037e-02, -2.59541776e-02, 1.16455143e-04,
          -5.48192300e-03, 3.19805322e-03, -2.99208728e-03,
          1.69472396e-02, -7.92891439e-03, -6.21704664e-03,
          -6.64866949e-03, 4.24268795e-03, 2.99017020e-02,
          3.07572559e-02, 2.05107536e-02, -1.89154204e-02,
          8.10851436e-03, -1.96105763e-02, 2.65511987e-03,
          9.40739829e-03, -2.34894585e-02, 3.18211387e-03,
          -8.10591877e-03, 2.55738702e-02, 3.06405185e-04,
          3.69152939e-03, -1.12595689e-02, -5.50831389e-03,
          -4.24678996e-03, -1.17932837e-02, 2.20321678e-02,
          6.21115137e-03, -7.43440539e-03, 7.26480735e-03,
          9.96013731e-03, -3.33461980e-03, 1.91969443e-02,
          1.83495525e-02, -2.06199158e-02, 2.19816878e-03,
          -5.68180671e-03, -1.98849034e-03, 6.48970809e-03,
          -3.20229609e-03, -2.62120571e-02, 8.39093979e-03,
          1.15182633e-02, -1.54079534e-02, -1.45433955e-02,
          -2.80363057e-02, 1.12400148e-02, 1.13338567e-02,
          1.14366347e-02, -7.07032334e-04, 7.66558154e-03,
          5.67477010e-03, 2.32270379e-02, 8.17578565e-03,
          -1.67902019e-02, 2.35191789e-02, -1.89570291e-03,
          -1.08831180e-02, -2.69352552e-02, -8.51301011e-03,
          -9.16629937e-03, -4.29020589e-03, 2.43635359e-03,
          -1.21657522e-02, -3.53566138e-03, -9.97214392e-03,
          -1.33582558e-02, -4.06640861e-03, -6.47671474e-03,
          -6.40565669e-03, 1.51829533e-02, 1.08126309e-02,
          -2.41881795e-02, 5.68390964e-03, -1.04271891e-02,
          2.14248858e-02, 4.58899979e-03, 3.24813137e-03,
          -2.96298560e-04, 3.42192128e-02, 1.78559199e-02,
          -2.16954667e-03, 8.45242757e-03, 1.93879323e-03,
          3.12061049e-03, -1.26277888e-02, -2.31354255e-02,
          4.05595917e-03, 3.21458327e-03, 9.30545945e-03,
          -2.23492514e-02, -2.94231400e-02, -2.35977042e-02,
          1.33870170e-02, 2.75736023e-02, 1.98469358e-03, 3.93762346e-03,
          1.68359205e-02, 9.27408691e-03, 4.51576838e-04, 1.28901079e-02,
          1.05718011e-02, -1.43832220e-02, -3.20478622e-03,
          -2.35296190e-02, -1.17054870e-02, -2.91798804e-02,
          -2.11779121e-02, -9.55942273e-03, 5.09721879e-03,
          -7.19735818e-03, 7.61575019e-03, 1.87648293e-02,
          7.65613653e-03, 3.14118154e-02, 1.33409658e-02,
          -3.36406357e-03, -2.42546648e-02, -6.73123635e-03,
          -7.30027677e-03, -1.04247546e-02, 3.34034883e-03,
          -8.70171527e-04, -1.42858475e-02, -3.57669592e-02,
          -4.29415219e-02, -2.99569350e-02, -3.95606738e-03,
          -8.37946311e-03, 2.37790192e-03, 1.24169895e-02,
          -4.21167444e-03, 1.05096428e-02, -1.09582432e-02,
          3.59604065e-03, -8.74329079e-03, 2.42338423e-02,
          1.42406160e-02, 5.60196675e-03, 1.36574451e-02,
          -1.78150218e-02, -3.58005390e-02, -3.90285477e-02,
          -2.18859427e-02, -1.84522476e-02, 1.66289061e-02,
          -1.52509175e-02, -1.24390563e-02, -2.27595679e-03,
          -1.31690837e-02, 8.66035279e-03, 3.13161616e-03,
          5.02000190e-03, -2.33515794e-03, 2.13304032e-02,
          -2.35550236e-02, -3.04801259e-02, -1.40164169e-02,
          -1.96184497e-02, -1.95090342e-02, -3.06446925e-02,
          -9.81618185e-03, -1.23715354e-02, 2.10745204e-02,
          5.63518051e-03, 7.55615486e-03, 2.57382691e-02, 8.75707529e-03,
          -2.02399609e-03, -8.61223973e-03, 1.36783989e-02,
          1.94266532e-02, 1.62517689e-02, -5.06816851e-03,
          2.28220690e-03, -8.05564038e-03, -2.40658280e-02,
          -8.94284528e-03, -3.27225998e-02, -1.97013617e-02,
          -9.95110068e-03, 3.60065862e-03, 4.29044710e-03,
          -3.59931253e-02, -1.82226542e-02, -1.32888826e-02,
          -3.22720199e-03, -4.98929247e-03, 5.83100365e-04,
          -1.39243519e-02, -8.37237516e-04, 2.95355218e-03,
          -2.47621499e-02, -1.05307519e-03, -1.77872984e-03,
          -2.06817053e-02, -4.43307078e-03, -2.23096390e-03,
          -9.72887967e-03, -1.01463897e-02, -1.82451252e-02,
          4.26432467e-04, -3.18256505e-02, -2.26204898e-02,
          -4.05057846e-03, -1.75416376e-02, 3.66215152e-03,
          -8.89253616e-03, 8.14235490e-03, 9.67598613e-03,
          -1.12516712e-02, -4.01317282e-03, 7.90385902e-03,
          -1.28340500e-04, -1.70838255e-02, 9.95061826e-03,
          -4.79274750e-04, -1.33091665e-03, -6.67771604e-03,
          -5.40301902e-03, 4.39366745e-03, -1.03828460e-02,
          -2.12475453e-02, -9.25445184e-03, 3.70877096e-04,
          -4.15628031e-03, -2.32168771e-02, -3.50817665e-02,
          6.47308445e-03, 2.57762638e-03, 1.71673167e-02, 2.01826785e-02,
          -1.06987283e-02, -7.69124227e-03, -8.92532803e-03,
          -3.35660181e-03, -3.34135443e-02, -6.19279919e-03,
          -1.18142189e-02, 7.85532035e-03, 1.62650947e-03,
          -5.32659143e-03, 9.40612808e-04, 7.26696104e-03,
          -1.33105954e-02, -2.54730005e-02, -7.96360523e-03,
          4.42486815e-03, 1.67680830e-02, 1.75594632e-02,
          -8.66487902e-03, -2.22218502e-03, 1.84533224e-02,
          -5.68301044e-03, -5.63206943e-03, -1.68141630e-02,
          3.06482962e-03, 3.06649748e-02, 1.96212567e-02,
          -1.82424970e-02, -2.42445734e-03, -1.71406828e-02,
          -3.92603129e-03, -2.35545933e-02, -2.30841134e-02,
          -8.40868626e-04, 1.32627441e-02, 2.15874449e-03,
          -1.05107343e-02, 1.44109325e-02, -2.17428505e-02,
          -5.54131810e-03, 9.77379270e-03, -7.28267478e-03,
          3.43048968e-03, 2.00129766e-02, 9.35589988e-03,
          -2.47347150e-02, -4.79214033e-03, 2.25797156e-03,
          4.28486103e-03, 9.91822500e-03, -2.48866826e-02,
          -3.46630663e-02, 8.28966685e-03, -2.36361008e-02,
          -5.02525643e-02, -1.60317514e-02, -2.82030050e-02,
          -2.47500511e-03, 5.93387894e-03, -1.57741066e-02,
          -6.60580304e-03, -9.37493052e-03, -2.71479990e-02,
          -3.57206096e-03, 2.94592767e-03, -2.50529554e-02,
          -1.21733756e-03, 7.76921585e-03, -1.81963947e-02,
          2.46046204e-03, 3.44237685e-03, -1.60533912e-03,
          -1.57744177e-02, -5.07974345e-03, -3.14818025e-02,
          1.10978046e-02, -1.03481766e-02, -1.65424217e-02,
          -1.64065119e-02, 4.45179269e-03, -2.56710853e-02,
          -2.36172751e-02, -1.11395167e-02, -1.04621835e-02,
          4.33022389e-03, 6.71710633e-03, -9.85287130e-03,
          3.37004736e-02, 8.51074979e-03, -7.84449652e-03,
          -1.83961354e-02, -2.09967699e-02, -2.61179265e-02,
          -2.17960478e-04, -1.51320733e-02, -1.49598168e-02,
          -1.13455672e-02, 3.96217313e-03, -1.55100226e-02,
          5.21263760e-03, 8.78912862e-03, -1.30409868e-02,
          3.68250487e-03, 9.26923845e-03, -1.47339124e-02,
          -2.96192281e-02, 4.82075242e-03, 1.83953438e-02,
          1.55218935e-03, -1.46482103e-02, -1.13261025e-02,
          -1.05054509e-02, 2.17366330e-02, 1.16093000e-02,
          8.89256597e-03, -8.41028802e-03, -2.52410267e-02,
          -6.98252022e-03, -1.90276094e-02, -3.58628184e-02,
          5.88359637e-03, -7.50697171e-03, -5.36316680e-03,
          -3.16525698e-02, -1.96768939e-02, -1.94214731e-02,
          -1.29205193e-02, -2.77248397e-02, -8.08042474e-03,
          -1.27664851e-02, 1.07607041e-02, -3.18351090e-02,
          -5.12306998e-03, 1.98655054e-02, 1.55265490e-02,
          9.01377946e-03, 3.49421124e-03, -3.18169929e-02,
          -9.84012615e-03, -8.76145717e-03, -6.00139499e-02,
          -1.34702520e-02, -1.39224110e-03, -3.95286689e-03,
          5.04917977e-03, 8.60234629e-03, -1.22808609e-02,
          -1.30375205e-02, -3.79591398e-02, -8.51844158e-03,
          2.17128219e-03, 1.59283746e-02, -3.91474832e-03,
          -2.27048211e-02, -2.85201613e-03, -1.09524606e-02,
          -1.73938293e-02, 1.55248155e-03, -2.60145813e-02,
          -1.09045310e-02, -1.28907571e-02, -1.18233208e-02,
          -1.87236220e-02, 1.10375108e-02, -9.07580554e-03,
          3.51563585e-03, -9.27625690e-03, -1.86606832e-02,
          -2.46251875e-04, -6.76128035e-03, -7.20495265e-03,
          1.64703280e-02, 1.06189586e-02, 8.13189312e-04, 6.44908380e-03,
          -5.00077708e-03, -2.02192366e-03, -2.34603789e-02,
          -1.93926822e-02, -1.87391192e-02, -2.43114475e-02,
          -1.24971028e-02, -1.89269707e-02, -4.72879596e-03,
          7.09874276e-03, -1.74974035e-02, -1.33364564e-02,
          -5.74225327e-03, -7.02397432e-03, -3.07309456e-05,
          -7.53784645e-03, -5.59906149e-03, 7.27119809e-03,
          1.25683582e-04, -3.71213909e-03, -3.29438709e-02,
          -2.72896029e-02, -1.23079969e-02, -1.47094531e-02,
          -1.76194478e-02, -4.49851854e-03, 9.83512215e-03,
          8.21418967e-03, 1.07716760e-02, -3.74153513e-03,
          3.95789888e-04, -1.01435967e-02, -3.17855179e-02,
          -2.49186251e-02, -1.74974985e-02, -1.15490600e-03,
          1.36245228e-02, 1.10140292e-03, -3.48686567e-03,
          1.38289365e-03, 2.87198881e-03, -2.41976678e-02,
          -2.14048233e-02, 6.24317268e-04, -8.23840499e-03,
          1.81347243e-02, 9.57190618e-03, -2.98697539e-02,
          -1.54341599e-02, -9.48715955e-03, -1.83184650e-02,
          -1.22644631e-02, 1.08319670e-02, 8.18052888e-03,
          1.58727039e-02, -1.98737308e-02, -3.50259319e-02,
          -9.67181753e-03, 1.47601101e-03, -2.51851138e-02,
          -2.71679852e-02, 6.43341150e-03, 4.63418942e-03,
          -8.93185008e-03, -4.29654820e-03, -7.48108234e-03,
          -4.15922084e-04, 7.65404943e-03, 2.30718870e-05,
          6.11585379e-03, -6.17460627e-03, -1.31048718e-02,
          1.85354762e-02, -4.88738529e-03, -9.04330052e-03,
          7.51921162e-03, -1.35695394e-02, -1.54724093e-02,
          -1.67055316e-02, 1.23003367e-02, -1.54292043e-02,
          8.20020866e-03, -4.99853818e-03, -1.30801080e-02,
          -4.63470584e-04, 1.91725977e-02, -1.01157362e-02,
          4.27252235e-04, -7.63408467e-03, -9.86593962e-03,
          3.60216131e-03, -2.26642267e-04, 4.92808921e-03,
          2.33540162e-02, 2.29382720e-02, -1.36703225e-02,
          1.01023568e-02, -1.63155440e-02, -2.56424714e-02,
          -5.78868622e-03, -2.14843359e-02, -9.53387935e-03,
          7.91787356e-03, -9.70085710e-03, -3.98636475e-04,
          -1.24190878e-02, 8.48943368e-03, -1.05270119e-02,
          -6.86705764e-03, -1.38116674e-02, 1.16094830e-04,
          3.01585300e-03, -1.04538091e-02, 2.37484574e-02,
          4.81696706e-03, 2.98930774e-03, 7.57693825e-03, 8.94037820e-03,
          -9.56843421e-03, -1.01899169e-03, -2.36983542e-04,
          1.46034472e-02, -1.26450500e-02, 2.69115902e-03,
          -2.63447277e-02, -2.38692556e-02, 6.57369802e-03,
          -6.35540485e-03, 1.47463763e-02, 7.53957639e-03,
          -2.03691935e-03, 2.82452796e-02, 2.88655125e-02,
          -1.55512486e-02, -7.41445739e-03, 2.49136402e-03,
          -5.19445958e-03, -1.79757066e-02, 5.88062499e-03,
          1.37616144e-02, 9.37585905e-03, 8.11803900e-03, 2.99029372e-04,
          3.95917939e-03, 1.36146853e-02, 2.69019734e-02,
          -7.97967333e-03, 4.54408629e-03, 2.42555663e-02,
          -1.56310536e-02, 1.23734288e-02, -3.23488377e-03,
          1.29475268e-02, 7.12752109e-03, 1.80648267e-02,
          -9.76665132e-03, 2.42824131e-03, 9.21632629e-03,
          -2.65909694e-02, -9.44086816e-03, -1.24734500e-02,
          9.68292763e-04, 1.22955069e-02, 3.12341563e-03,
          -2.33676787e-02, -1.37145752e-02, 2.54504802e-03,
          -2.57931165e-02, -2.07968825e-03, -1.54813938e-03,
          6.12892862e-03, 9.45992861e-03, 1.51171964e-02,
          -5.48034208e-03, 3.50582134e-03, 9.67270043e-03,
          1.60660557e-02, 2.80531012e-02, -6.82089990e-03,
          1.41818880e-03, 7.93048274e-03, 1.03539424e-02,
          -3.05141732e-02, -1.05852727e-03, -1.16912136e-03,
          2.35714391e-02, 3.32768038e-02, 1.04851332e-02, 5.94727928e-03,
          1.37971481e-02, -7.02479715e-03, -4.15754708e-04,
          -1.15537578e-02, 6.38951268e-03, -1.04007998e-03,
          1.86829381e-02, -2.21874937e-03, -1.89003150e-03,
          5.76385297e-04, -9.45514534e-03, -1.95630696e-02,
          -7.36989966e-03, -1.66540663e-03, 6.43368019e-03,
          1.57166403e-02, 4.52085584e-03, -6.20267633e-03,
          1.29374266e-02, 6.47746725e-03, -1.05945254e-02,
          -4.67118667e-03, -1.35460561e-02, 1.08714746e-02,
          2.26819552e-02, -6.64251624e-03, 9.80019011e-03,
          5.56637649e-04, 1.35048386e-02, 4.08463646e-03,
          -1.40004409e-02, 2.44757123e-02, -9.42698680e-03,
          -6.92159776e-03, 3.89751443e-03, 1.45269185e-02,
          2.67615961e-03, -1.15404911e-02, -1.42433997e-02,
          -1.98855437e-02, -1.40027432e-02, -1.99785512e-02,
          -9.30833688e-04, 6.57145958e-03, 1.79198105e-02,
          2.55794358e-02, 3.15300864e-03, -1.33348750e-02,
          -4.50277096e-03, -2.20579468e-03, -3.52796772e-03,
          5.80395712e-03, 1.35203255e-02, 3.73433940e-02, 3.05233598e-02,
          -9.68445325e-04, -1.34596908e-02, -1.33081265e-02,
          1.79280173e-02, 2.40920279e-02, -6.31611270e-04,
          -7.63120688e-03, 2.00325027e-02, -1.77022407e-03,
          2.13573920e-03, -1.10484976e-02, -2.92656757e-02,
          -2.55125798e-02, -1.91974435e-02, -7.10777566e-03,
          -1.64373498e-02, 2.21643168e-02, -7.96990469e-03,
          8.01412575e-03, -2.09444631e-02, -2.95436708e-03,
          1.56906676e-02, 3.09899654e-02, 3.39990743e-02, 9.21198167e-03,
          3.60503159e-02, 1.01551665e-02, 4.67510289e-03,
          -1.06823752e-02, -2.34146742e-03, 7.05035357e-03,
          9.93041694e-03, 8.49705748e-03, -1.04216859e-02,
          2.86008343e-02, 6.45851903e-03, -6.05099369e-03,
          -5.92899369e-03, -8.12968612e-03, -4.14231233e-03,
          -6.87813340e-03, 1.43604381e-02, 4.23849357e-04,
          8.80719814e-03, 3.53930314e-04, 4.15580784e-04, 1.27592888e-02,
          -5.55027109e-05, 4.35017049e-04, -4.27542217e-02,
          -4.99629707e-04, -2.36116294e-02, -6.64087199e-03,
          2.27245246e-03, 3.73991532e-03, 6.73471158e-03,
          -4.06195380e-04, 1.66399144e-02, 8.90951604e-03,
          2.18680259e-02, 1.12813879e-02, 3.30924504e-02, 1.18033250e-03,
          8.82406626e-03, 2.82890778e-02, -1.29735861e-02,
          4.06307913e-03, -2.23217290e-02, 1.94279514e-02,
          -1.96230435e-03, 2.28672419e-02, 2.37253960e-02,
          -1.32563105e-02, -8.85391701e-03, -2.08073258e-02,
          -1.72309000e-02, -1.16227167e-02, 4.17272188e-03,
          -1.66610032e-02, 2.02495183e-04, 1.12700202e-02,
          -1.57870725e-02, -1.03024626e-02, -2.15394758e-02,
          -2.51269285e-02, 4.31501074e-03, 5.21172723e-03,
          -2.25987565e-02, -3.30963498e-03, -2.44608913e-02,
          8.06521345e-03, 1.98530704e-02, -1.36248562e-02,
          -2.69713637e-05, -9.31099057e-03, 8.60816333e-03,
          -1.59285776e-02, 1.78922936e-02, 3.31246108e-02,
          -4.65752184e-03, 6.56491332e-03, -2.49688160e-02,
          -1.39073553e-02, -2.70623714e-02, 3.75412893e-03,
          -1.12328706e-02, 1.97173767e-02, -8.55139829e-03,
          4.25941125e-03, 3.10422555e-02, 6.59786724e-03,
          -7.23502319e-03, -3.56040802e-03, -7.68862385e-03,
          -1.27653051e-02, 2.41032969e-02, -1.80336908e-02,
          -1.36117786e-02, -1.52034580e-03, -1.92083213e-02,
          -1.89888999e-02, -1.36967376e-02, -5.65791083e-03,
          -7.23119499e-03, 7.15488056e-03, 7.27798883e-03,
          9.83748212e-03, 2.89859604e-02, 1.35031482e-03, 4.25178185e-03,
          -9.10944585e-03, -1.39918169e-02, -1.36641087e-02,
          1.27809877e-02, -2.09762752e-02, -1.47651453e-02,
          9.10414942e-03, -1.64264143e-02, -1.12983966e-02,
          -9.19375382e-03, -6.86868513e-03, -2.02424731e-02,
          -8.81187618e-03, 4.94014021e-05, -1.82869714e-02,
          -1.62052587e-02, -1.27331521e-02, -8.95877462e-03,
          -2.19040504e-03, 2.59188991e-02, 3.42834601e-03,
          1.24047799e-02, 2.54709572e-02, -1.08792661e-02,
          -8.57087690e-03, -1.39250858e-02, -1.39445392e-02,
          -9.66116227e-03, -2.82518071e-04, -3.84403626e-03,
          1.25020528e-02, -9.28657874e-03, 9.30588139e-05,
          -9.17727686e-03, -1.42040504e-02, -3.58835817e-03,
          1.52789534e-03, 7.77031109e-03, -1.38991103e-02,
          1.17321247e-02, 7.71300169e-03, -9.63872299e-03,
          -6.45364681e-03, -1.64870061e-02, -2.44531711e-03,
          4.93146107e-03, -1.65438168e-02, -7.76327495e-03,
          -7.10574037e-04, -1.02152461e-02, -1.01246238e-02,
          2.86167786e-02, -3.53098894e-03, 5.95297804e-03,
          3.15384008e-03, 1.48224970e-02, 1.32042496e-02,
          -2.55421828e-03, -1.81080922e-02, 6.52601756e-03,
          1.58733560e-03, -2.83790454e-02, -2.36248840e-02,
          -2.08820757e-02, -1.34597989e-02, -2.03093234e-02,
          -1.10928277e-02, -3.74143594e-03, 6.76335627e-03,
          1.98522378e-02, 6.25733752e-03, 3.94180752e-02, 6.14809059e-03,
          3.22002918e-03, 6.86709117e-03, 5.61914453e-03, 5.91501128e-03,
          1.17239896e-02, 5.01874788e-03, -7.54519599e-03,
          5.62413409e-03, -2.23325975e-02, -1.68759916e-02,
          -3.25399078e-02, 2.51960405e-03, -2.63361610e-03,
          -1.35961929e-02, -1.22026894e-02, -2.14636791e-02,
          -2.17053853e-02, -6.12254534e-03, -9.02535859e-03,
          -2.05954425e-02, -1.72592141e-02, -1.57591384e-02,
          -2.05570720e-02, -1.16729382e-02, -5.23068197e-03,
          9.37577523e-03, -3.01500503e-03, -4.33274824e-03,
          -8.03127361e-04, -1.37991877e-02, -5.69240283e-03,
          8.57910607e-03, -4.11605323e-03, -1.77087691e-02,
          -5.48852950e-05, 5.59851155e-03, 1.68624902e-05,
          -4.56010923e-03, 4.41924902e-03, -1.09591580e-03,
          -7.10885320e-03, -6.82752300e-03, -1.09438375e-02,
          1.03274349e-03, 2.10427642e-02, 1.79819167e-02, 1.29153561e-02,
          -1.52704353e-03, -2.26427242e-02, -3.07384860e-02,
          -3.16611677e-02, -5.92201622e-03, 6.93941396e-03,
          1.28753195e-02, 8.17343220e-03, -3.76203167e-03,
          3.60495644e-03, -9.82660055e-03, -1.84230674e-02,
          2.84787471e-04, -3.77960736e-03, 4.62274533e-03,
          -1.71385072e-02, 6.15052180e-03, 9.12353583e-03,
          -6.77547592e-04, 7.02032354e-03, -5.68595110e-03,
          -1.24190496e-02, -9.85338259e-03, 6.00262964e-03,
          7.86480866e-03, 9.17947292e-03, -4.80919192e-03,
          -1.46632334e-02, 2.74238735e-03, 3.56589374e-03,
          -6.25576358e-03, -7.95862637e-03, 6.26532594e-03,
          -3.44547704e-02, -9.50046536e-03, -2.28207819e-02,
          -6.54340908e-03, 3.72839137e-03, 4.62048268e-03,
          6.90036081e-03, -2.78834929e-03, -5.02952654e-03,
          -2.18593702e-02, -2.41832226e-03, 5.61328186e-03,
          1.41251683e-02, 1.82045512e-02, -2.21244693e-02,
          -3.08864694e-02, -7.85759278e-03, -2.06675194e-02,
          -1.72433779e-02, -1.03717875e-02, -7.40072411e-03,
          -6.80827710e-04, -1.05406763e-02, 3.02388016e-02,
          3.67907481e-03, -1.34503795e-02, -3.01472261e-03,
          -1.45533413e-03, -1.04902207e-03, -1.98210999e-02,
          1.67405093e-03, 1.43158482e-02, 9.45364404e-03,
          -1.81038864e-02, -1.51897445e-02, 9.34783183e-03,
          1.21691814e-02, -1.37586775e-03, -1.94502957e-02,
          -4.27519381e-02, -1.40413800e-02, -7.02638878e-03,
          1.35363406e-03, 3.36356252e-03, -3.93435871e-03,
          -1.59933623e-02, -1.65875908e-02, -4.26104898e-03,
          4.11624182e-03, 4.36150609e-03, 1.85163005e-03, 1.67071000e-02,
          1.59877248e-03, 1.23640532e-02, -1.76220108e-02,
          -1.29354056e-02, -1.09888744e-02, -2.32267613e-03,
          -1.29917916e-02, 1.37871923e-02, 6.09381590e-04,
          -1.00468071e-02, 9.22624953e-03, -1.49586285e-02,
          -8.28323420e-03, -2.49067638e-02, -1.54621899e-02,
          -1.66488718e-02, -5.65108238e-03, 5.59238135e-04,
          3.85930110e-03, 1.46851223e-02, -3.31665464e-02,
          -1.89531164e-03, -7.55025772e-03, 1.83232948e-02,
          1.09504322e-02, -7.68867612e-04, 4.85588389e-04,
          -8.77132919e-03, -3.40341753e-03, -1.93221439e-02,
          -1.64819956e-02, -1.12059228e-02, 2.06759349e-02,
          -8.63962248e-03, -1.04251057e-02, -2.87500322e-02,
          -2.76463311e-02, 4.62311553e-03, -8.04303214e-03,
          -1.97316501e-02, -3.62852542e-03, -2.32333993e-03,
          -1.92795265e-02, -4.66727326e-03, -6.62306440e-04,
          8.52157921e-03, 1.29657080e-02, -2.17822264e-03,
          -2.64454051e-03, 9.37853591e-04, 2.59457156e-02,
          1.00881401e-02, -2.18506865e-02, -4.35397867e-03,
          -9.82176606e-03, -2.34607098e-04, -7.81548116e-03,
          -9.99756623e-03, 1.25029022e-02, 1.06764352e-02,
          -1.83627084e-02, -9.60659049e-03, -7.35832239e-03,
          -6.60806661e-03, 5.46774594e-03, -1.21867284e-02,
          4.02026717e-03, 8.53195600e-03, -1.37295555e-02,
          -1.85444043e-03, -2.80140806e-02, -1.45790800e-02,
          -8.33502598e-03, -1.96907390e-02, -2.98328251e-02,
          1.90859986e-03, 1.90161709e-02, 1.08776642e-02,
          -1.22456420e-02, -1.09255640e-02, -3.70185985e-03,
          -1.69003736e-02, 8.79328116e-04, -1.10788853e-03,
          -6.62947400e-03, 2.25846265e-02, 1.29893189e-03,
          7.93859456e-03, -6.38830010e-03, -1.05293319e-02,
          -1.83225051e-02, -1.14541808e-02, 6.58218516e-03,
          -1.94693971e-02, 1.49448197e-02, -2.16047265e-04,
          -7.48301810e-03, -1.37335956e-02, -7.28549482e-03,
          -3.35388770e-03, -5.25960932e-04, -2.55089086e-02,
          -8.36328138e-03, 1.13677662e-02, 2.50022765e-03,
          -5.18359290e-03, -5.92989661e-03, -2.08387654e-02,
          -1.79634746e-02, 1.32859796e-02, 1.87237456e-03,
          -2.46766526e-02, -5.33295702e-03, -1.12159606e-02,
          -3.27838934e-03, -4.52011963e-03, 4.69421037e-03,
          -4.94367816e-03, -3.82606732e-03, -7.06207659e-03,
          -3.09982877e-02, -7.48126954e-03, 2.27024197e-03,
          -1.14842234e-02, 1.47327420e-03, -4.22640151e-04,
          -6.01517456e-03, 1.25907883e-02, 1.66445095e-02,
          -3.24465260e-02, -2.12233253e-02, -1.12156514e-02,
          -1.37900887e-02, -5.00938017e-03, -2.32776627e-02,
          -1.53555404e-02, 7.23426056e-04, -1.89374834e-02,
          -1.17077269e-02, 2.43083201e-03, -3.61769553e-03,
          -5.55364974e-03, -2.71361060e-02, -5.34520112e-03,
          -4.37371014e-03, -1.30888668e-03, -4.70010489e-02,
          -2.59932820e-02, 2.46461481e-04, 3.79684311e-03,
          -2.56588608e-02, 7.44327437e-03, 1.29674310e-02,
          -3.82487476e-03, 1.56922136e-02, 4.24084393e-03,
          -3.07290312e-02, -2.91184057e-02, -6.04183925e-03,
          -9.47804470e-03, -1.71508659e-02, 4.95534716e-03,
          -4.49031359e-03, 1.82651617e-02, -1.97688695e-02,
          -4.57276814e-02, -1.70219243e-02, 2.83928588e-03,
          -2.50165947e-02, 3.22188507e-03, 1.88694708e-02,
          8.07655044e-03, 2.00163238e-02, -2.27075387e-02,
          -9.79029480e-03, -6.49207039e-03, -3.51658929e-03,
          1.40671209e-02, -1.89885788e-04, 3.63735645e-03,
          1.44985002e-02, 1.99956317e-02, -8.25372897e-03,
          1.71674825e-02, -1.01003116e-02, -2.33150162e-02,
          1.21566504e-02, -1.37545569e-02, 1.62383337e-02,
          3.52531439e-03, 5.91636030e-03, -1.79377515e-02,
          -1.50659792e-02, -2.50182045e-03, 3.65407293e-04,
          -1.89937570e-03, -3.22494619e-02, 5.24809933e-04,
          1.43057909e-02, -8.40588473e-03, -3.78364027e-02,
          7.11721368e-03, 1.51323853e-02, 6.51467650e-04,
          -5.92557807e-03, -1.23343943e-02, -6.30270969e-03,
          5.15597500e-03, 9.43785533e-03, 4.83487081e-03, 1.09930700e-02,
          -8.56973697e-03, -1.04493741e-02, 5.29925525e-03,
          -4.69097774e-03, 1.26104243e-02, 9.75636113e-03,
          -9.42108035e-03, 2.26467792e-02, 3.45865563e-02,
          1.03865715e-03, -6.55366154e-03, 1.32774119e-03,
          -2.53165588e-02, -9.69261955e-03, 6.79059420e-03,
          -1.31746065e-02, -1.01862988e-02, -1.18985781e-02,
          1.23889828e-02, 1.26453452e-02, -4.20230161e-03,
          1.42338378e-02, -5.28544653e-03, -7.52654439e-03,
          -2.98287179e-02, 3.04286107e-02, 9.08196624e-03,
          1.38593744e-02, 1.32926386e-02, 1.79245211e-02, 7.37959519e-03,
          1.16648795e-02, 1.65559519e-02, 2.11717840e-02, 9.55215469e-03,
          4.75042593e-03, 4.40602703e-03, -2.39937310e-03,
          2.17799954e-02, -2.51426455e-03, -5.65462164e-04,
          1.52344340e-02, 1.24718919e-02, 1.43370852e-02,
          -1.41994073e-03, 6.71268906e-04, 8.74437299e-03,
          1.13585517e-02, 1.23833045e-02, -2.52043959e-02,
          -1.55992871e-02, 2.03522984e-02, -6.78996881e-03,
          -1.87113062e-02, -1.57763548e-02, -2.09351499e-02,
          1.33852549e-02, -2.74891360e-03, -1.81555562e-02,
          1.68230217e-02, 1.06340675e-02, -6.53707329e-03,
          -2.69475821e-02, -9.48307943e-03, -5.75870229e-03,
          2.05321657e-03, -1.71177965e-02, 1.51008440e-04,
          8.42718501e-03, 3.44917225e-03, 5.30567532e-03,
          -3.82751017e-03, -1.95594821e-02, 8.07197671e-03,
          2.33737263e-03, -1.49135217e-02, -1.31465392e-02,
          -1.12539455e-02, 1.11945774e-02, 3.61909915e-04,
          -1.20452233e-02, -1.86156277e-02, -3.64916422e-03,
          9.74629354e-03, -3.66747263e-03, 1.00987591e-03,
          1.74063463e-02, 2.69964319e-02, -1.86896119e-02,
          -2.29467591e-03, -1.82194840e-02, 7.80727714e-04,
          -1.40694510e-02, 3.93713778e-03, -4.82539553e-03,
          1.96453817e-02, 3.03668883e-02, 6.12050341e-03,
          -1.83648430e-02, -1.79501120e-02, -9.60294856e-04,
          -6.01949822e-03, 1.88926642e-03, -9.03934427e-03,
          -1.50062712e-02, -9.72177833e-03, -6.42301794e-03,
          -1.86285656e-02, -1.34164272e-02, -9.20384773e-04,
          2.23916881e-02, 1.39225144e-02, -8.85045063e-03,
          1.86560731e-02, 2.69236416e-03, 7.65567273e-03, 2.50844173e-02,
          1.47450203e-02, 1.21426946e-02, 1.04248058e-02, 2.40777209e-02,
          -4.13469179e-03, 1.53875863e-02, 8.24159663e-03,
          2.01534410e-03, -1.33640245e-02, -2.08497178e-02,
          -1.70306861e-02, 1.28806103e-02, 1.84245314e-02,
          2.74645095e-03, 8.15787446e-03, 1.89409871e-02,
          -4.88356082e-03, -1.39175607e-02, -4.17807372e-03,
          7.20622437e-03, 1.23251071e-02, -1.53380884e-02,
          -5.03830193e-03, 8.99830461e-03, 7.81922042e-03,
          4.35344409e-03, 1.50872972e-02, -1.86183548e-03,
          6.25180127e-03, 2.92107754e-04, -2.19712686e-02,
          -9.04808694e-04, -5.95750986e-03, 2.17318926e-02,
          5.91278542e-03, 7.54178315e-03, -2.80744489e-03,
          7.43504707e-03, -1.72688160e-02, -1.30823832e-02,
          -4.15517204e-03, 2.93781841e-03, 2.81977374e-02,
          7.02327816e-03, -1.65267196e-03, 2.63129687e-03,
          1.28942197e-02, 1.23231988e-02, -1.93361174e-02,
          -4.20919433e-03, -1.30538340e-03, 2.83644255e-02,
          1.43251512e-02, 8.55377689e-03, 1.96952820e-02, 1.95883866e-02,
          6.70768181e-03, -5.73407765e-03, 6.90626493e-03,
          1.06293093e-02, 3.20163295e-02, 1.69391800e-02, 2.06451211e-02,
          1.96342990e-02, 2.03148481e-02, -1.58582646e-02,
          -3.05430661e-03, 1.62378210e-03, 3.21820821e-03,
          2.11035050e-02, -8.77063815e-03, 1.83340237e-02,
          3.75620322e-03, 2.11050045e-02, 1.93409584e-02, 1.21623464e-03,
          5.49697923e-03, 1.13022923e-02, 2.58023124e-02, 3.57357366e-03,
          1.64052155e-02, 1.08514279e-02, 2.00201999e-02, 1.87124184e-03,
          -7.04588182e-03, 7.34492904e-03, -1.23961698e-02,
          5.58887096e-03, -7.83138536e-03, 1.87484827e-02,
          1.60959102e-02, 1.67728215e-02, 9.55929887e-03,
          -2.03328114e-02, -6.99521275e-03, -6.39912486e-03,
          4.98265820e-03, 7.71430973e-03, 6.96100388e-03,
          -2.17500385e-02, -8.09893571e-03, -4.03449964e-03,
          -2.81102732e-02, -2.23999135e-02, -8.13593809e-03,
          7.31770555e-03, -2.08949074e-02, -8.62178765e-03,
          -1.93955582e-02, -2.58790562e-03, -2.50150170e-02,
          5.79823600e-03, -5.54873561e-03, 5.15632890e-03,
          6.85797445e-03, 9.95878410e-03, 1.69723704e-02,
          -6.04898855e-03, -3.10199312e-03, -8.41467455e-03,
          1.23220531e-03, -9.65976249e-03, 9.36858647e-04,
          6.45501679e-03, -2.62171421e-02, -1.13656875e-02,
          -1.56630352e-02, 5.84902335e-03, -4.03380068e-03,
          -2.47817393e-02, 3.17094661e-03, 2.25117803e-03,
          1.38285849e-03, -2.39273021e-03, -2.09072232e-02,
          -2.26155948e-02, 3.73196718e-03, -2.23417245e-02,
          -2.40511708e-02, -5.21669444e-03, -1.58343744e-02,
          -2.03009509e-02, 6.20210730e-03, -4.94057173e-03,
          -1.55365197e-02, 9.39728518e-04, -3.00352182e-02,
          1.48955698e-03, 2.59593744e-02, 2.33244058e-02, 7.87009392e-03,
          -7.31661078e-03, -3.63931060e-03, 4.29451279e-03,
          2.36452874e-02, 6.78847218e-03, -1.67716909e-02,
          1.55798923e-02, -1.05798966e-03, -1.81129891e-02,
          -2.64902133e-03, 1.25247594e-02, 3.53858899e-03,
          5.45284757e-03, 4.30206209e-03, 1.01245968e-02,
          -1.24485176e-02, -1.65861063e-02, -1.78983144e-03,
          2.29286756e-02, 1.49878776e-02, -1.09446598e-02,
          1.00293439e-02, 1.75409217e-03, -1.03832783e-04,
          -2.49590967e-02, -3.54616009e-02, -1.10127563e-02,
          -3.83325387e-03, -3.07847671e-02, -2.63201408e-02,
          -2.44595241e-02, -1.10103637e-02, 3.74271907e-02,
          2.44027507e-02, -8.80427565e-03, 4.02437197e-03,
          1.75807569e-02, 3.61512192e-02, 7.33747194e-03, 2.37925984e-02,
          -6.69306517e-03, 1.33632692e-02, 1.48915395e-03,
          -2.23476384e-02, -2.53452617e-03, -5.11957193e-03,
          -1.99728068e-02, -1.98501125e-02, -1.49951167e-02,
          1.08508370e-03, 1.33476676e-02, 3.79056646e-03,
          -2.64418102e-03, 2.50899568e-02, 3.03892139e-03,
          -1.59859955e-02, -4.00601747e-03, 1.02534695e-02,
          3.03528346e-02, 7.12023303e-03, 3.71983321e-03,
          -3.95036582e-03, 2.27211136e-02, -2.16854494e-02,
          -1.92805082e-02, -2.99527757e-02, -5.00623928e-03,
          6.08293759e-03, 1.27048828e-02, -1.34756835e-02,
          -1.22152502e-02, 3.09439618e-02, 1.44281713e-02,
          -8.92745983e-03, -6.78940956e-03, 2.86068418e-04,
          1.60912573e-02, -2.11781505e-02, -2.96877809e-02,
          -1.47555545e-02, -1.86486007e-03, -2.37071253e-02,
          -1.58002898e-02, -2.51460895e-02, -1.60759650e-02,
          -2.24085357e-02, 2.49960081e-04, 1.38068283e-02,
          -9.22546070e-03, 3.80646018e-03, 4.95853228e-03,
          -8.43254291e-03, -1.91387050e-02, -8.13820586e-03,
          -2.05047540e-02, -9.16175358e-03, 4.27964050e-03,
          -1.27738193e-02, -2.16808934e-02, -1.45900045e-02,
          1.58244856e-02, 1.38763420e-03, -1.42595172e-02,
          -2.82328706e-02, -1.72420107e-02, 8.50819983e-04,
          1.56705326e-03, 9.90854693e-04, -4.71161213e-03,
          -3.05186422e-03, 3.34110955e-04, 1.26540726e-02,
          -1.20661203e-02, -1.97521336e-02, -1.72396586e-03,
          -1.07566314e-02, -1.63320173e-02, -2.42476091e-02,
          -1.00982357e-02, 8.72562267e-03, 1.94350927e-04,
          -5.51902363e-03, -7.00354017e-03, 9.11581982e-03,
          1.27789006e-03, -3.42767686e-03, -1.57295875e-02,
          -4.60394332e-03, 1.40625890e-03, -4.67387633e-03,
          -2.40626559e-03, -1.14560826e-02, -6.19676011e-03,
          -1.01601495e-03, 7.47650955e-03, -2.01665778e-02,
          -1.96792968e-02, -6.69809012e-03, 1.50118140e-03,
          -3.53853242e-03, -1.62924733e-02, 2.13294159e-04,
          1.00885117e-02, -1.68521237e-03, -8.54692888e-03,
          -2.50501968e-02, 6.60129497e-03, 7.60664511e-03,
          1.65372062e-02, -1.02045359e-02, -1.53672844e-02,
          -1.45357382e-03, 1.13207065e-02, 2.87054316e-03,
          -1.00468025e-02, -1.48702227e-02, -2.07243152e-02,
          -4.25605942e-03, 6.30592089e-03, -5.84867783e-03,
          -1.44362273e-02, -1.05632823e-02, -5.27609000e-03,
          -9.23287217e-03, -2.07111072e-02, -6.95485389e-03,
          1.20560117e-02, 2.12903302e-02, -1.68635976e-02,
          -3.93732302e-02, -1.66970305e-02, -9.45059955e-03,
          -3.82367871e-03, -3.59195061e-02, -1.97501536e-02,
          -1.49093964e-03, 1.88922193e-02, 1.10469274e-02,
          9.55938129e-04, -1.68732018e-03, 7.75703555e-03,
          1.05092898e-02, -3.12483730e-03, 1.23282531e-02,
          9.83097777e-03, -1.24845095e-02, 9.01710987e-03,
          -1.92116052e-02, -2.04430446e-02, -1.44893676e-02,
          2.43537053e-02, -4.31018695e-03, 3.12152691e-02,
          -3.91606381e-03, -2.05220226e-06, -1.07199298e-02,
          -2.51425244e-02, -7.39397621e-03, -2.04822347e-02,
          -1.41965440e-02, -2.05776170e-02, -1.23195760e-02,
          -1.38502540e-02, -1.33577846e-02, -1.27652595e-02,
          1.08099841e-02, 7.38003897e-03, -2.91837845e-02,
          -7.39983423e-03, -1.87355243e-02, 4.77388501e-03,
          -2.01549996e-02, -1.10925529e-02, 5.70236519e-03,
          6.16694102e-04, -4.26539779e-03, 2.59834900e-03,
          7.18610268e-03, -1.20606693e-03, 3.14846039e-02,
          -4.93344711e-03, 7.93110859e-03, -1.82075799e-03,
          2.24667676e-02, 2.30255984e-02, 1.97544330e-04,
          -2.06362493e-02, -6.45851623e-03, 2.43878551e-03,
          8.81150365e-03, -8.58450122e-03, -8.66309833e-03,
          -1.57271640e-03, 1.29470229e-02, -1.82209685e-02,
          -4.67315363e-03, -1.47448601e-02, 1.28443092e-02,
          5.29418746e-03, -7.91299064e-03, -8.92552664e-04,
          -4.19132318e-03, -1.40016256e-02, -3.81202623e-02,
          -4.69512912e-03, 1.08654676e-02, -1.50399040e-02,
          -1.71680152e-02, 1.31512703e-02, 9.44846869e-03,
          1.64626278e-02, 1.78397931e-02, 3.90528585e-03,
          -2.52454891e-03, 5.15111722e-03, 1.10846693e-02,
          1.28213800e-02, -4.36771568e-03, 5.60075603e-03,
          6.30369084e-03, -7.23099802e-03, -1.47883268e-02,
          2.99693793e-02, 1.42444465e-02, -2.12956616e-03,
          -1.01481089e-02, -1.30108893e-02, -3.65294167e-04,
          5.06505789e-03, 3.75335058e-03, -8.91950633e-03,
          1.94229968e-02, 1.18378643e-02, -1.90651678e-02,
          -2.59375963e-02, -2.00214591e-02, -1.87954698e-02,
          -2.55615972e-02, -2.09931135e-02, -1.14836888e-02,
          -2.05265973e-02, -1.01375198e-02, -3.21473032e-02,
          -1.48613201e-02, 1.65198508e-04, 2.03631278e-02,
          3.07185221e-02, 1.30391028e-02, 6.77121384e-03, 4.47744466e-02,
          2.39704847e-02, 8.57109018e-03, -6.41805306e-03,
          3.94063303e-03, 9.69290792e-04, 3.91592365e-03,
          -1.38982181e-02, -1.28595261e-02, -1.14040934e-02,
          5.82921924e-03, -1.27387671e-02, -1.84322707e-02,
          -1.51035935e-02, 2.05137115e-02, 1.10282581e-02,
          1.47485863e-02, -2.52581784e-03, -3.78855616e-02,
          -2.90538892e-02, -1.22976000e-03, -4.96349763e-03,
          -1.16718663e-02, -1.33169862e-03, -2.91240658e-03,
          8.75703711e-03, -4.57449444e-03, -3.24760005e-02,
          -3.80447991e-02, -2.60321368e-02, -9.79001448e-03,
          9.83959902e-03, 1.40953679e-02, 1.45330243e-02, 1.40523119e-02,
          1.55147689e-03, -2.26121861e-02, -1.27028087e-02,
          4.26194863e-03, 8.97272397e-03, -6.41505327e-03,
          4.32379637e-03, 1.92184020e-02, 4.91773570e-03, 2.86700879e-03,
          -2.17373893e-02, -4.32154164e-02, -2.43127644e-02,
          -7.04815984e-03, 1.81949306e-02, 2.05988754e-02,
          -5.98859601e-03, 2.43044384e-02, -1.36605194e-02,
          -1.51479794e-02, -1.32997856e-02, 3.30282515e-03,
          2.29977090e-02, -1.25243915e-02, 4.10213554e-03,
          -1.39154708e-02, 1.20393690e-02, -3.11271679e-02,
          -3.34699489e-02, -2.70847208e-03, 1.61180161e-02,
          -1.10724615e-02, 3.48042441e-03, -1.65625440e-03,
          8.37453268e-03, 1.36544928e-02, -9.04901605e-03,
          1.31744780e-02, -9.99318715e-03, -1.21792089e-02,
          9.81033128e-03, -1.78855341e-02, -1.57782920e-02,
          -1.46034025e-02, -1.39843940e-03, -2.78932042e-02,
          8.64008980e-05, 2.50346139e-02, 1.14175240e-02,
          -1.04060974e-02, -4.86993929e-03, -1.86635170e-03,
          -1.92684513e-02, -3.20057548e-03, -2.85774320e-02,
          -1.67919807e-02, 8.84509238e-04, 1.36140846e-02,
          7.38159241e-03, -1.68354332e-03, 1.36676827e-03,
          3.62292328e-03, -2.55220919e-04, -2.01380067e-02,
          1.35550378e-02, 1.15942294e-02, 1.31555349e-02, 2.78344620e-02,
          -1.33431684e-02, -1.00978408e-02, -2.31758356e-02,
          -5.05679334e-03, -1.53263155e-02, 2.48364056e-03,
          1.45881018e-02, 2.47130613e-03, -1.36850020e-02,
          2.00401573e-03, 4.38207667e-03, -2.78373957e-02,
          3.14519415e-03, -7.22888624e-03, 1.40556721e-02,
          1.06254383e-03, 7.77828507e-04, 7.89862964e-03, 9.08024318e-04,
          9.15847020e-04, -5.42311354e-05, -1.23031605e-02,
          -4.86378558e-03, -1.62292849e-02, -3.02413735e-03,
          -5.36649162e-03, 2.33725719e-02, 4.59578335e-02,
          1.33680683e-02, -8.19231570e-03, -2.11246107e-02,
          2.32265461e-02, -7.88964331e-03, 1.42698572e-03,
          1.57570723e-03, 4.81426716e-02, 1.59686257e-03,
          -9.36425943e-03, -1.88597273e-02, -1.12788463e-02,
          8.78460240e-03, -1.39102992e-02, -7.33418856e-03,
          -1.03899725e-02, 1.81953842e-03, 4.28462476e-02,
          -2.26430409e-03, 2.08876692e-02, 1.08676916e-02,
          2.73163226e-02, -1.75319891e-02, -6.75763935e-03,
          -1.72063112e-02, 1.66020859e-02, 1.90857258e-02,
          -1.43407919e-02, -1.53403291e-02, 1.55467875e-02,
          1.98734235e-02, -2.29572356e-02, -1.62931215e-02,
          5.18953288e-03, 1.08688418e-02, 2.48489599e-03,
          -2.80434429e-03, 1.28126424e-02, 3.75476256e-02,
          3.77346687e-02, -8.38992745e-03, 1.97338685e-03,
          2.23510638e-02, 1.54645955e-02, 9.25928005e-04,
          -5.47659025e-03, -6.26956951e-03, -2.99217668e-03,
          1.69761442e-02, -6.44997507e-03, -2.08781697e-02,
          2.14884011e-03, -2.35993695e-02, -5.15950657e-03,
          1.34092651e-03, -9.93497763e-03, -5.78238489e-03,
          1.91167071e-02, -2.87723746e-02, -1.72361638e-02,
          2.68019829e-03, 5.00811636e-03, -7.34473870e-04,
          -1.82913523e-03, 2.96234828e-03, 2.89109480e-02,
          8.92992504e-03, -5.96982834e-04, -1.88987404e-02,
          3.87307559e-03, 2.41126157e-02, 7.35186692e-03,
          -6.06355723e-03, 9.65519994e-03, 1.14727383e-02,
          2.83802599e-02, -2.50933855e-03, -1.30798831e-03,
          1.09620839e-02, 3.42209004e-02, -2.35365648e-02,
          -5.48813445e-03, -1.20874057e-02, -5.62876789e-03,
          -1.18347453e-02, -1.59393195e-02, -4.06201221e-02,
          -2.84300800e-02, 4.52842005e-03, -2.46185460e-03,
          -2.24014930e-02, -2.75379214e-02, -1.73541941e-02,
          -1.55719351e-02, 3.19470605e-03, -7.94615317e-03,
          -2.42111143e-02, 1.42098377e-02, 1.57043058e-02,
          -1.35090447e-03, 9.04675666e-03, -2.87413318e-03,
          1.03412438e-02, -1.77375134e-02, -1.42383017e-02,
          -1.03594419e-02, 9.47563164e-03, 1.30086020e-02,
          2.31060721e-02, 1.02637867e-02, 4.24576178e-03, 1.36910994e-02,
          -6.79818215e-03, 2.26690900e-03, -2.81294296e-03,
          2.31456500e-03, 1.25467693e-02, -1.46907298e-02,
          -1.41706169e-02, -1.67090930e-02, -1.16324006e-02,
          -2.20866669e-02, -1.96246943e-03, -1.40783461e-02,
          1.82837788e-02, 9.22184531e-03, 7.11608818e-03, 1.26521802e-02,
          -1.84680428e-02, -1.90399941e-02, -1.89044140e-02,
          -3.47340567e-04, -7.92614464e-03, 1.92979667e-02,
          -2.24481411e-02, -2.01343615e-02, -2.10864116e-02,
          1.83845288e-03, 5.41617721e-03, 3.88663902e-04,
          -1.26206214e-02, 1.38540845e-03, 8.72294011e-04,
          -3.76599357e-02, -1.61783304e-02, -1.06353397e-02,
          1.42712295e-02, 5.41088730e-03, 1.21630384e-02, 7.66103063e-03,
          1.14542395e-02, 5.53314458e-04, -2.36066012e-03,
          -1.53138360e-04, 1.61121637e-02, 6.73765736e-03,
          -1.95020884e-02, -3.81554337e-03, -1.40495710e-02,
          -3.44825946e-02, -9.26303305e-03, 1.81887578e-02,
          1.87455602e-02, 2.30807159e-02, 1.47161726e-02,
          -1.72632169e-02, -1.42654972e-02, -1.21149030e-02,
          -1.32305045e-02, 2.54329816e-02, -2.93278974e-02,
          -4.09513060e-03, -5.99860214e-03, 1.92441070e-03,
          -2.45109689e-03, 3.52569972e-03, -1.26241648e-03,
          -9.46245529e-03, -3.11402101e-02, -2.08989121e-02,
          -5.17428992e-03, -7.25816935e-03, 9.21018794e-03,
          4.96926997e-03, 1.24697080e-02, -4.58548730e-03,
          -1.13228289e-02, -2.13085692e-02, 1.63842347e-02,
          2.65126955e-02, 1.92167349e-02, 1.12149701e-03,
          -1.95355024e-02, 5.61667094e-03, 1.77709870e-02,
          1.40444357e-02, 1.76784955e-02, 5.57244197e-03, 2.62811799e-02,
          -1.48702487e-02, 1.70572083e-02, -7.23134400e-03,
          1.96693502e-02, 2.06453335e-02, 2.91698240e-02, 7.02760555e-03,
          -1.17770350e-02, 6.60666451e-03, 1.82165690e-02,
          1.20684970e-02, 1.75749771e-02, 2.64920276e-02,
          -8.67775921e-03, -2.15230510e-02, -2.64277309e-02,
          -1.90453362e-02, -9.03878175e-03, 7.98778050e-03,
          -1.89617518e-02, -3.09699103e-02, -1.78887472e-02,
          -3.52672860e-02, -1.58153214e-02, -7.09257554e-03,
          -6.26777299e-03, 1.81045085e-02, -7.21495133e-04,
          2.27473229e-02, 8.16955511e-03, 1.30085461e-02, 1.88308973e-02,
          5.92469610e-03, -5.07740909e-03, -2.97234096e-02,
          2.58544683e-02, -5.93619607e-03, -1.33312773e-02,
          -4.11716029e-02, -2.04635356e-02, -1.60169825e-02,
          -7.86688365e-03, -4.11150325e-03, -1.00482744e-03,
          2.40822174e-02, 3.87890600e-02, 8.48062057e-03, 1.18179498e-02,
          9.56116896e-03, -1.16454894e-02, 4.53298492e-03,
          6.82444684e-03, -1.63321402e-02, 3.05192303e-02,
          3.35921417e-03, -3.12965438e-02, -1.00243958e-02,
          5.03825583e-03, -1.86955817e-02, 1.78703154e-03,
          -1.19952613e-03, 5.80271753e-03, 3.01386230e-02,
          4.05337662e-02, 1.58133805e-02, -1.75119340e-02,
          5.05726179e-03, -8.18941277e-03, 1.20804422e-02,
          1.95356812e-02, 4.11209092e-03, 1.65404659e-02, 1.22817568e-02,
          -3.13834511e-02, -3.18851285e-02, -2.89817881e-02,
          -8.66397377e-03, 1.31176673e-02, 2.16626143e-03,
          2.95601562e-02, 3.34642492e-02, -1.42607628e-03,
          -8.83222837e-03, 9.52630397e-03, 2.93876533e-03,
          1.61637610e-04, 2.88724639e-02, 1.92444567e-02, 3.76021699e-03,
          -3.10570141e-03, -1.73678976e-02, -3.24516150e-04,
          6.68048067e-03, -1.87864713e-02, -1.60680916e-02,
          -2.51289853e-03, -3.88866873e-03, 2.90795155e-02,
          2.64969878e-02, 1.95325892e-02, -6.82682544e-03,
          -2.08605826e-02, -2.46832184e-02, 9.51217394e-03,
          2.80132573e-02, 1.50148775e-02, 1.44678941e-02, 2.08143499e-02,
          -1.24925105e-02, -1.96625479e-03, -1.69629846e-02,
          -2.52207406e-02, -3.09598428e-04, -3.75779835e-03,
          -6.10571634e-03, -2.16291170e-03, -1.33441845e-02,
          -1.60797164e-02, 2.32270714e-02, 3.52171175e-02,
          -1.17040286e-02, -2.34667659e-02, -3.88886128e-03,
          -1.14423111e-02, -9.93005373e-03, -8.47303122e-03,
          3.66412406e-03, -2.98865279e-03, 2.74107326e-02,
          -1.45730376e-02, -8.88895523e-03, 1.15916198e-02,
          -1.86322499e-02, 2.99269147e-02, 3.31719518e-02,
          6.32788520e-03, 1.72515064e-02, 1.80759542e-02,
          -8.53481796e-03, 1.76757085e-03, 4.79370868e-03,
          7.87642319e-03, 3.86591665e-02, 4.17744778e-02, 9.48868599e-03,
          1.10296300e-03, 5.84232155e-03, -7.69366371e-03,
          -7.75159243e-03, 2.15584901e-03, -7.18204118e-03,
          -6.82971487e-03, 9.84306913e-03, 6.28830073e-03,
          -5.22902887e-03, -5.24101825e-03, -8.70219525e-03,
          8.92756600e-03, 7.93101732e-03, -1.29789300e-02,
          -2.11002771e-02, -7.87282770e-04, -1.35638108e-02,
          -1.62815377e-02, -2.95590702e-02, -1.68325435e-02,
          -6.90323394e-03, 5.16308798e-03, 6.22534240e-03,
          1.32922614e-02, 5.26178218e-02, -1.18575688e-03,
          6.74237264e-03, -5.19292708e-03, 5.77055058e-03,
          -6.32962771e-03, -1.22471396e-02, -2.11631861e-02,
          -3.04116914e-03, 3.07808612e-02, -1.13983648e-02,
          -5.27036795e-03, -3.33366357e-02, 1.74545590e-02,
          8.70948751e-03, 9.01529100e-04, 1.74286980e-02,
          -3.18520665e-02, -1.92744695e-02, -1.06639247e-02,
          -5.83701488e-03, -1.21267363e-02, -2.29093283e-02,
          -2.73947939e-02, -7.94823188e-03, 1.17508695e-02,
          -7.39324605e-04, -2.28933748e-02, -1.68646611e-02,
          1.50868241e-02, 1.63846463e-02, 5.26402472e-03,
          -1.66807510e-02, -3.51179317e-02, -1.50885275e-02,
          -1.62497312e-02, -1.41548086e-03, -1.86767299e-02,
          -4.22705663e-03, -3.06005916e-03, 2.93998551e-02,
          3.05901025e-03, -1.75307598e-03, -1.01952173e-03,
          1.90809201e-02, 2.43987385e-02, -5.44668874e-03,
          5.52867306e-03, 2.12938827e-03, 1.44178132e-02, 8.51498358e-03,
          -5.70271071e-03, -1.32024465e-02, 7.65722990e-03,
          -2.51193764e-03, -1.76782198e-02, -1.14996890e-02,
          1.11240475e-02, 5.57576073e-03, -5.63376024e-03,
          -6.45168498e-03, -1.40706068e-02, -1.96236838e-02,
          9.99217667e-03, -1.89146437e-02, -2.86705643e-02,
          -1.27707943e-02, 1.32072223e-02, -1.81315560e-02,
          3.64228804e-03, -1.72803272e-02, 8.76588654e-03,
          3.05536687e-02, -2.01479122e-02, -5.02793305e-03,
          -2.19299737e-02, 9.99605004e-03, 2.62431372e-02,
          1.77925359e-02, -2.82547139e-02, -1.42890681e-03,
          2.07280610e-02, -1.64997429e-02, 6.22098893e-03,
          -2.59979386e-02, 6.33267313e-03, 4.82003344e-03,
          8.92941747e-03, -2.72137346e-03, -3.41510661e-02,
          9.01733432e-03, -2.66344100e-02, -2.56471932e-02,
          5.06718690e-03, 1.04204305e-02, -2.05741916e-02,
          9.09349322e-03, -1.72194578e-02, -4.11459990e-02,
          -2.27305815e-02, -5.24664251e-03, 1.59928743e-02,
          -1.35920793e-02, -1.81868244e-02, -2.90486868e-02,
          -1.82498079e-02, -4.31285752e-03, -5.73475612e-03,
          3.32126953e-03, -1.63861532e-02, -5.69727598e-03,
          2.18656305e-02, 3.15819494e-02, 1.84766985e-02, 1.34248082e-02,
          -3.04248650e-03, -1.98794510e-02, -2.26514991e-02,
          -1.39662493e-02, 4.76136059e-03, 2.60867365e-02,
          1.75074227e-02, -4.21687588e-03, 8.98598786e-03,
          -1.39993215e-02, -9.17056482e-03, -5.75729879e-03,
          1.71371270e-03, 1.82224344e-02, -3.79230897e-03,
          -1.27356471e-02, -2.47550849e-02, -1.81846991e-02,
          -3.58993746e-03, -6.10517152e-03, 2.72820927e-02,
          4.95640142e-03, -1.11443838e-02, -4.99547273e-02,
          -1.19485362e-02, -1.53422095e-02, 2.94922292e-03,
          -4.11215201e-02, 2.46216264e-03, 3.99735698e-04,
          1.20417553e-03, -7.90858269e-03, 2.26188879e-02,
          1.70984883e-02, -1.57043785e-02, 1.17618991e-02,
          1.13837225e-02, 2.72410046e-02, 1.16453208e-02, 1.58209596e-02,
          1.32616330e-02, -6.95729954e-03, 1.65728703e-02,
          -4.05348511e-03, 2.41563804e-02, -5.13264863e-03,
          -2.09847279e-02, 1.54812559e-02, 3.11650045e-04,
          -7.91911315e-03, -1.87162086e-02, 3.42910527e-03,
          -1.80194003e-03, 1.45033384e-02, -2.28415746e-02,
          -2.95590628e-02, -3.84863019e-02, -2.47744322e-02,
          -2.75144465e-02, -2.72487365e-02, -1.00400234e-02,
          -8.41070153e-03, 1.36442613e-02, -2.10329778e-02,
          2.63055954e-02, 1.66087616e-02, -4.39859368e-03,
          5.86521020e-03, 2.60469876e-02, 2.86575351e-02, 6.89310906e-03,
          2.87999734e-02, 8.48958828e-03, -1.30342962e-02,
          -2.14188863e-02, -2.53207646e-02, -1.62538234e-02,
          1.69835892e-02, 2.35495120e-02, 2.99979444e-03, 3.07499710e-02,
          -2.53746174e-02, 7.95709726e-04, -1.32677304e-02,
          8.77586601e-04, 9.26988013e-03, -2.18931027e-02,
          5.79254562e-03, -5.19355759e-03, 1.60663184e-02,
          4.11450677e-03, -9.60337650e-03, 3.17477831e-03,
          -6.39474764e-03, 6.68052444e-03, -2.09154077e-02,
          -2.53391899e-02, -4.31385040e-02, -3.55018824e-02,
          -2.09039059e-02, 1.44361872e-02, -8.53121281e-03,
          1.00747915e-02, 3.21854725e-02, 1.87534175e-03, 2.11868063e-02,
          1.30229034e-02, 1.46112815e-02, -1.44518930e-02,
          -2.30584312e-02, -4.41264641e-03, -1.44435689e-02,
          1.28654223e-02, 9.99565702e-03, -1.83772331e-03,
          -1.60385743e-02, -1.91922840e-02, -3.69424224e-02,
          -1.23660930e-03, 3.63238365e-03, -1.89835380e-03,
          1.04729328e-02, -1.31038958e-02, -1.13582266e-02,
          -1.87586136e-02, -9.89156775e-03, 1.10784976e-03,
          -2.25782208e-02, -2.57601943e-02, -1.74689293e-02,
          1.59308910e-02, -2.91234050e-02, -2.44619418e-02,
          -7.55326590e-03, 1.12937894e-02, -5.20257372e-03,
          8.87929182e-03, 1.48119526e-02, 9.10708960e-03, 6.08643005e-03,
          -1.41804887e-03, -6.00974075e-03, -1.35997767e-02,
          7.01693911e-03, -2.64601852e-03, -1.89606193e-02,
          -9.18116793e-03, 6.77514868e-03, 3.40991430e-02,
          7.04896823e-03, -1.71939135e-02, -3.35022062e-02,
          -1.63826291e-02, -3.29816677e-02, -1.68099869e-02,
          -1.10713532e-02, -8.06238409e-03, 1.07309492e-02,
          -1.13277305e-02, 2.25861743e-03, 6.28333772e-03,
          -2.79829837e-03, -1.19367037e-02, 8.60562664e-04,
          3.71246925e-03, -1.14415037e-02, 3.57206748e-03,
          -1.67607069e-02, 1.67567767e-02, 1.07563091e-02,
          -6.72914041e-03, -9.92110092e-03, -1.25952642e-02,
          -1.83471274e-02, -1.30638601e-02, 1.04731470e-02,
          5.69358701e-03, -5.78943174e-04, -2.13593785e-02,
          -3.50152478e-02, -1.83357932e-02, -5.71303070e-03,
          -3.25233513e-03, -4.23366250e-03, 1.36645660e-02,
          -3.85070220e-03, -3.13540292e-03, 1.58477947e-02,
          -1.90164577e-02, -1.93637349e-02, 3.72735108e-03,
          -1.04590887e-02, -2.95140557e-02, -1.58968773e-02,
          -2.23090909e-02, 1.10094706e-02, 8.86620954e-03,
          -3.54762166e-03, -1.09992002e-03, 2.21567973e-02,
          -8.24909285e-03, 3.58438323e-04, 7.85576878e-04,
          -1.53764598e-02, -2.00871620e-02, -1.64162870e-02,
          -2.19043028e-02, 1.03538122e-03, 1.92801170e-02,
          -3.27485707e-03, -2.02776436e-02, 1.36390356e-02,
          1.61796715e-02, 7.59463641e-04, 1.85246170e-02,
          -1.54249091e-02, -2.01984588e-03, 2.74438225e-02,
          -7.74096407e-04, -9.99916904e-03, 4.66530072e-03,
          -4.88534337e-03, -1.78565308e-02, -1.92081351e-02,
          -3.00921444e-02, -3.39557277e-03, -8.74407310e-03,
          -2.26388103e-04, 1.38235046e-03, 2.19138362e-03,
          1.52361784e-02, 1.24394952e-03, -9.83431283e-03,
          5.30687859e-03, -5.19602932e-03, -9.34932940e-03,
          6.45119138e-03, 1.65065918e-02, -5.91110613e-04,
          2.64698155e-02, 7.12611713e-03, -2.62497761e-03,
          5.51048061e-03, 4.49826382e-03, 8.69117770e-03,
          -6.26683561e-03, -1.64405350e-02, -1.55913616e-02,
          1.88488495e-02, -1.51186530e-03, -3.54494830e-03,
          -8.34424107e-04, 3.43112722e-02, 1.08917123e-02,
          2.01511364e-02, -2.36970460e-04, -1.45182423e-02,
          2.22993866e-02, 3.67607549e-02, 1.51852397e-02, 8.99759587e-03,
          1.20317033e-02, -2.94673704e-02, 1.07228581e-03,
          -6.61098491e-03, -1.67546850e-02, 1.20933829e-02,
          6.05744543e-03, -1.58139728e-02, -1.40954982e-02,
          -7.42116477e-04, -3.67686938e-04, 2.73173046e-03,
          -8.82178638e-03, 2.07613409e-02, 2.81826034e-02,
          3.60708125e-02, 2.63578724e-02, -2.36788252e-03,
          -1.96205475e-03, -9.12093651e-03, 1.31786580e-03,
          -7.96217006e-03, -1.18770935e-02, 1.31770372e-04,
          1.14528174e-02, -2.50311638e-03, -9.55484994e-03,
          -1.65798180e-02, 6.39224937e-03, 1.10690044e-02,
          -1.54099416e-03, 1.64015114e-03, -7.52761494e-03,
          -2.24510208e-03, 1.08865760e-02, -1.29242020e-03,
          -6.26086909e-03, -2.37861765e-03, -1.58813763e-02,
          -1.09114768e-02, 6.03949279e-03, 3.90752079e-03,
          -1.50506692e-02, -8.59136693e-03, -1.96442213e-02,
          -2.35562753e-02, 5.38586173e-03, -5.35996398e-03,
          -1.73630379e-03, 1.19183930e-02, -2.07858887e-02,
          2.20657103e-02, -7.63040176e-03, -8.13811086e-03,
          -9.61587857e-03, 9.88771208e-03, -2.65452918e-03,
          -6.73521124e-03, 1.06336856e-02, 6.14453293e-03,
          -3.65007892e-02, -2.14242823e-02, -7.40393391e-03,
          -7.17327278e-03, 2.04152595e-02, 1.25940759e-02,
          -8.51873402e-03, 2.54462045e-02, -1.43709835e-02,
          1.10619208e-02, -1.42838573e-02, -1.87322274e-02,
          3.19292136e-02, -2.16072071e-02, 3.98277910e-03,
          1.19263725e-02, 2.94102430e-02, -1.41279977e-02,
          -4.11362061e-03, -3.23402099e-02, -3.17960344e-02,
          -3.82837430e-02, 5.89623535e-03, 3.74981761e-02,
          4.25046049e-02, 4.44182716e-02, -1.08809127e-02,
          -3.19513716e-02, -3.47267166e-02, -1.91964079e-02,
          -8.30192212e-03, 1.06442738e-02, 2.50375224e-03,
          5.57491032e-04, 4.63477485e-02, 2.18205415e-02, 1.91552117e-02,
          -1.27365002e-02, -3.19233164e-02, -1.50563754e-02,
          3.37238759e-02, 6.56101555e-02, 5.46015576e-02, 7.57480189e-02,
          1.31667312e-02, 1.44378077e-02, -9.47617460e-03,
          8.29639472e-03, 2.86448887e-03, 1.73489973e-02, 1.90482344e-02,
          2.73913983e-03, -1.58605501e-02, -3.18529792e-02,
          -2.88936663e-02, -3.43959369e-02, 2.90664751e-03,
          1.97627209e-02, -4.74787410e-03, 2.26634964e-02,
          2.22589076e-02, -1.35843055e-02, -2.79486384e-02,
          -3.17024998e-02, -7.22196745e-03, 2.64362749e-02,
          4.36681416e-03, 2.78426073e-02, 6.62878379e-02, 2.62323152e-02,
          1.86331011e-02, -1.00112269e-02, -2.51066894e-03,
          -1.79532934e-02, 2.69319322e-02, 2.07774024e-02,
          -3.67906247e-03, 5.01021668e-02, 5.29190786e-02,
          2.14953721e-02, 1.00154523e-02, -4.94698901e-03,
          1.73743609e-02, 5.42704500e-02, -5.95538458e-03,
          1.00420751e-02, 6.27511144e-02, 5.31152040e-02, 2.43476480e-02,
          6.74191630e-03, -8.69503058e-03, 8.40214733e-03,
          1.83007289e-02, -4.60195914e-03, 2.41060113e-03,
          6.49269074e-02, 3.31704551e-03, -2.38249078e-02,
          -5.00198044e-02, -5.47863655e-02, -5.36051989e-02,
          -1.89707223e-02, -1.31777907e-02, -1.54179344e-02,
          8.14128146e-02, 8.32934976e-02, 3.89503762e-02, 3.20185758e-02,
          1.05196433e-02, 3.25887054e-02, 4.11481671e-02,
          -1.70638766e-02, -2.88900323e-02, 5.49217425e-02,
          7.47509673e-03, -5.01420954e-03, -1.62770115e-02,
          -3.58633548e-02, -2.90643722e-02, -3.16102840e-02,
          -7.21247494e-02, 8.23640637e-03, 5.61661534e-02,
          2.94198766e-02, 1.60205793e-02, -2.06654426e-02,
          -4.13130224e-03, -6.50803233e-03, 2.19162609e-02,
          7.78391305e-03, -8.24567210e-03, 2.47027092e-02,
          1.11618275e-02, -2.11584326e-02, -3.85128595e-02,
          -2.87360679e-02, 9.07325558e-03, 9.98672936e-03,
          9.40039754e-03, -2.94801372e-04, 5.63439913e-02,
          2.10502669e-02, 3.48709151e-03, -2.12517194e-02,
          1.28489500e-02, 2.12365863e-04, -6.62641088e-03,
          -1.16589647e-02, -4.22559399e-03, 2.71406956e-02,
          -1.51387956e-02, -3.81887592e-02, -5.18268906e-02,
          -3.83322313e-02, -2.59530991e-02, -5.33103338e-03,
          2.73078820e-03, 1.86171494e-02, 1.85683016e-02, 6.29965216e-04,
          -1.61178205e-02, -3.85423489e-02, -2.33844314e-02,
          1.25433011e-02, 1.79660693e-02, 2.01738738e-02, 1.46514382e-02,
          2.38978937e-02, -5.09219803e-03, -6.65492611e-04,
          -3.32848020e-02, -8.81872885e-03, 4.16570343e-03,
          5.16164443e-03, 3.52242077e-03, 1.11174053e-02, 2.72321347e-02,
          -1.69405639e-02, -1.60411578e-02, -3.39978933e-02,
          -4.35873903e-02, -1.79889537e-02, 1.63812563e-02,
          1.30463867e-02, 2.27548624e-03, 4.06226469e-03,
          -8.96752253e-03, -8.60569254e-03, -2.51339767e-02,
          -3.11269015e-02, 4.03732713e-03, 2.54193065e-03,
          2.17013825e-02, 1.63831562e-02, 3.24577279e-02, 1.25846108e-02,
          6.89265877e-03, -3.57595645e-02, 3.80305154e-03,
          -2.55363015e-03, 1.22934422e-02, 1.92934312e-02,
          1.73707344e-02, 1.72949936e-02, -2.55930182e-02,
          -4.38344516e-02, -2.73103919e-02, -7.68599939e-03,
          -1.15758264e-02, 7.64150452e-03, -1.61656532e-02,
          8.24589952e-05, 1.55761801e-02, 5.46639226e-03,
          -3.01498524e-03, -2.21859496e-02, 2.70280940e-03,
          7.43465172e-03, 1.44550623e-02, 3.65242139e-02,
          -1.61131509e-02, 2.90026818e-03, -2.05391925e-02,
          -1.68373175e-02, 1.98914367e-03, -5.95875364e-03,
          -2.95619518e-02, 4.20022290e-03, -8.19850620e-03,
          2.04196442e-02, 2.98129227e-02, -8.50239396e-03,
          -2.14576777e-02, -2.67779436e-02, -3.35817831e-03,
          -1.34150274e-02, -1.88481028e-03, -6.90509193e-03,
          1.57386381e-02, 4.06645089e-02, -1.61029063e-02,
          -4.72835824e-02, -3.90434824e-02, -5.91830537e-03,
          -3.83933424e-03, 5.87219000e-03, 1.37514556e-02,
          9.44886450e-03, 2.66633704e-02, 4.41729964e-04, 1.41033539e-04,
          6.85794465e-03, 7.23744510e-03, -2.25293275e-04,
          2.11338862e-03, -1.67590640e-02, 3.33175808e-03,
          3.17363776e-02, -3.37581220e-03, -3.72888856e-02,
          4.49753716e-04, -9.18344874e-03, -1.40017485e-02,
          -1.28615228e-02, -1.39718885e-02, 3.76043282e-02,
          3.42772789e-02, -1.76864546e-02, -3.71756405e-02,
          -5.80800930e-03, 1.23569090e-02, -5.85449440e-03,
          8.94396286e-03, 9.46798269e-03, 4.35896441e-02, 4.69371974e-02,
          -1.67773329e-02, -1.74781196e-02, 2.37922762e-02,
          -2.45151552e-03, 6.62175985e-03, 9.02562309e-03,
          1.54702896e-02, 1.44658645e-03, 2.38130149e-02,
          -5.34063354e-02, -6.61043599e-02, -4.36648503e-02,
          -2.64307763e-02, 3.38166044e-03, 1.39297778e-02,
          -1.25264516e-02, 1.31938234e-02, 1.30323842e-02,
          -4.39211950e-02, -4.05751243e-02, -7.56211393e-03,
          -2.36792360e-02, -6.85768994e-03, 2.56801676e-02,
          -7.28557527e-04, 2.44586840e-02, 2.78142300e-02,
          -1.47464769e-02, -1.94688439e-02, -1.44251930e-02,
          -1.42065119e-02, 1.16206231e-02, 3.12960334e-02,
          5.14804153e-03, 3.34881917e-02, 2.04756148e-02, 4.04340914e-03,
          -2.63562091e-02, -2.41553858e-02, -2.48329360e-02,
          -9.73448902e-03, 1.72540674e-03, 5.42017631e-03,
          2.10345518e-02, 2.28419155e-02, -2.31231935e-02,
          -3.77407633e-02, -1.25354063e-02, -3.27533334e-02,
          -1.24536557e-02, 4.29877788e-02, 9.87534318e-03,
          3.96227464e-02, 2.85792574e-02, 3.16327848e-02,
          -5.37101477e-02, -4.79359999e-02, -3.18519063e-02,
          -1.86033417e-02, 1.24999229e-02, 4.01180983e-02,
          1.20909149e-02, 2.43811347e-02, -6.21897308e-03,
          -1.46390954e-02, -6.62716990e-03, 1.18558062e-02,
          -2.17980649e-02, 8.30542017e-03, -4.98042349e-03,
          8.44674464e-03, 1.90180056e-02, -7.15685077e-03,
          -4.95237019e-03, 8.23107827e-03, -1.75900734e-03,
          -2.40052044e-02, 1.32919038e-02, 4.31101816e-03,
          9.01563745e-03, 3.40274349e-02, 2.94044279e-02,
          -2.97822896e-02, -5.81000112e-02, -2.32093073e-02,
          -1.52895479e-02, -1.43102370e-03, 2.81391665e-02,
          3.15994397e-02, 4.19331305e-02, 1.16293635e-02,
          -1.01637216e-02, -2.71239895e-02, 8.87735398e-04,
          -5.03751123e-03, 9.34121432e-04, 3.22046466e-02,
          -8.16331338e-03, -7.30195874e-03, -2.09798873e-03,
          -2.32736599e-02, -1.84428059e-02, -2.06048582e-02,
          -4.26482335e-02, 7.26113096e-03, 1.91007639e-04,
          9.97543987e-03, 3.39591783e-03, 9.17918142e-03, 7.56906287e-04,
          -5.66612603e-03, -1.07588181e-02, -2.36414094e-02,
          1.83967613e-02, 8.87539610e-03, 2.22256389e-02, 2.51662955e-02,
          1.14170127e-02, -2.98312362e-02, -3.34651470e-02,
          -3.64201069e-02, -2.01356057e-02, 1.21410917e-02,
          2.61285529e-02, 1.23158274e-02, 2.06454806e-02, 3.19517367e-02,
          1.11273089e-02, 2.52198172e-03, -2.77533382e-02,
          -2.28651855e-02, 1.55618601e-02, 2.84808446e-02,
          7.90496171e-03, 2.24872772e-02, -3.17892525e-03,
          -7.21962657e-03, -9.10259725e-04, -3.22033768e-03,
          -1.54888351e-02, 3.48321581e-03, 2.14547459e-02,
          -4.56568263e-02, -1.80482063e-02, -2.39642970e-02,
          -1.53854061e-02, -1.93294801e-03, -1.95693914e-02,
          -7.15734065e-03, -2.81227119e-02, -3.73967439e-02,
          2.08647214e-02, 1.77963711e-02, 2.79433429e-02, 2.16743555e-02,
          -7.17894593e-03, -1.96957123e-02, -1.67191140e-02,
          -1.69562583e-03, 2.50752550e-02, -1.89189017e-02,
          -5.60009666e-03, -1.22145563e-02, 5.86720766e-04,
          8.82012676e-03, -5.64786140e-03, 4.14922880e-03,
          7.47957313e-03, -2.22751335e-03, -8.76745861e-03,
          -4.21253452e-03, 9.18817241e-04, 4.07390445e-02,
          1.59974787e-02, -2.12769415e-02, 1.10181617e-02,
          -8.60647392e-03, -3.13506797e-02, -4.13925722e-02,
          -3.08914259e-02, -3.29978690e-02, 1.37748444e-04,
          1.35898702e-02, -5.46001596e-03, -3.57766151e-02,
          -3.25058773e-02, -6.17526844e-02, 3.03326249e-02,
          5.08919954e-02, 2.82037444e-02, 3.90928462e-02, 5.29545993e-02,
          1.79338399e-02, 3.03472895e-02, 3.24218348e-02, 1.63569469e-02,
          -2.45105531e-02, -1.53286047e-02, -2.34945733e-02,
          1.04855653e-02, 1.97048336e-02, -3.61169485e-04,
          -1.71905849e-02, -1.37061160e-02, -4.45860364e-02,
          4.27101413e-03, 3.14153358e-02, 7.28777517e-03, 2.48344732e-03,
          -8.39319453e-03, 1.80960763e-02, 2.05476186e-03,
          2.56085470e-02, -1.10039758e-02, -3.59421819e-02,
          -3.29947192e-03, -9.10420436e-03, 7.80986436e-03,
          -2.62091886e-02, 1.30745247e-02, -1.12185371e-03,
          -3.69652291e-03, -2.68560592e-02, -1.38568664e-02,
          1.52148772e-02, -1.50044784e-02, 3.19403852e-03,
          -1.64684504e-02, 2.68687736e-02, 3.21528539e-02,
          3.46263796e-02, -2.09939741e-02, -3.80777940e-02,
          -1.80601180e-02, -3.85060608e-02, -2.48652194e-02,
          -3.04640867e-02, 1.40225561e-02, 1.72518399e-02,
          4.22271751e-02, -2.92638503e-02, 3.67086777e-03,
          -6.88607106e-03, 2.22660205e-03, -3.44882952e-03,
          -1.07668294e-02, 3.33810179e-03, -1.35302544e-04,
          -3.06670368e-02, 3.39969667e-03, 7.97585864e-03,
          -1.88354906e-02, -1.17956223e-02, 1.75264701e-02,
          5.40325884e-03, -4.32387087e-03, 1.19537758e-02,
          -2.72816010e-02, -5.64899761e-03, 7.86272984e-04,
          -9.23733599e-03, -1.10971071e-02, -1.62581429e-02,
          -5.50299045e-03, 2.02174820e-02, 1.73594113e-02,
          9.93394386e-03, 5.95244067e-03, 9.57855769e-03,
          -6.08096458e-03, 6.54314645e-03, 1.79335866e-02,
          9.09422711e-03, 7.40638562e-03, 4.55325050e-03,
          -1.21692512e-02, -1.24542341e-02, -2.81601329e-03,
          -1.39658423e-02, -1.21423351e-02, 1.64364520e-02,
          2.18829196e-02, -4.45056986e-03, 6.02653157e-03,
          -1.45914713e-02, -4.09859838e-03, -1.80668384e-03,
          -7.82431569e-03, -1.16219036e-02, 7.38682877e-03,
          1.20154093e-03, 5.60868345e-03, -1.37973418e-02,
          -2.04239301e-02, -8.44548270e-03, -6.73894444e-03,
          -2.77272128e-02, -1.29911425e-02, -3.88851669e-03,
          1.39096880e-03, -2.10698601e-03, -5.39282290e-03,
          -8.55022203e-03, -2.95748133e-02, -1.73278768e-02,
          -1.31433848e-02, -7.93702621e-03, 7.21106771e-03,
          2.65912176e-03, 8.40159133e-03, -2.28880649e-03,
          -7.79574597e-03, -2.27898154e-02, 1.84374563e-02,
          -7.14584626e-03, -3.45294848e-02, -2.64160372e-02,
          -7.01565109e-03, 5.51877171e-03, 9.07434989e-03,
          -3.06651858e-03, 2.91266888e-02, 1.18270954e-02,
          -3.88874137e-03, -2.88981944e-02, -1.36443647e-02,
          6.44289609e-03, 4.30161692e-02, 1.41911106e-02, 5.51221520e-03,
          1.58276986e-02, 2.70800721e-02, 9.14528791e-04,
          -1.58117674e-02, -9.67537798e-03, -4.94969683e-03,
          -8.85872543e-03, 5.91243012e-03, 3.38750728e-03,
          9.65082925e-03, 2.76134051e-02, 1.72060970e-02, 8.18571821e-03,
          1.71188335e-03, 1.21637760e-02, 5.28620044e-03, 2.33715456e-02,
          2.58925389e-02, 2.20184047e-02, -1.59255471e-02,
          -8.31725355e-03, -1.34593137e-02, -2.49398104e-03,
          5.83777530e-03, 1.47499768e-02, 1.11378953e-02, 5.17875713e-04,
          -3.51957791e-03, 5.62706543e-03, -1.50103550e-02,
          -1.13385897e-02, -1.14036333e-02, 1.04906177e-03,
          -1.38260126e-02, 1.37691228e-02, 6.52281940e-03,
          1.84127025e-03, -7.22360006e-03, 8.43946473e-04,
          3.42118111e-03, 1.22337565e-02, 1.10934032e-02,
          -1.64963456e-03, 1.89431608e-02, 1.38391182e-02,
          -5.48041193e-04, 1.83537789e-02, 1.65502913e-02,
          1.16490275e-02, -1.00459279e-02, 3.95306153e-03,
          -8.51994101e-03, 6.01391133e-04, 6.38492638e-03,
          1.96929462e-02, -7.04946369e-03, -3.60767394e-02,
          -3.45958471e-02, -1.01296613e-02, -5.80374803e-03,
          -3.05535793e-02, -3.54784019e-02, -2.19033007e-02,
          1.86474645e-03, 9.44282208e-03, 2.53036362e-03,
          -1.57114991e-03, 4.87728752e-02, 2.79698502e-02,
          2.50404347e-02, -1.09883361e-02, -1.80525798e-02,
          1.29026948e-02, 2.73840176e-03, -1.42229525e-02,
          -2.88813934e-02, -2.32134908e-02, -2.99769832e-04,
          -1.85429808e-02, -2.13860124e-02, -1.32044088e-02,
          5.74449683e-03, -1.18694188e-04, -8.32662545e-03,
          5.67087252e-03, 3.36951613e-02, 3.63315754e-02, 3.18289846e-02,
          4.64234920e-03, 8.67256429e-03, 1.12761483e-02, 6.94388570e-03,
          -1.07995952e-02, -1.10450899e-02, 2.85653770e-02,
          1.56859644e-02, 1.73993688e-02, -1.63932182e-02,
          -1.55903855e-02, -1.47075085e-02, 2.14726683e-02,
          5.81215359e-02, 3.41729559e-02, 3.85510735e-02,
          -2.95316544e-03, 3.79490145e-02, 2.76982095e-02,
          3.34412232e-02, 6.14738883e-03, -3.06064505e-02,
          -3.13302763e-02, -1.53713711e-02, 2.08051018e-02,
          2.03346759e-02, 8.42611585e-03, -1.76654588e-02,
          -2.20331810e-02, -2.01577432e-02, 1.41306361e-02,
          3.32325548e-02, 1.38829108e-02, 3.18165645e-02, 7.33537134e-03,
          2.65753809e-02, 5.40119074e-02, 4.34680656e-02, 2.30904892e-02,
          1.79694779e-02, 5.21992631e-02, 2.29737349e-02,
          -1.73625397e-03, -3.26159522e-02, 2.01646388e-02,
          2.92880479e-02, 4.60972190e-02, 1.71599910e-03,
          -2.48547308e-02, 3.47209126e-02, 3.44773382e-02,
          1.10450806e-02, -2.57932208e-02, 1.55218011e-02,
          4.26674411e-02, 3.29688936e-02, -2.31812131e-02,
          1.43706463e-02, 4.75076400e-02, 2.17965413e-02, 6.57386938e-03,
          -2.11209413e-02, 2.10282691e-02, 3.14394310e-02,
          6.14890493e-02, 4.44809459e-02, -2.65022274e-02,
          2.90691610e-02, 3.72753404e-02, 1.69166215e-02,
          -4.38056886e-02, 1.92691591e-02, 3.96571420e-02,
          3.23520787e-02, -1.65958460e-02, -3.95790823e-02,
          6.46682978e-02, 6.47784621e-02, 6.23733141e-02, 1.99773367e-02,
          3.38901468e-02, 5.32373711e-02, 4.29162383e-02,
          -2.99510378e-02, -7.00475052e-02, 1.17262928e-02,
          7.94426259e-03, 6.40893122e-04, -3.14954133e-03,
          -2.54009645e-02, 1.04416870e-02, -7.72290723e-03,
          -6.94674775e-02, -1.43119590e-02, 5.04473187e-02,
          5.77976480e-02, 5.03159389e-02, 7.69624813e-03, 4.70056534e-02,
          7.58460239e-02, 6.15983158e-02, -4.11608256e-02,
          -6.25521243e-02, -1.09257875e-02, 1.20752119e-02,
          4.12259338e-04, -3.94532830e-03, -1.72230154e-02,
          2.45007090e-02, 1.15833301e-02, -7.23808780e-02,
          -3.07635665e-02, 1.58904493e-02, 1.03646098e-02,
          -3.21900588e-03, -2.05403119e-02, 4.80950903e-03,
          2.09685378e-02, 1.25884786e-02, -2.66257171e-02,
          -2.56732851e-02, -5.47561143e-03, -2.40780804e-02,
          -2.12720446e-02, -5.37213013e-02, -2.73958091e-02,
          -1.87614355e-02, -3.77213419e-03, -9.87915043e-03,
          -1.98627524e-02, 1.40651939e-02, 1.87999904e-02,
          4.24818182e-03, -2.34832931e-02, -1.25269713e-02,
          1.14270477e-02, 2.37322766e-02, -3.21372561e-02,
          1.06966924e-02, -6.62100152e-04, -2.12932136e-02,
          -8.96623172e-03, -6.07844889e-02, -2.38458216e-02,
          -1.61834471e-02, -4.80781682e-03, -2.61822585e-02,
          -2.82957163e-02, -2.27769446e-02, -1.32830450e-02,
          1.23974560e-02, -4.40289453e-03, -1.56085780e-02,
          -1.23950429e-02, -4.52371081e-03, -2.21748129e-02,
          -3.47473212e-02, -2.10080091e-02, -7.53841712e-04,
          -5.30646183e-03, -6.16819039e-03, -2.51487214e-02,
          1.94914755e-03, 6.47114310e-03, -3.62999626e-02,
          1.90405105e-03, -2.75219511e-03, -4.15619649e-03,
          1.33377593e-02, -2.88844109e-03, -5.82353957e-03,
          -1.18626365e-02, -1.80858783e-02, -5.82580455e-03,
          -1.76367648e-02, 8.56519304e-03, 1.66429970e-02,
          -1.86873805e-02, -9.37765650e-03, -2.73392927e-02,
          -2.05533709e-02, -2.70917546e-02, -3.01047862e-02,
          -2.33409908e-02, -5.19902585e-03, -1.23347668e-03,
          3.80495703e-03, 1.16890417e-02, 3.74319893e-03, 1.69164769e-03,
          9.47387144e-03, -2.29587276e-02, -4.76233587e-02,
          -2.46379375e-02, -2.28702407e-02, 1.11498907e-02,
          -8.09430610e-03, -3.08116293e-03, -1.82399377e-02,
          -4.84993262e-03, -4.83820550e-02, -2.33938750e-02,
          9.94287059e-03, 4.26015258e-03, -7.59156980e-03,
          9.85275954e-03, -5.37943700e-03, -1.25924079e-02,
          -2.33708974e-02, -2.33712178e-02, -4.48248126e-02,
          -1.57992169e-02, -1.56587455e-02, -1.86518912e-04,
          -7.71065708e-03, 1.82205345e-02, -1.54467747e-02,
          -3.46785299e-02, -3.93318124e-02, -2.79671885e-02,
          -2.01429911e-02, -9.93358810e-03, 1.66258179e-02,
          1.07268980e-02, 7.68727716e-03, -8.30748398e-03,
          -1.25613399e-02, -2.54422296e-02, -1.57911051e-02,
          -2.86761159e-03, -2.73811202e-02, -8.50475277e-04,
          2.94389203e-02, 1.48741924e-03, -3.17517594e-02,
          -3.91346216e-02, -4.00098898e-02, -2.47474313e-02,
          -1.55475289e-02, -1.33802346e-03, 1.08738169e-02,
          1.21487945e-03, 2.16090642e-02, 1.64556922e-03,
          -2.12680176e-02, -3.17474641e-02, -3.23945135e-02,
          -1.96472909e-02, 1.15481007e-03, -8.31113290e-03,
          2.05257498e-02, 1.52074713e-02, -3.31549346e-02,
          -2.09136866e-02, -2.85504758e-02, -1.54210301e-02,
          1.49414763e-02, -2.06957497e-02, -2.86400430e-02,
          6.67413091e-03, -5.09248208e-03, -1.57557856e-02,
          2.46815998e-02, 8.36459082e-03, -1.18275350e-02,
          7.12430943e-03, -2.27771997e-02, -1.95700694e-02,
          3.36447395e-02, -2.42419112e-02, -1.73644796e-02,
          1.81196481e-02, -1.56489741e-02, 1.01283826e-02,
          3.20667289e-02, -1.14294551e-02, -3.83779332e-02,
          -1.92629099e-02, -1.91277731e-02, -1.97680183e-02,
          7.26072676e-03, -1.62722450e-02, -4.85569285e-03,
          2.20402405e-02, -1.67545043e-02, -2.60060877e-02,
          1.76815614e-02, -1.74203068e-02, -1.88428611e-02,
          1.11412816e-02, -1.06303836e-03, -3.20506841e-03,
          3.48702632e-02, -5.31951757e-03, -2.74037141e-02,
          7.27218529e-03, -1.82039645e-02, -6.51174271e-03,
          4.27761450e-02, -7.36351358e-04, 1.31278243e-02,
          3.86780836e-02, 3.25433761e-02, -4.85052243e-02,
          -3.30574177e-02, -3.03468015e-02, 8.41957238e-03,
          5.50365113e-02, 2.88052019e-02, 2.01436714e-03, 3.20726931e-02,
          2.99641700e-03, -2.81584840e-02, 3.48340557e-03,
          -7.02828262e-03, 1.68524997e-03, 2.67000534e-02,
          7.98819866e-03, 1.96024831e-02, 5.61564192e-02, 2.89104320e-02,
          -2.63615195e-02, -2.33231317e-02, -5.37500829e-02,
          1.94388796e-02, 6.33180933e-03, 2.73455996e-02, 2.00483296e-02,
          3.74888480e-02, 3.21158469e-02, -2.42879987e-02,
          -2.85655335e-02, -2.93632634e-02, 1.24409050e-03,
          4.42719795e-02, 2.15990040e-02, 2.18894985e-02, 3.75552624e-02,
          -1.92136038e-03, -1.12922536e-02, -2.59619895e-02,
          1.42790051e-03, -1.30653684e-03, 1.87185053e-02,
          2.08081882e-02, 1.25298202e-02, 4.58984636e-02, 1.80536285e-02,
          -1.48535017e-02, -2.99584549e-02, -4.47975621e-02,
          2.59294920e-02, 3.83311100e-02, 4.81385775e-02, 6.92275679e-03,
          2.44898237e-02, 1.92765472e-03, -3.23635235e-04,
          -1.25308642e-02, -2.45129708e-02, -2.08279560e-03,
          4.50305715e-02, 2.91327629e-02, 6.21777400e-03, 2.79525742e-02,
          5.64928260e-03, -2.07047518e-02, -2.02789847e-02,
          -1.72314756e-02, -1.31027810e-02, 1.81225222e-02,
          1.33221056e-02, 1.20566748e-02, 2.69481950e-02, 2.48262249e-02,
          4.31058928e-03, -4.13800403e-03, -3.41733098e-02,
          3.90957436e-03, 2.51231845e-02, 1.86746530e-02, 2.25958247e-02,
          1.60799604e-02, -3.90546105e-04, -1.35921687e-02,
          -1.50200352e-02, -3.11592780e-02, -1.52325975e-02,
          2.32648775e-02, 1.05219139e-02, 3.77253108e-02, 3.18196751e-02,
          2.31368914e-02, -9.64186434e-03, -7.57909473e-03,
          -1.59487780e-02, 9.81317461e-03, 2.60442421e-02,
          1.66311115e-02, -3.19845378e-02, -7.89031480e-03,
          2.28016730e-03, 2.41562184e-02, -1.41940266e-02,
          -1.48900216e-02, -1.37381097e-02, -4.40460490e-03,
          -5.04619814e-03, -4.44999970e-02, -5.32707712e-03,
          -2.17731316e-02, 6.72620395e-03, 5.93377510e-03,
          2.86581391e-03, 5.67062572e-03, 9.56789963e-03,
          -1.98992863e-02, 1.52111510e-02, 7.55264563e-03,
          -1.74168299e-03, 1.01774111e-02, -3.86953098e-03,
          9.18263104e-03, 1.27165532e-02, -9.39997938e-03,
          -1.57872234e-02, -1.84862949e-02, 1.10398931e-02,
          2.70872936e-03, 7.91057665e-03, 3.03194802e-02, 1.30134840e-02,
          1.34126842e-02, -2.23919307e-03, -4.63106632e-02,
          -3.41368001e-03, 3.29942144e-02, 2.23004706e-02,
          2.81896126e-02, 3.50604951e-02, 3.99846882e-02, 2.03718282e-02,
          1.71011128e-02, 3.87622789e-03, -4.95133586e-02,
          -3.36184762e-02, -2.38323342e-02, 1.59582514e-02,
          -9.12679825e-04, 5.91794727e-03, -1.49010206e-02,
          -3.33341025e-02, -4.66561504e-02, 7.33826123e-03,
          2.34928280e-02, 2.85123549e-02, 3.65314819e-02, 6.64553121e-02,
          5.01672663e-02, 3.72951776e-02, 3.19963954e-02, 6.80525228e-03,
          -4.91651297e-02, -3.33766192e-02, -1.28763048e-02,
          6.06088433e-03, -2.35837675e-03, -7.31593696e-04,
          -2.55022813e-02, -3.75288166e-02, -5.21671697e-02,
          -5.52821998e-03, 1.92581266e-02, 1.15356669e-02,
          3.61792594e-02, -4.16451599e-03, 3.42956074e-02,
          4.07746471e-02, 2.18892042e-02, -1.59567862e-03,
          -1.38603356e-02, 1.20818859e-03, -2.80827489e-02,
          -2.54281815e-02, -2.62735374e-02, 4.05495148e-03,
          -1.69785926e-03, 4.11640853e-02, -2.82960129e-03,
          -7.45419366e-03, 2.28446629e-02, 1.86224487e-02,
          2.94058155e-02, -4.98985639e-03, 2.45670751e-02,
          1.07483156e-02, 3.23574315e-03, -3.77229298e-03,
          -1.07322121e-02, 1.95486564e-02, -5.91626856e-03,
          -9.60902951e-04, -2.07175519e-02, -2.62242015e-02,
          -4.02522348e-02, 1.63760153e-03, -2.93907057e-03,
          6.14743633e-03, -5.41754346e-03, -1.25296917e-02,
          -1.61262453e-02, -1.99279394e-02, 1.97569318e-02,
          -5.29235089e-03, 1.86407547e-02, 9.09791235e-03,
          1.20397666e-02, -1.07050762e-02, 1.29414313e-02,
          -2.86152150e-04, 1.09056651e-03, 1.73903033e-02,
          -3.69534106e-03, -1.42663792e-02, 8.84577259e-03,
          1.02248564e-02, 1.27467532e-02, -1.57478254e-03,
          1.41194938e-02, -1.75676644e-02, 3.67717119e-03,
          -1.73349530e-02, 3.18586710e-03, 7.02557061e-03,
          -2.83148489e-03, -9.66467988e-03, 2.03934014e-02,
          1.33066103e-02, 4.08626441e-03, 2.87529379e-02, 9.18986648e-03,
          -1.97998248e-02, -1.15613767e-03, 1.25587815e-02,
          -1.92314275e-02, 3.18017346e-03, -1.61806382e-02,
          -7.20700389e-03, -8.48779641e-03, -8.30121152e-03,
          1.20800338e-03, 4.79990197e-03, 1.61648020e-02,
          -5.40838484e-03, 5.06581785e-03, -1.60225062e-03,
          -1.69123877e-02, -4.70493734e-03, 2.29517855e-02,
          1.78338084e-02, -3.97329684e-03, -6.97087590e-03,
          -1.22969383e-02, 5.33979945e-03, 2.44774693e-03,
          -6.54459931e-03, -1.26201762e-02, -7.05011236e-03,
          -2.77935211e-02, -1.15397479e-02, 9.91776958e-03,
          -3.47977341e-03, 1.47316009e-02, 1.94198627e-03,
          -1.36204110e-02, -7.85273686e-03, 3.54992272e-03,
          -4.37267171e-03, -3.01536551e-04, 1.74676757e-02,
          1.41213192e-02, 7.96622317e-03, 9.19876155e-03, 1.87975951e-02,
          -9.15067177e-03, -8.37620255e-03, -1.06907142e-02,
          -6.26623584e-03, 1.48468520e-02, 2.40709167e-02,
          2.11494043e-02, 1.86754446e-02, 2.89672781e-02, 4.70123347e-03,
          1.15021679e-03, 2.28711609e-02, 1.44766541e-02, 1.61933042e-02,
          1.72043052e-02, -2.80589378e-03, 7.97824934e-03,
          4.61176597e-03, 5.30214282e-03, -8.00248818e-04,
          -1.18611101e-02, 2.15635672e-02, 1.09295044e-02,
          1.85068231e-02, 2.71906983e-03, 3.74063617e-03, 2.30927914e-02,
          1.41552801e-03, 3.73014365e-03, 7.88878929e-03, 2.07858789e-03,
          -4.47631394e-03, 1.00848619e-02, 6.00964995e-03,
          1.45091629e-02, 1.20596224e-02, -4.16770857e-03,
          -1.44555466e-02, 6.99760299e-03, 3.92716238e-03,
          4.07792768e-03, 8.29914398e-03, 3.34659521e-03,
          -1.41609402e-03, -5.22325234e-03, -5.66127012e-03,
          -1.11858314e-02, 2.81709526e-03, 4.51878179e-03,
          9.49222667e-05, -1.19960867e-02, -1.95093490e-02,
          7.85917044e-03, 1.15044843e-02, -1.28587196e-02,
          -1.44894598e-02, 1.90001279e-02, -1.18883289e-02,
          3.38496896e-03, -1.35921603e-02, 2.85748648e-03,
          2.85443068e-02, 1.73675120e-02, 1.27431247e-02,
          -5.59596205e-03, 6.42173644e-03, -1.63424201e-03,
          1.40078031e-02, -1.22625483e-04, -2.41559520e-02,
          -2.06963513e-02, 1.48702960e-03, -4.37756116e-03,
          -9.09300637e-04, 9.32365563e-03, 1.29178688e-02,
          8.24968051e-03, -2.51120143e-02, -1.96125079e-02,
          2.27728020e-02, 5.55113563e-03, 1.70839895e-02, 1.04412669e-02,
          4.24739756e-02, 3.84404212e-02, 1.03584975e-02,
          -8.18643626e-03, -1.94178503e-02, -6.97945803e-03,
          -2.92899180e-02, -7.14406464e-03, -1.28556006e-02,
          -8.52356106e-03, -2.15729652e-03, -2.64024921e-02,
          -1.49263879e-02, -1.82055514e-02, 9.20407474e-03,
          -1.34735126e-02, -1.05389599e-02, -1.19229043e-02,
          1.08042927e-02, 1.54642034e-02, -2.86867693e-02,
          -4.37775478e-02, -1.92910861e-02, 2.06287727e-02,
          2.45436728e-02, 3.28528322e-02, -3.77738907e-04,
          1.69195011e-02, 1.04814698e-03, -2.23366171e-03,
          2.69672107e-02, 2.02768110e-02, 3.52739580e-02, 2.56407298e-02,
          8.23396221e-02, 4.90794182e-02, 4.41340432e-02, 2.10747626e-02,
          -5.30389138e-02, -4.10588309e-02, -3.45256403e-02,
          1.54769875e-03, -8.25645775e-03, 7.32917432e-03,
          3.98972887e-04, 3.79116368e-03, -1.03944289e-02,
          -1.06673688e-02, 5.46735292e-03, -2.08543185e-02,
          -2.32049264e-02, -1.16612706e-02, 3.80493365e-02,
          3.01411394e-02, 2.93824747e-02, 2.17144284e-02, 2.10034270e-02,
          2.89069973e-02, 1.05171865e-02, 1.05518233e-02, 2.84681120e-03,
          4.45490032e-02, 2.87448484e-02, 4.69899997e-02, 2.67551858e-02,
          2.07187771e-03, 5.00210449e-02, 2.58643217e-02, 1.12843504e-02,
          -3.05648465e-02, 3.39166597e-02, 5.63292764e-02,
          4.51427922e-02, 7.67551782e-03, 1.20930215e-02, 9.22028255e-03,
          -1.01675214e-02, -2.59013716e-02, -2.56159455e-02,
          -4.87825880e-03, 3.69054638e-03, 9.11468081e-03,
          1.83632839e-02, 2.94983340e-03, 3.36065739e-02, 1.38837285e-02,
          -2.41703149e-02, -5.57973161e-02, -1.45540722e-02,
          2.25904044e-02, 1.52918417e-02, -1.13328565e-02,
          -2.97781546e-03, 5.04895933e-02, 1.96189564e-02,
          1.12444814e-02, 2.01828615e-03, 4.12262715e-02, 8.08840320e-02,
          8.05133507e-02, -4.50948905e-03, -4.42875847e-02,
          -6.31443365e-03, -3.00541632e-02, -4.05297950e-02,
          -3.52189653e-02, 1.20156938e-02, 4.02764641e-02,
          6.00051582e-02, -2.85898745e-02, 1.82930427e-03,
          3.26563157e-02, -2.35798513e-03, -1.71214808e-02,
          -1.78798176e-02, 1.78224389e-02, 6.08518906e-02,
          6.68780059e-02, 6.68743718e-03, 3.32077499e-03, 1.19081233e-02,
          -5.75396344e-02, -4.74198982e-02, -5.12857139e-02,
          -2.29398198e-02, 1.85456574e-02, 4.76014651e-02,
          -1.49360141e-02, -3.89612117e-03, 7.67603517e-03,
          -5.47528919e-03, -8.99142306e-03, -3.56897414e-02,
          9.00152698e-03, 4.09077667e-02, 5.63159138e-02,
          -2.89782160e-03, 2.04010624e-02, 1.44041730e-02,
          -7.85388052e-03, -2.20490005e-02, -5.68859838e-02,
          -2.26934887e-02, -1.59794725e-02, 1.05968677e-02,
          -9.64875706e-03, 5.79092419e-03, 2.96175312e-02,
          -1.65274832e-02, 2.52713985e-03, 3.21295956e-04,
          1.51693216e-02, 2.78724823e-02, 3.51122767e-02,
          -2.48382654e-04, 7.12677371e-03, 1.90039538e-02,
          3.45089175e-02, 3.44538689e-03, -1.95348095e-02,
          -4.18819115e-03, 5.39703015e-03, 2.86375103e-03,
          3.28086200e-03, 1.56685635e-02, 2.22267937e-02,
          -2.33465945e-03, -2.24051196e-02, -3.46297696e-02,
          -1.07219927e-02, -8.98805913e-03, 3.65315862e-02,
          1.77999511e-02, 3.51923401e-03, 2.32710857e-02,
          -6.62153121e-04, -3.97506803e-02, -3.69478501e-02,
          -1.21283028e-02, -6.19758561e-04, 2.46860116e-04,
          -4.75904252e-03, 1.82792097e-02, 2.77621858e-02,
          3.03795212e-03, -2.48172395e-02, -4.65726554e-02,
          -2.31554136e-02, -4.39874223e-03, 2.31709704e-02,
          1.83472093e-02, -1.15030177e-03, 2.07535569e-02,
          -6.90350775e-03, -2.93848813e-02, -4.21574563e-02,
          -1.65181197e-02, -2.59621441e-03, 2.53759492e-02,
          3.26239876e-02, 2.60889605e-02, 3.31724957e-02, 2.26030685e-03,
          -1.49403373e-03, -1.58144664e-02, 6.65855827e-03,
          1.39435511e-02, 6.06375700e-03, -7.51242880e-03,
          2.74537713e-04, 3.25605110e-03, -1.06172590e-02,
          -3.51505238e-03, -1.82847716e-02, -4.62832488e-03,
          8.43510777e-03, 6.69209426e-03, -2.91000195e-02,
          2.48160288e-02, 1.38248391e-02, 8.89728835e-04,
          -9.75988526e-03, -2.00311951e-02, 1.22675509e-03,
          2.66594831e-02, 3.63243446e-02, 1.07846158e-02,
          -5.32876235e-04, 1.19693403e-03, -4.90379380e-03,
          -1.75548699e-02, -1.36202248e-02, -3.94706093e-02,
          -1.61243044e-02, 2.31740251e-02, 1.51199317e-02,
          -2.37508677e-02, -1.63295642e-02, 8.19955859e-03,
          5.44077903e-03, -4.86546801e-03, 9.60314553e-03,
          5.14949253e-03, 2.31567565e-02, -1.09343149e-03,
          -3.83594893e-02, -1.82906631e-02, -8.78485385e-03,
          -1.17747793e-02, -4.14595380e-03, -1.83116812e-02,
          -1.85514130e-02, 3.27557581e-03, -3.86607158e-03,
          1.39635997e-02, -6.81053475e-03, -1.97538566e-02,
          -2.56106537e-03, -1.08826999e-02, -2.00064983e-02,
          -1.13546541e-02, 4.21908535e-02, 3.87888029e-02,
          2.78509893e-02, 8.30029417e-03, -9.01440717e-03,
          -2.80037988e-03, -3.06969024e-02, -2.33664773e-02,
          -2.86214519e-02, 3.52470130e-02, 4.47685719e-02,
          -1.48590915e-02, 1.93929095e-02, -5.62156877e-03,
          -4.10110652e-02, -4.04776633e-02, -4.33345251e-02,
          -2.95815226e-02, 1.28599489e-02, 3.72629124e-03,
          -1.42683908e-02, 2.71487925e-02, -9.32357833e-03,
          -2.14650612e-02, -5.56444097e-03, -4.64502908e-02,
          -3.79227214e-02, 1.32506732e-02, 5.99461561e-03,
          1.79953352e-02, 1.48207322e-02, 1.24396691e-02,
          -1.44472299e-03, -9.50429309e-03, -1.88119728e-02,
          -3.27599682e-02, 2.84452569e-02, 3.82335782e-02,
          -2.55272957e-03, 9.13867843e-05, 2.11532768e-02,
          -1.22863725e-02, 1.43894264e-02, -4.51004021e-02,
          -3.83434892e-02, 2.62272079e-02, 4.11346629e-02,
          -1.28467614e-02, 2.05300804e-02, -6.55630277e-03,
          -3.37167867e-02, -1.12185413e-02, -2.94488631e-02,
          -8.71274248e-03, 2.19773408e-02, 2.32202373e-02,
          2.60455981e-02, -9.46652435e-04, -1.14795780e-02,
          -4.14606184e-02, -4.55981232e-02, -5.60875349e-02,
          1.73760895e-02, 1.24726063e-02, 2.83914842e-02,
          -6.83924742e-03, -8.22837465e-03, -1.00217769e-02,
          -4.65528071e-02, -1.59410611e-02, -3.15139070e-02,
          -1.63255204e-02, 2.77217589e-02, 3.86814699e-02,
          1.36270272e-02, -2.95096673e-02, -4.26797830e-02,
          -6.51687756e-02, -1.53884580e-02, -1.74963865e-02,
          6.01333193e-03, 1.56177683e-02, 3.39422710e-02, 2.57570241e-02,
          4.22786782e-03, 2.27464107e-03, -7.06284307e-03,
          -1.71918813e-02, -3.93486992e-02, 2.87917852e-02,
          4.18795310e-02, 1.32144447e-02, 3.24798785e-02, 1.58619899e-02,
          -5.82728814e-03, 1.88829983e-03, -5.25916182e-03,
          -2.40344983e-02, 7.38607533e-03, 4.11030762e-02,
          1.84856169e-02, 2.39895377e-03, -1.79161392e-02,
          -2.55872197e-02, -1.00942319e-02, 9.57536697e-03,
          -1.56890489e-02, -9.41603351e-03, 1.20687298e-02,
          9.66206007e-03, -1.06809810e-02, -1.05517022e-02,
          -3.01432982e-02, 1.47816194e-02, 6.43252535e-03,
          -9.32740793e-03, -2.64204610e-02, 6.68979809e-03,
          4.93921898e-03, 4.03122939e-02, 1.84281208e-02,
          -9.15522035e-03, -1.79184303e-02, -1.77080147e-02,
          -2.36811154e-02, 1.13144023e-02, 3.66181619e-02,
          2.95211822e-02, 4.97157536e-02, 3.09097450e-02, 6.38711033e-03,
          -7.23371562e-03, -5.53684030e-03, -2.07541860e-03,
          3.54685299e-02, 3.87127511e-02, 2.56807506e-02,
          -2.84735765e-03, -1.73175838e-02, -4.72049266e-02,
          -1.31889116e-02, -1.45529630e-02, -9.79086477e-03,
          -4.26052092e-03, 6.70047756e-03, -8.49904306e-03,
          2.89175194e-03, 2.62609404e-02, -1.29102226e-02,
          1.34283095e-03, -6.94544613e-03, 3.17875354e-04,
          9.91185289e-03, 2.07332335e-02, 4.45375964e-03, 1.86862964e-02,
          1.81901138e-02, 1.88882705e-02, 1.78465750e-02,
          -4.13068244e-03, 2.23684460e-02, 3.31353880e-02,
          2.68094726e-02, 9.36042517e-03, -8.38064402e-03,
          6.55473955e-03, 1.24045145e-02, 7.33373920e-03, 1.92336515e-02,
          2.44129300e-02, -3.99778970e-03, -1.86236706e-02,
          -1.59043614e-02, 6.87658088e-03, 1.62034761e-02,
          2.26067752e-03, 1.99058820e-02, -9.56454221e-03,
          -1.35188643e-02, -2.32313517e-02, 1.54843070e-02,
          -8.31451546e-03, -3.22839245e-02, -9.32795554e-03,
          -5.59179019e-03, 1.49616413e-03, 7.30895728e-04,
          4.80255578e-04, -2.98963115e-02, -2.63030734e-02,
          -2.65143532e-02, 3.08294650e-02, 3.92197594e-02,
          3.74190211e-02, 2.23132391e-02, 7.89117962e-02, 4.11340669e-02,
          1.58802774e-02, 2.85269301e-02, 2.04192996e-02,
          -2.07967572e-02, -1.19633675e-02, -1.44464569e-02,
          3.73581680e-03, -1.52714550e-04, -4.58828174e-04,
          -2.68798601e-02, -3.02438047e-02, -3.84411216e-02,
          5.42592350e-03, 8.13634787e-03, 1.30044539e-02, 1.81219121e-03,
          3.90916802e-02, 3.17925438e-02, 2.15505692e-03, 1.63923367e-03,
          3.00063286e-03, -3.56163681e-02, -1.68411564e-02,
          -1.87210627e-02, -5.87312563e-04, 2.13054987e-03,
          -1.89441498e-02, -4.15203497e-02, -3.93067300e-02,
          -4.53894436e-02, -7.92480912e-03, 1.07257450e-02,
          7.83477328e-04, 1.14410371e-02, -5.39488858e-03,
          4.98500187e-03, -1.72186214e-02, -2.87698465e-03,
          -1.84307788e-02, -2.10614316e-02, 1.46807265e-02,
          1.78616997e-02, 6.22504670e-03, -2.21777577e-02,
          -2.27742698e-02, -4.53293547e-02, -2.15070751e-02,
          -2.12213323e-02, -8.92376620e-03, 1.76513102e-02,
          -1.11414436e-02, 2.25012377e-02, -1.46540748e-02,
          7.74641149e-03, 6.98521314e-03, 2.07350478e-02,
          -8.96309037e-03, -2.32401341e-02, -1.00392262e-02,
          1.29006375e-02, 3.69652845e-02, 1.68141928e-02, 2.10438240e-02,
          -5.17820055e-03, 1.08770709e-02, -2.75700074e-02,
          -4.28029150e-03, 2.13496760e-03, 7.63805956e-03,
          -2.86988332e-03, -3.21059376e-02, -6.44372450e-03,
          -1.90862808e-02, -3.56975966e-03, -1.19941672e-02,
          -2.53066365e-02, -2.42946595e-02, 2.55861902e-03,
          7.33466865e-03, -6.10490795e-03, 2.19682027e-02,
          -7.61921983e-04, -1.48495836e-02, -4.67944844e-03,
          -9.68042016e-03, -1.87576637e-02, 1.44694280e-02,
          1.41719878e-02, 1.51094096e-03, 1.58278439e-02,
          -3.70990555e-03, 9.92147904e-03, -3.94527195e-03,
          -1.95961203e-02, -2.07917448e-02, 2.49057710e-02,
          4.71613137e-03, -1.19921763e-03, 1.88498944e-02,
          -1.15655176e-02, -1.56098604e-02, 5.68336714e-03,
          -2.79811490e-02, -1.59334410e-02, -6.10539783e-03,
          -5.42819826e-03, -1.53242471e-02, -1.17277736e-02,
          -1.70507301e-02, -3.47919539e-02, -1.04599455e-02,
          -2.57854164e-03, -1.90916490e-02, -8.96048360e-03,
          3.56310629e-03, -8.60970840e-03, -2.99764285e-03,
          -2.07914859e-02, -2.69093178e-02, -9.60304309e-03,
          -5.54353744e-03, -1.30685633e-02, 9.25451890e-03,
          -7.41469720e-03, 6.14213012e-03, 1.78522766e-02,
          -5.17918309e-03, -1.22489352e-02, 1.90506433e-03,
          1.55869182e-02, -1.72801148e-02, -8.36418662e-03,
          9.54694860e-03, 2.35727876e-02, 8.06442741e-03,
          -8.84239748e-03, 9.57592763e-03, 1.30704846e-02,
          -6.55372953e-03, -7.22197257e-03, -2.28812806e-02,
          -2.98905093e-03, 9.23427287e-03, 1.11246947e-02,
          -7.70027284e-03, -1.25707909e-02, 1.01421261e-02,
          1.08869374e-02, 1.53319743e-02, -1.28119737e-02,
          -9.74403229e-03, 1.97041277e-02, 2.12727245e-02,
          -8.63586459e-03, -8.45114887e-03, -3.89615679e-03,
          1.52474483e-02, -1.61339983e-03, 3.89517820e-03,
          5.18329733e-04, 5.92260575e-03, 2.54412368e-02,
          -1.46799441e-02, -1.92976892e-02, 2.49400996e-02,
          1.61639825e-02, 1.06722396e-02, -8.76343547e-05,
          -4.78177331e-03, 2.04421040e-02, 5.36751337e-02,
          9.78343189e-03, -1.25251450e-02, 2.23671217e-02,
          -4.80712671e-03, -2.78563965e-02, -2.76400484e-02,
          1.10799132e-03, 2.33886279e-02, 1.63160581e-02,
          -5.77813154e-03, -3.23175150e-03, -1.94934364e-02,
          2.29558181e-02, -2.83692796e-02, -2.36830264e-02,
          6.14461629e-03, -1.08779082e-02, 7.41085177e-03,
          -9.08015389e-03, -1.49467774e-02, -1.45727452e-02,
          -8.39001220e-03, -8.29097722e-03, -1.54940570e-02,
          2.82906578e-03, 7.77908228e-03, 4.17828932e-02,
          -6.20920956e-03, -1.58249661e-02, -1.19140949e-02,
          2.62728110e-02, 1.25048952e-02, -6.80744974e-03,
          6.21732557e-03, 1.79307777e-02, 3.65916006e-02, 1.99187011e-03,
          -2.08854470e-02, -3.80910910e-03, 2.65891459e-02,
          -1.76724661e-02, -2.54560877e-02, -1.15340892e-02,
          -2.72418130e-02, -4.55724867e-03, -1.68729853e-02,
          -1.47698680e-02, 1.18861599e-02, -5.34748891e-03,
          -2.74075917e-03, 6.00869535e-03, 1.31126512e-02,
          -1.09126577e-02, -2.69875620e-02, -7.99088832e-03,
          -9.88309257e-05, 4.75739175e-03, 1.82396900e-02,
          -1.30049372e-02, -1.54118650e-02, -1.42845111e-02,
          7.99146201e-03, 8.83491524e-03, -3.76623985e-03,
          -1.47027941e-02, 2.15494931e-02, -1.51084336e-02,
          -2.55481130e-03, 1.17928153e-02, 4.15354548e-03,
          8.13704799e-04, 7.62649361e-05, -4.42689564e-03,
          1.93869490e-02, 1.04249911e-02, -2.01280732e-02,
          -1.98516231e-02, -1.77716147e-02, 1.79388076e-02,
          9.00463667e-03, 2.10756669e-03, 1.42562576e-02, 8.54865089e-03,
          -5.18349465e-03, 2.58261226e-02, -6.13174168e-03,
          5.82464971e-04, -8.03513080e-03, 4.22047451e-04,
          1.70362405e-02, 3.57217602e-02, 2.48437747e-02, 1.87556241e-02,
          -1.16338246e-02, -1.20682213e-02, -1.90546252e-02,
          -3.70800612e-03, 5.86910360e-03, -5.51607809e-04,
          -1.82716753e-02, -5.02824597e-03, -1.86834633e-02,
          -2.69147009e-03, -9.90469567e-03, 7.39400461e-03,
          -1.19127510e-02, 1.92396357e-04, -1.13027282e-02,
          -2.43992768e-02, -1.07511440e-02, -2.54086349e-02,
          1.96887162e-02, 1.17707560e-02, 2.57377550e-02, 1.66809428e-02,
          6.38237735e-03, 8.37256201e-03, 1.61848683e-02, 1.82219539e-02,
          3.26932245e-03, 8.94218311e-03, 3.83407362e-02, 4.47952189e-02,
          2.08666362e-02, -3.98451550e-04, 4.69320314e-03,
          -1.12127885e-02, 1.56599432e-02, -1.80196296e-02,
          -3.32754254e-02, -2.62209419e-02, -2.80195405e-03,
          3.38618737e-03, 7.31956400e-03, -9.09501407e-03,
          -1.12652117e-02, 2.52247788e-03, -2.34549437e-02,
          -1.47028631e-02, -1.29843252e-02, -8.57237913e-03,
          -8.47878866e-03, 2.09507942e-02, 9.59224347e-03,
          1.58302113e-03, 1.93668287e-02, 3.32471263e-03, 1.02057131e-02,
          2.39921138e-02, 1.56425610e-02, 1.02887638e-02, 1.42188324e-02,
          2.29124762e-02, 9.68661997e-03, 1.13039827e-02,
          -1.87737327e-02, 2.20685033e-03, 1.03884786e-02,
          -2.68314704e-02, -9.52892099e-03, -2.83589326e-02,
          -1.63782407e-02, 8.20059422e-03, 2.18415521e-02,
          -2.98924893e-02, -2.25447677e-02, -2.02642288e-02,
          -2.36151461e-02, 1.63015886e-03, 2.90272925e-02,
          1.46640679e-02, 1.63928736e-02, 1.37309060e-02,
          -1.01975240e-02, -3.06311855e-03, -9.85873770e-03,
          -3.00842579e-02, -1.21729774e-02, -1.76069774e-02,
          -1.65138151e-02, 1.90865286e-02, 4.85459995e-03,
          -1.35598108e-02, -3.08030774e-03, 1.91941559e-02,
          -2.09036693e-02, 7.75407767e-03, 6.43212907e-03,
          -5.25433337e-03, 3.52450274e-02, 2.08629481e-02,
          -1.41780758e-02, 2.34507723e-03, 1.39888069e-02,
          2.59029865e-03, -1.33799680e-03, -9.92586557e-03,
          -2.34411731e-02, 6.84361532e-03, 1.08773205e-02,
          -1.38905097e-03, -4.88332845e-03, -6.57418324e-03,
          -7.67646497e-03, 3.26834037e-04, 2.20743101e-03,
          -9.47124138e-03, 2.91823503e-02, 1.76795945e-02,
          -1.51679274e-02, -1.78819094e-02, 8.60597473e-03,
          -1.11236712e-02, 4.96429065e-03, -1.71313304e-02,
          -4.38010730e-02, -1.76808238e-03, 2.09379569e-02,
          -2.42010970e-02, 1.95837673e-02, 3.27931456e-02,
          5.25844982e-03, 5.93974441e-03, -9.40746255e-03,
